machine,0,1,2,3,4,5,6,7,8,9,10,11,12,13,14,15,16,17,18,19,20,21,22,23,24,25,26,27,28,29,30
Quartz,0.45007977,0.51266557,1.6240631,1.3218427,-0.1306315,-0.6702246,0.20574065,0.02243449,0.62883234,0.4207439,0.5798191,-0.5857649,-0.085785784,0.39651757,0.537351,1,7111111,46305556,11166667,98944450,1722222.2,1666666.6,83333.336,83333.336,6.25,26038076,26638960,525.05554,30141.916,11777778,1
Quartz,0.45007977,0.51266557,1.6240631,1.3218427,-0.1306315,-0.6702246,0.20574065,0.02243449,0.62883234,0.4207439,0.5798191,-0.5857649,-0.085785784,0.39651757,0.537351,1,12416667,73916664,17916666,165555550,1750000,2388889,83333.336,83333.336,9.152778,38292890,26702312,525.05554,30141.916,11916667,0.7507508
Quartz,0.45007977,0.51266557,1.6240631,1.3218427,-0.1306315,-0.6702246,0.20574065,0.02243449,0.62883234,0.4207439,0.5798191,-0.5857649,-0.085785784,0.39651757,0.537351,1,21527778,120250000,29166666,277444450,2472222.2,3583333.2,138888.89,111111.11,22,58800010,26588580,525.05554,30141.916,11750000,0.79951984
Quartz,0.45007977,0.51266557,1.6240631,1.3218427,-0.1306315,-0.6702246,0.20574065,0.02243449,0.62883234,0.4207439,0.5798191,-0.5857649,-0.085785784,0.39651757,0.537351,1,34333332,185222220,44916668,434333340,2833333.2,5250000,138888.89,111111.11,19,87480030,26651084,525.05554,30141.916,12694444,0.7144082
Quartz,0.45007977,0.51266557,1.6240631,1.3218427,-0.1306315,-0.6702246,0.20574065,0.02243449,0.62883234,0.4207439,0.5798191,-0.5857649,-0.085785784,0.39651757,0.537351,1,50722224,268611100,65166668,635722240,3055555.5,7444444.5,166666.67,111111.11,5.0555553,124326590,26606524,525.05554,30141.916,12750000,0.7501876
Quartz,0.45007977,0.51266557,1.6240631,1.3218427,-0.1306315,-0.6702246,0.20574065,0.02243449,0.62883234,0.4207439,0.5798191,-0.5857649,-0.085785784,0.39651757,0.537351,1,15583333,99138890,23166666,211944450,3472222.2,3388889,166666.67,194444.44,11.291667,53147028,53375364,525.05554,30141.916,23694444,0.666
Quartz,0.45007977,0.51266557,1.6240631,1.3218427,-0.1306315,-0.6702246,0.20574065,0.02243449,0.62883234,0.4207439,0.5798191,-0.5857649,-0.085785784,0.39651757,0.537351,1,31833334,175833330,39388890,392861120,3527777.8,4972222,166666.67,222222.22,15.027778,81357430,53461720,525.05554,30141.916,23305556,0.7144082
Quartz,0.45007977,0.51266557,1.6240631,1.3218427,-0.1306315,-0.6702246,0.20574065,0.02243449,0.62883234,0.4207439,0.5798191,-0.5857649,-0.085785784,0.39651757,0.537351,1,59111110,303944450,66388890,695000000,4527778,7555555.5,250000,222222.22,9.555555,128256376,53200544,525.05554,30141.916,24777778,0.6361157
Quartz,0.45007977,0.51266557,1.6240631,1.3218427,-0.1306315,-0.6702246,0.20574065,0.02243449,0.62883234,0.4207439,0.5798191,-0.5857649,-0.085785784,0.39651757,0.537351,1,97388890,483472220,104250000,1118444400,5222222,11111111,250000,222222.22,12.222222,194015100,53270868,525.05554,30141.916,26027778,0.75
Quartz,0.45007977,0.51266557,1.6240631,1.3218427,-0.1306315,-0.6702246,0.20574065,0.02243449,0.62883234,0.4207439,0.5798191,-0.5857649,-0.085785784,0.39651757,0.537351,1,146222220,713750000,152805550,1661611100,6750000,15805556,361111.12,222222.22,8.527778,278577000,53176580,525.05554,30141.916,26277778,0.7645605
Quartz,0.45007977,0.51266557,1.6240631,1.3218427,-0.1306315,-0.6702246,0.20574065,0.02243449,0.62883234,0.4207439,0.5798191,-0.5857649,-0.085785784,0.39651757,0.537351,1,3361111,22305556,5500000,47611110,861111.1,833333.3,27777.777,27777.777,12.402778,12862180,13461422,525.05554,30141.916,4388889,0.666
Quartz,0.45007977,0.51266557,1.6240631,1.3218427,-0.1306315,-0.6702246,0.20574065,0.02243449,0.62883234,0.4207439,0.5798191,-0.5857649,-0.085785784,0.39651757,0.537351,1,5500000,33666668,8527778,75638890,916666.7,1166666.6,27777.777,55555.555,6.3194447,18540896,13417601,525.05554,30141.916,4750000,1
Quartz,0.45007977,0.51266557,1.6240631,1.3218427,-0.1306315,-0.6702246,0.20574065,0.02243449,0.62883234,0.4207439,0.5798191,-0.5857649,-0.085785784,0.39651757,0.537351,1,8861111,52361110,13583333,121611110,1027777.75,1750000,27777.777,27777.777,14.625,28034570,13403595,525.05554,30141.916,5222222,1
Quartz,0.45007977,0.51266557,1.6240631,1.3218427,-0.1306315,-0.6702246,0.20574065,0.02243449,0.62883234,0.4207439,0.5798191,-0.5857649,-0.085785784,0.39651757,0.537351,1,13638889,78555550,20666666,186138900,1194444.5,2555555.5,55555.555,55555.555,15.180555,41330944,13505054,525.05554,30141.916,5388889,0.7507508
Quartz,0.45007977,0.51266557,1.6240631,1.3218427,-0.1306315,-0.6702246,0.20574065,0.02243449,0.62883234,0.4207439,0.5798191,-0.5857649,-0.085785784,0.39651757,0.537351,1,19805556,112333336,29777778,269333340,1222222.2,3583333.2,55555.555,55555.555,13.680555,58454700,13503800,525.05554,30141.916,6611111,0.6002401
Quartz,0.45007977,0.51266557,1.6240631,1.3218427,-0.1306315,-0.6702246,0.20574065,0.02243449,0.62883234,0.4207439,0.5798191,-0.5857649,-0.085785784,0.39651757,0.537351,1,4250000,43416668,8500000,79888890,1722222.2,1333333.4,83333.336,55555.555,12.972222,25978650,26698372,525.05554,30141.916,11750000,0.666
Quartz,0.45007977,0.51266557,1.6240631,1.3218427,-0.1306315,-0.6702246,0.20574065,0.02243449,0.62883234,0.4207439,0.5798191,-0.5857649,-0.085785784,0.39651757,0.537351,1,9722222,71194450,15250000,147027780,1750000,2055555.5,83333.336,55555.555,15.125,38264744,26719690,525.05554,30141.889,11805556,1
Quartz,0.45007977,0.51266557,1.6240631,1.3218427,-0.1306315,-0.6702246,0.20574065,0.02243449,0.62883234,0.4207439,0.5798191,-0.5857649,-0.085785784,0.39651757,0.537351,1,18833334,117555550,26500000,258972220,2250000,3277777.8,111111.11,55555.555,7.0972223,58744544,26646448,525.05554,30141.902,12416667,1
Quartz,0.45007977,0.51266557,1.6240631,1.3218427,-0.1306315,-0.6702246,0.20574065,0.02243449,0.62883234,0.4207439,0.5798191,-0.5857649,-0.085785784,0.39651757,0.537351,1,31638888,182500000,42250000,415805570,2777777.8,4916666.5,138888.89,83333.336,12.652778,87460620,26671234,525.05554,30141.902,12944444,0.666
Quartz,0.45007977,0.51266557,1.6240631,1.3218427,-0.1306315,-0.6702246,0.20574065,0.02243449,0.62883234,0.4207439,0.5798191,-0.5857649,-0.085785784,0.39651757,0.537351,1,47972224,265861100,62500000,617138900,3138889,7111111,138888.89,83333.336,15.722222,124297130,26630040,525.05554,30141.902,12750000,0.85763294
Quartz,0.45007977,0.51266557,1.6240631,1.3218427,-0.1306315,-0.6702246,0.20574065,0.02243449,0.62883234,0.4207439,0.5798191,-0.5857649,-0.085785784,0.39651757,0.537351,1,10138889,93638890,17861112,174777780,3472222.2,2722222.2,166666.67,138888.89,5.861111,53147536,53223600,525.05554,30141.902,23888888,0.79951984
Quartz,0.45007977,0.51266557,1.6240631,1.3218427,-0.1306315,-0.6702246,0.20574065,0.02243449,0.62883234,0.4207439,0.5798191,-0.5857649,-0.085785784,0.39651757,0.537351,1,26472222,170472220,34083332,356027780,3527777.8,4305555.5,166666.67,138888.89,12.263889,81298856,53468116,525.05554,30141.902,23583334,0.833
Quartz,0.45007977,0.51266557,1.6240631,1.3218427,-0.1306315,-0.6702246,0.20574065,0.02243449,0.62883234,0.4207439,0.5798191,-0.5857649,-0.085785784,0.39651757,0.537351,1,53805556,298666660,61083332,658361100,4638889,6888889,250000,138888.89,18.98611,128324800,53079524,525.05554,30141.902,24500000,0.7773333
Quartz,0.45007977,0.51266557,1.6240631,1.3218427,-0.1306315,-0.6702246,0.20574065,0.02243449,0.62883234,0.4207439,0.5798191,-0.5857649,-0.085785784,0.39651757,0.537351,1,91944450,477916670,98944450,1081111200,5416666.5,10444444,250000,138888.89,6.0277777,194051920,53279896,525.05554,30141.902,25500000,0.833
Quartz,0.45007977,0.51266557,1.6240631,1.3218427,-0.1306315,-0.6702246,0.20574065,0.02243449,0.62883234,0.4207439,0.5798191,-0.5857649,-0.085785784,0.39651757,0.537351,1,141027780,708527800,147583330,1625055600,6444444.5,15138889,305555.56,166666.67,20.833334,278622660,53198950,525.05554,30141.902,26722222,0.7645605
Quartz,0.45007977,0.51266557,1.6240631,1.3218427,-0.1306315,-0.6702246,0.20574065,0.02243449,0.62883234,0.4207439,0.5798191,-0.5857649,-0.085785784,0.39651757,0.537351,1,2027777.8,20972222,4166666.8,38416668,861111.1,666666.7,27777.777,27777.777,14.5,12872818,13456811,525.05554,30141.916,4305555.5,0.666
Quartz,0.45007977,0.51266557,1.6240631,1.3218427,-0.1306315,-0.6702246,0.20574065,0.02243449,0.62883234,0.4207439,0.5798191,-0.5857649,-0.085785784,0.39651757,0.537351,1,4250000,32444444,7222222,66666668,916666.7,1000000,0,27777.777,9.111111,18580790,13372210,525.05554,30141.902,4500000,0.666
Quartz,0.45007977,0.51266557,1.6240631,1.3218427,-0.1306315,-0.6702246,0.20574065,0.02243449,0.62883234,0.4207439,0.5798191,-0.5857649,-0.085785784,0.39651757,0.537351,1,7472222,50944444,12250000,112222220,1027777.75,1583333.4,27777.777,27777.777,15.694445,28047422,13349764,525.05554,30141.902,5138889,1
Quartz,0.45007977,0.51266557,1.6240631,1.3218427,-0.1306315,-0.6702246,0.20574065,0.02243449,0.62883234,0.4207439,0.5798191,-0.5857649,-0.085785784,0.39651757,0.537351,1,12333333,77250000,19333334,177027780,1166666.6,2388889,55555.555,27777.777,16.444445,41322060,13547838,525.05554,30141.902,5555555.5,0.7507508
Quartz,0.45007977,0.51266557,1.6240631,1.3218427,-0.1306315,-0.6702246,0.20574065,0.02243449,0.62883234,0.4207439,0.5798191,-0.5857649,-0.085785784,0.39651757,0.537351,1,18472222,110972220,28444444,260111100,1194444.5,3416666.8,55555.555,27777.777,18.73611,58414170,13376750,525.05554,30141.902,6444444.5,1
Quartz,0.45007977,0.51266557,1.6240631,1.3218427,-0.1306315,-0.6702246,0.20574065,0.02243449,0.62883234,0.4207439,0.5798191,-0.5857649,-0.085785784,0.39651757,0.537351,1,10333333,69027780,16666667,147111100,2611111,2500000,138888.89,166666.67,15.444445,38982380,40003116,525.05554,30141.916,17583334,0.79951984
Quartz,0.45007977,0.51266557,1.6240631,1.3218427,-0.1306315,-0.6702246,0.20574065,0.02243449,0.62883234,0.4207439,0.5798191,-0.5857649,-0.085785784,0.39651757,0.537351,1,18527778,110722220,26805556,247805550,2611111,3611111,138888.89,166666.67,8.263889,57388884,40122776,525.05554,30141.916,18388888,0.79951984
Quartz,0.45007977,0.51266557,1.6240631,1.3218427,-0.1306315,-0.6702246,0.20574065,0.02243449,0.62883234,0.4207439,0.5798191,-0.5857649,-0.085785784,0.39651757,0.537351,1,32194444,180277780,43666668,415750000,3361111,5416666.5,194444.44,166666.67,23.972221,88105970,40015440,525.05554,30141.916,18333334,0.833
Quartz,0.45007977,0.51266557,1.6240631,1.3218427,-0.1306315,-0.6702246,0.20574065,0.02243449,0.62883234,0.4207439,0.5798191,-0.5857649,-0.085785784,0.39651757,0.537351,1,51388890,277638880,67305550,650916700,4111111,7888889,222222.22,166666.67,15.097222,131111384,39967596,525.05554,30141.916,18944444,0.7773333
Quartz,0.45007977,0.51266557,1.6240631,1.3218427,-0.1306315,-0.6702246,0.20574065,0.02243449,0.62883234,0.4207439,0.5798191,-0.5857649,-0.085785784,0.39651757,0.537351,1,75916664,402750000,97666664,952972200,5027778,11166667,277777.78,166666.67,13.708333,186412940,40095916,525.05554,30141.916,19388888,0.72722316
Quartz,0.45007977,0.51266557,1.6240631,1.3218427,-0.1306315,-0.6702246,0.20574065,0.02243449,0.62883234,0.4207439,0.5798191,-0.5857649,-0.085785784,0.39651757,0.537351,1,23111112,148333330,34638890,316750000,5222222,5083333.5,277777.78,333333.34,11.777778,79680090,80107010,525.05554,30141.916,34972224,0.7501876
Quartz,0.45007977,0.51266557,1.6240631,1.3218427,-0.1306315,-0.6702246,0.20574065,0.02243449,0.62883234,0.4207439,0.5798191,-0.5857649,-0.085785784,0.39651757,0.537351,1,47666668,263638900,58972224,588750000,5333333.5,7444444.5,277777.78,333333.34,6.736111,121952640,80311980,525.05554,30141.916,36000000,0.72722316
Quartz,0.45007977,0.51266557,1.6240631,1.3218427,-0.1306315,-0.6702246,0.20574065,0.02243449,0.62883234,0.4207439,0.5798191,-0.5857649,-0.085785784,0.39651757,0.537351,1,88555550,455777800,99500000,1041861100,7027778,11333333,388888.88,333333.34,16.13889,192423220,79811780,525.05554,30141.916,37416668,0.76915973
Quartz,0.45007977,0.51266557,1.6240631,1.3218427,-0.1306315,-0.6702246,0.20574065,0.02243449,0.62883234,0.4207439,0.5798191,-0.5857649,-0.085785784,0.39651757,0.537351,1,145638900,724666700,156194450,1676166700,8500000,16694444,444444.44,361111.12,14.041667,291037660,80022450,525.05554,30141.916,36500000,0.8333333
Quartz,0.45007977,0.51266557,1.6240631,1.3218427,-0.1306315,-0.6702246,0.20574065,0.02243449,0.62883234,0.4207439,0.5798191,-0.5857649,-0.085785784,0.39651757,0.537351,1,219416670,1070722240,229194450,2492388900,12027778,23722222,694444.44,333333.34,5.6527777,417839580,79813870,525.05554,30141.916,39555556,0.83325
Quartz,0.45007977,0.51266557,1.6240631,1.3218427,-0.1306315,-0.6702246,0.20574065,0.02243449,0.62883234,0.4207439,0.5798191,-0.5857649,-0.085785784,0.39651757,0.537351,1,4916666.5,33333334,8194444.5,71000000,1277777.8,1250000,55555.555,55555.555,7.7222223,19257774,20128756,525.05554,30141.916,6861111,0.666
Quartz,0.45007977,0.51266557,1.6240631,1.3218427,-0.1306315,-0.6702246,0.20574065,0.02243449,0.62883234,0.4207439,0.5798191,-0.5857649,-0.085785784,0.39651757,0.537351,1,8222222,50444444,12777778,113222220,1388888.9,1750000,55555.555,83333.336,15.041667,27799334,20108860,525.05554,30141.916,6666666.5,0.666
Quartz,0.45007977,0.51266557,1.6240631,1.3218427,-0.1306315,-0.6702246,0.20574065,0.02243449,0.62883234,0.4207439,0.5798191,-0.5857649,-0.085785784,0.39651757,0.537351,1,13138889,78305550,20333334,181833330,1555555.5,2611111,55555.555,83333.336,13.277778,42028188,20049906,525.05554,30141.916,8305555.5,0.7507508
Quartz,0.45007977,0.51266557,1.6240631,1.3218427,-0.1306315,-0.6702246,0.20574065,0.02243449,0.62883234,0.4207439,0.5798191,-0.5857649,-0.085785784,0.39651757,0.537351,1,20388888,117750000,30972222,278944450,1777777.8,3833333.2,83333.336,83333.336,22.944445,61953500,20109044,525.05554,30141.916,8277778,0.6002401
Quartz,0.45007977,0.51266557,1.6240631,1.3218427,-0.1306315,-0.6702246,0.20574065,0.02243449,0.62883234,0.4207439,0.5798191,-0.5857649,-0.085785784,0.39651757,0.537351,1,29527778,168222220,44611110,403250000,1805555.5,5388889,83333.336,83333.336,7.0694447,87584210,20097952,525.05554,30141.916,9583333,0.7144082
Quartz,0.45007977,0.51266557,1.6240631,1.3218427,-0.1306315,-0.6702246,0.20574065,0.02243449,0.62883234,0.4207439,0.5798191,-0.5857649,-0.085785784,0.39651757,0.537351,1,6416666.5,65138890,12694444,119833336,2611111,2027777.8,111111.11,111111.11,13.055555,38967764,40080400,525.05554,30141.916,18055556,0.7507508
Quartz,0.45007977,0.51266557,1.6240631,1.3218427,-0.1306315,-0.6702246,0.20574065,0.02243449,0.62883234,0.4207439,0.5798191,-0.5857649,-0.085785784,0.39651757,0.537351,1,14527778,106750000,22805556,220277780,2611111,3111111,138888.89,111111.11,10.652778,57371496,40294292,525.05554,30141.916,18555556,0.6002401
Quartz,0.45007977,0.51266557,1.6240631,1.3218427,-0.1306315,-0.6702246,0.20574065,0.02243449,0.62883234,0.4207439,0.5798191,-0.5857649,-0.085785784,0.39651757,0.537351,1,28194444,176250000,39694444,388111100,3333333.2,4916666.5,166666.67,111111.11,25.23611,88161576,39799770,525.05554,30141.902,18277778,0.7144082
Quartz,0.45007977,0.51266557,1.6240631,1.3218427,-0.1306315,-0.6702246,0.20574065,0.02243449,0.62883234,0.4207439,0.5798191,-0.5857649,-0.085785784,0.39651757,0.537351,1,47388890,273638880,63333332,623277760,4055555.5,7388889,222222.22,111111.11,9.194445,131130710,40031732,525.05554,30141.916,18916666,0.6666667
Quartz,0.45007977,0.51266557,1.6240631,1.3218427,-0.1306315,-0.6702246,0.20574065,0.02243449,0.62883234,0.4207439,0.5798191,-0.5857649,-0.085785784,0.39651757,0.537351,1,71916664,398694430,93694450,925305540,4611111,10694444,250000,138888.89,23.069445,186440210,39972556,525.05554,30141.902,19694444,0.6665
Quartz,0.45007977,0.51266557,1.6240631,1.3218427,-0.1306315,-0.6702246,0.20574065,0.02243449,0.62883234,0.4207439,0.5798191,-0.5857649,-0.085785784,0.39651757,0.537351,1,15138889,140388900,26694444,261750000,5222222,4111111,277777.78,222222.22,17.26389,79659430,80065416,525.05554,30141.916,35638890,0.7144082
Quartz,0.45007977,0.51266557,1.6240631,1.3218427,-0.1306315,-0.6702246,0.20574065,0.02243449,0.62883234,0.4207439,0.5798191,-0.5857649,-0.085785784,0.39651757,0.537351,1,39694444,255694450,51027776,533694430,5277778,6472222,277777.78,222222.22,13.583333,121944650,80191590,525.05554,30141.916,36166668,0.87471867
Quartz,0.45007977,0.51266557,1.6240631,1.3218427,-0.1306315,-0.6702246,0.20574065,0.02243449,0.62883234,0.4207439,0.5798191,-0.5857649,-0.085785784,0.39651757,0.537351,1,80500000,447722200,91527780,986583360,6833333.5,10333333,388888.88,222222.22,19.777779,192379540,79726490,525.05554,30141.902,37777776,0.714102
Quartz,0.45007977,0.51266557,1.6240631,1.3218427,-0.1306315,-0.6702246,0.20574065,0.02243449,0.62883234,0.4207439,0.5798191,-0.5857649,-0.085785784,0.39651757,0.537351,1,137777780,716750000,148277780,1621111200,8777778,15694444,472222.22,250000,13.416667,291034620,79841340,525.05554,30141.916,37638890,0.7645605
Quartz,0.45007977,0.51266557,1.6240631,1.3218427,-0.1306315,-0.6702246,0.20574065,0.02243449,0.62883234,0.4207439,0.5798191,-0.5857649,-0.085785784,0.39651757,0.537351,1,211388900,1062611140,221250000,2436805600,10055556,22750000,500000,250000,6.5694447,417823500,80370390,525.05554,30141.916,38861110,0.7599616
Quartz,0.45007977,0.51266557,1.6240631,1.3218427,-0.1306315,-0.6702246,0.20574065,0.02243449,0.62883234,0.4207439,0.5798191,-0.5857649,-0.085785784,0.39651757,0.537351,1,2972222.2,31388888,6194444.5,57388890,1277777.8,1000000,55555.555,27777.777,11.486111,19273594,20051318,525.05554,30141.916,6611111,1
Quartz,0.45007977,0.51266557,1.6240631,1.3218427,-0.1306315,-0.6702246,0.20574065,0.02243449,0.62883234,0.4207439,0.5798191,-0.5857649,-0.085785784,0.39651757,0.537351,1,6055555.5,48250000,10750000,98916664,1388888.9,1500000,55555.555,55555.555,15.527778,27840316,20041662,525.05554,30141.916,6611111,0.666
Quartz,0.45007977,0.51266557,1.6240631,1.3218427,-0.1306315,-0.6702246,0.20574065,0.02243449,0.62883234,0.4207439,0.5798191,-0.5857649,-0.085785784,0.39651757,0.537351,1,11277778,76472220,18361112,168472220,1555555.5,2388889,55555.555,55555.555,12.305555,42044876,20129172,525.05554,30141.916,7805555.5,0.7507508
Quartz,0.45007977,0.51266557,1.6240631,1.3218427,-0.1306315,-0.6702246,0.20574065,0.02243449,0.62883234,0.4207439,0.5798191,-0.5857649,-0.085785784,0.39651757,0.537351,1,18333334,115666664,28972222,264944450,1777777.8,3583333.2,83333.336,55555.555,15.236111,61991616,20171684,525.05554,30141.916,8333333.5,0.6002401
Quartz,0.45007977,0.51266557,1.6240631,1.3218427,-0.1306315,-0.6702246,0.20574065,0.02243449,0.62883234,0.4207439,0.5798191,-0.5857649,-0.085785784,0.39651757,0.537351,1,27583334,166305550,42638890,389694430,1805555.5,5166666.5,83333.336,55555.555,15.111111,87636344,20256532,525.05554,30141.916,9638889,0.7144082
Quartz,0.45007977,0.51266557,1.6240631,1.3218427,-0.1306315,-0.6702246,0.20574065,0.02243449,0.62883234,0.4207439,0.5798191,-0.5857649,-0.085785784,0.39651757,0.537351,1,16611111,173055550,33666668,317444450,6944444.5,5444444.5,361111.12,305555.56,19.48611,103799330,106817350,525.05554,30141.916,48611110,0.6002401
Quartz,0.45007977,0.51266557,1.6240631,1.3218427,-0.1306315,-0.6702246,0.20574065,0.02243449,0.62883234,0.4207439,0.5798191,-0.5857649,-0.085785784,0.39651757,0.537351,1,38361110,284138880,60638890,585638900,7000000,8361111,361111.12,305555.56,9.847222,152953150,107034040,525.05554,30141.916,48777776,0.6361157
Quartz,0.45007977,0.51266557,1.6240631,1.3218427,-0.1306315,-0.6702246,0.20574065,0.02243449,0.62883234,0.4207439,0.5798191,-0.5857649,-0.085785784,0.39651757,0.537351,1,74833336,469527780,105666664,1033277760,9055556,13166667,527777.75,333333.34,14.166667,234894270,106296216,525.05554,30141.916,46222224,0.62490624
Quartz,0.45007977,0.51266557,1.6240631,1.3218427,-0.1306315,-0.6702246,0.20574065,0.02243449,0.62883234,0.4207439,0.5798191,-0.5857649,-0.085785784,0.39651757,0.537351,1,125888890,729083300,168694450,1660083300,11361111,19805556,638888.9,333333.34,15.708333,349624450,106516160,525.05554,30141.916,47916668,0.736892
Quartz,0.45007977,0.51266557,1.6240631,1.3218427,-0.1306315,-0.6702246,0.20574065,0.02243449,0.62883234,0.4207439,0.5798191,-0.5857649,-0.085785784,0.39651757,0.537351,1,191416670,1062722240,249666670,2465722000,12138889,28555556,666666.7,361111.12,13.277778,497069220,106381096,525.05554,30141.916,53083332,0.7306716
Quartz,0.45007977,0.51266557,1.6240631,1.3218427,-0.1306315,-0.6702246,0.20574065,0.02243449,0.62883234,0.4207439,0.5798191,-0.5857649,-0.085785784,0.39651757,0.537351,1,39972224,373805570,70833336,695777800,13916667,11027778,722222.25,611111.1,8.402778,212423970,213559800,525.05554,30141.916,93833336,0.6664
Quartz,0.45007977,0.51266557,1.6240631,1.3218427,-0.1306315,-0.6702246,0.20574065,0.02243449,0.62883234,0.4207439,0.5798191,-0.5857649,-0.085785784,0.39651757,0.537351,1,105472220,681333300,135694450,1421166700,14138889,17333334,750000,638888.9,13.180555,325156480,213838770,525.05554,30141.916,96138890,0.7617143
Quartz,0.45007977,0.51266557,1.6240631,1.3218427,-0.1306315,-0.6702246,0.20574065,0.02243449,0.62883234,0.4207439,0.5798191,-0.5857649,-0.085785784,0.39651757,0.537351,1,214444450,1193583400,243777780,2629333200,18277778,27666666,1000000,638888.9,9.25,513012030,212515580,525.05554,30141.916,98250000,0.8
Quartz,0.45007977,0.51266557,1.6240631,1.3218427,-0.1306315,-0.6702246,0.20574065,0.02243449,0.62883234,0.4207439,0.5798191,-0.5857649,-0.085785784,0.39651757,0.537351,1,366972220,1910972200,394972220,4321528000,22250000,41944444,1166666.6,694444.44,6.3055553,776023230,213083220,525.05554,30141.916,101250000,0.77267146
Quartz,0.45007977,0.51266557,1.6240631,1.3218427,-0.1306315,-0.6702246,0.20574065,0.02243449,0.62883234,0.4207439,0.5798191,-0.5857649,-0.085785784,0.39651757,0.537351,1,563222200,2833055500,589611140,6496194600,30750000,60750000,1416666.6,694444.44,14.763889,1114194800,212622610,525.05554,30141.916,100527780,0.7742185
Quartz,0.45007977,0.51266557,1.6240631,1.3218427,-0.1306315,-0.6702246,0.20574065,0.02243449,0.62883234,0.4207439,0.5798191,-0.5857649,-0.085785784,0.39651757,0.537351,1,7583333.5,83194450,16416667,151555550,3444444.5,2694444.5,166666.67,138888.89,22.36111,51335480,53461544,525.05554,30141.916,18416666,1
Quartz,0.45007977,0.51266557,1.6240631,1.3218427,-0.1306315,-0.6702246,0.20574065,0.02243449,0.62883234,0.4207439,0.5798191,-0.5857649,-0.085785784,0.39651757,0.537351,1,15750000,128138890,28555556,262222220,3694444.5,4083333.2,194444.44,138888.89,15.041667,74126650,53360340,525.05554,30141.916,18972222,0.666
Quartz,0.45007977,0.51266557,1.6240631,1.3218427,-0.1306315,-0.6702246,0.20574065,0.02243449,0.62883234,0.4207439,0.5798191,-0.5857649,-0.085785784,0.39651757,0.537351,1,29416666,203055550,48805556,446722200,4166666.8,6388889,194444.44,138888.89,11.111111,112091280,53423190,525.05554,30141.916,21222222,0.85763294
Quartz,0.45007977,0.51266557,1.6240631,1.3218427,-0.1306315,-0.6702246,0.20574065,0.02243449,0.62883234,0.4207439,0.5798191,-0.5857649,-0.085785784,0.39651757,0.537351,1,48583332,308027780,77138890,705222200,4750000,9611111,250000,166666.67,7.8333335,165223550,53724424,525.05554,30141.916,21944444,0.69987994
Quartz,0.45007977,0.51266557,1.6240631,1.3218427,-0.1306315,-0.6702246,0.20574065,0.02243449,0.62883234,0.4207439,0.5798191,-0.5857649,-0.085785784,0.39651757,0.537351,1,73250000,443027780,113583336,1037694460,4944444.5,13777778,222222.22,166666.67,10.569445,233498980,53610396,525.05554,30141.916,25722222,0.75
Quartz,0.45007977,0.51266557,1.6240631,1.3218427,-0.1306315,-0.6702246,0.20574065,0.02243449,0.62883234,0.4207439,0.5798191,-0.5857649,-0.085785784,0.39651757,0.537351,1,3666666.8,23305556,5638889,49944444,861111.1,833333.3,27777.777,27777.777,15.680555,13013511,13287589,525.05554,30141.916,5638889,1
Quartz,0.45007977,0.51266557,1.6240631,1.3218427,-0.1306315,-0.6702246,0.20574065,0.02243449,0.62883234,0.4207439,0.5798191,-0.5857649,-0.085785784,0.39651757,0.537351,1,6333333.5,37111110,9027778,83250000,861111.1,1194444.5,27777.777,55555.555,11.625,19171340,13378545,525.05554,30141.916,5888889,0.666
Quartz,0.45007977,0.51266557,1.6240631,1.3218427,-0.1306315,-0.6702246,0.20574065,0.02243449,0.62883234,0.4207439,0.5798191,-0.5857649,-0.085785784,0.39651757,0.537351,1,10888889,60277776,14638889,139250000,1138888.9,1777777.8,55555.555,55555.555,15.388889,29398936,13232018,525.05554,30141.902,5944444.5,0.7507508
Quartz,0.45007977,0.51266557,1.6240631,1.3218427,-0.1306315,-0.6702246,0.20574065,0.02243449,0.62883234,0.4207439,0.5798191,-0.5857649,-0.085785784,0.39651757,0.537351,1,17222222,92666664,22500000,217472220,1250000,2611111,55555.555,55555.555,17.180555,43737332,13260889,525.05554,30141.916,6250000,0.6002401
Quartz,0.45007977,0.51266557,1.6240631,1.3218427,-0.1306315,-0.6702246,0.20574065,0.02243449,0.62883234,0.4207439,0.5798191,-0.5857649,-0.085785784,0.39651757,0.537351,1,25444444,134444450,32638888,318277800,1527777.8,3694444.5,83333.336,55555.555,13.25,62185984,13404890,525.05554,30141.916,6166666.5,0.79951984
Quartz,0.45007977,0.51266557,1.6240631,1.3218427,-0.1306315,-0.6702246,0.20574065,0.02243449,0.62883234,0.4207439,0.5798191,-0.5857649,-0.085785784,0.39651757,0.537351,1,7944444.5,49750000,11694444,106638890,1722222.2,1666666.6,83333.336,83333.336,19.125,26622280,26613368,525.05554,30141.916,11583333,0.7507508
Quartz,0.45007977,0.51266557,1.6240631,1.3218427,-0.1306315,-0.6702246,0.20574065,0.02243449,0.62883234,0.4207439,0.5798191,-0.5857649,-0.085785784,0.39651757,0.537351,1,16222222,88305550,19833334,197666670,1750000,2444444.5,83333.336,83333.336,15.319445,40738412,26683038,525.05554,30141.916,11694444,0.7507508
Quartz,0.45007977,0.51266557,1.6240631,1.3218427,-0.1306315,-0.6702246,0.20574065,0.02243449,0.62883234,0.4207439,0.5798191,-0.5857649,-0.085785784,0.39651757,0.537351,1,29638888,152111100,33305556,348083330,2305555.5,3750000,111111.11,83333.336,15.819445,64210044,26461984,525.05554,30141.916,12083333,0.833
Quartz,0.45007977,0.51266557,1.6240631,1.3218427,-0.1306315,-0.6702246,0.20574065,0.02243449,0.62883234,0.4207439,0.5798191,-0.5857649,-0.085785784,0.39651757,0.537351,1,48750000,241777780,52222224,559583360,2666666.8,5527778,111111.11,111111.11,25.36111,97030810,26672848,525.05554,30141.902,12611111,0.85763294
Quartz,0.45007977,0.51266557,1.6240631,1.3218427,-0.1306315,-0.6702246,0.20574065,0.02243449,0.62883234,0.4207439,0.5798191,-0.5857649,-0.085785784,0.39651757,0.537351,1,73277780,357111100,76527780,831555600,3555555.5,7861111,194444.44,111111.11,12.486111,139358000,26590756,525.05554,30141.916,12888889,0.69987994
Quartz,0.45007977,0.51266557,1.6240631,1.3218427,-0.1306315,-0.6702246,0.20574065,0.02243449,0.62883234,0.4207439,0.5798191,-0.5857649,-0.085785784,0.39651757,0.537351,1,1777777.8,11305556,2777777.8,24250000,416666.66,388888.88,0,0,15.236111,6458844.5,6740388.5,525.05554,30141.902,2194444.5,0.332
Quartz,0.45007977,0.51266557,1.6240631,1.3218427,-0.1306315,-0.6702246,0.20574065,0.02243449,0.62883234,0.4207439,0.5798191,-0.5857649,-0.085785784,0.39651757,0.537351,1,2805555.5,16916666,4305555.5,38111110,444444.44,583333.3,0,0,11.944445,9283094,6781823.5,525.05554,30141.902,2194444.5,1
Quartz,0.45007977,0.51266557,1.6240631,1.3218427,-0.1306315,-0.6702246,0.20574065,0.02243449,0.62883234,0.4207439,0.5798191,-0.5857649,-0.085785784,0.39651757,0.537351,1,4583333.5,26361112,6833333.5,61388890,500000,861111.1,0,27777.777,11.611111,14031503,6672082.5,525.05554,30141.916,2555555.5,0.666
Quartz,0.45007977,0.51266557,1.6240631,1.3218427,-0.1306315,-0.6702246,0.20574065,0.02243449,0.62883234,0.4207439,0.5798191,-0.5857649,-0.085785784,0.39651757,0.537351,1,7027778,39555556,10388889,93833336,583333.3,1250000,27777.777,27777.777,21.805555,20709846,6707951.5,525.05554,30141.916,2555555.5,1
Quartz,0.45007977,0.51266557,1.6240631,1.3218427,-0.1306315,-0.6702246,0.20574065,0.02243449,0.62883234,0.4207439,0.5798191,-0.5857649,-0.085785784,0.39651757,0.537351,1,10055556,56361110,14944444,135250000,583333.3,1777777.8,27777.777,27777.777,14,29275458,6592343.5,525.05554,30141.916,3138889,1
Quartz,0.45007977,0.51266557,1.6240631,1.3218427,-0.1306315,-0.6702246,0.20574065,0.02243449,0.62883234,0.4207439,0.5798191,-0.5857649,-0.085785784,0.39651757,0.537351,1,2250000,21861112,4305555.5,40472224,861111.1,666666.7,27777.777,27777.777,18.708334,13045972,13357889,525.05554,30141.916,5750000,0.4984985
Quartz,0.45007977,0.51266557,1.6240631,1.3218427,-0.1306315,-0.6702246,0.20574065,0.02243449,0.62883234,0.4207439,0.5798191,-0.5857649,-0.085785784,0.39651757,0.537351,1,5111111,35916668,7694444.5,74472220,861111.1,1027777.75,27777.777,27777.777,9.680555,19174146,13323028,525.05554,30141.902,5861111,0.666
Quartz,0.45007977,0.51266557,1.6240631,1.3218427,-0.1306315,-0.6702246,0.20574065,0.02243449,0.62883234,0.4207439,0.5798191,-0.5857649,-0.085785784,0.39651757,0.537351,1,9555556,58972224,13305556,130083336,1111111.1,1611111.1,55555.555,27777.777,4.3055553,29436712,13251836,525.05554,30141.902,5638889,1
Quartz,0.45007977,0.51266557,1.6240631,1.3218427,-0.1306315,-0.6702246,0.20574065,0.02243449,0.62883234,0.4207439,0.5798191,-0.5857649,-0.085785784,0.39651757,0.537351,1,16000000,91500000,21194444,208722220,1250000,2444444.5,55555.555,27777.777,13.416667,43756444,13285598,525.05554,30141.916,6166666.5,0.7507508
Quartz,0.45007977,0.51266557,1.6240631,1.3218427,-0.1306315,-0.6702246,0.20574065,0.02243449,0.62883234,0.4207439,0.5798191,-0.5857649,-0.085785784,0.39651757,0.537351,1,24277778,133305550,31333334,309638880,1666666.6,3527777.8,83333.336,27777.777,3.8472223,62203810,13375101,525.05554,30141.902,6388889,1
Quartz,0.45007977,0.51266557,1.6240631,1.3218427,-0.1306315,-0.6702246,0.20574065,0.02243449,0.62883234,0.4207439,0.5798191,-0.5857649,-0.085785784,0.39651757,0.537351,1,5250000,47055556,9055556,88222220,1722222.2,1333333.4,83333.336,55555.555,21.180555,26585128,26766810,525.05554,30141.916,11888889,0.666
Quartz,0.45007977,0.51266557,1.6240631,1.3218427,-0.1306315,-0.6702246,0.20574065,0.02243449,0.62883234,0.4207439,0.5798191,-0.5857649,-0.085785784,0.39651757,0.537351,1,13583333,85666664,17166666,179333330,1750000,2138889,83333.336,55555.555,13.333333,40702452,26724090,525.05554,30141.902,11861111,0.6002401
Quartz,0.45007977,0.51266557,1.6240631,1.3218427,-0.1306315,-0.6702246,0.20574065,0.02243449,0.62883234,0.4207439,0.5798191,-0.5857649,-0.085785784,0.39651757,0.537351,1,26972222,149416670,30666666,329638880,2222222.2,3416666.8,111111.11,55555.555,16.48611,64141584,26628646,525.05554,30141.916,12305556,0.79951984
Quartz,0.45007977,0.51266557,1.6240631,1.3218427,-0.1306315,-0.6702246,0.20574065,0.02243449,0.62883234,0.4207439,0.5798191,-0.5857649,-0.085785784,0.39651757,0.537351,1,46055556,239111100,49555556,541166660,2833333.2,5194444.5,138888.89,55555.555,4.3194447,97086104,26672454,525.05554,30141.916,12083333,0.5553333
Quartz,0.45007977,0.51266557,1.6240631,1.3218427,-0.1306315,-0.6702246,0.20574065,0.02243449,0.62883234,0.4207439,0.5798191,-0.5857649,-0.085785784,0.39651757,0.537351,1,70611110,354388900,73888890,813083300,3333333.2,7555555.5,166666.67,83333.336,11.277778,139338820,26663306,525.05554,30141.916,13138889,0.7773333
Quartz,0.45007977,0.51266557,1.6240631,1.3218427,-0.1306315,-0.6702246,0.20574065,0.02243449,0.62883234,0.4207439,0.5798191,-0.5857649,-0.085785784,0.39651757,0.537351,1,1277777.8,10833333,2138889,20166666,416666.66,305555.56,0,0,12.208333,6478693.5,6722623,525.05554,30141.916,2083333.4,0.4984985
Quartz,0.45007977,0.51266557,1.6240631,1.3218427,-0.1306315,-0.6702246,0.20574065,0.02243449,0.62883234,0.4207439,0.5798191,-0.5857649,-0.085785784,0.39651757,0.537351,1,2166666.8,16277778,3638889,33527778,444444.44,500000,0,0,13.472222,9287385,6729215,525.05554,30141.902,2166666.8,1
Quartz,0.45007977,0.51266557,1.6240631,1.3218427,-0.1306315,-0.6702246,0.20574065,0.02243449,0.62883234,0.4207439,0.5798191,-0.5857649,-0.085785784,0.39651757,0.537351,1,3888889,25666666,6166666.5,56694444,500000,777777.75,0,0,9.25,14047894,6659738.5,525.05554,30141.902,2555555.5,1
Quartz,0.45007977,0.51266557,1.6240631,1.3218427,-0.1306315,-0.6702246,0.20574065,0.02243449,0.62883234,0.4207439,0.5798191,-0.5857649,-0.085785784,0.39651757,0.537351,1,6250000,38750000,9722222,88888890,583333.3,1166666.6,27777.777,0,12.777778,20695062,6704824.5,525.05554,30141.902,2555555.5,1
Quartz,0.45007977,0.51266557,1.6240631,1.3218427,-0.1306315,-0.6702246,0.20574065,0.02243449,0.62883234,0.4207439,0.5798191,-0.5857649,-0.085785784,0.39651757,0.537351,1,9305556,55611110,14250000,130444450,583333.3,1694444.5,27777.777,0,23.75,29214884,6754835,525.05554,30141.889,3222222.2,0.666
