machine,0,1,2,3,4,5,6,7,8,9,10,11,12,13,14,15,16,17,18,19,20,21,22,23,24,25,26,27,28,29,30,31,32
quartz,0.9038483,-0.9324975,-0.7826999,-0.88205534,0.5179731,-1.2948885,1.0559374,0.9527292,-1.6056764,-1.0400532,-0.52401435,-1.7999631,1.0976883,0.5085195,-0.8396667,1,0.05,2426000000,3356000000,968000000,11516000000,32000000,12000000,0,0,0,1556948,1461157400,1076277800,37771,2190229,116000000,1.765572
quartz,0.9038483,-0.9324975,-0.7826999,-0.88205534,0.5179731,-1.2948885,1.0559374,0.9527292,-1.6056764,-1.0400532,-0.52401435,-1.7999631,1.0976883,0.5085195,-0.8396667,1,0.05,2426000000,3356000000,968000000,11516000000,32000000,12000000,0,0,0,1556449,1460442900,1077872400,37771,2190229,116000000,1.771501
quartz,0.9038483,-0.9324975,-0.7826999,-0.88205534,0.5179731,-1.2948885,1.0559374,0.9527292,-1.6056764,-1.0400532,-0.52401435,-1.7999631,1.0976883,0.5085195,-0.8396667,1,0.0666,2792000000,3862000000,1114000000,13250000000,26000000,16000000,0,0,0,1789740,1680159200,1238203100,37771,2193037,140000000,2.025196
quartz,0.9038483,-0.9324975,-0.7826999,-0.88205534,0.5179731,-1.2948885,1.0559374,0.9527292,-1.6056764,-1.0400532,-0.52401435,-1.7999631,1.0976883,0.5085195,-0.8396667,1,0.0666,2792000000,3862000000,1108000000,13250000000,38000000,14000000,0,0,0,1790082,1681196800,1238368900,37771,2193037,136000000,2.0196
quartz,0.9038483,-0.9324975,-0.7826999,-0.88205534,0.5179731,-1.2948885,1.0559374,0.9527292,-1.6056764,-1.0400532,-0.52401435,-1.7999631,1.0976883,0.5085195,-0.8396667,1,0.0666,3154000000,4360000000,1258000000,14964000000,30000000,16000000,0,0,0,2021762,1896564600,1396403700,37771,2195719,150000000,2.276205
quartz,0.9038483,-0.9324975,-0.7826999,-0.88205534,0.5179731,-1.2948885,1.0559374,0.9527292,-1.6056764,-1.0400532,-0.52401435,-1.7999631,1.0976883,0.5085195,-0.8396667,1,0.0666,3152000000,4358000000,1258000000,14960000000,30000000,18000000,0,0,0,2022435,1897379700,1397572100,37771,2195719,142000000,2.260415
quartz,0.9038483,-0.9324975,-0.7826999,-0.88205534,0.5179731,-1.2948885,1.0559374,0.9527292,-1.6056764,-1.0400532,-0.52401435,-1.7999631,1.0976883,0.5085195,-0.8396667,1,0.0666,3434000000,4746000000,1368000000,16294000000,36000000,18000000,0,0,0,2202499,2065152500,1520600600,37771,2197853,170000000,2.663958
quartz,0.9038483,-0.9324975,-0.7826999,-0.88205534,0.5179731,-1.2948885,1.0559374,0.9527292,-1.6056764,-1.0400532,-0.52401435,-1.7999631,1.0976883,0.5085195,-0.8396667,1,0.0666,3434000000,4746000000,1368000000,16292000000,32000000,20000000,0,0,0,2202362,2065422000,1520506000,37771,2197855,172000000,2.466709
quartz,0.9038483,-0.9324975,-0.7826999,-0.88205534,0.5179731,-1.2948885,1.0559374,0.9527292,-1.6056764,-1.0400532,-0.52401435,-1.7999631,1.0976883,0.5085195,-0.8396667,1,0.0666,3640000000,5040000000,1452000000,17290000000,42000000,18000000,2000000,0,0,2337750,2193318000,1615712500,37771,2199440,180000000,2.644668
quartz,0.9038483,-0.9324975,-0.7826999,-0.88205534,0.5179731,-1.2948885,1.0559374,0.9527292,-1.6056764,-1.0400532,-0.52401435,-1.7999631,1.0976883,0.5085195,-0.8396667,1,0.0833,3644000000,5036000000,1450000000,17290000000,34000000,18000000,0,0,0,2338564,2191995100,1614181100,37771,2199439,178000000,2.629778
quartz,0.9038483,-0.9324975,-0.7826999,-0.88205534,0.5179731,-1.2948885,1.0559374,0.9527292,-1.6056764,-1.0400532,-0.52401435,-1.7999631,1.0976883,0.5085195,-0.8396667,1,0.0666,3788000000,5244000000,1512000000,17994000000,50000000,20000000,0,0,0,2430175,2282039300,1680659600,37771,2200601,186000000,2.711485
quartz,0.9038483,-0.9324975,-0.7826999,-0.88205534,0.5179731,-1.2948885,1.0559374,0.9527292,-1.6056764,-1.0400532,-0.52401435,-1.7999631,1.0976883,0.5085195,-0.8396667,1,0.0666,3792000000,5244000000,1514000000,17998000000,44000000,20000000,2000000,0,0,2431784,2282041900,1681138700,37771,2200600,186000000,2.703367
quartz,0.9038483,-0.9324975,-0.7826999,-0.88205534,0.5179731,-1.2948885,1.0559374,0.9527292,-1.6056764,-1.0400532,-0.52401435,-1.7999631,1.0976883,0.5085195,-0.8396667,1,0.1833,8200000000,19434000000,6256000000,59954000000,202000000,160000000,6000000,4000000,0,3259234,11407388000,8376314400,37771,2205834,912000000,8.763434
quartz,0.9038483,-0.9324975,-0.7826999,-0.88205534,0.5179731,-1.2948885,1.0559374,0.9527292,-1.6056764,-1.0400532,-0.52401435,-1.7999631,1.0976883,0.5085195,-0.8396667,32,0.4666,22753063000,35795186000,12467125000,96878060000,77000000,32125000,12562500,8687500,0,12734.5625,361169570,5501768700,69873.94,2107283.2,1029437500,7.0566287
quartz,0.9038483,-0.9324975,-0.7826999,-0.88205534,0.5179731,-1.2948885,1.0559374,0.9527292,-1.6056764,-1.0400532,-0.52401435,-1.7999631,1.0976883,0.5085195,-0.8396667,1,0.1833,8204000000,19430000000,6256000000,59958000000,202000000,164000000,6000000,4000000,0,3259806,11407505000,8373560000,37771,2205834,916000000,8.836722
quartz,0.9038483,-0.9324975,-0.7826999,-0.88205534,0.5179731,-1.2948885,1.0559374,0.9527292,-1.6056764,-1.0400532,-0.52401435,-1.7999631,1.0976883,0.5085195,-0.8396667,32,0.55,24537188000,38530437000,13353062000,1.04E+11,76500000,32812500,12500000,8625000,0,12854.594,361168480,5647633000,69874.91,2107283.2,1022625000,7.0627847
quartz,0.9038483,-0.9324975,-0.7826999,-0.88205534,0.5179731,-1.2948885,1.0559374,0.9527292,-1.6056764,-1.0400532,-0.52401435,-1.7999631,1.0976883,0.5085195,-0.8396667,1,0.2333,9346000000,22146000000,7130000000,68328000000,176000000,186000000,8000000,6000000,0,3713148,13003335000,9548959000,37771,2210655,1052000000,9.9214
quartz,0.9038483,-0.9324975,-0.7826999,-0.88205534,0.5179731,-1.2948885,1.0559374,0.9527292,-1.6056764,-1.0400532,-0.52401435,-1.7999631,1.0976883,0.5085195,-0.8396667,32,0.5666,26936687000,42333688000,14706500000,1.15E+11,88875000,37750000,14687500,10000000,0,12281.0625,411652380,6290330000,69867.91,2107433.8,1161312500,8.146281
quartz,0.9038483,-0.9324975,-0.7826999,-0.88205534,0.5179731,-1.2948885,1.0559374,0.9527292,-1.6056764,-1.0400532,-0.52401435,-1.7999631,1.0976883,0.5085195,-0.8396667,1,0.2166,9346000000,22142000000,7130000000,68326000000,232000000,186000000,8000000,6000000,0,3713446,13005317000,9545360000,37771,2210655,1064000000,10.460112
quartz,0.9038483,-0.9324975,-0.7826999,-0.88205534,0.5179731,-1.2948885,1.0559374,0.9527292,-1.6056764,-1.0400532,-0.52401435,-1.7999631,1.0976883,0.5085195,-0.8396667,32,0.5666,27875437000,43774500000,15174375000,1.18E+11,89937500,39125000,14437500,10000000,0,12395.375,411638700,6379871000,69874.91,2107434,1161187500,8.280307
quartz,0.9038483,-0.9324975,-0.7826999,-0.88205534,0.5179731,-1.2948885,1.0559374,0.9527292,-1.6056764,-1.0400532,-0.52401435,-1.7999631,1.0976883,0.5085195,-0.8396667,1,0.2333,10432000000,24720000000,7958000000,76272000000,208000000,204000000,10000000,6000000,0,4145484,14515350000,10651865000,37771,2215167,1178000000,11.168598
quartz,0.9038483,-0.9324975,-0.7826999,-0.88205534,0.5179731,-1.2948885,1.0559374,0.9527292,-1.6056764,-1.0400532,-0.52401435,-1.7999631,1.0976883,0.5085195,-0.8396667,32,0.6,30166874000,47394062000,16465750000,1.28E+11,99000000,42500000,15937500,11125000,0,13018,459483360,7289946600,69875.875,2107575,1299562500,8.956694
quartz,0.9038483,-0.9324975,-0.7826999,-0.88205534,0.5179731,-1.2948885,1.0559374,0.9527292,-1.6056764,-1.0400532,-0.52401435,-1.7999631,1.0976883,0.5085195,-0.8396667,1,0.2333,10434000000,24722000000,7956000000,76272000000,194000000,208000000,8000000,6000000,0,4145256,14515483000,10663130000,37771,2215168,1158000000,11.133866
quartz,0.9038483,-0.9324975,-0.7826999,-0.88205534,0.5179731,-1.2948885,1.0559374,0.9527292,-1.6056764,-1.0400532,-0.52401435,-1.7999631,1.0976883,0.5085195,-0.8396667,32,0.6333,30823563000,48416813000,16791625000,1.31E+11,99062500,42750000,16250000,11250000,0,13602.031,459474050,7108840000,69843.875,2107574,1310000000,9.036614
quartz,0.9038483,-0.9324975,-0.7826999,-0.88205534,0.5179731,-1.2948885,1.0559374,0.9527292,-1.6056764,-1.0400532,-0.52401435,-1.7999631,1.0976883,0.5085195,-0.8396667,1,0.2666,12200000000,28910000000,9304000000,89206000000,228000000,238000000,12000000,8000000,0,4848386,16975164000,12467357000,37771,2222505,1360000000,12.998832
quartz,0.9038483,-0.9324975,-0.7826999,-0.88205534,0.5179731,-1.2948885,1.0559374,0.9527292,-1.6056764,-1.0400532,-0.52401435,-1.7999631,1.0976883,0.5085195,-0.8396667,32,0.6833,34831810000,54758564000,19035500000,1.48E+11,117312500,50375000,19500000,13312500,0,12507,537350850,8274867700,69874.91,2107804.2,1537687600,10.679586
quartz,0.9038483,-0.9324975,-0.7826999,-0.88205534,0.5179731,-1.2948885,1.0559374,0.9527292,-1.6056764,-1.0400532,-0.52401435,-1.7999631,1.0976883,0.5085195,-0.8396667,1,0.2666,12208000000,28916000000,9308000000,89202000000,224000000,244000000,10000000,8000000,0,4849573,16976721000,12466432000,37771,2222504,1358000000,12.953582
quartz,0.9038483,-0.9324975,-0.7826999,-0.88205534,0.5179731,-1.2948885,1.0559374,0.9527292,-1.6056764,-1.0400532,-0.52401435,-1.7999631,1.0976883,0.5085195,-0.8396667,32,0.6666,33639438000,52929250000,18442500000,1.43E+11,116750000,50437500,19312500,13187500,0,11606.156,537309630,8382172700,69874.91,2107804.2,1523375000,10.503509
quartz,0.9038483,-0.9324975,-0.7826999,-0.88205534,0.5179731,-1.2948885,1.0559374,0.9527292,-1.6056764,-1.0400532,-0.52401435,-1.7999631,1.0976883,0.5085195,-0.8396667,1,0.2833,13414000000,31788000000,10234000000,98084000000,260000000,268000000,12000000,8000000,0,5327972,18669206000,13707820000,37771,2227626,1476000000,14.237395
quartz,0.9038483,-0.9324975,-0.7826999,-0.88205534,0.5179731,-1.2948885,1.0559374,0.9527292,-1.6056764,-1.0400532,-0.52401435,-1.7999631,1.0976883,0.5085195,-0.8396667,32,0.75,38249810000,60141500000,20903563000,1.63E+11,127062500,54687500,21687500,14750000,0,12479.094,590905200,9194638000,69875.875,2107964.2,1647375000,11.378157
quartz,0.9038483,-0.9324975,-0.7826999,-0.88205534,0.5179731,-1.2948885,1.0559374,0.9527292,-1.6056764,-1.0400532,-0.52401435,-1.7999631,1.0976883,0.5085195,-0.8396667,1,0.2833,13414000000,31786000000,10232000000,98078000000,274000000,268000000,12000000,8000000,0,5328433,18667070000,13705154000,37771,2227626,1534000000,14.364918
quartz,0.9038483,-0.9324975,-0.7826999,-0.88205534,0.5179731,-1.2948885,1.0559374,0.9527292,-1.6056764,-1.0400532,-0.52401435,-1.7999631,1.0976883,0.5085195,-0.8396667,32,0.8,41112564000,64511310000,22323812000,1.75E+11,126625000,54125000,21500000,14562500,0,13397.0625,590922050,8964936000,69875.875,2107964.2,1683875000,11.672238
quartz,0.9038483,-0.9324975,-0.7826999,-0.88205534,0.5179731,-1.2948885,1.0559374,0.9527292,-1.6056764,-1.0400532,-0.52401435,-1.7999631,1.0976883,0.5085195,-0.8396667,1,0.3166,14330000000,33958000000,10930000000,1.05E+11,274000000,280000000,12000000,8000000,0,5693421,19940213000,14646269000,37771,2231350,1578000000,15.260753
quartz,0.9038483,-0.9324975,-0.7826999,-0.88205534,0.5179731,-1.2948885,1.0559374,0.9527292,-1.6056764,-1.0400532,-0.52401435,-1.7999631,1.0976883,0.5085195,-0.8396667,32,0.8,40889810000,64285500000,22345562000,1.74E+11,135312500,57500000,22937500,15687500,0,12573.844,631197200,9609875000,69875.875,2108080.8,1775250000,12.729841
quartz,0.9038483,-0.9324975,-0.7826999,-0.88205534,0.5179731,-1.2948885,1.0559374,0.9527292,-1.6056764,-1.0400532,-0.52401435,-1.7999631,1.0976883,0.5085195,-0.8396667,1,0.3,14334000000,33956000000,10930000000,1.05E+11,290000000,282000000,10000000,8000000,0,5693653,19940866000,14700632000,37771,2231350,1586000000,15.324183
quartz,0.9038483,-0.9324975,-0.7826999,-0.88205534,0.5179731,-1.2948885,1.0559374,0.9527292,-1.6056764,-1.0400532,-0.52401435,-1.7999631,1.0976883,0.5085195,-0.8396667,32,0.8166,40480000000,63665440000,22144625000,1.72E+11,135000000,57625000,22750000,15687500,0,12809.906,631220540,9641429000,69843.875,2108079.8,1786875000,12.203638
quartz,0.9038483,-0.9324975,-0.7826999,-0.88205534,0.5179731,-1.2948885,1.0559374,0.9527292,-1.6056764,-1.0400532,-0.52401435,-1.7999631,1.0976883,0.5085195,-0.8396667,1,1.2333,43954000000,1.46E+11,48920000000,4.31E+11,1448000000,1734000000,102000000,74000000,0,6987658,95304030000,69996410000,37771,2240844,7392000000,63.670265
quartz,0.9038483,-0.9324975,-0.7826999,-0.88205534,0.5179731,-1.2948885,1.0559374,0.9527292,-1.6056764,-1.0400532,-0.52401435,-1.7999631,1.0976883,0.5085195,-0.8396667,32,1.0333,52785373000,84759370000,29436625000,2.30E+11,221062500,118437500,38562500,27000000,0,11360.375,2996194000,14937098000,69842.91,2108376.2,2610500000,18.205502
quartz,0.9038483,-0.9324975,-0.7826999,-0.88205534,0.5179731,-1.2948885,1.0559374,0.9527292,-1.6056764,-1.0400532,-0.52401435,-1.7999631,1.0976883,0.5085195,-0.8396667,1,1.2,43964000000,1.46E+11,48924000000,4.31E+11,1494000000,1732000000,80000000,72000000,0,6993352,95305060000,69973656000,37771,2240843,7534000000,62.53292
quartz,0.9038483,-0.9324975,-0.7826999,-0.88205534,0.5179731,-1.2948885,1.0559374,0.9527292,-1.6056764,-1.0400532,-0.52401435,-1.7999631,1.0976883,0.5085195,-0.8396667,32,1.0333,53084373000,85247120000,29588687000,2.32E+11,221375000,119187500,38812500,26937500,0,11563.875,2995708400,14524503000,69873.94,2108375.2,2600562400,18.09002
quartz,0.9038483,-0.9324975,-0.7826999,-0.88205534,0.5179731,-1.2948885,1.0559374,0.9527292,-1.6056764,-1.0400532,-0.52401435,-1.7999631,1.0976883,0.5085195,-0.8396667,1,1.3833,49292000000,1.64E+11,54858000000,4.84E+11,1666000000,1944000000,80000000,88000000,0,7837567,1.07E+11,78551810000,37771,2249202,9088000000,72.588196
quartz,0.9038483,-0.9324975,-0.7826999,-0.88205534,0.5179731,-1.2948885,1.0559374,0.9527292,-1.6056764,-1.0400532,-0.52401435,-1.7999631,1.0976883,0.5085195,-0.8396667,32,1.15,58548064000,94070310000,32692687000,2.56E+11,247937500,131250000,43250000,30250000,0,11717.75,3359517200,16187868000,69843.875,2108635.5,3008937500,20.99445
quartz,0.9038483,-0.9324975,-0.7826999,-0.88205534,0.5179731,-1.2948885,1.0559374,0.9527292,-1.6056764,-1.0400532,-0.52401435,-1.7999631,1.0976883,0.5085195,-0.8396667,1,1.35,49312000000,1.64E+11,54870000000,4.84E+11,1664000000,1944000000,78000000,72000000,0,7837189,1.07E+11,78542750000,37771,2249202,8332000000,71.75157
quartz,0.9038483,-0.9324975,-0.7826999,-0.88205534,0.5179731,-1.2948885,1.0559374,0.9527292,-1.6056764,-1.0400532,-0.52401435,-1.7999631,1.0976883,0.5085195,-0.8396667,32,1.15,58193375000,93528690000,32519438000,2.54E+11,247937500,136687500,43000000,30437500,0,11544,3359651800,16713931000,69843.875,2108635.5,2950562600,20.463287
quartz,0.9038483,-0.9324975,-0.7826999,-0.88205534,0.5179731,-1.2948885,1.0559374,0.9527292,-1.6056764,-1.0400532,-0.52401435,-1.7999631,1.0976883,0.5085195,-0.8396667,1,1.5,55010000000,1.83E+11,61218000000,5.39E+11,1722000000,2170000000,90000000,82000000,0,8728818,1.19E+11,87395860000,37771,2258117,9440000000,79.49544
quartz,0.9038483,-0.9324975,-0.7826999,-0.88205534,0.5179731,-1.2948885,1.0559374,0.9527292,-1.6056764,-1.0400532,-0.52401435,-1.7999631,1.0976883,0.5085195,-0.8396667,32,1.2833,65882500000,1.06E+11,36747563000,2.88E+11,277250000,150750000,48937500,34062500,0,11845.719,3746126000,17944072000,69842.91,2108918,3283750000,23.196653
quartz,0.9038483,-0.9324975,-0.7826999,-0.88205534,0.5179731,-1.2948885,1.0559374,0.9527292,-1.6056764,-1.0400532,-0.52401435,-1.7999631,1.0976883,0.5085195,-0.8396667,1,1.5,54990000000,1.83E+11,61214000000,5.39E+11,1754000000,2168000000,128000000,96000000,0,8727180,1.19E+11,87556120000,37771,2258118,9302000000,79.38219
quartz,0.9038483,-0.9324975,-0.7826999,-0.88205534,0.5179731,-1.2948885,1.0559374,0.9527292,-1.6056764,-1.0400532,-0.52401435,-1.7999631,1.0976883,0.5085195,-0.8396667,32,1.2666,66125062000,1.06E+11,36863250000,2.89E+11,274625000,148937500,48312500,33625000,0,11488.719,3745715200,18541998000,69874.91,2108919,3303875000,23.360928
quartz,0.9038483,-0.9324975,-0.7826999,-0.88205534,0.5179731,-1.2948885,1.0559374,0.9527292,-1.6056764,-1.0400532,-0.52401435,-1.7999631,1.0976883,0.5085195,-0.8396667,1,1.9666,72274000000,2.41E+11,80442000000,7.09E+11,2392000000,2850000000,116000000,102000000,0,11482814,1.57E+11,1.15E+11,37771,2285302,12154000000,103.37875
quartz,0.9038483,-0.9324975,-0.7826999,-0.88205534,0.5179731,-1.2948885,1.0559374,0.9527292,-1.6056764,-1.0400532,-0.52401435,-1.7999631,1.0976883,0.5085195,-0.8396667,32,1.65,84884685000,1.36E+11,47357500000,3.71E+11,354625000,190812500,62625000,44562500,0,11193.125,4928549000,24488284000,69874.91,2109753.2,4275187500,29.647745
quartz,0.9038483,-0.9324975,-0.7826999,-0.88205534,0.5179731,-1.2948885,1.0559374,0.9527292,-1.6056764,-1.0400532,-0.52401435,-1.7999631,1.0976883,0.5085195,-0.8396667,1,2,72260000000,2.41E+11,80436000000,7.09E+11,2384000000,2848000000,132000000,130000000,0,11483660,1.57E+11,1.15E+11,37771,2285304,12330000000,106.40996
quartz,0.9038483,-0.9324975,-0.7826999,-0.88205534,0.5179731,-1.2948885,1.0559374,0.9527292,-1.6056764,-1.0400532,-0.52401435,-1.7999631,1.0976883,0.5085195,-0.8396667,32,1.6166,85841750000,1.38E+11,47841313000,3.75E+11,364125000,196187500,63812500,44750000,0,11400,4838677500,23702948000,69875.875,2109753.2,4288687600,29.670645
quartz,0.9038483,-0.9324975,-0.7826999,-0.88205534,0.5179731,-1.2948885,1.0559374,0.9527292,-1.6056764,-1.0400532,-0.52401435,-1.7999631,1.0976883,0.5085195,-0.8396667,1,2.3166,83436000000,2.78E+11,92846000000,8.18E+11,2710000000,3292000000,182000000,146000000,0,13257360,1.81E+11,1.33E+11,37771,2302598,14140000000,121.17791
quartz,0.9038483,-0.9324975,-0.7826999,-0.88205534,0.5179731,-1.2948885,1.0559374,0.9527292,-1.6056764,-1.0400532,-0.52401435,-1.7999631,1.0976883,0.5085195,-0.8396667,32,1.85,99429250000,1.60E+11,55486624000,4.34E+11,413687500,224000000,73437500,51375000,0,11470.156,5691268600,27783428000,69875.875,2110247.5,4918625000,33.962204
quartz,0.9038483,-0.9324975,-0.7826999,-0.88205534,0.5179731,-1.2948885,1.0559374,0.9527292,-1.6056764,-1.0400532,-0.52401435,-1.7999631,1.0976883,0.5085195,-0.8396667,1,2.3666,83376000000,2.78E+11,92822000000,8.18E+11,2714000000,3290000000,128000000,116000000,0,13252974,1.81E+11,1.33E+11,37771,2302599,14426000000,119.087944
quartz,0.9038483,-0.9324975,-0.7826999,-0.88205534,0.5179731,-1.2948885,1.0559374,0.9527292,-1.6056764,-1.0400532,-0.52401435,-1.7999631,1.0976883,0.5085195,-0.8396667,32,1.9,99693810000,1.60E+11,55626064000,4.35E+11,421562500,228187500,73250000,52062500,0,11338.625,5691152000,28195246000,69875.875,2110247.5,4972000000,34.743095
quartz,0.9038483,-0.9324975,-0.7826999,-0.88205534,0.5179731,-1.2948885,1.0559374,0.9527292,-1.6056764,-1.0400532,-0.52401435,-1.7999631,1.0976883,0.5085195,-0.8396667,1,2.5833,93430000000,3.11E+11,1.04E+11,9.17E+11,3024000000,3688000000,134000000,138000000,0,14852424,2.03E+11,1.49E+11,37771,2318277,15916000000,134.10262
quartz,0.9038483,-0.9324975,-0.7826999,-0.88205534,0.5179731,-1.2948885,1.0559374,0.9527292,-1.6056764,-1.0400532,-0.52401435,-1.7999631,1.0976883,0.5085195,-0.8396667,32,1.9833,1.07E+11,1.72E+11,59961560000,4.69E+11,464062500,252562500,81437500,57750000,0,11344.281,6283262000,30743431000,69843.875,2110786.5,5667937300,39.18779
quartz,0.9038483,-0.9324975,-0.7826999,-0.88205534,0.5179731,-1.2948885,1.0559374,0.9527292,-1.6056764,-1.0400532,-0.52401435,-1.7999631,1.0976883,0.5085195,-0.8396667,1,2.55,93462000000,3.11E+11,1.04E+11,9.17E+11,3026000000,3686000000,140000000,134000000,0,14852316,2.03E+11,1.49E+11,37771,2318278,16520000000,137.1667
quartz,0.9038483,-0.9324975,-0.7826999,-0.88205534,0.5179731,-1.2948885,1.0559374,0.9527292,-1.6056764,-1.0400532,-0.52401435,-1.7999631,1.0976883,0.5085195,-0.8396667,32,2.0833,1.12E+11,1.80E+11,62300500000,4.88E+11,468062500,253187500,84187500,58812500,0,11317,6378038300,30799225000,69843.875,2110736.5,5644937700,39.13899
quartz,0.9038483,-0.9324975,-0.7826999,-0.88205534,0.5179731,-1.2948885,1.0559374,0.9527292,-1.6056764,-1.0400532,-0.52401435,-1.7999631,1.0976883,0.5085195,-0.8396667,1,0.7333,18722000000,77512000000,27208000000,2.21E+11,688000000,712000000,50000000,30000000,0,30887940,77792290000,37168080000,37771,2189549,5748000000,38.54633
quartz,0.9038483,-0.9324975,-0.7826999,-0.88205534,0.5179731,-1.2948885,1.0559374,0.9527292,-1.6056764,-1.0400532,-0.52401435,-1.7999631,1.0976883,0.5085195,-0.8396667,32,0.6,29098437000,45337750000,16517188000,1.26E+11,150875000,98937500,27437500,18250000,0,877977.6,2441696800,8667591000,69875.875,2106774.5,1816687500,13.436914
quartz,0.9038483,-0.9324975,-0.7826999,-0.88205534,0.5179731,-1.2948885,1.0559374,0.9527292,-1.6056764,-1.0400532,-0.52401435,-1.7999631,1.0976883,0.5085195,-0.8396667,1,0.75,18722000000,77512000000,27208000000,2.21E+11,712000000,712000000,40000000,24000000,0,30885180,77796750000,37167428000,37771,2189547,5680000000,38.542706
quartz,0.9038483,-0.9324975,-0.7826999,-0.88205534,0.5179731,-1.2948885,1.0559374,0.9527292,-1.6056764,-1.0400532,-0.52401435,-1.7999631,1.0976883,0.5085195,-0.8396667,32,0.6,28018250000,43730375000,15984312000,1.22E+11,151000000,98750000,27187500,18000000,0,877844.1,2441625300,8599875000,69875.875,2106774.5,1812000000,13.475415
quartz,0.9038483,-0.9324975,-0.7826999,-0.88205534,0.5179731,-1.2948885,1.0559374,0.9527292,-1.6056764,-1.0400532,-0.52401435,-1.7999631,1.0976883,0.5085195,-0.8396667,1,0.9,23430000000,96882000000,34004000000,2.76E+11,842000000,894000000,44000000,28000000,0,37530644,97270320000,46548090000,37771,2193877,7080000000,49.217785
quartz,0.9038483,-0.9324975,-0.7826999,-0.88205534,0.5179731,-1.2948885,1.0559374,0.9527292,-1.6056764,-1.0400532,-0.52401435,-1.7999631,1.0976883,0.5085195,-0.8396667,32,0.7333,35964686000,56082186000,20447562000,1.56E+11,188875000,123875000,34062500,22812500,0,1060727.8,3053258000,10897859000,69874.91,2106909.5,2246437400,16.801952
quartz,0.9038483,-0.9324975,-0.7826999,-0.88205534,0.5179731,-1.2948885,1.0559374,0.9527292,-1.6056764,-1.0400532,-0.52401435,-1.7999631,1.0976883,0.5085195,-0.8396667,1,0.9333,23410000000,96868000000,33998000000,2.76E+11,832000000,886000000,46000000,28000000,0,37528036,97269514000,46601605000,37771,2193877,7172000000,48.350727
quartz,0.9038483,-0.9324975,-0.7826999,-0.88205534,0.5179731,-1.2948885,1.0559374,0.9527292,-1.6056764,-1.0400532,-0.52401435,-1.7999631,1.0976883,0.5085195,-0.8396667,32,0.75,36527313000,56886750000,20722874000,1.59E+11,188875000,123437500,33562500,22687500,0,1060607.4,3053348900,10838375000,69843.875,2106908.8,2264437500,16.816292
quartz,0.9038483,-0.9324975,-0.7826999,-0.88205534,0.5179731,-1.2948885,1.0559374,0.9527292,-1.6056764,-1.0400532,-0.52401435,-1.7999631,1.0976883,0.5085195,-0.8396667,1,1.1166,28932000000,1.20E+11,41974000000,3.41E+11,1048000000,1098000000,64000000,38000000,0,45827496,1.20E+11,57354273000,37771,2199060,8742000000,58.927597
quartz,0.9038483,-0.9324975,-0.7826999,-0.88205534,0.5179731,-1.2948885,1.0559374,0.9527292,-1.6056764,-1.0400532,-0.52401435,-1.7999631,1.0976883,0.5085195,-0.8396667,32,0.9166,46582313000,72461880000,26313812000,2.02E+11,235375000,154562500,42875000,28437500,0,1291407.9,3768517600,13530767000,69874.91,2107071.5,2801375000,20.7866
quartz,0.9038483,-0.9324975,-0.7826999,-0.88205534,0.5179731,-1.2948885,1.0559374,0.9527292,-1.6056764,-1.0400532,-0.52401435,-1.7999631,1.0976883,0.5085195,-0.8396667,1,1.1333,28912000000,1.20E+11,41966000000,3.41E+11,1046000000,1100000000,88000000,50000000,0,45820564,1.20E+11,57318960000,37771,2199060,8646000000,64.7088
quartz,0.9038483,-0.9324975,-0.7826999,-0.88205534,0.5179731,-1.2948885,1.0559374,0.9527292,-1.6056764,-1.0400532,-0.52401435,-1.7999631,1.0976883,0.5085195,-0.8396667,32,0.8833,44988064000,70075940000,25534876000,1.95E+11,234125000,154000000,41812500,28500000,0,1291325.6,3768891600,13343359000,69843.875,2107070.5,2776187400,20.862324
quartz,0.9038483,-0.9324975,-0.7826999,-0.88205534,0.5179731,-1.2948885,1.0559374,0.9527292,-1.6056764,-1.0400532,-0.52401435,-1.7999631,1.0976883,0.5085195,-0.8396667,1,1.3166,33672000000,1.39E+11,48864000000,3.97E+11,1202000000,1278000000,66000000,42000000,0,52841104,1.40E+11,66583515000,37771,2203455,10208000000,70.2595
quartz,0.9038483,-0.9324975,-0.7826999,-0.88205534,0.5179731,-1.2948885,1.0559374,0.9527292,-1.6056764,-1.0400532,-0.52401435,-1.7999631,1.0976883,0.5085195,-0.8396667,32,1,51387376000,80156380000,29244250000,2.23E+11,273562500,179750000,49562500,33000000,0,1485828.9,4386654000,15606139000,69875.875,2107209,3280937500,24.480553
quartz,0.9038483,-0.9324975,-0.7826999,-0.88205534,0.5179731,-1.2948885,1.0559374,0.9527292,-1.6056764,-1.0400532,-0.52401435,-1.7999631,1.0976883,0.5085195,-0.8396667,1,1.3166,33638000000,1.39E+11,48848000000,3.96E+11,1228000000,1276000000,66000000,40000000,0,52842270,1.40E+11,66520383000,37771,2203455,10120000000,69.97196
quartz,0.9038483,-0.9324975,-0.7826999,-0.88205534,0.5179731,-1.2948885,1.0559374,0.9527292,-1.6056764,-1.0400532,-0.52401435,-1.7999631,1.0976883,0.5085195,-0.8396667,32,0.9833,51008250000,79576560000,29062937000,2.22E+11,273312500,178875000,48875000,33062500,0,1485954.6,4386556400,15534772000,69874.91,2107209,3264750000,24.723665
quartz,0.9038483,-0.9324975,-0.7826999,-0.88205534,0.5179731,-1.2948885,1.0559374,0.9527292,-1.6056764,-1.0400532,-0.52401435,-1.7999631,1.0976883,0.5085195,-0.8396667,1,1.4666,37626000000,1.56E+11,54636000000,4.43E+11,1354000000,1430000000,78000000,50000000,0,57829760,1.56E+11,74223075000,37771,2207296,11358000000,78.77811
quartz,0.9038483,-0.9324975,-0.7826999,-0.88205534,0.5179731,-1.2948885,1.0559374,0.9527292,-1.6056764,-1.0400532,-0.52401435,-1.7999631,1.0976883,0.5085195,-0.8396667,32,1.1166,57890810000,90233130000,32917688000,2.51E+11,306125000,200000000,56625000,37437500,0,1620399.2,4905395700,17300132000,69875.875,2107329,3676250000,27.342798
quartz,0.9038483,-0.9324975,-0.7826999,-0.88205534,0.5179731,-1.2948885,1.0559374,0.9527292,-1.6056764,-1.0400532,-0.52401435,-1.7999631,1.0976883,0.5085195,-0.8396667,1,1.4666,37640000000,1.56E+11,54640000000,4.43E+11,1342000000,1432000000,76000000,44000000,0,57828704,1.56E+11,74232726000,37771,2207296,11480000000,77.888954
quartz,0.9038483,-0.9324975,-0.7826999,-0.88205534,0.5179731,-1.2948885,1.0559374,0.9527292,-1.6056764,-1.0400532,-0.52401435,-1.7999631,1.0976883,0.5085195,-0.8396667,32,1.1166,58499750000,91176560000,33213563000,2.54E+11,304437500,199562500,55750000,37625000,0,1620358.2,4905068500,17247316000,69874.91,2107329,3630687500,27.147861
quartz,0.9038483,-0.9324975,-0.7826999,-0.88205534,0.5179731,-1.2948885,1.0559374,0.9527292,-1.6056764,-1.0400532,-0.52401435,-1.7999631,1.0976883,0.5085195,-0.8396667,1,1.5833,40972000000,1.70E+11,59530000000,4.83E+11,1510000000,1566000000,76000000,46000000,0,61894904,1.70E+11,80802720000,37771,2210591,12370000000,84.16643
quartz,0.9038483,-0.9324975,-0.7826999,-0.88205534,0.5179731,-1.2948885,1.0559374,0.9527292,-1.6056764,-1.0400532,-0.52401435,-1.7999631,1.0976883,0.5085195,-0.8396667,32,1.2166,63058125000,98347620000,35844250000,2.74E+11,333062500,217812500,61750000,40875000,0,1730346.2,5342603000,19157815000,69874.91,2107432,3956750000,30.352957
quartz,0.9038483,-0.9324975,-0.7826999,-0.88205534,0.5179731,-1.2948885,1.0559374,0.9527292,-1.6056764,-1.0400532,-0.52401435,-1.7999631,1.0976883,0.5085195,-0.8396667,1,1.6,40924000000,1.70E+11,59510000000,4.83E+11,1508000000,1562000000,112000000,66000000,0,61886440,1.70E+11,80808346000,37771,2210591,12452000000,83.9191
quartz,0.9038483,-0.9324975,-0.7826999,-0.88205534,0.5179731,-1.2948885,1.0559374,0.9527292,-1.6056764,-1.0400532,-0.52401435,-1.7999631,1.0976883,0.5085195,-0.8396667,32,1.1833,62311000000,97208380000,35480500000,2.71E+11,332062500,216750000,59875000,40500000,0,1730408,5341817300,18811330000,69842.91,2107431,4012562400,29.67027
quartz,0.9038483,-0.9324975,-0.7826999,-0.88205534,0.5179731,-1.2948885,1.0559374,0.9527292,-1.6056764,-1.0400532,-0.52401435,-1.7999631,1.0976883,0.5085195,-0.8396667,1,13.1666,3.23E+11,1.59E+12,5.58E+11,4.43E+12,23698000000,15880000000,2086000000,2114000000,0,605937200,1.66E+12,7.69E+11,37771,2215571,1.29E+11,798.9337
quartz,0.9038483,-0.9324975,-0.7826999,-0.88205534,0.5179731,-1.2948885,1.0559374,0.9527292,-1.6056764,-1.0400532,-0.52401435,-1.7999631,1.0976883,0.5085195,-0.8396667,32,2.3,1.06E+11,1.93E+11,70531500000,5.44E+11,1022250000,976125000,153437500,103375000,0,17797830,51838730000,52121133000,69875.875,2107587.5,9979062000,76.40125
quartz,0.9038483,-0.9324975,-0.7826999,-0.88205534,0.5179731,-1.2948885,1.0559374,0.9527292,-1.6056764,-1.0400532,-0.52401435,-1.7999631,1.0976883,0.5085195,-0.8396667,1,13.2333,3.23E+11,1.59E+12,5.58E+11,4.43E+12,23714000000,15854000000,2036000000,2060000000,0,605288900,1.66E+12,7.69E+11,37771,2215571,1.29E+11,801.3889
quartz,0.9038483,-0.9324975,-0.7826999,-0.88205534,0.5179731,-1.2948885,1.0559374,0.9527292,-1.6056764,-1.0400532,-0.52401435,-1.7999631,1.0976883,0.5085195,-0.8396667,32,2.3666,1.09E+11,1.97E+11,71836000000,5.54E+11,1020625000,976000000,154500000,105062500,0,17797556,51838360000,52485685000,69842.91,2107586.5,9976250000,77.08473
quartz,0.9038483,-0.9324975,-0.7826999,-0.88205534,0.5179731,-1.2948885,1.0559374,0.9527292,-1.6056764,-1.0400532,-0.52401435,-1.7999631,1.0976883,0.5085195,-0.8396667,1,19.2833,4.31E+11,2.12E+12,7.46E+11,5.92E+12,31732000000,21260000000,3176000000,2858000000,0,779943400,2.21E+12,1.02E+12,37771,2230207,1.73E+11,1058.2034
quartz,0.9038483,-0.9324975,-0.7826999,-0.88205534,0.5179731,-1.2948885,1.0559374,0.9527292,-1.6056764,-1.0400532,-0.52401435,-1.7999631,1.0976883,0.5085195,-0.8396667,32,3.0333,1.38E+11,2.53E+11,92604120000,7.13E+11,1365812500,1308187500,207250000,139250000,0,22872636,69233670000,69600590000,69874.91,2108044.8,13385312000,103.136024
quartz,0.9038483,-0.9324975,-0.7826999,-0.88205534,0.5179731,-1.2948885,1.0559374,0.9527292,-1.6056764,-1.0400532,-0.52401435,-1.7999631,1.0976883,0.5085195,-0.8396667,1,19.2166,4.31E+11,2.12E+12,7.46E+11,5.92E+12,31810000000,21198000000,2672000000,2824000000,0,780217800,2.21E+12,1.02E+12,37771,2230207,1.71E+11,1050.9271
quartz,0.9038483,-0.9324975,-0.7826999,-0.88205534,0.5179731,-1.2948885,1.0559374,0.9527292,-1.6056764,-1.0400532,-0.52401435,-1.7999631,1.0976883,0.5085195,-0.8396667,32,3.1666,1.46E+11,2.64E+11,96328565000,7.43E+11,1371937500,1307687600,213000000,142000000,0,22872580,69234220000,69807776000,69875.875,2108045,13250688000,105.836876
quartz,0.9038483,-0.9324975,-0.7826999,-0.88205534,0.5179731,-1.2948885,1.0559374,0.9527292,-1.6056764,-1.0400532,-0.52401435,-1.7999631,1.0976883,0.5085195,-0.8396667,1,24.4333,5.37E+11,2.65E+12,9.29E+11,7.37E+12,39752000000,26498000000,3776000000,3900000000,0,909924800,2.75E+12,1.27E+12,37771,2244601,2.11E+11,1339.6306
quartz,0.9038483,-0.9324975,-0.7826999,-0.88205534,0.5179731,-1.2948885,1.0559374,0.9527292,-1.6056764,-1.0400532,-0.52401435,-1.7999631,1.0976883,0.5085195,-0.8396667,32,3.8,1.77E+11,3.21E+11,1.18E+11,9.06E+11,1701875000,1635812500,261812500,175937500,0,26631744,86247770000,86304660000,69875.875,2108494.8,16730125000,128.76813
quartz,0.9038483,-0.9324975,-0.7826999,-0.88205534,0.5179731,-1.2948885,1.0559374,0.9527292,-1.6056764,-1.0400532,-0.52401435,-1.7999631,1.0976883,0.5085195,-0.8396667,1,23.8666,5.36E+11,2.65E+12,9.29E+11,7.37E+12,39754000000,26522000000,3680000000,3552000000,0,909344300,2.75E+12,1.27E+12,37771,2244600,2.16E+11,1313.9603
quartz,0.9038483,-0.9324975,-0.7826999,-0.88205534,0.5179731,-1.2948885,1.0559374,0.9527292,-1.6056764,-1.0400532,-0.52401435,-1.7999631,1.0976883,0.5085195,-0.8396667,32,3.7833,1.73E+11,3.16E+11,1.16E+11,8.92E+11,1703875000,1631125000,264562500,178687500,0,26631878,86247680000,85817280000,69875.875,2108494.8,16706375000,127.96674
quartz,0.9038483,-0.9324975,-0.7826999,-0.88205534,0.5179731,-1.2948885,1.0559374,0.9527292,-1.6056764,-1.0400532,-0.52401435,-1.7999631,1.0976883,0.5085195,-0.8396667,1,26.1,5.80E+11,2.86E+12,1.00E+12,7.97E+12,42988000000,28638000000,3726000000,4100000000,0,954590100,2.98E+12,1.37E+12,37771,2250458,2.34E+11,1417.8696
quartz,0.9038483,-0.9324975,-0.7826999,-0.88205534,0.5179731,-1.2948885,1.0559374,0.9527292,-1.6056764,-1.0400532,-0.52401435,-1.7999631,1.0976883,0.5085195,-0.8396667,32,4.0666,1.90E+11,3.46E+11,1.27E+11,9.76E+11,1843812500,1769625000,280312500,187187500,0,27938016,93270370000,94296230000,69874.91,2108677.8,17962562000,137.6397
quartz,0.9038483,-0.9324975,-0.7826999,-0.88205534,0.5179731,-1.2948885,1.0559374,0.9527292,-1.6056764,-1.0400532,-0.52401435,-1.7999631,1.0976883,0.5085195,-0.8396667,1,26.3833,5.81E+11,2.86E+12,1.00E+12,7.97E+12,42956000000,28624000000,3974000000,4052000000,0,954453000,2.98E+12,1.37E+12,37771,2250458,2.35E+11,1426.5117
quartz,0.9038483,-0.9324975,-0.7826999,-0.88205534,0.5179731,-1.2948885,1.0559374,0.9527292,-1.6056764,-1.0400532,-0.52401435,-1.7999631,1.0976883,0.5085195,-0.8396667,32,4.1333,1.94E+11,3.51E+11,1.28E+11,9.89E+11,1848812500,1771750000,280250000,189937500,0,27937994,93270655000,93194190000,69875.875,2108677.8,18146626000,138.19852
quartz,0.9038483,-0.9324975,-0.7826999,-0.88205534,0.5179731,-1.2948885,1.0559374,0.9527292,-1.6056764,-1.0400532,-0.52401435,-1.7999631,1.0976883,0.5085195,-0.8396667,1,28.7666,6.36E+11,3.14E+12,1.10E+12,8.73E+12,47078000000,31442000000,4348000000,4064000000,0,1000674100,3.26E+12,1.50E+12,37771,2258111,2.56E+11,1561.7372
quartz,0.9038483,-0.9324975,-0.7826999,-0.88205534,0.5179731,-1.2948885,1.0559374,0.9527292,-1.6056764,-1.0400532,-0.52401435,-1.7999631,1.0976883,0.5085195,-0.8396667,32,4.3833,2.05E+11,3.75E+11,1.37E+11,1.06E+12,2020500000,1937437400,308937500,206625000,0,29274896,1.02E+11,1.04E+11,69874.91,2108917,19668875000,149.75745
quartz,0.9038483,-0.9324975,-0.7826999,-0.88205534,0.5179731,-1.2948885,1.0559374,0.9527292,-1.6056764,-1.0400532,-0.52401435,-1.7999631,1.0976883,0.5085195,-0.8396667,1,28.8166,6.36E+11,3.14E+12,1.10E+12,8.73E+12,46828000000,31420000000,4116000000,4368000000,0,1000579700,3.26E+12,1.50E+12,37771,2258112,2.56E+11,1554.4307
quartz,0.9038483,-0.9324975,-0.7826999,-0.88205534,0.5179731,-1.2948885,1.0559374,0.9527292,-1.6056764,-1.0400532,-0.52401435,-1.7999631,1.0976883,0.5085195,-0.8396667,32,4.45,2.08E+11,3.79E+11,1.39E+11,1.07E+12,2018687500,1939187500,307562500,206750000,0,29274546,1.02E+11,1.02E+11,69874.91,2108917,19708000000,150.95709
quartz,0.9038483,-0.9324975,-0.7826999,-0.88205534,0.5179731,-1.2948885,1.0559374,0.9527292,-1.6056764,-1.0400532,-0.52401435,-1.7999631,1.0976883,0.5085195,-0.8396667,1,33.5333,7.41E+11,3.66E+12,1.28E+12,1.02E+13,54730000000,36628000000,4946000000,4740000000,0,1107051900,3.80E+12,1.75E+12,37771,2273181,3.00E+11,1790.2119
quartz,0.9038483,-0.9324975,-0.7826999,-0.88205534,0.5179731,-1.2948885,1.0559374,0.9527292,-1.6056764,-1.0400532,-0.52401435,-1.7999631,1.0976883,0.5085195,-0.8396667,32,5.1666,2.41E+11,4.39E+11,1.61E+11,1.24E+12,2345437400,2251437600,357937500,241062500,0,32357040,1.19E+11,1.19E+11,69875.875,2109387.8,23036875000,174.80342
quartz,0.9038483,-0.9324975,-0.7826999,-0.88205534,0.5179731,-1.2948885,1.0559374,0.9527292,-1.6056764,-1.0400532,-0.52401435,-1.7999631,1.0976883,0.5085195,-0.8396667,1,33.7,7.41E+11,3.66E+12,1.28E+12,1.02E+13,54558000000,36592000000,5136000000,4920000000,0,1106701300,3.80E+12,1.75E+12,37771,2273181,2.99E+11,1791.6345
quartz,0.9038483,-0.9324975,-0.7826999,-0.88205534,0.5179731,-1.2948885,1.0559374,0.9527292,-1.6056764,-1.0400532,-0.52401435,-1.7999631,1.0976883,0.5085195,-0.8396667,32,5.3166,2.51E+11,4.54E+11,1.66E+11,1.28E+12,2349687600,2256250000,353750000,240687500,0,32356768,1.19E+11,1.18E+11,69875.875,2109387.8,23108874000,176.18634
quartz,0.9038483,-0.9324975,-0.7826999,-0.88205534,0.5179731,-1.2948885,1.0559374,0.9527292,-1.6056764,-1.0400532,-0.52401435,-1.7999631,1.0976883,0.5085195,-0.8396667,32,22.8166,7.10E+11,1.96E+12,7.08E+11,5.56E+12,16942750000,14521813000,2301687600,1847812500,0,466550980,1.38E+12,7.83E+11,69843.875,2110557,1.29E+11,1085.1766
quartz,0.9038483,-0.9324975,-0.7826999,-0.88205534,0.5179731,-1.2948885,1.0559374,0.9527292,-1.6056764,-1.0400532,-0.52401435,-1.7999631,1.0976883,0.5085195,-0.8396667,32,22.75,7.14E+11,1.97E+12,7.09E+11,5.56E+12,16913625000,14492188000,2298375000,1859250000,0,463103360,1.37E+12,7.79E+11,69842.91,2110532.2,1.28E+11,1079.9553
quartz,0.9038483,-0.9324975,-0.7826999,-0.88205534,0.5179731,-1.2948885,1.0559374,0.9527292,-1.6056764,-1.0400532,-0.52401435,-1.7999631,1.0976883,0.5085195,-0.8396667,32,26.1,8.18E+11,2.26E+12,8.16E+11,6.40E+12,19542624000,16738125000,2640687600,2148125000,0,512289250,1.58E+12,8.96E+11,69842.91,2111192.5,1.47E+11,1245.4136
quartz,0.9038483,-0.9324975,-0.7826999,-0.88205534,0.5179731,-1.2948885,1.0559374,0.9527292,-1.6056764,-1.0400532,-0.52401435,-1.7999631,1.0976883,0.5085195,-0.8396667,32,26.3833,8.31E+11,2.28E+12,8.23E+11,6.46E+12,19608938000,16804750000,2665687600,2153125000,0,513717150,1.59E+12,9.00E+11,69875.875,2111193.5,1.47E+11,1244.8444
quartz,0.9038483,-0.9324975,-0.7826999,-0.88205534,0.5179731,-1.2948885,1.0559374,0.9527292,-1.6056764,-1.0400532,-0.52401435,-1.7999631,1.0976883,0.5085195,-0.8396667,32,29.2166,9.20E+11,2.53E+12,9.13E+11,7.16E+12,21585562000,18520750000,2959500000,2362062600,0,546448600,1.75E+12,9.95E+11,69875.875,2111736.8,1.63E+11,1378.9652
quartz,0.9038483,-0.9324975,-0.7826999,-0.88205534,0.5179731,-1.2948885,1.0559374,0.9527292,-1.6056764,-1.0400532,-0.52401435,-1.7999631,1.0976883,0.5085195,-0.8396667,32,28.9166,9.09E+11,2.51E+12,9.04E+11,7.09E+12,21623000000,18524312000,2942562600,2378500000,0,544893400,1.75E+12,9.87E+11,69875.875,2111736.8,1.64E+11,1379.5125
quartz,0.9038483,-0.9324975,-0.7826999,-0.88205534,0.5179731,-1.2948885,1.0559374,0.9527292,-1.6056764,-1.0400532,-0.52401435,-1.7999631,1.0976883,0.5085195,-0.8396667,32,31.0666,9.78E+11,2.69E+12,9.71E+11,7.62E+12,23172313000,19858874000,3153250000,2538812400,0,574710400,1.87E+12,1.06E+12,69875.875,2112113,1.76E+11,1479.2839
quartz,0.9038483,-0.9324975,-0.7826999,-0.88205534,0.5179731,-1.2948885,1.0559374,0.9527292,-1.6056764,-1.0400532,-0.52401435,-1.7999631,1.0976883,0.5085195,-0.8396667,32,31.4666,9.94E+11,2.72E+12,9.82E+11,7.70E+12,23181375000,19859876000,3155125000,2527312400,0,576125250,1.88E+12,1.07E+12,69843.875,2112112,1.75E+11,1476.4784
quartz,0.9038483,-0.9324975,-0.7826999,-0.88205534,0.5179731,-1.2948885,1.0559374,0.9527292,-1.6056764,-1.0400532,-0.52401435,-1.7999631,1.0976883,0.5085195,-0.8396667,32,34.35,1.08E+12,2.98E+12,1.08E+12,8.43E+12,25611063000,21939374000,3450687500,2825312500,0,624290300,2.08E+12,1.18E+12,69874.91,2112773,1.95E+11,1639.5289
quartz,0.9038483,-0.9324975,-0.7826999,-0.88205534,0.5179731,-1.2948885,1.0559374,0.9527292,-1.6056764,-1.0400532,-0.52401435,-1.7999631,1.0976883,0.5085195,-0.8396667,32,34.85,1.11E+12,3.01E+12,1.09E+12,8.52E+12,25618063000,21950500000,3473187600,2817687600,0,624289900,2.08E+12,1.18E+12,69843.875,2112766.5,1.94E+11,1635.0013
quartz,0.9038483,-0.9324975,-0.7826999,-0.88205534,0.5179731,-1.2948885,1.0559374,0.9527292,-1.6056764,-1.0400532,-0.52401435,-1.7999631,1.0976883,0.5085195,-0.8396667,32,47.5666,1.51E+12,4.13E+12,1.49E+12,1.17E+13,35462623000,30419313000,4819500000,3916250000,0,821297400,2.87E+12,1.63E+12,69875.875,2115255,2.70E+11,2285.3977
quartz,0.9038483,-0.9324975,-0.7826999,-0.88205534,0.5179731,-1.2948885,1.0559374,0.9527292,-1.6056764,-1.0400532,-0.52401435,-1.7999631,1.0976883,0.5085195,-0.8396667,32,47.4333,1.51E+12,4.12E+12,1.49E+12,1.16E+13,35273314000,30238188000,4792625000,3848562400,0,820997950,2.87E+12,1.63E+12,69875.875,2115213,2.69E+11,2273.7625
quartz,0.9038483,-0.9324975,-0.7826999,-0.88205534,0.5179731,-1.2948885,1.0559374,0.9527292,-1.6056764,-1.0400532,-0.52401435,-1.7999631,1.0976883,0.5085195,-0.8396667,1,0.05,1756000000,2510000000,734000000,8498000000,18000000,8000000,0,0,0,1118229,1118039300,809434750,37771,2188654,98000000,1.327392
quartz,0.9038483,-0.9324975,-0.7826999,-0.88205534,0.5179731,-1.2948885,1.0559374,0.9527292,-1.6056764,-1.0400532,-0.52401435,-1.7999631,1.0976883,0.5085195,-0.8396667,1,0.05,1754000000,2512000000,736000000,8502000000,24000000,8000000,0,0,0,1117884,1116848300,806487700,37771,2188656,100000000,1.301731
quartz,0.9038483,-0.9324975,-0.7826999,-0.88205534,0.5179731,-1.2948885,1.0559374,0.9527292,-1.6056764,-1.0400532,-0.52401435,-1.7999631,1.0976883,0.5085195,-0.8396667,1,0.0666,2042000000,2918000000,856000000,9888000000,30000000,10000000,0,0,0,1298632,1299900000,939595840,37771,2191342,122000000,1.533389
quartz,0.9038483,-0.9324975,-0.7826999,-0.88205534,0.5179731,-1.2948885,1.0559374,0.9527292,-1.6056764,-1.0400532,-0.52401435,-1.7999631,1.0976883,0.5085195,-0.8396667,1,0.0666,2042000000,2920000000,856000000,9890000000,22000000,10000000,0,0,0,1299480,1300076300,938308740,37771,2191342,120000000,1.53322
quartz,0.9038483,-0.9324975,-0.7826999,-0.88205534,0.5179731,-1.2948885,1.0559374,0.9527292,-1.6056764,-1.0400532,-0.52401435,-1.7999631,1.0976883,0.5085195,-0.8396667,1,0.0666,2200000000,3148000000,922000000,10662000000,30000000,10000000,0,0,0,1400032,1401966700,1012713200,37771,2192865,122000000,1.665316
quartz,0.9038483,-0.9324975,-0.7826999,-0.88205534,0.5179731,-1.2948885,1.0559374,0.9527292,-1.6056764,-1.0400532,-0.52401435,-1.7999631,1.0976883,0.5085195,-0.8396667,1,0.0666,2202000000,3150000000,922000000,10660000000,34000000,12000000,2000000,0,0,1400057,1400545200,1015182300,37771,2192864,130000000,1.747685
quartz,0.9038483,-0.9324975,-0.7826999,-0.88205534,0.5179731,-1.2948885,1.0559374,0.9527292,-1.6056764,-1.0400532,-0.52401435,-1.7999631,1.0976883,0.5085195,-0.8396667,1,0.05,2380000000,3412000000,996000000,11550000000,30000000,12000000,2000000,0,0,1517696,1516191900,1097863700,37771,2194669,132000000,1.776994
quartz,0.9038483,-0.9324975,-0.7826999,-0.88205534,0.5179731,-1.2948885,1.0559374,0.9527292,-1.6056764,-1.0400532,-0.52401435,-1.7999631,1.0976883,0.5085195,-0.8396667,1,0.05,2384000000,3412000000,998000000,11546000000,38000000,12000000,0,0,0,1518686,1517516300,1098457600,37771,2194669,136000000,1.783772
quartz,0.9038483,-0.9324975,-0.7826999,-0.88205534,0.5179731,-1.2948885,1.0559374,0.9527292,-1.6056764,-1.0400532,-0.52401435,-1.7999631,1.0976883,0.5085195,-0.8396667,1,0.0666,2672000000,3822000000,1120000000,12942000000,26000000,14000000,0,0,0,1700048,1698003600,1230008000,37771,2197352,158000000,2.005884
quartz,0.9038483,-0.9324975,-0.7826999,-0.88205534,0.5179731,-1.2948885,1.0559374,0.9527292,-1.6056764,-1.0400532,-0.52401435,-1.7999631,1.0976883,0.5085195,-0.8396667,1,0.0666,2672000000,3822000000,1118000000,12944000000,38000000,12000000,0,0,0,1699667,1700449800,1229324500,37771,2197352,160000000,2.00699
quartz,0.9038483,-0.9324975,-0.7826999,-0.88205534,0.5179731,-1.2948885,1.0559374,0.9527292,-1.6056764,-1.0400532,-0.52401435,-1.7999631,1.0976883,0.5085195,-0.8396667,1,0.0833,2916000000,4172000000,1220000000,14128000000,40000000,14000000,2000000,0,0,1857673,1855232300,1339019900,37771,2199671,172000000,2.319004
quartz,0.9038483,-0.9324975,-0.7826999,-0.88205534,0.5179731,-1.2948885,1.0559374,0.9527292,-1.6056764,-1.0400532,-0.52401435,-1.7999631,1.0976883,0.5085195,-0.8396667,1,0.0666,2918000000,4172000000,1222000000,14126000000,46000000,16000000,2000000,0,0,1855347,1854279700,1339390300,37771,2199672,170000000,2.199857
quartz,0.9038483,-0.9324975,-0.7826999,-0.88205534,0.5179731,-1.2948885,1.0559374,0.9527292,-1.6056764,-1.0400532,-0.52401435,-1.7999631,1.0976883,0.5085195,-0.8396667,1,0.2,8380000000,20164000000,6518000000,61854000000,200000000,168000000,8000000,6000000,0,3312123,11848127000,8459776000,37771,2210870,966000000,8.921564
quartz,0.9038483,-0.9324975,-0.7826999,-0.88205534,0.5179731,-1.2948885,1.0559374,0.9527292,-1.6056764,-1.0400532,-0.52401435,-1.7999631,1.0976883,0.5085195,-0.8396667,32,0.5,24319062000,38246437000,13239437000,1.03E+11,78062500,33375000,12625000,8500000,0,12273.8125,374480000,5353670000,69875.875,2107440.5,1025687500,7.278402
quartz,0.9038483,-0.9324975,-0.7826999,-0.88205534,0.5179731,-1.2948885,1.0559374,0.9527292,-1.6056764,-1.0400532,-0.52401435,-1.7999631,1.0976883,0.5085195,-0.8396667,1,0.2,8380000000,20168000000,6520000000,61850000000,240000000,168000000,8000000,6000000,0,3312251,11849191000,8455499300,37771,2210870,980000000,8.893593
quartz,0.9038483,-0.9324975,-0.7826999,-0.88205534,0.5179731,-1.2948885,1.0559374,0.9527292,-1.6056764,-1.0400532,-0.52401435,-1.7999631,1.0976883,0.5085195,-0.8396667,32,0.5,24786813000,38951186000,13471750000,1.05E+11,78062500,33000000,12812500,8500000,0,12634.156,374465000,5573401600,69875.875,2107440.5,1029687500,7.1969614
quartz,0.9038483,-0.9324975,-0.7826999,-0.88205534,0.5179731,-1.2948885,1.0559374,0.9527292,-1.6056764,-1.0400532,-0.52401435,-1.7999631,1.0976883,0.5085195,-0.8396667,1,0.2166,9580000000,23056000000,7454000000,70716000000,200000000,192000000,8000000,6000000,0,3786790,13544381000,9661558000,37771,2216423,1118000000,10.558424
quartz,0.9038483,-0.9324975,-0.7826999,-0.88205534,0.5179731,-1.2948885,1.0559374,0.9527292,-1.6056764,-1.0400532,-0.52401435,-1.7999631,1.0976883,0.5085195,-0.8396667,32,0.5666,26488312000,41713877000,14485625000,1.13E+11,89312500,37937500,14812500,9875000,0,13038.719,428087170,6222552600,69843.875,2107613.2,1175562500,8.163866
quartz,0.9038483,-0.9324975,-0.7826999,-0.88205534,0.5179731,-1.2948885,1.0559374,0.9527292,-1.6056764,-1.0400532,-0.52401435,-1.7999631,1.0976883,0.5085195,-0.8396667,1,0.2166,9568000000,23052000000,7448000000,70710000000,236000000,190000000,10000000,6000000,0,3786498,13541618000,9667787000,37771,2216422,1120000000,10.172936
quartz,0.9038483,-0.9324975,-0.7826999,-0.88205534,0.5179731,-1.2948885,1.0559374,0.9527292,-1.6056764,-1.0400532,-0.52401435,-1.7999631,1.0976883,0.5085195,-0.8396667,32,0.5666,27704938000,43569310000,15087563000,1.18E+11,89500000,37937500,15187500,9875000,0,13298.469,428084030,6328871400,69843.875,2107613.2,1176437500,8.273859
quartz,0.9038483,-0.9324975,-0.7826999,-0.88205534,0.5179731,-1.2948885,1.0559374,0.9527292,-1.6056764,-1.0400532,-0.52401435,-1.7999631,1.0976883,0.5085195,-0.8396667,1,0.2333,10228000000,24622000000,7958000000,75506000000,232000000,204000000,10000000,8000000,0,4041972,14466353000,10328948000,37771,2219491,1186000000,11.416751
quartz,0.9038483,-0.9324975,-0.7826999,-0.88205534,0.5179731,-1.2948885,1.0559374,0.9527292,-1.6056764,-1.0400532,-0.52401435,-1.7999631,1.0976883,0.5085195,-0.8396667,32,0.5666,27915688000,43961627000,15282437000,1.19E+11,95187500,39812500,15937500,10812500,0,11801.9375,457191680,6779618000,69875.875,2107710,1231562500,8.813869
quartz,0.9038483,-0.9324975,-0.7826999,-0.88205534,0.5179731,-1.2948885,1.0559374,0.9527292,-1.6056764,-1.0400532,-0.52401435,-1.7999631,1.0976883,0.5085195,-0.8396667,1,0.25,10228000000,24614000000,7956000000,75516000000,234000000,204000000,10000000,8000000,0,4041983,14465784000,10330134000,37771,2219491,1170000000,10.956007
quartz,0.9038483,-0.9324975,-0.7826999,-0.88205534,0.5179731,-1.2948885,1.0559374,0.9527292,-1.6056764,-1.0400532,-0.52401435,-1.7999631,1.0976883,0.5085195,-0.8396667,32,0.5833,28494813000,44844814000,15570125000,1.21E+11,95625000,39937500,16062500,10562500,0,12838.5,457225950,6877921000,69843.875,2107709,1249437400,8.798682
quartz,0.9038483,-0.9324975,-0.7826999,-0.88205534,0.5179731,-1.2948885,1.0559374,0.9527292,-1.6056764,-1.0400532,-0.52401435,-1.7999631,1.0976883,0.5085195,-0.8396667,1,0.2333,11170000000,26890000000,8692000000,82486000000,272000000,224000000,12000000,6000000,0,4415216,15793696000,11283377000,37771,2223938,1330000000,11.925638
quartz,0.9038483,-0.9324975,-0.7826999,-0.88205534,0.5179731,-1.2948885,1.0559374,0.9527292,-1.6056764,-1.0400532,-0.52401435,-1.7999631,1.0976883,0.5085195,-0.8396667,32,0.65,32028062000,50382500000,17456876000,1.36E+11,104187500,44000000,17500000,11750000,0,12520.1875,499414340,7150915000,69875.875,2107849,1349375000,9.524466
quartz,0.9038483,-0.9324975,-0.7826999,-0.88205534,0.5179731,-1.2948885,1.0559374,0.9527292,-1.6056764,-1.0400532,-0.52401435,-1.7999631,1.0976883,0.5085195,-0.8396667,1,0.2666,11172000000,26888000000,8692000000,82484000000,220000000,224000000,10000000,6000000,0,4414645,15801578000,11284240000,37771,2223938,1308000000,13.556022
quartz,0.9038483,-0.9324975,-0.7826999,-0.88205534,0.5179731,-1.2948885,1.0559374,0.9527292,-1.6056764,-1.0400532,-0.52401435,-1.7999631,1.0976883,0.5085195,-0.8396667,32,0.6333,31862750000,50128000000,17375187000,1.36E+11,105812500,45312500,17125000,11812500,0,13238.969,499359900,7201774600,69875.875,2107849,1378000000,9.599646
quartz,0.9038483,-0.9324975,-0.7826999,-0.88205534,0.5179731,-1.2948885,1.0559374,0.9527292,-1.6056764,-1.0400532,-0.52401435,-1.7999631,1.0976883,0.5085195,-0.8396667,1,0.2666,12566000000,30246000000,9778000000,92782000000,310000000,252000000,12000000,8000000,0,4965776,17768577000,12697721000,37771,2230463,1446000000,14.613785
quartz,0.9038483,-0.9324975,-0.7826999,-0.88205534,0.5179731,-1.2948885,1.0559374,0.9527292,-1.6056764,-1.0400532,-0.52401435,-1.7999631,1.0976883,0.5085195,-0.8396667,32,0.7166,35569440000,55983563000,19409687000,1.51E+11,118125000,49625000,19750000,13375000,0,12368.094,561803900,8183672300,69875.875,2108053,1525375000,10.631737
quartz,0.9038483,-0.9324975,-0.7826999,-0.88205534,0.5179731,-1.2948885,1.0559374,0.9527292,-1.6056764,-1.0400532,-0.52401435,-1.7999631,1.0976883,0.5085195,-0.8396667,1,0.2833,12568000000,30246000000,9778000000,92780000000,336000000,250000000,12000000,8000000,0,4966253,17772513000,12693415000,37771,2230463,1480000000,13.41602
quartz,0.9038483,-0.9324975,-0.7826999,-0.88205534,0.5179731,-1.2948885,1.0559374,0.9527292,-1.6056764,-1.0400532,-0.52401435,-1.7999631,1.0976883,0.5085195,-0.8396667,32,0.7166,33930938000,53441438000,18594376000,1.45E+11,118250000,49812500,19750000,13500000,0,12022.75,561818560,8319708700,69875.875,2108053,1532687500,10.608748
quartz,0.9038483,-0.9324975,-0.7826999,-0.88205534,0.5179731,-1.2948885,1.0559374,0.9527292,-1.6056764,-1.0400532,-0.52401435,-1.7999631,1.0976883,0.5085195,-0.8396667,1,0.2833,13582000000,32702000000,10572000000,1.00E+11,270000000,272000000,14000000,10000000,0,5366379,19209515000,13718615000,37771,2235223,1600000000,14.471437
quartz,0.9038483,-0.9324975,-0.7826999,-0.88205534,0.5179731,-1.2948885,1.0559374,0.9527292,-1.6056764,-1.0400532,-0.52401435,-1.7999631,1.0976883,0.5085195,-0.8396667,32,0.75,39076560000,61473124000,21290187000,1.66E+11,126125000,53937500,21500000,14562500,0,12813.0625,607372800,8774684000,69875.875,2108201.8,1675687600,11.61436
quartz,0.9038483,-0.9324975,-0.7826999,-0.88205534,0.5179731,-1.2948885,1.0559374,0.9527292,-1.6056764,-1.0400532,-0.52401435,-1.7999631,1.0976883,0.5085195,-0.8396667,1,0.2833,13582000000,32694000000,10568000000,1.00E+11,330000000,268000000,14000000,10000000,0,5366214,19213326000,13715676000,37771,2235222,1588000000,14.838844
quartz,0.9038483,-0.9324975,-0.7826999,-0.88205534,0.5179731,-1.2948885,1.0559374,0.9527292,-1.6056764,-1.0400532,-0.52401435,-1.7999631,1.0976883,0.5085195,-0.8396667,32,0.7666,38646436000,60816376000,21078063000,1.64E+11,127312500,53875000,21437500,14562500,0,12388.031,607381500,9036524000,69875.875,2108201.5,1653250000,11.48801
quartz,0.9038483,-0.9324975,-0.7826999,-0.88205534,0.5179731,-1.2948885,1.0559374,0.9527292,-1.6056764,-1.0400532,-0.52401435,-1.7999631,1.0976883,0.5085195,-0.8396667,1,0.6833,16596000000,67398000000,24292000000,1.98E+11,554000000,606000000,34000000,22000000,0,15302116,68484370000,37906470000,37771,2188660,5098000000,36.39926
quartz,0.9038483,-0.9324975,-0.7826999,-0.88205534,0.5179731,-1.2948885,1.0559374,0.9527292,-1.6056764,-1.0400532,-0.52401435,-1.7999631,1.0976883,0.5085195,-0.8396667,32,0.5,22863688000,35743187000,13083312000,99840690000,123000000,80625000,22125000,14500000,0,409190.1,2149376300,7397266400,69875.875,2106746.5,1486812500,11.271088
quartz,0.9038483,-0.9324975,-0.7826999,-0.88205534,0.5179731,-1.2948885,1.0559374,0.9527292,-1.6056764,-1.0400532,-0.52401435,-1.7999631,1.0976883,0.5085195,-0.8396667,1,0.6833,16594000000,67392000000,24292000000,1.98E+11,574000000,604000000,38000000,22000000,0,15301633,68483150000,37893010000,37771,2188660,5152000000,36.083202
quartz,0.9038483,-0.9324975,-0.7826999,-0.88205534,0.5179731,-1.2948885,1.0559374,0.9527292,-1.6056764,-1.0400532,-0.52401435,-1.7999631,1.0976883,0.5085195,-0.8396667,32,0.55,23959626000,37367124000,13619687000,1.04E+11,123062500,79625000,22187500,14750000,0,409340.94,2148695600,7522894300,69874.91,2106746.5,1492312400,11.430726
quartz,0.9038483,-0.9324975,-0.7826999,-0.88205534,0.5179731,-1.2948885,1.0559374,0.9527292,-1.6056764,-1.0400532,-0.52401435,-1.7999631,1.0976883,0.5085195,-0.8396667,1,0.8,19312000000,78470000000,28272000000,2.30E+11,660000000,704000000,38000000,24000000,0,17830456,79734776000,44082995000,37771,2191346,5984000000,42.30513
quartz,0.9038483,-0.9324975,-0.7826999,-0.88205534,0.5179731,-1.2948885,1.0559374,0.9527292,-1.6056764,-1.0400532,-0.52401435,-1.7999631,1.0976883,0.5085195,-0.8396667,32,0.5833,27899376000,43508937000,15861562000,1.21E+11,143187500,94437500,26062500,17187500,0,475619.56,2501775600,8539343000,69843.875,2106829.5,1709625000,13.164627
quartz,0.9038483,-0.9324975,-0.7826999,-0.88205534,0.5179731,-1.2948885,1.0559374,0.9527292,-1.6056764,-1.0400532,-0.52401435,-1.7999631,1.0976883,0.5085195,-0.8396667,1,0.8166,19318000000,78474000000,28276000000,2.30E+11,638000000,704000000,38000000,22000000,0,17830366,79736080000,44079178000,37771,2191345,6088000000,42.449818
quartz,0.9038483,-0.9324975,-0.7826999,-0.88205534,0.5179731,-1.2948885,1.0559374,0.9527292,-1.6056764,-1.0400532,-0.52401435,-1.7999631,1.0976883,0.5085195,-0.8396667,32,0.5833,27369562000,42713125000,15602250000,1.19E+11,143937500,93875000,26000000,17312500,0,475213.75,2502462000,8615977000,69875.875,2106830.5,1701937500,13.043292
quartz,0.9038483,-0.9324975,-0.7826999,-0.88205534,0.5179731,-1.2948885,1.0559374,0.9527292,-1.6056764,-1.0400532,-0.52401435,-1.7999631,1.0976883,0.5085195,-0.8396667,1,0.8666,20846000000,84638000000,30500000000,2.48E+11,718000000,760000000,44000000,26000000,0,19215046,85985980000,47484730000,37771,2192868,6482000000,46.650097
quartz,0.9038483,-0.9324975,-0.7826999,-0.88205534,0.5179731,-1.2948885,1.0559374,0.9527292,-1.6056764,-1.0400532,-0.52401435,-1.7999631,1.0976883,0.5085195,-0.8396667,32,0.6,28754874000,44964190000,16453750000,1.26E+11,154875000,100687500,27875000,18625000,0,511126.88,2699550200,9155402000,69842.91,2106877,1853000000,14.052165
quartz,0.9038483,-0.9324975,-0.7826999,-0.88205534,0.5179731,-1.2948885,1.0559374,0.9527292,-1.6056764,-1.0400532,-0.52401435,-1.7999631,1.0976883,0.5085195,-0.8396667,1,0.8666,20840000000,84634000000,30492000000,2.48E+11,696000000,760000000,48000000,28000000,0,19215052,85986990000,47490840000,37771,2192869,6544000000,46.35381
quartz,0.9038483,-0.9324975,-0.7826999,-0.88205534,0.5179731,-1.2948885,1.0559374,0.9527292,-1.6056764,-1.0400532,-0.52401435,-1.7999631,1.0976883,0.5085195,-0.8396667,32,0.6,28817750000,45041250000,16481125000,1.26E+11,154937500,101500000,28000000,18562500,0,512136.84,2699003100,9397658000,69843.875,2106877,1853500000,14.033402
quartz,0.9038483,-0.9324975,-0.7826999,-0.88205534,0.5179731,-1.2948885,1.0559374,0.9527292,-1.6056764,-1.0400532,-0.52401435,-1.7999631,1.0976883,0.5085195,-0.8396667,1,0.95,22568000000,91706000000,33040000000,2.69E+11,784000000,826000000,56000000,30000000,0,20841196,93175950000,51444974000,37771,2194674,6918000000,50.851383
quartz,0.9038483,-0.9324975,-0.7826999,-0.88205534,0.5179731,-1.2948885,1.0559374,0.9527292,-1.6056764,-1.0400532,-0.52401435,-1.7999631,1.0976883,0.5085195,-0.8396667,32,0.6833,31772250000,49618125000,18131000000,1.39E+11,167500000,109750000,30812500,20375000,0,553602.94,2924865000,10337134000,69875.875,2106934.5,1997062500,15.238066
quartz,0.9038483,-0.9324975,-0.7826999,-0.88205534,0.5179731,-1.2948885,1.0559374,0.9527292,-1.6056764,-1.0400532,-0.52401435,-1.7999631,1.0976883,0.5085195,-0.8396667,1,0.9333,22590000000,91720000000,33050000000,2.69E+11,752000000,824000000,46000000,26000000,0,20847380,93176580000,51446070000,37771,2194674,6982000000,50.29041
quartz,0.9038483,-0.9324975,-0.7826999,-0.88205534,0.5179731,-1.2948885,1.0559374,0.9527292,-1.6056764,-1.0400532,-0.52401435,-1.7999631,1.0976883,0.5085195,-0.8396667,32,0.6666,32137312000,50128314000,18309937000,1.40E+11,168375000,109625000,30625000,20125000,0,553758.25,2925109500,10051695000,69875.875,2106934.5,2004562600,15.248686
quartz,0.9038483,-0.9324975,-0.7826999,-0.88205534,0.5179731,-1.2948885,1.0559374,0.9527292,-1.6056764,-1.0400532,-0.52401435,-1.7999631,1.0976883,0.5085195,-0.8396667,1,1.05,25314000000,1.03E+11,37036000000,3.01E+11,878000000,924000000,54000000,34000000,0,23357824,1.04E+11,57616458000,37771,2197356,7964000000,55.416714
quartz,0.9038483,-0.9324975,-0.7826999,-0.88205534,0.5179731,-1.2948885,1.0559374,0.9527292,-1.6056764,-1.0400532,-0.52401435,-1.7999631,1.0976883,0.5085195,-0.8396667,32,0.7333,36937314000,57595250000,20976126000,1.61E+11,189000000,124437500,34125000,22937500,0,619859.7,3278204400,11327035000,69843.875,2107017.2,2237687600,16.98953
quartz,0.9038483,-0.9324975,-0.7826999,-0.88205534,0.5179731,-1.2948885,1.0559374,0.9527292,-1.6056764,-1.0400532,-0.52401435,-1.7999631,1.0976883,0.5085195,-0.8396667,1,1.05,25324000000,1.03E+11,37040000000,3.01E+11,840000000,924000000,48000000,30000000,0,23356744,1.04E+11,57611952000,37771,2197356,7890000000,56.865643
quartz,0.9038483,-0.9324975,-0.7826999,-0.88205534,0.5179731,-1.2948885,1.0559374,0.9527292,-1.6056764,-1.0400532,-0.52401435,-1.7999631,1.0976883,0.5085195,-0.8396667,32,0.7333,35897060000,56044876000,20468437000,1.56E+11,188937500,122875000,35562500,23125000,0,618887.7,3277736000,11108252000,69874.91,2107018.2,2253812500,17.008562
quartz,0.9038483,-0.9324975,-0.7826999,-0.88205534,0.5179731,-1.2948885,1.0559374,0.9527292,-1.6056764,-1.0400532,-0.52401435,-1.7999631,1.0976883,0.5085195,-0.8396667,1,1.15,27638000000,1.12E+11,40434000000,3.29E+11,926000000,1008000000,56000000,34000000,0,25498932,1.14E+11,62877930000,37771,2199676,8576000000,60.236504
quartz,0.9038483,-0.9324975,-0.7826999,-0.88205534,0.5179731,-1.2948885,1.0559374,0.9527292,-1.6056764,-1.0400532,-0.52401435,-1.7999631,1.0976883,0.5085195,-0.8396667,32,0.8333,41167626000,64120310000,23313875000,1.79E+11,205437500,134625000,37625000,25187500,0,674790.9,3579310300,12684271000,69875.875,2107090.8,2485812500,18.782732
quartz,0.9038483,-0.9324975,-0.7826999,-0.88205534,0.5179731,-1.2948885,1.0559374,0.9527292,-1.6056764,-1.0400532,-0.52401435,-1.7999631,1.0976883,0.5085195,-0.8396667,1,1.1333,27632000000,1.12E+11,40434000000,3.29E+11,926000000,1006000000,64000000,34000000,0,25499510,1.14E+11,62892310000,37771,2199675,8454000000,60.712227
quartz,0.9038483,-0.9324975,-0.7826999,-0.88205534,0.5179731,-1.2948885,1.0559374,0.9527292,-1.6056764,-1.0400532,-0.52401435,-1.7999631,1.0976883,0.5085195,-0.8396667,32,0.7833,38019875000,59431000000,21768000000,1.66E+11,205250000,133562500,37562500,25062500,0,675535.5,3578333200,12182239000,69875.875,2107090.8,2462750000,19.34408
quartz,0.9038483,-0.9324975,-0.7826999,-0.88205534,0.5179731,-1.2948885,1.0559374,0.9527292,-1.6056764,-1.0400532,-0.52401435,-1.7999631,1.0976883,0.5085195,-0.8396667,1,13.1,2.86E+11,1.36E+12,4.89E+11,3.91E+12,20022000000,13924000000,1824000000,1800000000,0,249981660,1.43E+12,7.50E+11,37771,2210881,1.12E+11,718.1116
quartz,0.9038483,-0.9324975,-0.7826999,-0.88205534,0.5179731,-1.2948885,1.0559374,0.9527292,-1.6056764,-1.0400532,-0.52401435,-1.7999631,1.0976883,0.5085195,-0.8396667,32,2.05,91030750000,1.65E+11,60474876000,4.68E+11,837375000,810875000,131750000,88750000,0,7425694.5,44783763000,46169313000,69875.875,2107441,8311187500,65.753624
quartz,0.9038483,-0.9324975,-0.7826999,-0.88205534,0.5179731,-1.2948885,1.0559374,0.9527292,-1.6056764,-1.0400532,-0.52401435,-1.7999631,1.0976883,0.5085195,-0.8396667,1,13.1833,2.86E+11,1.36E+12,4.89E+11,3.91E+12,19866000000,13894000000,1700000000,1720000000,0,249901200,1.43E+12,7.50E+11,37771,2210881,1.11E+11,719.01886
quartz,0.9038483,-0.9324975,-0.7826999,-0.88205534,0.5179731,-1.2948885,1.0559374,0.9527292,-1.6056764,-1.0400532,-0.52401435,-1.7999631,1.0976883,0.5085195,-0.8396667,32,2.0333,91416440000,1.66E+11,60657250000,4.69E+11,839937500,812000000,128687500,86625000,0,7424802,44781855000,46853390000,69875.875,2107441,8364500000,65.80287
quartz,0.9038483,-0.9324975,-0.7826999,-0.88205534,0.5179731,-1.2948885,1.0559374,0.9527292,-1.6056764,-1.0400532,-0.52401435,-1.7999631,1.0976883,0.5085195,-0.8396667,1,13.7333,,,,,22928000000,15918000000,2164000000,1942000000,0,,,,37771,2216434,1.27E+11,818.54504
quartz,0.9038483,-0.9324975,-0.7826999,-0.88205534,0.5179731,-1.2948885,1.0559374,0.9527292,-1.6056764,-1.0400532,-0.52401435,-1.7999631,1.0976883,0.5085195,-0.8396667,32,2.2333,1.01E+11,1.84E+11,67683877000,5.23E+11,963312500,929812500,149750000,101875000,0,8518245,51214782000,52830097000,69875.875,2107614.5,9632874000,75.48436
quartz,0.9038483,-0.9324975,-0.7826999,-0.88205534,0.5179731,-1.2948885,1.0559374,0.9527292,-1.6056764,-1.0400532,-0.52401435,-1.7999631,1.0976883,0.5085195,-0.8396667,1,13.9333,,,,,22854000000,15880000000,2046000000,1938000000,0,286900770,1.63E+12,8.58E+11,37771,2216432,1.26E+11,832.4903
quartz,0.9038483,-0.9324975,-0.7826999,-0.88205534,0.5179731,-1.2948885,1.0559374,0.9527292,-1.6056764,-1.0400532,-0.52401435,-1.7999631,1.0976883,0.5085195,-0.8396667,32,2.2666,1.02E+11,1.85E+11,67976560000,5.25E+11,963375000,927437500,144437500,98687500,0,8512737,51208954000,53149463000,69874.91,2107614.5,9634312000,75.33576
quartz,0.9038483,-0.9324975,-0.7826999,-0.88205534,0.5179731,-1.2948885,1.0559374,0.9527292,-1.6056764,-1.0400532,-0.52401435,-1.7999631,1.0976883,0.5085195,-0.8396667,32,2.3833,1.08E+11,1.96E+11,72135930000,5.57E+11,1029687500,992937500,158625000,107000000,0,9087366,54717090000,57262570000,69875.875,2107710.2,10220625000,79.68587
quartz,0.9038483,-0.9324975,-0.7826999,-0.88205534,0.5179731,-1.2948885,1.0559374,0.9527292,-1.6056764,-1.0400532,-0.52401435,-1.7999631,1.0976883,0.5085195,-0.8396667,32,2.4,1.08E+11,1.97E+11,72446810000,5.60E+11,1026812500,992875000,159375000,106562500,0,9087818,54721170000,57028230000,69842.91,2107709.2,10214500000,81.04742
quartz,0.9038483,-0.9324975,-0.7826999,-0.88205534,0.5179731,-1.2948885,1.0559374,0.9527292,-1.6056764,-1.0400532,-0.52401435,-1.7999631,1.0976883,0.5085195,-0.8396667,32,2.6,1.17E+11,2.14E+11,78579565000,6.07E+11,1123375000,1085125000,183312500,118937500,0,9938417,59785010000,62693180000,69875.875,2107849.2,11136187000,87.20352
quartz,0.9038483,-0.9324975,-0.7826999,-0.88205534,0.5179731,-1.2948885,1.0559374,0.9527292,-1.6056764,-1.0400532,-0.52401435,-1.7999631,1.0976883,0.5085195,-0.8396667,32,2.6666,1.21E+11,2.19E+11,80282880000,6.21E+11,1129312500,1084187500,176125000,117375000,0,9942631,59784614000,62874040000,69842.91,2107848.2,11245938000,87.70002
quartz,0.9038483,-0.9324975,-0.7826999,-0.88205534,0.5179731,-1.2948885,1.0559374,0.9527292,-1.6056764,-1.0400532,-0.52401435,-1.7999631,1.0976883,0.5085195,-0.8396667,32,2.9,1.31E+11,2.40E+11,88156060000,6.80E+11,1257750000,1218437500,192687500,130062500,0,11196041,67271300000,70126940000,69875.875,2108053.2,12546250000,98.55381
quartz,0.9038483,-0.9324975,-0.7826999,-0.88205534,0.5179731,-1.2948885,1.0559374,0.9527292,-1.6056764,-1.0400532,-0.52401435,-1.7999631,1.0976883,0.5085195,-0.8396667,32,3,1.37E+11,2.48E+11,91037690000,7.04E+11,1272062500,1221937500,198500000,133437500,0,11196277,67274830000,70353730000,69842.91,2108052.2,12596688000,98.87631
quartz,0.9038483,-0.9324975,-0.7826999,-0.88205534,0.5179731,-1.2948885,1.0559374,0.9527292,-1.6056764,-1.0400532,-0.52401435,-1.7999631,1.0976883,0.5085195,-0.8396667,32,3.25,1.49E+11,2.70E+11,98918120000,7.65E+11,1370875000,1320937500,214250000,146937500,0,12113001,72765790000,75051630000,69875.875,2108202,13549000000,105.772835
quartz,0.9038483,-0.9324975,-0.7826999,-0.88205534,0.5179731,-1.2948885,1.0559374,0.9527292,-1.6056764,-1.0400532,-0.52401435,-1.7999631,1.0976883,0.5085195,-0.8396667,32,3.2166,1.46E+11,2.65E+11,97306935000,7.52E+11,1368625000,1321687600,217187500,146312500,0,12113323,72763680000,74777510000,69875.875,2108202,13648500000,106.189445
quartz,0.9038483,-0.9324975,-0.7826999,-0.88205534,0.5179731,-1.2948885,1.0559374,0.9527292,-1.6056764,-1.0400532,-0.52401435,-1.7999631,1.0976883,0.5085195,-0.8396667,1,0.0333,270000000,370000000,106000000,1272000000,2000000,0,0,0,0,175215,161233230,116009900,37771,2173738,12000000,0.225497
quartz,0.9038483,-0.9324975,-0.7826999,-0.88205534,0.5179731,-1.2948885,1.0559374,0.9527292,-1.6056764,-1.0400532,-0.52401435,-1.7999631,1.0976883,0.5085195,-0.8396667,1,0.0166,270000000,368000000,106000000,1272000000,4000000,0,0,0,0,174251,160404200,116615490,37771,2173739,14000000,0.225368
quartz,0.9038483,-0.9324975,-0.7826999,-0.88205534,0.5179731,-1.2948885,1.0559374,0.9527292,-1.6056764,-1.0400532,-0.52401435,-1.7999631,1.0976883,0.5085195,-0.8396667,1,0.05,314000000,430000000,124000000,1482000000,4000000,0,0,0,0,203407,189095070,136410160,37771,2174048,14000000,0.239083
quartz,0.9038483,-0.9324975,-0.7826999,-0.88205534,0.5179731,-1.2948885,1.0559374,0.9527292,-1.6056764,-1.0400532,-0.52401435,-1.7999631,1.0976883,0.5085195,-0.8396667,1,0.0333,314000000,430000000,124000000,1482000000,4000000,0,0,0,0,204461,189000930,136132140,37771,2174046,14000000,0.257835
quartz,0.9038483,-0.9324975,-0.7826999,-0.88205534,0.5179731,-1.2948885,1.0559374,0.9527292,-1.6056764,-1.0400532,-0.52401435,-1.7999631,1.0976883,0.5085195,-0.8396667,1,0.0333,360000000,492000000,142000000,1692000000,4000000,0,0,0,0,232186,215808720,155734800,37771,2174351,18000000,0.272745
quartz,0.9038483,-0.9324975,-0.7826999,-0.88205534,0.5179731,-1.2948885,1.0559374,0.9527292,-1.6056764,-1.0400532,-0.52401435,-1.7999631,1.0976883,0.5085195,-0.8396667,1,0.05,360000000,492000000,142000000,1692000000,4000000,0,0,0,0,231261,213268600,154300640,37771,2174351,16000000,0.269742
quartz,0.9038483,-0.9324975,-0.7826999,-0.88205534,0.5179731,-1.2948885,1.0559374,0.9527292,-1.6056764,-1.0400532,-0.52401435,-1.7999631,1.0976883,0.5085195,-0.8396667,1,0.0333,404000000,552000000,158000000,1902000000,6000000,0,0,0,0,261358,240836530,174050500,37771,2174657,20000000,0.311927
quartz,0.9038483,-0.9324975,-0.7826999,-0.88205534,0.5179731,-1.2948885,1.0559374,0.9527292,-1.6056764,-1.0400532,-0.52401435,-1.7999631,1.0976883,0.5085195,-0.8396667,1,0.0333,404000000,552000000,158000000,1900000000,6000000,0,0,0,0,260847,240919200,174391170,37771,2174658,18000000,0.29984
quartz,0.9038483,-0.9324975,-0.7826999,-0.88205534,0.5179731,-1.2948885,1.0559374,0.9527292,-1.6056764,-1.0400532,-0.52401435,-1.7999631,1.0976883,0.5085195,-0.8396667,1,0.0333,448000000,614000000,176000000,2112000000,4000000,2000000,0,0,0,291033,268238830,193661800,37771,2174959,22000000,0.354958
quartz,0.9038483,-0.9324975,-0.7826999,-0.88205534,0.5179731,-1.2948885,1.0559374,0.9527292,-1.6056764,-1.0400532,-0.52401435,-1.7999631,1.0976883,0.5085195,-0.8396667,1,0.0333,446000000,614000000,176000000,2114000000,6000000,2000000,0,0,0,291211,268352320,193840160,37771,2174962,20000000,0.340609
quartz,0.9038483,-0.9324975,-0.7826999,-0.88205534,0.5179731,-1.2948885,1.0559374,0.9527292,-1.6056764,-1.0400532,-0.52401435,-1.7999631,1.0976883,0.5085195,-0.8396667,1,0.05,492000000,676000000,194000000,2322000000,6000000,2000000,0,0,0,318597,294705150,212096110,37771,2175330,24000000,0.367592
quartz,0.9038483,-0.9324975,-0.7826999,-0.88205534,0.5179731,-1.2948885,1.0559374,0.9527292,-1.6056764,-1.0400532,-0.52401435,-1.7999631,1.0976883,0.5085195,-0.8396667,1,0.0666,492000000,672000000,194000000,2320000000,6000000,2000000,0,0,0,317967,293128220,212070350,37771,2175330,24000000,0.363939
quartz,0.9038483,-0.9324975,-0.7826999,-0.88205534,0.5179731,-1.2948885,1.0559374,0.9527292,-1.6056764,-1.0400532,-0.52401435,-1.7999631,1.0976883,0.5085195,-0.8396667,1,0.05,1042000000,2424000000,776000000,7526000000,44000000,20000000,0,0,0,419863,1418846000,1017911230,37771,2175633,114000000,1.172088
quartz,0.9038483,-0.9324975,-0.7826999,-0.88205534,0.5179731,-1.2948885,1.0559374,0.9527292,-1.6056764,-1.0400532,-0.52401435,-1.7999631,1.0976883,0.5085195,-0.8396667,32,0.1666,3273812500,5136625000,1776437500,13892312000,9062500,3437500,312500,125000,0,12092.469,44968416,721877200,69874.91,2106339.5,131187500,0.9733865
quartz,0.9038483,-0.9324975,-0.7826999,-0.88205534,0.5179731,-1.2948885,1.0559374,0.9527292,-1.6056764,-1.0400532,-0.52401435,-1.7999631,1.0976883,0.5085195,-0.8396667,1,0.05,1042000000,2424000000,776000000,7526000000,44000000,20000000,0,0,0,420220,1420711400,1017222400,37771,2175633,108000000,1.10488
quartz,0.9038483,-0.9324975,-0.7826999,-0.88205534,0.5179731,-1.2948885,1.0559374,0.9527292,-1.6056764,-1.0400532,-0.52401435,-1.7999631,1.0976883,0.5085195,-0.8396667,32,0.1666,3059250000,4806187500,1670187500,13005813000,8562500,2875000,250000,62500,0,13033.906,44957710,743643600,69874.91,2106339.5,126750000,0.97473377
quartz,0.9038483,-0.9324975,-0.7826999,-0.88205534,0.5179731,-1.2948885,1.0559374,0.9527292,-1.6056764,-1.0400532,-0.52401435,-1.7999631,1.0976883,0.5085195,-0.8396667,1,0.05,1216000000,2828000000,906000000,8782000000,50000000,22000000,0,0,0,490468,1655664800,1184027900,37771,2176245,134000000,1.287456
quartz,0.9038483,-0.9324975,-0.7826999,-0.88205534,0.5179731,-1.2948885,1.0559374,0.9527292,-1.6056764,-1.0400532,-0.52401435,-1.7999631,1.0976883,0.5085195,-0.8396667,32,0.2166,3809062400,5972937700,2067312500,16160500000,9875000,3625000,1187500,125000,0,12769.031,52454092,863225100,69874.91,2106358.5,150000000,1.0952876
quartz,0.9038483,-0.9324975,-0.7826999,-0.88205534,0.5179731,-1.2948885,1.0559374,0.9527292,-1.6056764,-1.0400532,-0.52401435,-1.7999631,1.0976883,0.5085195,-0.8396667,1,0.0666,1216000000,2826000000,906000000,8780000000,52000000,22000000,0,0,0,490091,1654315300,1186637200,37771,2176245,134000000,1.286174
quartz,0.9038483,-0.9324975,-0.7826999,-0.88205534,0.5179731,-1.2948885,1.0559374,0.9527292,-1.6056764,-1.0400532,-0.52401435,-1.7999631,1.0976883,0.5085195,-0.8396667,32,0.2,3549750000,5578500000,1938625000,15094062000,9937500,3750000,1250000,125000,0,12759.281,52423852,837183900,69874.91,2106358.5,150625000,1.1352624
quartz,0.9038483,-0.9324975,-0.7826999,-0.88205534,0.5179731,-1.2948885,1.0559374,0.9527292,-1.6056764,-1.0400532,-0.52401435,-1.7999631,1.0976883,0.5085195,-0.8396667,1,0.05,1386000000,3224000000,1034000000,10012000000,28000000,26000000,0,0,0,559471,1884760300,1353871700,37771,2176853,156000000,1.463014
quartz,0.9038483,-0.9324975,-0.7826999,-0.88205534,0.5179731,-1.2948885,1.0559374,0.9527292,-1.6056764,-1.0400532,-0.52401435,-1.7999631,1.0976883,0.5085195,-0.8396667,32,0.15,4011750000,6304000000,2192062500,17061188000,11750000,4312500,1437500,125000,0,12304.8125,59744556,977326100,69842.91,2106376.5,171500000,1.2918075
quartz,0.9038483,-0.9324975,-0.7826999,-0.88205534,0.5179731,-1.2948885,1.0559374,0.9527292,-1.6056764,-1.0400532,-0.52401435,-1.7999631,1.0976883,0.5085195,-0.8396667,1,0.0666,1388000000,3226000000,1034000000,10014000000,36000000,26000000,0,0,0,559651,1886199600,1350636200,37771,2176853,150000000,1.473355
quartz,0.9038483,-0.9324975,-0.7826999,-0.88205534,0.5179731,-1.2948885,1.0559374,0.9527292,-1.6056764,-1.0400532,-0.52401435,-1.7999631,1.0976883,0.5085195,-0.8396667,32,0.1833,4213875000,6613375000,2292750000,17894312000,11750000,4437500,1500000,125000,0,12594.4375,59717052,963918850,69874.91,2106377.5,172500000,1.2862403
quartz,0.9038483,-0.9324975,-0.7826999,-0.88205534,0.5179731,-1.2948885,1.0559374,0.9527292,-1.6056764,-1.0400532,-0.52401435,-1.7999631,1.0976883,0.5085195,-0.8396667,1,0.05,1560000000,3628000000,1162000000,11266000000,34000000,30000000,0,0,0,629824,2123626500,1525678300,37771,2177525,176000000,1.633633
quartz,0.9038483,-0.9324975,-0.7826999,-0.88205534,0.5179731,-1.2948885,1.0559374,0.9527292,-1.6056764,-1.0400532,-0.52401435,-1.7999631,1.0976883,0.5085195,-0.8396667,32,0.1666,4442875000,6985250000,2431312400,18905188000,13625000,5250000,1937500,500000,0,12487,67183900,1100480900,69874.91,2106398.5,193375000,1.4128041
quartz,0.9038483,-0.9324975,-0.7826999,-0.88205534,0.5179731,-1.2948885,1.0559374,0.9527292,-1.6056764,-1.0400532,-0.52401435,-1.7999631,1.0976883,0.5085195,-0.8396667,1,0.0666,1560000000,3628000000,1162000000,11266000000,66000000,30000000,0,0,0,628809,2121870800,1522905300,37771,2177526,156000000,1.629877
quartz,0.9038483,-0.9324975,-0.7826999,-0.88205534,0.5179731,-1.2948885,1.0559374,0.9527292,-1.6056764,-1.0400532,-0.52401435,-1.7999631,1.0976883,0.5085195,-0.8396667,32,0.15,4475937300,7035937300,2447625000,19041063000,13562500,5000000,1937500,500000,0,12208.1875,67177416,1103727100,69874.91,2106398.5,194437500,2.3186016
quartz,0.9038483,-0.9324975,-0.7826999,-0.88205534,0.5179731,-1.2948885,1.0559374,0.9527292,-1.6056764,-1.0400532,-0.52401435,-1.7999631,1.0976883,0.5085195,-0.8396667,1,0.0833,1734000000,4032000000,1292000000,12518000000,72000000,32000000,0,0,0,698558,2353535000,1689966200,37771,2178134,192000000,1.828038
quartz,0.9038483,-0.9324975,-0.7826999,-0.88205534,0.5179731,-1.2948885,1.0559374,0.9527292,-1.6056764,-1.0400532,-0.52401435,-1.7999631,1.0976883,0.5085195,-0.8396667,32,0.2,5061125000,7949750000,2763250000,21516937000,14812500,5750000,1937500,1187500,0,12440.094,74657560,1185401000,69875.875,2106417.8,216375000,1.5492067
quartz,0.9038483,-0.9324975,-0.7826999,-0.88205534,0.5179731,-1.2948885,1.0559374,0.9527292,-1.6056764,-1.0400532,-0.52401435,-1.7999631,1.0976883,0.5085195,-0.8396667,1,0.05,1732000000,4030000000,1290000000,12516000000,34000000,32000000,0,0,0,699465,2359745500,1689886600,37771,2178135,186000000,1.83506
quartz,0.9038483,-0.9324975,-0.7826999,-0.88205534,0.5179731,-1.2948885,1.0559374,0.9527292,-1.6056764,-1.0400532,-0.52401435,-1.7999631,1.0976883,0.5085195,-0.8396667,32,0.1833,5039375000,7919812600,2752750000,21430313000,15187500,6062500,2000000,1125000,0,12304.125,74635336,1199388900,69875.875,2106417.8,214437500,1.6012019
quartz,0.9038483,-0.9324975,-0.7826999,-0.88205534,0.5179731,-1.2948885,1.0559374,0.9527292,-1.6056764,-1.0400532,-0.52401435,-1.7999631,1.0976883,0.5085195,-0.8396667,1,0.0666,1906000000,4434000000,1420000000,13768000000,36000000,36000000,0,0,0,769008,2594290000,1856228400,37771,2178808,214000000,2.130478
quartz,0.9038483,-0.9324975,-0.7826999,-0.88205534,0.5179731,-1.2948885,1.0559374,0.9527292,-1.6056764,-1.0400532,-0.52401435,-1.7999631,1.0976883,0.5085195,-0.8396667,32,0.1833,5825125000,9142875000,3167562500,24733063000,16500000,6500000,2187500,1437500,0,12250.219,82091430,1421773800,69843.875,2106437.8,235937500,1.6922425
quartz,0.9038483,-0.9324975,-0.7826999,-0.88205534,0.5179731,-1.2948885,1.0559374,0.9527292,-1.6056764,-1.0400532,-0.52401435,-1.7999631,1.0976883,0.5085195,-0.8396667,1,0.0666,1908000000,4434000000,1422000000,13772000000,72000000,36000000,0,0,0,769289,2592575000,1856787300,37771,2178808,212000000,2.010209
quartz,0.9038483,-0.9324975,-0.7826999,-0.88205534,0.5179731,-1.2948885,1.0559374,0.9527292,-1.6056764,-1.0400532,-0.52401435,-1.7999631,1.0976883,0.5085195,-0.8396667,32,0.1833,5389250000,8474875000,2951312400,22936062000,17062500,6687500,2187500,1375000,0,13150.094,82100870,1361418600,69843.875,2106437.8,233000000,1.718392
quartz,0.9038483,-0.9324975,-0.7826999,-0.88205534,0.5179731,-1.2948885,1.0559374,0.9527292,-1.6056764,-1.0400532,-0.52401435,-1.7999631,1.0976883,0.5085195,-0.8396667,1,0.2666,9136000000,29980000000,9994000000,88842000000,328000000,358000000,18000000,16000000,0,1484337,19493038000,13974828000,37771,2184484,1602000000,13.326448
quartz,0.9038483,-0.9324975,-0.7826999,-0.88205534,0.5179731,-1.2948885,1.0559374,0.9527292,-1.6056764,-1.0400532,-0.52401435,-1.7999631,1.0976883,0.5085195,-0.8396667,32,0.2833,12113625000,19357938000,6694125000,52620940000,45437500,23875000,7187500,4812500,0,11225.906,613383800,3111593200,69842.91,2106615,546437500,3.8500946
quartz,0.9038483,-0.9324975,-0.7826999,-0.88205534,0.5179731,-1.2948885,1.0559374,0.9527292,-1.6056764,-1.0400532,-0.52401435,-1.7999631,1.0976883,0.5085195,-0.8396667,64,0.35,6597437400,11566922000,3694765600,30484484000,22375000,10734375,3562500,2234375,0,10806.758,153671870,1974508500,37146.516,1055176.9,266093740,2.8142486
quartz,0.9038483,-0.9324975,-0.7826999,-0.88205534,0.5179731,-1.2948885,1.0559374,0.9527292,-1.6056764,-1.0400532,-0.52401435,-1.7999631,1.0976883,0.5085195,-0.8396667,1,0.15,2272000000,9294000000,3240000000,26382000000,88000000,84000000,4000000,2000000,0,2306746,9268968000,4217693400,37771,2173742,646000000,4.538443
quartz,0.9038483,-0.9324975,-0.7826999,-0.88205534,0.5179731,-1.2948885,1.0559374,0.9527292,-1.6056764,-1.0400532,-0.52401435,-1.7999631,1.0976883,0.5085195,-0.8396667,32,0.15,3793812500,5887125000,2140000000,16398312000,18062500,11125000,2687500,1437500,0,69979.84,291139100,1158872000,69874.91,2106280.5,225125000,1.7660402
quartz,0.9038483,-0.9324975,-0.7826999,-0.88205534,0.5179731,-1.2948885,1.0559374,0.9527292,-1.6056764,-1.0400532,-0.52401435,-1.7999631,1.0976883,0.5085195,-0.8396667,1,0.1166,2270000000,9292000000,3238000000,26380000000,92000000,84000000,4000000,2000000,0,2306971,9270039000,4218867700,37771,2173742,642000000,4.522251
quartz,0.9038483,-0.9324975,-0.7826999,-0.88205534,0.5179731,-1.2948885,1.0559374,0.9527292,-1.6056764,-1.0400532,-0.52401435,-1.7999631,1.0976883,0.5085195,-0.8396667,32,0.15,3828312600,5939937300,2157250000,16541375000,17875000,10625000,2625000,1375000,0,69940.84,291309630,1159612800,69874.91,2106280.5,223375000,1.7558355
quartz,0.9038483,-0.9324975,-0.7826999,-0.88205534,0.5179731,-1.2948885,1.0559374,0.9527292,-1.6056764,-1.0400532,-0.52401435,-1.7999631,1.0976883,0.5085195,-0.8396667,1,0.1333,2646000000,10828000000,3774000000,30734000000,92000000,98000000,4000000,2000000,0,2685867,10802153000,4915589600,37771,2174048,750000000,5.788539
quartz,0.9038483,-0.9324975,-0.7826999,-0.88205534,0.5179731,-1.2948885,1.0559374,0.9527292,-1.6056764,-1.0400532,-0.52401435,-1.7999631,1.0976883,0.5085195,-0.8396667,32,0.1833,4181125000,6510375000,2376250000,18137313000,21187500,12812500,3312500,2000000,0,80140.44,339447580,1314578300,69874.91,2106290,260812500,2.0387318
quartz,0.9038483,-0.9324975,-0.7826999,-0.88205534,0.5179731,-1.2948885,1.0559374,0.9527292,-1.6056764,-1.0400532,-0.52401435,-1.7999631,1.0976883,0.5085195,-0.8396667,1,0.1166,2646000000,10828000000,3774000000,30734000000,136000000,98000000,4000000,2000000,0,2686101,10797169000,4915747300,37771,2174049,758000000,5.254812
quartz,0.9038483,-0.9324975,-0.7826999,-0.88205534,0.5179731,-1.2948885,1.0559374,0.9527292,-1.6056764,-1.0400532,-0.52401435,-1.7999631,1.0976883,0.5085195,-0.8396667,32,0.15,4321937400,6716812300,2445562600,18710500000,21000000,12625000,3187500,1937500,0,79794.72,339393250,1358960400,69875.875,2106290,260000000,2.0484955
quartz,0.9038483,-0.9324975,-0.7826999,-0.88205534,0.5179731,-1.2948885,1.0559374,0.9527292,-1.6056764,-1.0400532,-0.52401435,-1.7999631,1.0976883,0.5085195,-0.8396667,1,0.15,3020000000,12362000000,4308000000,35092000000,164000000,112000000,6000000,2000000,0,3065892,12333546000,5613524500,37771,2174353,842000000,5.989286
quartz,0.9038483,-0.9324975,-0.7826999,-0.88205534,0.5179731,-1.2948885,1.0559374,0.9527292,-1.6056764,-1.0400532,-0.52401435,-1.7999631,1.0976883,0.5085195,-0.8396667,32,0.2,4953937400,7697437700,2802000000,21442312000,24500000,15625000,3562500,2250000,0,89677,387586020,1526326900,69875.875,2106299.5,295250000,2.3816957
quartz,0.9038483,-0.9324975,-0.7826999,-0.88205534,0.5179731,-1.2948885,1.0559374,0.9527292,-1.6056764,-1.0400532,-0.52401435,-1.7999631,1.0976883,0.5085195,-0.8396667,1,0.1333,3018000000,12362000000,4308000000,35092000000,120000000,112000000,4000000,2000000,0,3064000,12331430000,5620710400,37771,2174353,866000000,6.005672
quartz,0.9038483,-0.9324975,-0.7826999,-0.88205534,0.5179731,-1.2948885,1.0559374,0.9527292,-1.6056764,-1.0400532,-0.52401435,-1.7999631,1.0976883,0.5085195,-0.8396667,32,0.1666,4986375000,7747500000,2817937400,21575875000,24437500,15062500,3562500,2250000,0,90246.47,387676130,1481652000,69875.875,2106299.5,300562500,2.3147492
quartz,0.9038483,-0.9324975,-0.7826999,-0.88205534,0.5179731,-1.2948885,1.0559374,0.9527292,-1.6056764,-1.0400532,-0.52401435,-1.7999631,1.0976883,0.5085195,-0.8396667,1,0.15,3394000000,13896000000,4842000000,39444000000,120000000,126000000,6000000,4000000,0,3442562,13863268000,6311310000,37771,2174660,970000000,6.739775
quartz,0.9038483,-0.9324975,-0.7826999,-0.88205534,0.5179731,-1.2948885,1.0559374,0.9527292,-1.6056764,-1.0400532,-0.52401435,-1.7999631,1.0976883,0.5085195,-0.8396667,32,0.2166,5578250000,8667062000,3154000000,24140750000,27562500,17500000,4250000,2437500,0,99869.72,435832300,1715305200,69843.875,2106308,339000000,2.591791
quartz,0.9038483,-0.9324975,-0.7826999,-0.88205534,0.5179731,-1.2948885,1.0559374,0.9527292,-1.6056764,-1.0400532,-0.52401435,-1.7999631,1.0976883,0.5085195,-0.8396667,1,0.15,3394000000,13894000000,4842000000,39442000000,124000000,126000000,8000000,4000000,0,3443986,13861510000,6319452000,37771,2174660,970000000,6.738729
quartz,0.9038483,-0.9324975,-0.7826999,-0.88205534,0.5179731,-1.2948885,1.0559374,0.9527292,-1.6056764,-1.0400532,-0.52401435,-1.7999631,1.0976883,0.5085195,-0.8396667,32,0.1833,5334875000,8307625000,3035125000,23151500000,27437500,16687500,4375000,2562500,0,99492.5,435717570,1686431700,69843.875,2106308,330562500,2.5646703
quartz,0.9038483,-0.9324975,-0.7826999,-0.88205534,0.5179731,-1.2948885,1.0559374,0.9527292,-1.6056764,-1.0400532,-0.52401435,-1.7999631,1.0976883,0.5085195,-0.8396667,1,0.1666,3768000000,15428000000,5376000000,43792000000,134000000,142000000,6000000,4000000,0,3822783,15393082000,7008122400,37771,2174963,1074000000,7.751217
quartz,0.9038483,-0.9324975,-0.7826999,-0.88205534,0.5179731,-1.2948885,1.0559374,0.9527292,-1.6056764,-1.0400532,-0.52401435,-1.7999631,1.0976883,0.5085195,-0.8396667,32,0.2166,6078937600,9458688000,3446000000,26342562000,30750000,19375000,4875000,2875000,0,109336.44,483995070,1797129200,69875.875,2106318.5,366687500,2.8653715
quartz,0.9038483,-0.9324975,-0.7826999,-0.88205534,0.5179731,-1.2948885,1.0559374,0.9527292,-1.6056764,-1.0400532,-0.52401435,-1.7999631,1.0976883,0.5085195,-0.8396667,1,0.1666,3768000000,15426000000,5374000000,43792000000,134000000,140000000,6000000,2000000,0,3821881,15393527000,7010856400,37771,2174962,1078000000,7.470986
quartz,0.9038483,-0.9324975,-0.7826999,-0.88205534,0.5179731,-1.2948885,1.0559374,0.9527292,-1.6056764,-1.0400532,-0.52401435,-1.7999631,1.0976883,0.5085195,-0.8396667,32,0.2166,6301937700,9785750000,3555062500,27247500000,30875000,19375000,4812500,2812500,0,108971.06,483862430,1859018900,69842.91,2106317.5,368125000,3.1742308
quartz,0.9038483,-0.9324975,-0.7826999,-0.88205534,0.5179731,-1.2948885,1.0559374,0.9527292,-1.6056764,-1.0400532,-0.52401435,-1.7999631,1.0976883,0.5085195,-0.8396667,1,0.1666,3768000000,15428000000,5376000000,43790000000,138000000,142000000,6000000,2000000,0,3822773,15394488000,7008865300,37771,2174962,1066000000,7.524983
quartz,0.9038483,-0.9324975,-0.7826999,-0.88205534,0.5179731,-1.2948885,1.0559374,0.9527292,-1.6056764,-1.0400532,-0.52401435,-1.7999631,1.0976883,0.5085195,-0.8396667,32,0.2,6318687700,9804188000,3562812400,27309000000,30812500,19750000,4875000,2875000,0,109208.84,483965500,1793669200,69874.91,2106318.5,368375000,2.880829
quartz,0.9038483,-0.9324975,-0.7826999,-0.88205534,0.5179731,-1.2948885,1.0559374,0.9527292,-1.6056764,-1.0400532,-0.52401435,-1.7999631,1.0976883,0.5085195,-0.8396667,64,0.2333,3490375000,5956843500,1981718800,16019953000,,,,,,25107.648,121339060,1053472450,37146.516,1055102.5,184890620,1.8136955
quartz,0.9038483,-0.9324975,-0.7826999,-0.88205534,0.5179731,-1.2948885,1.0559374,0.9527292,-1.6056764,-1.0400532,-0.52401435,-1.7999631,1.0976883,0.5085195,-0.8396667,1,0.1833,4142000000,16964000000,5912000000,48152000000,154000000,154000000,8000000,4000000,0,4202324,16925918000,7707252700,37771,2175329,1172000000,8.998724
quartz,0.9038483,-0.9324975,-0.7826999,-0.88205534,0.5179731,-1.2948885,1.0559374,0.9527292,-1.6056764,-1.0400532,-0.52401435,-1.7999631,1.0976883,0.5085195,-0.8396667,32,0.2,6547812400,10193750000,3721312500,28405000000,33375000,21062500,5500000,3375000,0,118974.06,532113760,2144972400,69874.91,2106330,410437500,3.1555467
quartz,0.9038483,-0.9324975,-0.7826999,-0.88205534,0.5179731,-1.2948885,1.0559374,0.9527292,-1.6056764,-1.0400532,-0.52401435,-1.7999631,1.0976883,0.5085195,-0.8396667,1,0.1833,4146000000,16968000000,5914000000,48156000000,148000000,154000000,6000000,4000000,0,4200832,16924577000,7705228300,37771,2175330,1174000000,8.861904
quartz,0.9038483,-0.9324975,-0.7826999,-0.88205534,0.5179731,-1.2948885,1.0559374,0.9527292,-1.6056764,-1.0400532,-0.52401435,-1.7999631,1.0976883,0.5085195,-0.8396667,32,0.2,6430437400,10019125000,3663187500,27925125000,33375000,20000000,5437500,3250000,0,119098.03,532153730,2016626200,69875.875,2106330,407187500,3.1900744
quartz,0.9038483,-0.9324975,-0.7826999,-0.88205534,0.5179731,-1.2948885,1.0559374,0.9527292,-1.6056764,-1.0400532,-0.52401435,-1.7999631,1.0976883,0.5085195,-0.8396667,1,1,22318000000,1.09E+11,38038000000,3.03E+11,1740000000,1130000000,172000000,168000000,0,21051648,1.13E+11,49144488000,37771,2174359,8330000000,54.779156
quartz,0.9038483,-0.9324975,-0.7826999,-0.88205534,0.5179731,-1.2948885,1.0559374,0.9527292,-1.6056764,-1.0400532,-0.52401435,-1.7999631,1.0976883,0.5085195,-0.8396667,32,0.2666,7967812600,14270437000,5202250000,40138064000,74687500,69187500,10375000,6312500,0,624520.94,3550443300,3724683800,69874.91,2106299.8,693125000,5.5286884
quartz,0.9038483,-0.9324975,-0.7826999,-0.88205534,0.5179731,-1.2948885,1.0559374,0.9527292,-1.6056764,-1.0400532,-0.52401435,-1.7999631,1.0976883,0.5085195,-0.8396667,64,0.2666,3900718800,7101718500,2403843800,19322266000,32890624,25625000,4140625,2203125,0,164038.67,885662800,1507844100,37162.516,1055098,281156260,2.7841928
quartz,0.9038483,-0.9324975,-0.7826999,-0.88205534,0.5179731,-1.2948885,1.0559374,0.9527292,-1.6056764,-1.0400532,-0.52401435,-1.7999631,1.0976883,0.5085195,-0.8396667,1,1.4833,33326000000,1.63E+11,56852000000,4.53E+11,2572000000,1692000000,276000000,252000000,0,31282624,1.69E+11,73493060000,37770,2175638,12484000000,79.53638
quartz,0.9038483,-0.9324975,-0.7826999,-0.88205534,0.5179731,-1.2948885,1.0559374,0.9527292,-1.6056764,-1.0400532,-0.52401435,-1.7999631,1.0976883,0.5085195,-0.8396667,32,0.35,11711688000,21041875000,7677437400,59189250000,117937500,103187500,16750000,10250000,0,924817.5,5309021000,5516216000,69873.94,2106339.8,1044562500,8.167319
quartz,0.9038483,-0.9324975,-0.7826999,-0.88205534,0.5179731,-1.2948885,1.0559374,0.9527292,-1.6056764,-1.0400532,-0.52401435,-1.7999631,1.0976883,0.5085195,-0.8396667,1,1.4666,33330000000,1.63E+11,56856000000,4.53E+11,2584000000,1692000000,228000000,230000000,0,31275432,1.69E+11,73481660000,37771,2175640,12440000000,77.8636
quartz,0.9038483,-0.9324975,-0.7826999,-0.88205534,0.5179731,-1.2948885,1.0559374,0.9527292,-1.6056764,-1.0400532,-0.52401435,-1.7999631,1.0976883,0.5085195,-0.8396667,32,0.3666,11953688000,21396937000,7795625000,60172562000,112562500,103687500,15437500,10000000,0,924827.6,5308189700,5708988000,69874.91,2106339.8,1042812500,8.1772585
quartz,0.9038483,-0.9324975,-0.7826999,-0.88205534,0.5179731,-1.2948885,1.0559374,0.9527292,-1.6056764,-1.0400532,-0.52401435,-1.7999631,1.0976883,0.5085195,-0.8396667,1,1.7166,38854000000,1.91E+11,66278000000,5.28E+11,3032000000,1974000000,288000000,282000000,0,36370260,1.97E+11,85664104000,37771,2176252,14542000000,90.957115
quartz,0.9038483,-0.9324975,-0.7826999,-0.88205534,0.5179731,-1.2948885,1.0559374,0.9527292,-1.6056764,-1.0400532,-0.52401435,-1.7999631,1.0976883,0.5085195,-0.8396667,32,0.4166,14045813000,25082124000,9140125000,70569310000,130875000,121625000,18437500,12062500,0,1074773.1,6184823300,6444465000,69874.91,2106358.8,1228000000,9.495038
quartz,0.9038483,-0.9324975,-0.7826999,-0.88205534,0.5179731,-1.2948885,1.0559374,0.9527292,-1.6056764,-1.0400532,-0.52401435,-1.7999631,1.0976883,0.5085195,-0.8396667,1,1.6833,38852000000,1.91E+11,66276000000,5.28E+11,2988000000,1972000000,270000000,268000000,0,36479664,1.97E+11,85706960000,37771,2176252,14542000000,91.22405
quartz,0.9038483,-0.9324975,-0.7826999,-0.88205534,0.5179731,-1.2948885,1.0559374,0.9527292,-1.6056764,-1.0400532,-0.52401435,-1.7999631,1.0976883,0.5085195,-0.8396667,32,0.45,13600125000,24452624000,8924188000,68788440000,132187500,121125000,18812500,12250000,0,1074862.4,6186470400,6446574000,69842.91,2106357.8,1210687500,9.467205
quartz,0.9038483,-0.9324975,-0.7826999,-0.88205534,0.5179731,-1.2948885,1.0559374,0.9527292,-1.6056764,-1.0400532,-0.52401435,-1.7999631,1.0976883,0.5085195,-0.8396667,1,1.95,44266000000,2.17E+11,75498000000,6.01E+11,3424000000,2248000000,284000000,298000000,0,41450416,2.25E+11,97609050000,37771,2176861,16520000000,105.09247
quartz,0.9038483,-0.9324975,-0.7826999,-0.88205534,0.5179731,-1.2948885,1.0559374,0.9527292,-1.6056764,-1.0400532,-0.52401435,-1.7999631,1.0976883,0.5085195,-0.8396667,32,0.4166,15541500000,27923500000,10188125000,78552120000,145312500,138812500,21250000,13812500,0,1221872.5,7047288000,7319102000,69842.91,2106377,1390687500,10.868044
quartz,0.9038483,-0.9324975,-0.7826999,-0.88205534,0.5179731,-1.2948885,1.0559374,0.9527292,-1.6056764,-1.0400532,-0.52401435,-1.7999631,1.0976883,0.5085195,-0.8396667,1,2.0166,44222000000,2.17E+11,75478000000,6.01E+11,3412000000,2250000000,328000000,284000000,0,41489384,2.25E+11,97600050000,37771,2176861,16574000000,105.09019
quartz,0.9038483,-0.9324975,-0.7826999,-0.88205534,0.5179731,-1.2948885,1.0559374,0.9527292,-1.6056764,-1.0400532,-0.52401435,-1.7999631,1.0976883,0.5085195,-0.8396667,32,0.4666,15835500000,28353124000,10333688000,79746190000,147125000,138875000,21625000,13937500,0,1221864,7046657000,7359845000,69875.875,2106378,1389062500,10.749499
quartz,0.9038483,-0.9324975,-0.7826999,-0.88205534,0.5179731,-1.2948885,1.0559374,0.9527292,-1.6056764,-1.0400532,-0.52401435,-1.7999631,1.0976883,0.5085195,-0.8396667,1,2.1333,49638000000,2.44E+11,84830000000,6.76E+11,3856000000,2528000000,360000000,326000000,0,46737692,2.53E+11,1.10E+11,37771,2177534,18468000000,120.61967
quartz,0.9038483,-0.9324975,-0.7826999,-0.88205534,0.5179731,-1.2948885,1.0559374,0.9527292,-1.6056764,-1.0400532,-0.52401435,-1.7999631,1.0976883,0.5085195,-0.8396667,32,0.4833,17539437000,31491688000,11485688000,88583750000,166500000,156062500,23625000,15437500,0,1371634.8,7922054000,8141335000,69874.91,2106399,1556562600,12.059491
quartz,0.9038483,-0.9324975,-0.7826999,-0.88205534,0.5179731,-1.2948885,1.0559374,0.9527292,-1.6056764,-1.0400532,-0.52401435,-1.7999631,1.0976883,0.5085195,-0.8396667,1,2.1833,49756000000,2.44E+11,84884000000,6.76E+11,3848000000,2530000000,332000000,330000000,0,46611864,2.53E+11,1.10E+11,37771,2177534,18574000000,117.25092
quartz,0.9038483,-0.9324975,-0.7826999,-0.88205534,0.5179731,-1.2948885,1.0559374,0.9527292,-1.6056764,-1.0400532,-0.52401435,-1.7999631,1.0976883,0.5085195,-0.8396667,32,0.45,17606500000,31599063000,11520562000,88864500000,163687500,156312500,23812500,16187500,0,1371807.4,7925976600,8135740000,69874.91,2106399,1570437500,12.063626
quartz,0.9038483,-0.9324975,-0.7826999,-0.88205534,0.5179731,-1.2948885,1.0559374,0.9527292,-1.6056764,-1.0400532,-0.52401435,-1.7999631,1.0976883,0.5085195,-0.8396667,1,2.4666,55258000000,2.71E+11,94288000000,7.51E+11,4258000000,2800000000,344000000,370000000,0,51952630,2.81E+11,1.22E+11,37771,2178142,20708000000,130.9353
quartz,0.9038483,-0.9324975,-0.7826999,-0.88205534,0.5179731,-1.2948885,1.0559374,0.9527292,-1.6056764,-1.0400532,-0.52401435,-1.7999631,1.0976883,0.5085195,-0.8396667,32,0.4833,19888376000,35571626000,12959250000,1.00E+11,190062500,172125000,27500000,17625000,0,1521829.5,8798143000,8975375000,69875.875,2106418,1725062500,13.468897
quartz,0.9038483,-0.9324975,-0.7826999,-0.88205534,0.5179731,-1.2948885,1.0559374,0.9527292,-1.6056764,-1.0400532,-0.52401435,-1.7999631,1.0976883,0.5085195,-0.8396667,1,2.4333,55252000000,2.71E+11,94284000000,7.51E+11,4264000000,2806000000,366000000,360000000,0,51904790,2.81E+11,1.22E+11,37771,2178142,20706000000,128.20937
quartz,0.9038483,-0.9324975,-0.7826999,-0.88205534,0.5179731,-1.2948885,1.0559374,0.9527292,-1.6056764,-1.0400532,-0.52401435,-1.7999631,1.0976883,0.5085195,-0.8396667,32,0.5,19346813000,34786873000,12693250000,97853500000,183937500,173125000,27437500,17875000,0,1521829,8796759000,9135690000,69874.91,2106418,1731375000,13.402501
quartz,0.9038483,-0.9324975,-0.7826999,-0.88205534,0.5179731,-1.2948885,1.0559374,0.9527292,-1.6056764,-1.0400532,-0.52401435,-1.7999631,1.0976883,0.5085195,-0.8396667,1,2.4666,55268000000,2.71E+11,94290000000,7.51E+11,4316000000,2806000000,368000000,356000000,0,51848336,2.81E+11,1.22E+11,37771,2178142,20660000000,130.49185
quartz,0.9038483,-0.9324975,-0.7826999,-0.88205534,0.5179731,-1.2948885,1.0559374,0.9527292,-1.6056764,-1.0400532,-0.52401435,-1.7999631,1.0976883,0.5085195,-0.8396667,32,0.5166,19664937000,35236560000,12853687000,99142620000,185687500,173125000,27750000,17937500,0,1521621.2,8799718000,9150273000,69874.91,2106418,1723625000,14.061234
quartz,0.9038483,-0.9324975,-0.7826999,-0.88205534,0.5179731,-1.2948885,1.0559374,0.9527292,-1.6056764,-1.0400532,-0.52401435,-1.7999631,1.0976883,0.5085195,-0.8396667,64,0.5333,9970828000,18117906000,6110453000,49251672000,80546870,64921876,10718750,6218750,0,388366.78,2196919000,3754988300,37146.516,1055127.4,695968800,7.0571895
quartz,0.9038483,-0.9324975,-0.7826999,-0.88205534,0.5179731,-1.2948885,1.0559374,0.9527292,-1.6056764,-1.0400532,-0.52401435,-1.7999631,1.0976883,0.5085195,-0.8396667,1,2.4666,55288000000,2.71E+11,94300000000,7.51E+11,4296000000,2806000000,376000000,358000000,0,51752400,2.81E+11,1.22E+11,37771,2178142,20728000000,133.33801
quartz,0.9038483,-0.9324975,-0.7826999,-0.88205534,0.5179731,-1.2948885,1.0559374,0.9527292,-1.6056764,-1.0400532,-0.52401435,-1.7999631,1.0976883,0.5085195,-0.8396667,32,0.4666,18983625000,34245876000,12515438000,96372810000,188375000,172687500,28125000,17750000,0,1522031,8800183000,9217892000,69874.91,2106418,1728750000,13.8792925
quartz,0.9038483,-0.9324975,-0.7826999,-0.88205534,0.5179731,-1.2948885,1.0559374,0.9527292,-1.6056764,-1.0400532,-0.52401435,-1.7999631,1.0976883,0.5085195,-0.8396667,64,0.5666,9710000000,17682438000,5977937400,48088640000,79906250,65437500,10546875,6234375,0,388399.8,2197351700,3821616000,37162.03,1055127.6,701171900,7.191441
quartz,0.9038483,-0.9324975,-0.7826999,-0.88205534,0.5179731,-1.2948885,1.0559374,0.9527292,-1.6056764,-1.0400532,-0.52401435,-1.7999631,1.0976883,0.5085195,-0.8396667,1,2.7166,60728000000,2.98E+11,1.04E+11,8.26E+11,4724000000,3086000000,408000000,448000000,0,57230460,3.09E+11,1.34E+11,37771,2178816,22796000000,143.94801
quartz,0.9038483,-0.9324975,-0.7826999,-0.88205534,0.5179731,-1.2948885,1.0559374,0.9527292,-1.6056764,-1.0400532,-0.52401435,-1.7999631,1.0976883,0.5085195,-0.8396667,32,0.55,21517312000,38604812000,14077563000,1.09E+11,208000000,190375000,30375000,19562500,0,1671745.8,9681247000,10029645000,69875.875,2106439,1915812500,14.885906
quartz,0.9038483,-0.9324975,-0.7826999,-0.88205534,0.5179731,-1.2948885,1.0559374,0.9527292,-1.6056764,-1.0400532,-0.52401435,-1.7999631,1.0976883,0.5085195,-0.8396667,1,2.7,60786000000,2.98E+11,1.04E+11,8.26E+11,4736000000,3090000000,412000000,414000000,0,57060700,3.09E+11,1.34E+11,37771,2178816,22602000000,142.90858
quartz,0.9038483,-0.9324975,-0.7826999,-0.88205534,0.5179731,-1.2948885,1.0559374,0.9527292,-1.6056764,-1.0400532,-0.52401435,-1.7999631,1.0976883,0.5085195,-0.8396667,32,0.5333,21068188000,37945690000,13860437000,1.07E+11,203250000,190375000,30000000,19875000,0,1671468.8,9679323000,9946631000,69875.875,2106439,1913437400,14.789725
quartz,0.9038483,-0.9324975,-0.7826999,-0.88205534,0.5179731,-1.2948885,1.0559374,0.9527292,-1.6056764,-1.0400532,-1.0784276,0.43588138,1.2830366,0.6546211,-0.8558015,1,0.05,7111111,46305556,11166667,98944450,1722222.2,1666666.6,83333.336,83333.336,0,6.25,26038076,26638960,525.05554,30141.916,11777778,0.026956763
quartz,0.9038483,-0.9324975,-0.7826999,-0.88205534,0.5179731,-1.2948885,1.0559374,0.9527292,-1.6056764,-1.0400532,-1.0784276,0.43588138,1.2830366,0.6546211,-0.8558015,32,0.0666,75750000,174875000,67000000,512312500,1062500,1937500,0,0,0,918.09375,59878156,60886470,69879.78,2106186,33937500,0.12828878
quartz,0.9038483,-0.9324975,-0.7826999,-0.88205534,0.5179731,-1.2948885,1.0559374,0.9527292,-1.6056764,-1.0400532,-1.0784276,0.43588138,1.2830366,0.6546211,-0.8558015,1,0.0666,12416667,73916664,17916666,165555550,1750000,2388889,83333.336,83333.336,0,9.152778,38292890,26702312,525.05554,30141.916,11916667,0.033633832
quartz,0.9038483,-0.9324975,-0.7826999,-0.88205534,0.5179731,-1.2948885,1.0559374,0.9527292,-1.6056764,-1.0400532,-1.0784276,0.43588138,1.2830366,0.6546211,-0.8558015,32,0.1166,92375000,247250000,86375000,692687500,1812500,2000000,0,0,0,909.875,87323430,60529384,67700,2106053.2,36375000,0.13830137
quartz,0.9038483,-0.9324975,-0.7826999,-0.88205534,0.5179731,-1.2948885,1.0559374,0.9527292,-1.6056764,-1.0400532,-1.0784276,0.43588138,1.2830366,0.6546211,-0.8558015,1,0.0833,21527778,120250000,29166666,277444450,2472222.2,3583333.2,138888.89,111111.11,0,22,58800010,26588580,525.05554,30141.916,11750000,0.044539444
quartz,0.9038483,-0.9324975,-0.7826999,-0.88205534,0.5179731,-1.2948885,1.0559374,0.9527292,-1.6056764,-1.0400532,-1.0784276,0.43588138,1.2830366,0.6546211,-0.8558015,32,0.0666,109500000,344687500,109875000,925125000,3187500,3875000,0,0,0,879.375,129880104,59007372,67700,2106053.2,34187500,0.16996913
quartz,0.9038483,-0.9324975,-0.7826999,-0.88205534,0.5179731,-1.2948885,1.0559374,0.9527292,-1.6056764,-1.0400532,-1.0784276,0.43588138,1.2830366,0.6546211,-0.8558015,1,0.1166,34333332,185222220,44916668,434333340,2833333.2,5250000,138888.89,111111.11,0,19,87480030,26651084,525.05554,30141.916,12694444,0.06330503
quartz,0.9038483,-0.9324975,-0.7826999,-0.88205534,0.5179731,-1.2948885,1.0559374,0.9527292,-1.6056764,-1.0400532,-1.0784276,0.43588138,1.2830366,0.6546211,-0.8558015,32,0.1,143812500,498375000,150062500,1305437400,4187500,4000000,0,0,0,916.9375,199013970,60940976,69912.75,2106187,37250000,0.23355971
quartz,0.9038483,-0.9324975,-0.7826999,-0.88205534,0.5179731,-1.2948885,1.0559374,0.9527292,-1.6056764,-1.0400532,-1.0784276,0.43588138,1.2830366,0.6546211,-0.8558015,1,0.1333,50722224,268611100,65166668,635722240,3055555.5,7444444.5,166666.67,111111.11,0,5.0555553,124326590,26606524,525.05554,30141.916,12750000,0.08565435
quartz,0.9038483,-0.9324975,-0.7826999,-0.88205534,0.5179731,-1.2948885,1.0559374,0.9527292,-1.6056764,-1.0400532,-1.0784276,0.43588138,1.2830366,0.6546211,-0.8558015,32,0.0833,183687500,707562500,202312500,1811562500,6937500,3875000,0,0,0,916.375,281628400,60611956,67669,2106052.5,32812500,0.2707411
quartz,0.9038483,-0.9324975,-0.7826999,-0.88205534,0.5179731,-1.2948885,1.0559374,0.9527292,-1.6056764,-1.0400532,-1.0784276,0.43588138,1.2830366,0.6546211,-0.8558015,1,0.1,15583333,99138890,23166666,211944450,3472222.2,3388889,166666.67,194444.44,0,11.291667,53147028,53375364,525.05554,30141.916,23694444,0.052778278
quartz,0.9038483,-0.9324975,-0.7826999,-0.88205534,0.5179731,-1.2948885,1.0559374,0.9527292,-1.6056764,-1.0400532,-1.0784276,0.43588138,1.2830366,0.6546211,-0.8558015,32,0.0666,119875000,325937500,116500000,918375000,1500000,5812500,0,0,0,922.875,120947180,120348570,67700,2106053.2,60687500,0.2176539
quartz,0.9038483,-0.9324975,-0.7826999,-0.88205534,0.5179731,-1.2948885,1.0559374,0.9527292,-1.6056764,-1.0400532,-1.0784276,0.43588138,1.2830366,0.6546211,-0.8558015,1,0.1166,31833334,175833330,39388890,392861120,3527777.8,4972222,166666.67,222222.22,0,15.027778,81357430,53461720,525.05554,30141.916,23305556,0.072600834
