machine,0,1,2,3,4,5,6,7,8,9,10,11,12,13,14,15,16,17,18,19,20,21,22,23,24,25,26,27,28,29,30,31,32,33,34,35,36,37,38,39,40,41,42,43,44,45,46,47,48,49,50,51,52,53,54,55,56,57,58,59,60,61,62,63,64,65,66,67,68,69,70,71,72,73,74
boraxo,-0.6779876,1.0128999,-0.571233,-0.77925813,-0.70499426,0.91023743,1.5765073,0.27008268,-0.77775997,2.0346832,0.2784314,0.014086012,0.122567564,0.014149069,0.017263746,0.010060602,0.021602174,0.025227252,0.020963034,0.031093149,0.021655863,0.02102225,0.031638887,0.006465749,0.19396092,0.04332206,0.007497613,0.12996818,0.025075624,0.013961121,0.028380945,0.014318267,0.13516666,0.020585043,0.0630153,0.07980855,0.004154563,0.024103586,0.020134242,0.019801434,0.011493178,0.02481353,0.017980866,0.012685927,0.020402249,0.03607187,0.03860701,0.023017688,0.017896323,0.016508471,0.020546934,0.0197796,0.013116213,0.008909221,0.012819517,0.019268095,0.008341627,0.020653522,0.015993658,0.043685924,0.025220074,0.26556757,0.1495498,0.014306497,0.016341548,0.01085703,0.124278665,0.022963487,0.023800395,0.0134881,,,0.011804185,0.038168646,0.016915837
boraxo,-0.6779876,1.0128999,-0.571233,-0.77925813,-0.70499426,0.91023743,1.5765073,0.27008268,-0.77775997,2.0346832,0.13725491,0.037608583,0.24008965,0.026282003,0.036064938,0.019659238,0.032499094,0.03340135,0.025381746,0.045725696,0.0332187,0.025420006,0.028096072,0.010206006,0.102166966,0.038152155,0.013227495,0.12228985,0.036114562,0.038734604,0.02449577,0.038010504,0.1450348,0.03375147,0.06324025,0.07600855,0.00653552,0.034137893,0.040630303,0.039946817,0.027616441,0.045997795,0.033424627,0.02725033,0.040992543,0.048690725,0.051541384,0.04987948,0.038710993,0.035496242,0.04218865,0.03270011,0.03679214,0.02261713,0.03611252,0.03204057,0.02395971,0.040477656,0.034242626,0.049545024,0.049065,0.1773293,0.05407576,0.033446454,0.03747078,0.025681132,0.25009614,0.035671078,0.055917468,0.030441971,,,0.011237017,0.04502002,0.040016282
boraxo,-0.6779876,1.0128999,-0.571233,-0.77925813,-0.70499426,0.91023743,1.5765073,0.27008268,-0.77775997,2.0346832,0.12156863,0.043408584,0.26894796,0.029925672,0.04046616,0.02200053,0.04202612,0.0345674,0.025548523,0.04418026,0.042983864,0.026547369,0.025762163,0.0115305865,0.07687389,0.03522546,0.014446619,0.118511885,0.042975605,0.044528693,0.023758225,0.043833006,0.10563354,0.038534474,0.06374705,0.08490437,0.008249916,0.040627103,0.045040417,0.04418749,0.032891326,0.051892668,0.038519755,0.031346247,0.045666195,0.05290541,0.060469374,0.05595848,0.044595856,0.03924229,0.047057163,0.036899436,0.042706072,0.026209528,0.0419754,0.036349606,0.02856325,0.045687273,0.03925181,0.057273537,0.054934103,0.13459417,0.045350242,0.037610143,0.04207891,0.029434336,0.28127715,0.04363853,0.058081552,0.03372025,,,0.0106107695,0.044209894,0.044503346
boraxo,-0.6779876,1.0128999,-0.571233,-0.77925813,-0.70499426,0.91023743,1.5765073,0.27008268,-0.77775997,2.0346832,0.06666667,0.03460688,0.22946356,0.025911028,0.054716207,0.020353016,0.038270663,0.028085433,0.02659843,0.04368446,0.034897927,0.023696944,0.013667257,0.009855778,0.057264652,0.028618496,0.013550337,0.13418603,0.036446456,0.03548402,0.044304937,0.034838386,0.14704248,0.032701325,0.063907005,0.08032291,0.007586944,0.03345415,0.011137076,0.010081984,0.051396903,0.01993952,0.031953614,0.025958529,0.007393498,0.034589674,0.061020367,0.041297775,0.03619636,0.033610422,0.015252551,0.03137365,0.034728095,0.020770019,0.033895843,0.030654563,0.028693067,0.04534513,0.039900158,0.04989755,0.048570294,0.079159304,0.018130736,0.051539727,0.051429328,0.027924668,0.22063336,0.036973108,0.053289894,0.055429615,,,0.014557313,0.04557554,0.03766355
boraxo,-0.6779876,1.0128999,-0.571233,-0.77925813,-0.70499426,0.91023743,1.5765073,0.27008268,-0.77775997,2.0346832,0.05882353,0.041035578,0.25747457,0.029858703,0.061846588,0.023240719,0.04416762,0.030731324,0.023648107,0.05363405,0.045237012,0.028892936,0.013543804,0.010021912,0.05698046,0.031597763,0.014550471,0.12206163,0.043943282,0.04185287,0.049769737,0.04123246,0.14421436,0.038448025,0.064812936,0.08440195,0.008445488,0.04007683,0.01196487,0.011078988,0.059629988,0.02057582,0.037582908,0.03125236,0.00848868,0.033178054,0.06548436,0.046773415,0.04238769,0.03899714,0.016079113,0.03625804,0.041158043,0.024935668,0.0401501,0.035454907,0.035363708,0.050199095,0.044789515,0.05759779,0.054707542,0.07201592,0.013956664,0.057453763,0.057620928,0.03189174,0.24844262,0.044027075,0.05883813,0.063207716,,,0.01545533,0.04008981,0.04327238
boraxo,-0.6779876,1.0128999,-0.571233,-0.77925813,-0.70499426,0.91023743,1.5765073,0.27008268,-0.77775997,2.0346832,0.02745098,0.11530354,0.5021584,0.07058232,0.12813418,0.056869887,0.1282212,0.07442039,0.07309275,0.09549101,0.12893263,0.07372084,0.010949146,0.020928374,0.05783304,0.09009656,0.02897903,0.16277358,0.13424286,0.1287575,0.11032969,0.12865743,0.1404243,0.12092397,0.10905664,0.13202222,0.021376576,0.118647516,0.023979565,0.02225633,0.11917301,0.03311113,0.12472302,0.1148074,0.017011374,0.027536627,0.12573893,0.09272645,0.11747359,0.10926897,0.031997293,0.113099195,0.12443491,0.06626864,0.12041561,0.11194961,0.08960426,0.10213663,0.09667449,0.12601863,0.11291819,0.041496627,0.003527051,0.12010434,0.12017522,0.076443724,0.49905917,0.1230733,0.11489135,0.1466703,,,0.029055547,0.11059417,0.12003891
boraxo,-0.6779876,1.0128999,-0.571233,-0.77925813,-0.70499426,0.91023743,1.5765073,0.27008268,-0.77775997,2.0346832,0.011764706,0.2279793,1.0,0.12300358,0.2574937,0.119063154,0.19599321,0.16099393,0.1600706,0.18502973,0.19359198,0.15281193,0.0114305,0.04552067,0.13882771,0.19652653,0.05998767,0.22627272,0.22306499,0.25571528,0.23807588,0.25607154,0.23838773,0.208286,0.19730589,0.21774353,0.0355744,0.1961281,0.048669755,0.0446243,0.24851844,0.07453271,0.21760972,0.22966602,0.033759736,0.06738458,0.25883693,0.18473332,0.2373532,0.22030738,0.07030931,0.19877309,0.25294352,0.13318464,0.24064682,0.19384922,0.18003069,0.20257536,0.19971691,0.21763042,0.22615902,0.05681549,0.006097312,0.24514045,0.2459722,0.16066223,1.0,0.21026148,0.23180024,0.3046072,,,0.0634283,0.2398676,0.24714595
catalyst,-0.09632603,0.83694017,-0.869592,0.000388615,0.94309896,0.6575468,-0.8506807,1.4973834,-1.2455659,-0.549023,0.18431373,0.0349315,0.15963046,0.07088545,0.024221258,0.035862833,0.13217147,0.054323386,0.053983364,0.047216345,0.13838956,0.059368946,0.017844532,0.04631542,0.104511544,0.040693294,0.04703335,0.26066417,0.0706026,0.034139648,0.025361078,0.033825424,0.2642254,0.031852342,0.10494492,0.1539075,0.034052882,0.0549663,0.04744902,0.046599753,0.03871257,0.05298102,0.038745373,0.03131303,0.046945527,0.06773748,0.05735952,0.05386827,0.034964047,0.03873419,0.048532933,0.029867765,0.031913593,0.016418476,0.03203861,0.029521966,0.03289384,0.041700393,0.042996395,0.14450552,0.05501727,0.19948362,0.047609992,0.025143478,0.025185823,0.037611704,0.17230956,0.09006687,0.047173653,0.02590238,,,0.014072858,0.06316691,0.035946157
catalyst,-0.09632603,0.83694017,-0.869592,0.000388615,0.94309896,0.6575468,-0.8506807,1.4973834,-1.2455659,-0.549023,0.09019608,0.06424996,0.30800247,0.09023259,0.0466756,0.06833295,0.139574,0.095196985,0.09475306,0.08738628,0.14530082,0.105215505,0.012157983,0.09319659,0.07630551,0.04819404,0.09419539,0.26883453,0.08297076,0.06210996,0.042266525,0.06174902,0.2614721,0.057473093,0.111597195,0.15582074,0.06693592,0.06839732,0.093742594,0.093300655,0.075026415,0.09612404,0.062274847,0.057362,0.093144886,0.1321022,0.07648558,0.08549152,0.06272011,0.07208007,0.09413513,0.054538596,0.06124545,0.030042933,0.058693785,0.050498784,0.06686284,0.081705034,0.07765414,0.16258393,0.10829518,0.10594955,0.02029986,0.054595042,0.05452716,0.077840164,0.34511647,0.09330508,0.091700986,0.058327228,,,0.01935461,0.09353517,0.061895687
catalyst,-0.09632603,0.83694017,-0.869592,0.000388615,0.94309896,0.6575468,-0.8506807,1.4973834,-1.2455659,-0.549023,0.05882353,0.094871014,0.46890658,0.13800475,0.06994533,0.102018416,0.19491754,0.14012946,0.13950513,0.11896546,0.19488707,0.14172447,0.013465293,0.14041902,0.07992895,0.062459473,0.14149965,0.22459993,0.15106563,0.09527789,0.06414314,0.09381142,0.1458378,0.095805295,0.1504353,0.19634974,0.10186888,0.14728452,0.14086583,0.13912976,0.12174729,0.13754027,0.10236797,0.088991255,0.1390596,0.14468072,0.10153251,0.117451854,0.09634079,0.10903042,0.13882427,0.09152327,0.09022563,0.04325886,0.0888515,0.090189286,0.10704645,0.12344668,0.11495983,0.18197802,0.16266574,0.09191995,0.011100406,0.08397203,0.08398775,0.12205667,0.51621157,0.16201523,0.13216144,0.082195595,,,0.024329146,0.1308011,0.090207875
catalyst,-0.09632603,0.83694017,-0.869592,0.000388615,0.94309896,0.6575468,-0.8506807,1.4973834,-1.2455659,-0.549023,0.043137256,0.06697841,0.29381058,0.096493356,0.07180709,0.097478226,0.13826995,0.09159176,0.091087006,0.093738355,0.14008906,0.098098375,0.010042718,0.09100542,0.06927176,0.050244477,0.09291983,0.29565048,0.08425057,0.064039946,0.051541004,0.062631294,0.2544026,0.062475547,0.11053994,0.1673775,0.09318745,0.07147155,0.093587585,0.09242965,0.09947956,0.092868626,0.06747905,0.058079854,0.09346937,0.10572007,0.08295745,0.08854141,0.06890101,0.07674073,0.09313121,0.057873957,0.05859304,0.030365523,0.058084983,0.058337484,0.07426911,0.09345583,0.09175731,0.14635508,0.11640982,0.06566436,0.007987865,0.07398786,0.07367654,0.08159757,0.31490386,0.10253031,0.08993507,0.06664508,,,0.019047394,0.09041039,0.06156809
catalyst,-0.09632603,0.83694017,-0.869592,0.000388615,0.94309896,0.6575468,-0.8506807,1.4973834,-1.2455659,-0.549023,0.02745098,0.11130949,0.44151008,0.14438096,0.11462148,0.15051992,0.23290922,0.13868676,0.1368496,0.14112611,0.2379835,0.14311096,0.0113335475,0.1402888,0.10557727,0.07879287,0.14178412,0.25170326,0.21897933,0.111596964,0.08182678,0.109848976,0.21216817,0.15339698,0.16753215,0.19423068,0.14026561,0.20048854,0.13951497,0.13842504,0.15144251,0.1400319,0.16527036,0.10731326,0.14065227,0.15324621,0.12306801,0.1369125,0.11555931,0.124222554,0.14044127,0.1434784,0.10440135,0.053085096,0.104041815,0.14153932,0.12909551,0.1410807,0.13398874,0.2019433,0.17572747,0.045178298,0.007099416,0.11334225,0.11246113,0.12848954,0.4739058,0.20987077,0.13658957,0.10818888,,,0.026975932,0.13860148,0.10513829
catalyst,-0.09632603,0.83694017,-0.869592,0.000388615,0.94309896,0.6575468,-0.8506807,1.4973834,-1.2455659,-0.549023,0.011764706,0.29679245,0.88511884,0.28133973,0.22753112,0.31022948,0.34048927,0.27582127,0.27051625,0.25916344,0.34487742,0.28297684,0.009205621,0.27197006,0.18181172,0.19775328,0.27623543,0.4022411,0.3614306,0.29887322,0.17846835,0.29387915,0.3252291,0.36062118,0.29423407,0.3225238,0.27487132,0.34802845,0.2761616,0.27545217,0.28216612,0.2756504,0.37707523,0.2909452,0.27748373,0.27797273,0.27379784,0.29226977,0.30505535,0.29034087,0.27839518,0.3471464,0.29144746,0.1364669,0.2887895,0.34176728,0.26738143,0.28031343,0.26722214,0.32129037,0.35121834,0.034969106,0.004616812,0.22878464,0.22778429,0.2650558,0.941327,0.3582943,0.270338,0.24274603,,,0.049048223,0.25863945,0.2845216
quartz,0.68525517,-0.41597325,1.8687956,0.38512906,-0.87640655,-0.222126,-0.44132063,0.37635133,0.7167788,-0.14111647,0.2784314,0.053586837,0.10881268,0.02649701,0.020595642,0.03354969,0.01932185,0.058231875,0.052487895,0.02721247,0.02073314,0.044789188,0.012785226,0.011651819,0.19460036,0.050857853,0.015067469,0.24818212,0.022730136,0.03251668,0.029385632,0.032009006,0.17150329,0.024093468,0.121607594,0.12699896,0.005056169,0.020217739,0.014105877,0.013414578,0.014979688,0.019016135,0.0262018,0.024861936,0.013648792,0.04546417,0.051560063,0.035832144,0.03167266,0.024318498,0.017184846,0.023280177,0.03213346,0.019186338,0.035923716,0.023140125,0.012915209,0.02159956,0.019185115,0.075715914,0.022829702,0.28878105,0.07400122,0.017966503,0.01791418,0.017323442,0.11323341,0.01977244,0.023914564,0.03393615,,,0.02354929,0.11464482,0.04753112
quartz,0.68525517,-0.41597325,1.8687956,0.38512906,-0.87640655,-0.222126,-0.44132063,0.37635133,0.7167788,-0.14111647,0.13725491,0.04893533,0.21135531,0.051382348,0.033372495,0.05195549,0.033230394,0.061505973,0.059050728,0.0403918,0.035214663,0.06211363,0.01270358,0.021067567,0.08042629,0.059199803,0.029098684,0.24351634,0.031493593,0.044200998,0.02374661,0.050487436,0.16881515,0.03245694,0.11994199,0.119345285,0.009010674,0.027810855,0.028268911,0.026761515,0.032308873,0.034901123,0.035467908,0.037620775,0.027645309,0.052708793,0.05150403,0.061230946,0.04531248,0.043180496,0.03516451,0.031570435,0.04156468,0.018092146,0.046311326,0.031011926,0.026988793,0.04244727,0.039219715,0.07915876,0.042384293,0.18016161,0.032120828,0.040044498,0.040058404,0.034831397,0.2280287,0.03177369,0.049705237,0.04420847,,,0.023667451,0.10814064,0.06519149
quartz,0.68525517,-0.41597325,1.8687956,0.38512906,-0.87640655,-0.222126,-0.44132063,0.37635133,0.7167788,-0.14111647,0.12156863,0.06480058,0.23686187,0.057837855,0.038641114,0.05659668,0.03434503,0.06723719,0.06619575,0.04237065,0.03503928,0.0655955,0.014841289,0.022670534,0.07410302,0.050770227,0.03237903,0.23839411,0.033138234,0.054283544,0.021272643,0.04723599,0.10354716,0.034925193,0.11467603,0.12968674,0.009830642,0.030888813,0.030276267,0.028330635,0.037782285,0.039159186,0.03874313,0.042412855,0.028817082,0.05533541,0.053315777,0.070292875,0.049917784,0.046641596,0.04020271,0.033669308,0.051970713,0.025097897,0.049430747,0.033209886,0.030037846,0.04779772,0.045346923,0.09919442,0.046825193,0.15176064,0.026813166,0.04503523,0.044987023,0.039230406,0.2584791,0.038517475,0.05509841,0.045941357,,,0.022852147,0.1324908,0.05729942
quartz,0.68525517,-0.41597325,1.8687956,0.38512906,-0.87640655,-0.222126,-0.44132063,0.37635133,0.7167788,-0.14111647,0.06666667,0.060901046,0.18686286,0.05251378,0.049415465,0.07139948,0.045941006,0.06250491,0.064805515,0.044081535,0.048501883,0.065501675,0.007054303,0.01951399,0.07893428,0.057184417,0.028353663,0.253831,0.035297595,0.04284629,0.03722567,0.042064898,0.1668478,0.031855114,0.117459826,0.12573428,0.0130952615,0.027907414,0.013890571,0.014441081,0.055477347,0.021879483,0.033101887,0.03731063,0.017055593,0.041899838,0.06496138,0.05782089,0.041826904,0.041631807,0.02076589,0.031164235,0.040473204,0.019981604,0.04099945,0.030367535,0.0341321,0.044572655,0.056441598,0.08123181,0.050100304,0.10232879,0.013247242,0.061667617,0.061782543,0.03555688,0.20589781,0.03570953,0.05006194,0.053719454,,,0.02295849,0.11675115,0.0556813
quartz,0.68525517,-0.41597325,1.8687956,0.38512906,-0.87640655,-0.222126,-0.44132063,0.37635133,0.7167788,-0.14111647,0.05882353,0.05895949,0.21009862,0.057919804,0.056769192,0.07864854,0.033512972,0.06835991,0.07121757,0.046228547,0.034072056,0.0728824,0.007556247,0.02210029,0.07928952,0.05427525,0.03212843,0.22740631,0.035733256,0.058210704,0.04191808,0.053831942,0.15081821,0.035149075,0.11268238,0.12802039,0.011992701,0.031071119,0.011862232,0.011638973,0.06512473,0.025878314,0.03646004,0.042199317,0.0118343495,0.04596832,0.07663501,0.06343967,0.04854466,0.047582608,0.025555577,0.03422336,0.045168903,0.021430768,0.05296466,0.033421922,0.037553966,0.050376922,0.065085165,0.097721756,0.0557959,0.09028553,0.009529278,0.06918897,0.069321826,0.039909754,0.2316549,0.036185503,0.056459907,0.06006011,,,0.023714714,0.1344814,0.06755415
quartz,0.68525517,-0.41597325,1.8687956,0.38512906,-0.87640655,-0.222126,-0.44132063,0.37635133,0.7167788,-0.14111647,0.02745098,0.0996684,0.42044252,0.14715049,0.10745133,0.14192304,0.24021055,0.12503211,0.13344632,0.085820235,0.24563947,0.13891275,0.009366252,0.045062684,0.055843692,0.063248105,0.06478064,0.2928501,0.1926305,0.09877761,0.086885065,0.097264744,0.15824714,0.1047052,0.16548313,0.20275763,0.040503178,0.1771768,0.024205582,0.023404388,0.11370781,0.040990956,0.10511575,0.0989319,0.023170372,0.04062434,0.08773896,0.10563864,0.0976544,0.099922255,0.040777475,0.10508097,0.09470651,0.04208651,0.09746169,0.10391542,0.11647321,0.108647935,0.14539261,0.2160236,0.11105981,0.029135281,0.002235978,0.14258163,0.1423574,0.08316594,0.4674981,0.1967039,0.11643063,0.11480793,,,0.020028122,0.13654144,0.09108146
quartz,0.68525517,-0.41597325,1.8687956,0.38512906,-0.87640655,-0.222126,-0.44132063,0.37635133,0.7167788,-0.14111647,0.011764706,0.18990435,0.80412805,0.25041392,0.20897011,0.2784747,0.32298023,0.2425177,0.25871864,0.16098516,0.3260532,0.26965103,0.008273024,0.0895192,0.12568383,0.133331,0.12700562,0.37330395,0.3055507,0.19113417,0.18338725,0.18852748,0.26450804,0.20470554,0.26322582,0.28880838,0.062706,0.2819955,0.0452372,0.04431451,0.22871998,0.08295993,0.21008357,0.1751159,0.045789305,0.09194168,0.15248555,0.20211299,0.1882536,0.19632502,0.0809758,0.1831102,0.18164818,0.0769328,0.18058792,0.17859073,0.22643557,0.21025677,0.27677512,0.3145265,0.21148267,0.03407576,0.005191778,0.27886957,0.27294004,0.16597123,0.89926475,0.29431668,0.22584815,0.23379184,,,0.04071794,0.27435595,0.17766593
ruby,0.24022357,-1.0469878,0.24542987,0.11794878,-1.8802122,-0.25251585,-0.17556044,0.12499895,1.4234219,-0.5439178,0.43529412,0.0186389,0.06554037,0.008124458,0.012675888,0.020243732,0.010694057,0.034207188,0.034106545,0.017242268,0.010561585,0.036145583,0.016225496,0.006609433,0.40255773,0.098333366,0.005163216,0.08551236,0.0136183165,0.018351398,0.058626078,0.018114334,0.12996718,0.011377025,0.03393573,0.056473333,0.009400024,0.013310974,0.009898272,0.009703236,0.007476718,0.018738693,0.017837426,0.016324908,0.010019931,0.037145708,0.050504766,0.023795744,0.020750249,0.017280916,0.011747047,0.011303079,0.015987365,0.013563115,0.016591227,0.011124781,0.004943063,0.0114214625,0.008316188,0.02938634,0.018176578,0.52982223,0.24149604,0.005756087,0.006919309,0.007837694,0.06146799,0.0103335325,0.012455703,0.014919861,,,0.018078482,0.05552855,0.02064844
ruby,0.24022357,-1.0469878,0.24542987,0.11794878,-1.8802122,-0.25251585,-0.17556044,0.12499895,1.4234219,-0.5439178,0.21568628,0.0153043615,0.09703782,0.0101917,0.016605934,0.021710766,0.015132897,0.015158633,0.0149146905,0.024802916,0.015224284,0.019214302,0.010205594,0.004552965,0.1216341,0.033139974,0.005806642,0.08572855,0.02413018,0.014906989,0.015534894,0.01466965,0.1199734,0.024147777,0.028534185,0.059882592,0.013479229,0.023598421,0.016185865,0.015876472,0.008155973,0.024060467,0.020890018,0.013083072,0.016446307,0.034866955,0.040446773,0.03574364,0.01767023,0.016062962,0.018610258,0.023883162,0.012512143,0.008829508,0.013182817,0.023553342,0.005295901,0.017271254,0.013786492,0.032269716,0.025317581,0.19719611,0.06532325,0.01098951,0.012354746,0.010538323,0.09945408,0.020209596,0.021652782,0.011794985,,,0.007999433,0.027359212,0.017144162
ruby,0.24022357,-1.0469878,0.24542987,0.11794878,-1.8802122,-0.25251585,-0.17556044,0.12499895,1.4234219,-0.5439178,0.12156863,0.036466252,0.16293585,0.019020218,0.029604608,0.038000464,0.022380494,0.016914515,0.016837262,0.027494544,0.02292739,0.023348458,0.008326215,0.006344517,0.05641208,0.026690735,0.009518198,0.09008484,0.03380449,0.03696485,0.01293897,0.03639597,0.07701431,0.03435274,0.041396428,0.07997657,0.022617294,0.032381933,0.027975574,0.027372863,0.017357077,0.039317723,0.031651046,0.026678544,0.02840311,0.045927987,0.059927717,0.032626797,0.03787503,0.029887576,0.03249542,0.03337518,0.034472335,0.020942835,0.03538537,0.032698926,0.014716015,0.029273855,0.027913207,0.053961832,0.042668212,0.12002991,0.030236961,0.021513978,0.024144404,0.021370191,0.17466743,0.030571062,0.032079585,0.023607016,,,0.006935993,0.029396107,0.036512002
ruby,0.24022357,-1.0469878,0.24542987,0.11794878,-1.8802122,-0.25251585,-0.17556044,0.12499895,1.4234219,-0.5439178,0.105882354,0.010535745,0.091583855,0.009598668,0.024605235,0.028784316,0.014720897,0.010767383,0.010421513,0.024977041,0.014784518,0.013069657,0.00807952,0.003120622,0.047175843,0.015316942,0.005330281,0.08933397,0.023204505,0.010767394,0.013583595,0.010552711,0.1188548,0.022823874,0.035261612,0.06295348,0.014081197,0.02265893,0.004385947,0.003822722,0.018364474,0.010539644,0.017640194,0.009708216,0.003512999,0.0318471,0.05643497,0.024412187,0.015031966,0.0133951,0.00512688,0.022243105,0.009845713,0.005588659,0.009899911,0.02217354,0.007669238,0.017399289,0.016388444,0.032115713,0.02190051,0.088671416,0.027253676,0.01744384,0.017185118,0.010450259,0.08942658,0.01998213,0.020010121,0.019754896,,,0.006735121,0.019790292,0.013679592
ruby,0.24022357,-1.0469878,0.24542987,0.11794878,-1.8802122,-0.25251585,-0.17556044,0.12499895,1.4234219,-0.5439178,0.05882353,0.052719817,0.15999971,0.030679079,0.04713301,0.05912508,0.05472061,0.016247936,0.014659291,0.03663263,0.05614478,0.021987285,0.007073061,0.006093071,0.019182948,0.035751212,0.009771053,0.094816335,0.044399533,0.05428613,0.023334282,0.05328224,0.097477615,0.044532213,0.05735731,0.07124083,0.026361873,0.041429028,0.007220723,0.006308681,0.03724085,0.00886427,0.041405,0.037081644,0.006157049,0.021859907,0.057041995,0.038758896,0.053167142,0.040836565,0.009028695,0.04259149,0.053243354,0.032858748,0.051972743,0.041872434,0.027974077,0.033621363,0.036486167,0.06915657,0.03834346,0.046870243,0.011971769,0.0338193,0.033624236,0.023072762,0.15791754,0.04995895,0.03643672,0.04590158,,,0.007987617,0.023169687,0.05246491
ruby,0.24022357,-1.0469878,0.24542987,0.11794878,-1.8802122,-0.25251585,-0.17556044,0.12499895,1.4234219,-0.5439178,0.02745098,0.07981115,0.31797302,0.051269557,0.08517444,0.1062175,0.093534485,0.06064753,0.060318492,0.061609674,0.09432394,0.05806883,0.006843203,0.012477999,0.025648313,0.058323547,0.018799342,0.14749068,0.09289708,0.0850987,0.060803864,0.083978765,0.09509772,0.08061229,0.08341086,0.11419511,0.051021907,0.08254154,0.013682772,0.012242835,0.07208791,0.018431256,0.07892217,0.06727391,0.011200596,0.014690906,0.08829929,0.05823493,0.081008494,0.066197455,0.019738982,0.07684747,0.08118254,0.048263058,0.07999635,0.07483563,0.06411336,0.06283974,0.07220844,0.10845186,0.07241379,0.013525403,0.002224835,0.07267543,0.07236139,0.051202912,0.31770203,0.09029615,0.07276155,0.0929963,,,0.019224634,0.08960026,0.07832509
ruby,0.24022357,-1.0469878,0.24542987,0.11794878,-1.8802122,-0.25251585,-0.17556044,0.12499895,1.4234219,-0.5439178,0.011764706,0.16314174,0.62874395,0.09564478,0.16713326,0.2105921,0.1589778,0.120746076,0.11997972,0.11959959,0.15500185,0.11547792,0.007247318,0.028377457,0.119360566,0.13392685,0.039054863,0.19752666,0.1799815,0.17610778,0.13903585,0.17458552,0.18514678,0.15859284,0.14898296,0.2018721,0.102504045,0.15777367,0.02704319,0.027047861,0.15465502,0.038240086,0.16244338,0.14268555,0.023034219,0.038587578,0.18131474,0.12091193,0.16322812,0.14011635,0.041052263,0.14982711,0.16869183,0.096861474,0.16379358,0.1468015,0.13122252,0.12742788,0.14599174,0.19710627,0.1466028,0.02233028,0.004324129,0.1504948,0.15003218,0.11551478,0.6382765,0.17513785,0.14620072,0.19884436,,,0.040493436,0.17739509,0.16557468
mammoth,-0.246062,1.3406625,-2.2199614,0.74572533,-1.147468,-0.0035775325,2.090731,1.2522557,-0.5780248,1.5210385,1.0,0.05004068,0.031187065,0.006692544,0.012460187,0.03125476,0.010251158,0.07532155,0.07283243,0.017363233,0.009343721,0.07487055,0.00936893,0.010960343,0.42287743,0.10395892,0.008798011,0.003429363,0.019878987,0.049570225,0.059218436,0.048031308,0.08418889,0.024557859,0.005315216,0.007389877,0.003166834,0.017914863,0.002211532,0.002016631,0.012759807,0.013837902,0.056176383,0.050266523,0.001908276,0.058355264,0.060441356,0.076654315,0.05406323,0.048042513,0.007638318,0.023973662,0.045396622,0.029110972,0.045352988,0.02363195,0.022634903,0.008231249,0.011201658,0.004146398,0.021080298,1.0,0.13083889,0.00308311,0.003532831,0.026905643,0.022455823,0.009636625,0.011179403,0.032589614,,,0.04382555,0.13999029,0.059761353
mammoth,-0.246062,1.3406625,-2.2199614,0.74572533,-1.147468,-0.0035775325,2.090731,1.2522557,-0.5780248,1.5210385,0.49803922,0.02861786,0.031027416,0.005388401,0.01139392,0.023239063,0.004834717,0.055389788,0.04490408,0.014198047,0.005593275,0.044541974,0.008765663,0.009819857,0.23602131,0.06782216,0.009213417,0.003785491,0.013490666,0.026663668,0.032260314,0.026319228,0.079375595,0.014864944,0.005307599,0.004054192,0.002964982,0.0117925005,0.003374017,0.003172446,0.005260118,0.010263272,0.030245028,0.026087388,0.002933364,0.047546305,0.040306687,0.07070691,0.02692716,0.026528051,0.007257333,0.014696845,0.024783107,0.015007922,0.025180507,0.01477805,0.015618083,0.008294555,0.009433145,0.004190615,0.018998222,0.5302554,0.052851543,0.004182671,0.004479392,0.019877298,0.039214052,0.005332196,0.012621559,0.021186657,,,0.030887026,0.10258547,0.040125478
mammoth,-0.246062,1.3406625,-2.2199614,0.74572533,-1.147468,-0.0035775325,2.090731,1.2522557,-0.5780248,1.5210385,0.24705882,0.009017431,0.040677775,0.001891007,0.013168483,0.017635858,0.000736224,0.025489056,0.018181952,0.01798271,0.001258438,0.019165156,0.006561747,0.005028916,0.09996448,0.04016754,0.006806776,0.001764088,0.00580195,0.007633623,0.01010494,0.007551961,0.07860944,0.005724533,0.00311438,0.001367416,0.001975458,0.004996089,0.002546838,0.002360686,0.006037815,0.003283261,0.012632477,0.007998777,0.002038001,0.0378011,0.018715154,0.030990647,0.008697373,0.008161555,0.002063671,0.006006701,0.007099076,0.004778135,0.007384337,0.006415975,0.006371059,0.006004857,0.004373675,0.002536868,0.011186138,0.23570476,0.027999498,0.005464588,0.005243687,0.00855898,0.040297173,0.000779985,0.009383383,0.0136074135,,,0.016247002,0.055898897,0.01992376
mammoth,-0.246062,1.3406625,-2.2199614,0.74572533,-1.147468,-0.0035775325,2.090731,1.2522557,-0.5780248,1.5210385,0.12156863,0.013295009,0.07532273,0.005163701,0.023407405,0.028583964,0.001348848,0.031092774,0.016732024,0.021294357,0.002568574,0.020770568,0.006245997,0.007902583,0.06159858,0.038712956,0.013570656,0.007818766,0.009190881,0.008742305,0.006997962,0.00950822,0.06447159,0.006560215,0.010137351,0.00342351,0.002807986,0.005620554,0.004440427,0.003950804,0.01706339,0.002597686,0.011402774,0.005360024,0.003384306,0.020781027,0.019406233,0.026049877,0.00938056,0.009580868,0.003172688,0.006057213,0.014458963,0.005559389,0.013560979,0.005956214,0.011397339,0.013288644,0.012412764,0.008732252,0.015651416,0.10420008,0.01181057,0.014634603,0.014186209,0.014295719,0.08179795,0.00343266,0.017952252,0.0149653135,,,0.0128085455,0.028886883,0.024758274
mammoth,-0.246062,1.3406625,-2.2199614,0.74572533,-1.147468,-0.0035775325,2.090731,1.2522557,-0.5780248,1.5210385,0.05882353,0.013744956,0.14875196,0.013264366,0.0469785,0.058898237,0.004021915,0.058221355,0.029679218,0.03831802,0.004715706,0.037871625,0.006161419,0.018431876,0.06621669,0.043584935,0.028238524,0.085225455,0.01232451,0.011527707,0.014402444,0.010492706,0.07117973,0.009721177,0.034848258,0.06999305,0.005839355,0.008065472,0.008156181,0.007409611,0.037523054,0.004727254,0.009142091,0.008763854,0.007373746,0.02863063,0.031864323,0.025379563,0.013264023,0.015843606,0.007037281,0.00771779,0.014714724,0.006840097,0.009560281,0.007695964,0.019642435,0.027844127,0.029394994,0.0574868,0.02605319,0.058663093,0.003564194,0.03306954,0.032852486,0.026859513,0.16566217,0.006522126,0.034148246,0.033816837,,,0.016506953,0.05261209,0.028490877
mammoth,-0.246062,1.3406625,-2.2199614,0.74572533,-1.147468,-0.0035775325,2.090731,1.2522557,-0.5780248,1.5210385,0.02745098,0.024991576,0.29713824,0.056797184,0.09444348,0.12036461,0.0876541,0.11603855,0.058012515,0.07227313,0.090100355,0.073190674,0.006029343,0.041443657,0.19744228,0.052382536,0.05859471,0.17460757,0.047420334,0.02369943,0.036743656,0.021716148,0.23480083,0.022096254,0.106076315,0.16226444,0.016872138,0.04199198,0.015504103,0.015246692,0.082580246,0.010793521,0.02624289,0.021605214,0.014737593,0.04542384,0.056462985,0.045938406,0.028865976,0.034990944,0.015354366,0.023795819,0.021504756,0.014609977,0.021352101,0.023005145,0.057808876,0.059687935,0.091391414,0.15915763,0.05222253,0.033646006,0.005459204,0.07136165,0.071012355,0.057614807,0.33353543,0.07577174,0.07030722,0.07236644,,,0.023147546,0.06550471,0.04151528
mammoth,-0.246062,1.3406625,-2.2199614,0.74572533,-1.147468,-0.0035775325,2.090731,1.2522557,-0.5780248,1.5210385,0.011764706,0.11127045,0.60516214,0.18215439,0.19509946,0.2525433,0.2818099,0.23656614,0.119549535,0.14525306,0.28766987,0.14659283,0.005961562,0.08528952,0.10841918,0.12099332,0.118049584,0.33955252,0.3518098,0.11634802,0.086699225,0.114500366,0.516794,0.30440164,0.20419835,0.3018376,0.051748578,0.31828007,0.026488034,0.025868468,0.17790061,0.0269988,0.26927295,0.1454947,0.025620023,0.06408744,0.16133882,0.10340067,0.11034936,0.1016825,0.03861308,0.28628752,0.1579717,0.08880357,0.15140726,0.28434727,0.17796692,0.1225227,0.18958086,0.3117436,0.1092086,0.028790124,0.007017703,0.14970572,0.1489806,0.12743276,0.67866087,0.31323767,0.1436095,0.17364651,,,0.037811205,0.09478509,0.1364584
poodle,0.9295633,-1.2747363,-0.08536712,2.0496547,0.3068411,2.3356726,0.76243246,0.6473324,0.6130258,-0.5269645,0.8745098,0.012769044,0.036924656,0.00302332,0.005730615,0.009527437,0.0,0.027913373,0.027682183,0.003300257,0.0,0.022742335,0.09863496,0.010668486,0.9736412,0.23955065,0.006179153,0.0,0.003453992,0.012903609,0.15814231,0.012744412,0.04855134,0.006269832,0.0,0.0,0.000411778,0.00420945,0.00320373,0.002919821,0.003022189,0.006012707,0.015363076,0.01190044,0.003124691,0.046084274,0.015483895,0.03313242,0.01892954,0.014408096,0.004630942,0.006395537,0.01251663,0.020696845,0.012570713,0.006246861,0.0,0.002975399,0.0,0.0,0.007608467,0.5028526,1.0,0.0,0.0,0.004306748,0.031894986,0.0,0.003853322,0.007022448,,,0.027791236,0.046408813,0.015754363
poodle,0.9295633,-1.2747363,-0.08536712,2.0496547,0.3068411,2.3356726,0.76243246,0.6473324,0.6130258,-0.5269645,0.43529412,0.002987319,0.06062155,0.003960893,0.007957998,0.003800046,0.000672633,0.012305403,0.012198229,0.004457299,0.001042481,0.0108342925,0.036198173,0.002096878,0.23509769,0.052645415,0.002937186,0.003264841,0.001526049,0.002715108,0.033822514,0.002661061,0.04012477,0.001699072,0.002682237,0.008411627,0.000526609,0.00125564,0.006548005,0.005946543,0.0,0.007608811,0.005132481,0.003602723,0.006743394,0.04664892,0.005033667,0.026400808,0.006888322,0.010428698,0.008081706,0.001518513,0.002711862,0.003375054,0.003004927,0.001460997,0.000475999,0.005674099,0.003743515,0.005146527,0.009564356,0.20849492,0.24190833,0.003668819,0.003656149,0.001589345,0.06373357,0.000131328,0.007445363,0.004528229,,,0.006097057,0.022706756,0.005847082
poodle,0.9295633,-1.2747363,-0.08536712,2.0496547,0.3068411,2.3356726,0.76243246,0.6473324,0.6130258,-0.5269645,0.21568628,2.465463e-05,0.051209327,0.002973974,0.011549959,0.001243501,0.001689195,0.007170209,0.006749921,0.005310571,0.003435673,0.005840838,0.011142576,0.0,0.08959147,0.016771525,0.00193028,0.003394753,0.0,0.0,0.014239836,0.0,0.03542973,0.0,0.003104224,0.008493155,0.000698857,0.0,0.001599308,0.001461246,0.006339706,0.000155326,0.0,0.0,0.001724831,0.039863072,0.001933152,0.017866818,0.002321672,0.002965202,0.0,0.0,0.0,6.6324064e-05,0.0,0.0,0.001957253,0.005262252,0.003578753,0.004881831,0.008415773,0.13101402,0.08134132,0.004678897,0.004631844,0.0,0.05509425,0.000352263,0.007299386,0.0,,,0.0026586,0.013864778,0.002878869
poodle,0.9295633,-1.2747363,-0.08536712,2.0496547,0.3068411,2.3356726,0.76243246,0.6473324,0.6130258,-0.5269645,0.12156863,0.0,0.088462204,0.007421278,0.021075998,0.002907574,0.007724083,0.007931483,0.006821925,0.007409846,0.010833821,0.006371011,0.009834892,0.001180897,0.022877442,0.0,0.003975699,0.023724647,0.004187781,0.000709143,0.013397757,0.00096262,0.039591253,0.002376263,0.021039968,0.017678967,0.000899811,0.003988371,0.002846826,0.002627508,0.02015449,0.0,0.000224126,0.000946522,0.003070995,0.01169626,0.0,0.015247901,0.003483735,0.005936403,0.000516739,0.001410123,0.000640527,0.0,0.000568619,0.001442896,0.008641207,0.010025166,0.010606805,0.015034717,0.014349402,0.061667986,0.032409053,0.011774523,0.01177204,0.00488126,0.09789541,0.00716897,0.013343489,0.003624856,,,0.0,0.010670555,0.000903369
poodle,0.9295633,-1.2747363,-0.08536712,2.0496547,0.3068411,2.3356726,0.76243246,0.6473324,0.6130258,-0.5269645,0.05882353,0.015088634,0.17856461,0.019271355,0.045369156,0.010510978,0.022850709,0.011654916,0.011601272,0.014624411,0.02333378,0.01469145,0.008041978,0.005428536,0.0,0.005432782,0.009642368,0.14624673,0.024042884,0.017711515,0.03153438,0.018290788,0.03886193,0.02148501,0.06519633,0.07044576,0.00408997,0.023627501,0.006085171,0.005539555,0.032707565,0.002925477,0.014663803,0.014974756,0.006755311,0.006700142,0.01765052,0.02081435,0.015642755,0.0141031565,0.003957649,0.020423627,0.017376669,0.010127031,0.016906638,0.019928517,0.026259815,0.022744764,0.03366168,0.0574501,0.029177738,0.018550478,0.002495233,0.02832624,0.02831347,0.02042665,0.19850825,0.023798252,0.028142765,0.019646946,,,0.00141792,0.019049603,0.017769571
poodle,0.9295633,-1.2747363,-0.08536712,2.0496547,0.3068411,2.3356726,0.76243246,0.6473324,0.6130258,-0.5269645,0.02745098,0.07130119,0.36069682,0.09524032,0.09816241,0.032278042,0.16968575,0.03499879,0.034797046,0.03057728,0.17368732,0.040251445,0.007593644,0.014781422,0.006465364,0.045652896,0.021350473,0.23987731,0.14336622,0.07943848,0.079015985,0.07734366,0.1612098,0.09387735,0.14490274,0.17010371,0.027821487,0.1296817,0.010866676,0.010228012,0.07828158,0.009748019,0.09164205,0.065502204,0.011503187,0.012724725,0.06988298,0.04996106,0.07247586,0.057420023,0.010147566,0.091185994,0.07709988,0.03862427,0.07591198,0.09064285,0.07476508,0.050554037,0.082098424,0.14813305,0.06231027,0.008588309,0.001559985,0.06204521,0.06203595,0.051228072,0.39994475,0.13893421,0.05822185,0.060923714,,,0.007219577,0.05265838,0.07564477
poodle,0.9295633,-1.2747363,-0.08536712,2.0496547,0.3068411,2.3356726,0.76243246,0.6473324,0.6130258,-0.5269645,0.011764706,0.15270872,0.72383034,0.13909741,0.1995481,0.07299897,0.25398877,0.10416206,0.10346124,0.06198396,0.25990176,0.110633396,0.007784571,0.033496175,0.049804617,0.12032737,0.044917945,0.33223635,0.2340784,0.17348674,0.1761628,0.17836532,0.25179082,0.20889725,0.20562325,0.21876362,0.041762732,0.20973471,0.021527354,0.020502983,0.16822699,0.023491655,0.20801564,0.15645902,0.021981684,0.02991621,0.14472492,0.112879716,0.17972802,0.13655987,0.022679575,0.20284034,0.1656782,0.07736624,0.16333725,0.19974649,0.15518889,0.09787589,0.16457558,0.20163137,0.12529449,0.012050027,0.003304939,0.12951705,0.12950192,0.118718624,0.8025665,0.21426117,0.117262185,0.14435789,,,0.030934291,0.15566048,0.16114718
ec2-c5n,-0.26025987,1.7289411,-1.6239223,0.086431466,-1.7189105,-0.18488023,0.61143374,0.8909697,-1.3176796,0.4388048,0.2784314,0.010264544,0.08075886,0.012086232,0.015391276,0.01887936,0.017464273,0.04724849,0.03211505,0.048286594,0.018000308,0.033764273,0.012199755,0.009105931,0.1931794,0.039431486,0.009427892,0.13228953,0.024899382,0.010534803,0.021452673,0.010764252,0.09416561,0.019643515,0.06441329,0.06051924,0.004297205,0.023732634,0.013502564,0.013256009,0.007081307,0.017556075,0.015493069,0.009361094,0.013631151,0.024173953,0.03884048,0.020164816,0.013941995,0.013921593,0.0131505625,0.01885618,0.009289318,0.007620728,0.00906157,0.018307198,0.014992294,0.01423326,0.0166067,0.021472538,0.030290473,0.22892007,0.115051106,0.008416862,0.008266988,0.016925057,0.08157107,0.020981962,0.019496648,0.006800866,,,0.009677305,0.032011665,0.01067167
ec2-c5n,-0.26025987,1.7289411,-1.6239223,0.086431466,-1.7189105,-0.18488023,0.61143374,0.8909697,-1.3176796,0.4388048,0.13725491,0.03430281,0.1592309,0.022521136,0.030768784,0.036023445,0.030092485,0.07880979,0.049561575,0.06477106,0.030980606,0.048771445,0.010948204,0.016177844,0.15119006,0.031965792,0.018465213,0.124482796,0.03213432,0.034593973,0.013287416,0.033995267,0.10667228,0.02933643,0.041796073,0.06563595,0.008274138,0.030585714,0.0272214,0.026741004,0.017926404,0.03161143,0.028505066,0.024859214,0.02762612,0.033107474,0.05361462,0.043783553,0.03497141,0.029841984,0.02765647,0.028304528,0.033627085,0.021101017,0.03297108,0.027820487,0.04015698,0.029223353,0.037765745,0.027016109,0.0601608,0.1376532,0.040182237,0.021559397,0.021562196,0.04230426,0.16509305,0.03222681,0.04201677,0.020107156,,,0.011189753,0.035992872,0.035013005
ec2-c5n,-0.26025987,1.7289411,-1.6239223,0.086431466,-1.7189105,-0.18488023,0.61143374,0.8909697,-1.3176796,0.4388048,0.12156863,0.03774624,0.1786654,0.025947155,0.034501486,0.04080041,0.041188687,0.0877334,0.0539249,0.07111554,0.041853037,0.053097714,0.010679882,0.018104099,0.1441563,0.031159636,0.020792836,0.121397525,0.039295133,0.03838675,0.01334549,0.03770743,0.084960096,0.034081753,0.05528901,0.07086169,0.009350682,0.03737616,0.030222973,0.029503576,0.022042947,0.037176374,0.033353653,0.026598187,0.030483572,0.037327204,0.06300022,0.048687387,0.038823273,0.03307793,0.0307153,0.03230233,0.03738836,0.023011025,0.036641505,0.031890593,0.04663123,0.033087883,0.04321144,0.032891452,0.067575686,0.1322965,0.033033792,0.02442151,0.024405943,0.048728734,0.18574089,0.041158542,0.046369363,0.022828637,,,0.011827817,0.036640976,0.038090415
ec2-c5n,-0.26025987,1.7289411,-1.6239223,0.086431466,-1.7189105,-0.18488023,0.61143374,0.8909697,-1.3176796,0.4388048,0.06666667,0.031227143,0.15107715,0.024921466,0.045699593,0.04817366,0.033119332,0.07457141,0.049925286,0.05979464,0.033074077,0.052464783,0.008121984,0.016317038,0.099396095,0.025218626,0.017774375,0.13396834,0.036159858,0.03163904,0.025448188,0.031180127,0.10647802,0.028889218,0.062329758,0.06485248,0.010068378,0.031921137,0.007914403,0.007072813,0.036267906,0.013880751,0.026808433,0.023431187,0.00662209,0.027697954,0.06311228,0.0384349,0.032199085,0.02886598,0.009818036,0.029083777,0.030888302,0.019117834,0.030465964,0.028800001,0.044654,0.03267746,0.04232879,0.028217768,0.054119628,0.075088486,0.014349631,0.034575842,0.03460332,0.039683305,0.1484066,0.033917017,0.03967944,0.035674717,,,0.018243905,0.036548387,0.032441877
ec2-c5n,-0.26025987,1.7289411,-1.6239223,0.086431466,-1.7189105,-0.18488023,0.61143374,0.8909697,-1.3176796,0.4388048,0.05882353,0.03568963,0.17006302,0.028714053,0.051827952,0.054864723,0.043621723,0.08359839,0.055741,0.07164659,0.044526972,0.059501488,0.007918582,0.017363232,0.100248665,0.027251538,0.019833341,0.12046257,0.044131055,0.036168355,0.028886192,0.035547767,0.10633495,0.034487955,0.056189355,0.07198883,0.010786972,0.038059156,0.008608983,0.00788978,0.04262074,0.013302297,0.032866552,0.026899688,0.006739945,0.028116398,0.06657701,0.04362194,0.03711055,0.032927763,0.01153028,0.03391871,0.035200357,0.021632232,0.03465657,0.032512743,0.05339174,0.03703137,0.048250582,0.034288924,0.06108569,0.06567451,0.0130028445,0.039249316,0.03891061,0.045713592,0.16727915,0.041807927,0.044916417,0.04103246,,,0.01994541,0.031687614,0.03578732
ec2-c5n,-0.26025987,1.7289411,-1.6239223,0.086431466,-1.7189105,-0.18488023,0.61143374,0.8909697,-1.3176796,0.4388048,0.02745098,0.109279595,0.34284902,0.07318357,0.11001374,0.12007153,0.12573086,0.16624054,0.11079951,0.13453157,0.12857334,0.11855322,0.006815671,0.03497342,0.14131439,0.089956366,0.039729897,0.16480051,0.1350969,0.11164039,0.06725012,0.111142635,0.13250992,0.11968209,0.095054366,0.13187043,0.024080496,0.120852344,0.016368026,0.014875293,0.084053606,0.024498593,0.121907994,0.103585996,0.01239367,0.020937314,0.12940913,0.08889004,0.10997447,0.097829275,0.0247531,0.11063622,0.110274896,0.06765833,0.10610657,0.1104731,0.12832658,0.074682295,0.10481735,0.085704565,0.12609033,0.017904155,0.002240435,0.082564026,0.083131984,0.10660354,0.33661175,0.11901811,0.091195464,0.110467196,,,0.039075516,0.089831725,0.105287194
ec2-c5n,-0.26025987,1.7289411,-1.6239223,0.086431466,-1.7189105,-0.18488023,0.61143374,0.8909697,-1.3176796,0.4388048,0.011764706,0.2263747,0.6831588,0.124478675,0.22116259,0.2455161,0.17009507,0.33854467,0.22959885,0.26174387,0.17246293,0.2415176,0.007027812,0.07360178,0.30138543,0.20071502,0.081462316,0.21579152,0.22422703,0.22664455,0.15302597,0.22532976,0.20847504,0.20352295,0.14872652,0.21587469,0.046281528,0.1930192,0.032375,0.029831965,0.17820743,0.04873474,0.21243241,0.21165785,0.030355535,0.04823699,0.2630301,0.18444164,0.2215724,0.20559275,0.048245005,0.1935809,0.22178093,0.13609947,0.21455036,0.18956864,0.25905314,0.15254484,0.21088861,0.13706456,0.25327763,0.02584614,0.004531384,0.17175864,0.17085855,0.22683603,0.67633504,0.20209377,0.18256247,0.22786593,,,0.08333826,0.18755642,0.21858558
ec2-c6a,-1.4874538,-2.610559,1.8836892,-1.8634235,1.0294054,0.57752365,0.7933332,0.7226943,-0.86129886,1.2232339,0.7490196,0.01356621,0.012621276,0.007070569,0.006856545,0.010837169,0.008194746,0.030140255,0.02737878,0.015533555,0.009513869,0.02842978,0.07993389,0.010003951,0.5354884,0.1351536,0.007831743,0.005930786,0.014175864,0.013332093,0.07330147,0.012426081,0.07158142,0.010849459,0.007441404,0.008675102,0.002947937,0.012312204,0.002119146,0.001980754,0.0072503,0.004199147,0.024626942,0.015036945,0.00195897,0.06605362,0.025532551,0.026784064,0.01513903,0.013737231,0.003039124,0.011216789,0.012242359,0.013381581,0.01137843,0.010973768,0.003082341,0.00454312,0.002592323,0.005026812,0.011170365,0.43145257,0.33501637,0.000724002,0.000584062,0.002939659,0.005843718,0.007855357,0.005928799,0.006937224,,,0.020855242,0.04893179,0.02185955
ec2-c6a,-1.4874538,-2.610559,1.8836892,-1.8634235,1.0294054,0.57752365,0.7933332,0.7226943,-0.86129886,1.2232339,0.37254903,0.019055974,0.01740186,0.00696659,0.010346009,0.013494718,0.006504656,0.029533092,0.022189563,0.0135449385,0.008085938,0.023123583,0.025915116,0.00952351,0.22685613,0.060058534,0.010245157,0.008169377,0.015299194,0.016417794,0.020355066,0.017094761,0.0685195,0.013813137,0.007955305,0.008183614,0.002894109,0.01111957,0.003835007,0.003489158,0.01736036,0.004226998,0.02135097,0.010665623,0.003466246,0.06310939,0.031173246,0.0653421,0.013873585,0.0114462925,0.005441084,0.01281633,0.014604792,0.010296422,0.01660664,0.012882115,0.006464262,0.00798727,0.006142189,0.00573728,0.014943051,0.23250023,0.06478022,0.002184208,0.002167535,0.007661566,0.0119982725,0.007750149,0.010548922,0.006846319,,,0.012643121,0.036918733,0.028351897
ec2-c6a,-1.4874538,-2.610559,1.8836892,-1.8634235,1.0294054,0.57752365,0.7933332,0.7226943,-0.86129886,1.2232339,0.18431373,0.0154543435,0.023651402,0.006377964,0.013425488,0.0148094185,0.005960101,0.019183481,0.0148309935,0.01511153,0.006892287,0.015970716,0.009608892,0.009105931,0.11566608,0.036364593,0.009579154,0.008300793,0.013148067,0.009928517,0.002386857,0.010753574,0.066381946,0.010802355,0.007836986,0.007330222,0.002973056,0.008826014,0.001648871,0.001639962,0.016582662,0.000669507,0.01446732,0.005031871,0.001638339,0.05985763,0.026681235,0.03365574,0.009215209,0.006762037,0.001211927,0.009886643,0.009464313,0.006371781,0.010812563,0.010202672,0.007086722,0.008887786,0.006646104,0.005243382,0.014436872,0.11174277,0.01629367,0.004569754,0.004628456,0.00701157,0.022736536,0.006394789,0.011061828,0.007687194,,,0.011166121,0.02509085,0.023964103
ec2-c6a,-1.4874538,-2.610559,1.8836892,-1.8634235,1.0294054,0.57752365,0.7933332,0.7226943,-0.86129886,1.2232339,0.12156863,0.025059376,0.034035794,0.010717763,0.02142632,0.024101732,0.008081895,0.025917351,0.019547569,0.022061924,0.010079937,0.019884463,0.008429854,0.010978304,0.10579041,0.040255167,0.013448744,0.010728984,0.018894838,0.014544148,0.000818849,0.014301485,0.08153022,0.014494762,0.010308483,0.010086595,0.004112398,0.011632563,0.00244611,0.002402955,0.01847112,0.001592891,0.016335035,0.006919153,0.002434637,0.043069463,0.04073628,0.039877113,0.01310542,0.0107418345,0.002158917,0.01258587,0.014067467,0.009170781,0.02281851,0.013094154,0.011590402,0.013592373,0.011316136,0.007733025,0.021486104,0.06769131,0.01157583,0.008837841,0.00884563,0.01270218,0.0345137,0.009468293,0.016408993,0.018692438,,,0.0117805535,0.026178738,0.03682967
ec2-c6a,-1.4874538,-2.610559,1.8836892,-1.8634235,1.0294054,0.57752365,0.7933332,0.7226943,-0.86129886,1.2232339,0.05882353,0.031494234,0.06655001,0.024082584,0.044249345,0.054929297,0.010509553,0.050449554,0.03991549,0.044710774,0.013041159,0.040695243,0.007812064,0.017556306,0.10181172,0.053924747,0.026473051,0.05260964,0.031211114,0.01897836,0.006150076,0.017722268,0.08236462,0.019161392,0.029692492,0.042348456,0.007830064,0.014631484,0.004873629,0.00472069,0.033836376,0.004789384,0.019075347,0.013966285,0.00494047,0.026649324,0.061151113,0.03390124,0.020472618,0.020378891,0.005141112,0.015970165,0.018048603,0.013707596,0.017765345,0.016486254,0.028360201,0.028615896,0.028365767,0.013160491,0.04316292,0.025487449,0.004159217,0.02254236,0.022575159,0.031220775,0.0707277,0.013302554,0.03328943,0.041208588,,,0.020370787,0.07381432,0.04940735
ec2-c6a,-1.4874538,-2.610559,1.8836892,-1.8634235,1.0294054,0.57752365,0.7933332,0.7226943,-0.86129886,1.2232339,0.02745098,0.030220412,0.12928714,0.050939996,0.08565174,0.10147366,0.048073996,0.099803,0.07521903,0.08879719,0.051194794,0.07707315,0.008297203,0.032153632,0.12589698,0.063178,0.050564297,0.17561075,0.048953798,0.02955813,0.022201832,0.023731394,0.20545577,0.021685617,0.08815225,0.13640848,0.016396664,0.025479272,0.009455742,0.009141095,0.072251976,0.011363405,0.026716541,0.025803255,0.009535936,0.029961584,0.06350452,0.058056384,0.034413386,0.03973139,0.01166275,0.0178833,0.028090624,0.026968984,0.02049064,0.018012414,0.069236174,0.0573015,0.08031279,0.06341297,0.0840846,0.01647277,0.003366596,0.048740655,0.048685182,0.067100555,0.13973716,0.048673246,0.06584216,0.06874727,,,0.031111531,0.08605884,0.052752793
ec2-c6a,-1.4874538,-2.610559,1.8836892,-1.8634235,1.0294054,0.57752365,0.7933332,0.7226943,-0.86129886,1.2232339,0.011764706,0.0937328,0.25965616,0.121968195,0.15968774,0.18936649,0.19213924,0.20272537,0.15414289,0.17108446,0.19698185,0.15595275,0.006562942,0.064644024,0.210373,0.119293384,0.101252764,0.28889006,0.1963258,0.084680036,0.05930555,0.08580129,0.22690856,0.14214908,0.16870263,0.25725242,0.036064226,0.1797578,0.018948272,0.018372467,0.15320791,0.02443325,0.15085758,0.085753344,0.01943325,0.021421297,0.12865268,0.118441544,0.09625796,0.092819884,0.025313629,0.13602842,0.08395947,0.06365927,0.0778815,0.13153939,0.18764001,0.117322326,0.17636354,0.14567079,0.17133246,0.0,0.0,0.10264695,0.102748886,0.1441817,0.28086442,0.19785936,0.1331242,0.12823921,,,0.06237667,0.1401523,0.1062402
ec2-c6i,0.08079025,-0.9039875,0.4972727,0.28730267,0.25179672,-0.29045242,0.039817005,0.99136436,0.20236151,1.6766456,0.49803922,0.006319803,0.046764098,0.002767779,0.007772893,0.010784184,0.001136132,0.025105326,0.024241988,0.016642863,0.001504497,0.023062523,0.008683079,0.006335536,0.22067496,0.038257305,0.006718728,0.012119388,0.005885952,0.007022168,0.019855628,0.006609682,0.08362164,0.003871957,0.006007865,0.014650171,0.00158252,0.002760693,0.004435971,0.003710932,0.002505365,0.005634569,0.005892267,0.005462072,0.00245399,0.011504684,0.009731133,0.017188808,0.010431877,0.007938,0.005680842,0.003546879,0.006564556,0.005598,0.006427649,0.003438127,0.004164156,0.006816459,0.004861541,0.005058395,0.014158688,0.33730263,0.0890469,0.002993626,0.002975872,0.003992234,0.12376402,0.000946866,0.009510048,0.000909055,,,0.007231393,0.025924126,0.005886791
ec2-c6i,0.08079025,-0.9039875,0.4972727,0.28730267,0.25179672,-0.29045242,0.039817005,0.99136436,0.20236151,1.6766456,0.24705882,0.005360327,0.08809385,0.011305509,0.014149082,0.0185482,0.015360392,0.030426815,0.0300417,0.02845739,0.0155011015,0.028630828,0.007987855,0.009007148,0.12625222,0.01754263,0.010172912,0.03354676,0.023334626,0.005882991,0.006614671,0.005976072,0.065484345,0.010959738,0.015540418,0.024224067,0.00321797,0.02064573,0.0090419,0.007454613,0.005273244,0.01102276,0.006961347,0.005233485,0.004736288,0.010919871,0.011393457,0.028462542,0.011946118,0.0118492115,0.011681361,0.010598544,0.005766422,0.004234465,0.005413162,0.009953915,0.014253331,0.014514938,0.014368508,0.012470176,0.02709136,0.1565353,0.03206883,0.010748854,0.010733331,0.0153189385,0.09421281,0.016522624,0.019442689,0.005016846,,,0.005612601,0.017475639,0.003514206
ec2-c6i,0.08079025,-0.9039875,0.4972727,0.28730267,0.25179672,-0.29045242,0.039817005,0.99136436,0.20236151,1.6766456,0.12156863,0.002654482,0.078389086,0.009178346,0.022847502,0.023990793,0.015414131,0.02660064,0.026057476,0.026492642,0.015588793,0.023816084,0.00700228,0.007983405,0.07914743,0.009673858,0.009572381,0.03479722,0.022878377,0.003407194,0.008200101,0.003221953,0.06453363,0.011039537,0.015876587,0.02542677,0.003290636,0.020355307,0.002364962,0.002308427,0.01406253,0.000830188,0.004076848,0.003264565,0.002366044,0.005802757,0.012840986,0.015564202,0.008278932,0.008109765,0.001627946,0.009496755,0.003145984,0.007648441,0.001709159,0.00829174,0.013674144,0.014380501,0.01309107,0.012285792,0.01971089,0.09552718,0.015842017,0.013140501,0.013144789,0.011414769,0.08425708,0.016413063,0.018790055,0.012505185,,,0.008696577,0.012267667,0.001677686
ec2-c6i,0.08079025,-0.9039875,0.4972727,0.28730267,0.25179672,-0.29045242,0.039817005,0.99136436,0.20236151,1.6766456,0.05882353,0.061046917,0.15821414,0.02315911,0.047830597,0.051304765,0.036650877,0.05057767,0.04994929,0.051038437,0.036240786,0.045715503,0.006341082,0.013259277,0.05563055,0.04088607,0.01833427,0.09100777,0.051602352,0.042295307,0.023874374,0.04259172,0.042412385,0.045938686,0.04725449,0.06813249,0.008225694,0.046722997,0.004758919,0.004665014,0.03112428,0.004749749,0.049715582,0.031480387,0.004740627,0.0,0.0673428,0.03416213,0.05005522,0.04186336,0.005735581,0.043133967,0.038049635,0.039572734,0.037757274,0.042281512,0.03794342,0.030586217,0.03854034,0.03613097,0.040903036,0.022208462,0.000441253,0.031044638,0.031029155,0.03332173,0.17118415,0.04202088,0.039039873,0.038390517,,,0.016365161,0.016873829,0.036958724
ec2-c6i,0.08079025,-0.9039875,0.4972727,0.28730267,0.25179672,-0.29045242,0.039817005,0.99136436,0.20236151,1.6766456,0.02745098,0.115184374,0.3188453,0.047892883,0.09966314,0.11497003,0.06751093,0.10525013,0.10437145,0.10383332,0.06900009,0.09620852,0.006450986,0.02981429,0.12113677,0.07800424,0.038573988,0.111459546,0.08213568,0.119427,0.06441609,0.117244825,0.07925152,0.09765178,0.06872965,0.09904218,0.017278532,0.07610191,0.009670521,0.009430888,0.07296732,0.013981444,0.08773853,0.08188554,0.009625501,0.008313419,0.116259955,0.0593062,0.11238143,0.086818494,0.014525613,0.09465922,0.116900034,0.0706918,0.114618786,0.093984775,0.0877635,0.06358661,0.080998585,0.061920755,0.08452625,0.010479903,0.000774792,0.06748539,0.06742125,0.07791146,0.3453408,0.08246365,0.07962812,0.0974734,,,0.037220404,0.1345277,0.113169335
ec2-c6i,0.08079025,-0.9039875,0.4972727,0.28730267,0.25179672,-0.29045242,0.039817005,0.99136436,0.20236151,1.6766456,0.011764706,0.1281897,0.6401505,0.092050456,0.18965949,0.21528298,0.118874654,0.21542872,0.2119197,0.20144314,0.121624775,0.19815363,0.006631336,0.06322515,0.26095915,0.11140709,0.07890441,0.14519891,0.15158284,0.13093765,0.14692816,0.12936935,0.14346178,0.12234873,0.12301676,0.16466255,0.03480198,0.13019657,0.019583654,0.01902449,0.15680435,0.030756608,0.12375629,0.10987397,0.01941493,0.026750155,0.14970255,0.118830964,0.12949272,0.110291965,0.0306102,0.116754465,0.12976384,0.08509471,0.1270128,0.115438424,0.18589246,0.1296194,0.16360947,0.10592581,0.17200068,0.010134746,0.002172093,0.14045504,0.14030775,0.16840349,0.69365025,0.15099567,0.16050015,0.18526536,,,0.0792381,0.15464205,0.12441678
pascal,-0.97940207,-0.8640824,-1.2916209,-0.73161215,0.50016195,-0.66862655,-0.39288354,-0.68312174,-0.18621188,-0.12452546,0.0,0.03496232,0.018085055,0.008968626,0.003429802,0.008664768,0.01127399,0.015643248,0.01557319,0.003489029,0.011261808,0.017023616,0.000297108,0.00776788,0.15133215,0.12658383,0.004142764,0.031466167,0.01976863,0.02213694,0.021051958,0.021805137,0.01920356,0.018351756,0.011175309,0.016305916,0.001955722,0.017897714,0.000716837,0.000771419,0.0940242,0.038036555,0.025488332,0.019228183,0.000738097,0.02866592,0.70147276,0.017455855,0.023167942,0.01820233,0.028379029,0.018141648,0.021282086,0.026289552,0.02098605,0.017687632,,0.004581531,,0.011988611,0.012423625,0.015176741,,0.009973331,0.010501603,,0.012783374,0.016160564,0.004816084,,,,0.024151906,0.023262274,0.019625945
lassen,-0.03981191,0.63228816,-0.6685845,-2.607438,-0.01656463,-0.7442689,0.092242055,0.6141756,-0.043049037,-2.072863,0.0,0.020709889,0.010749178,0.005270323,0.00254864,0.005002153,0.006066683,0.009749875,0.009702088,0.001247089,0.0059231,0.012441194,0.000276823,0.00261324,0.06507993,0.10558876,0.001379416,0.022141133,0.01006138,0.0128353825,0.0,0.01265237,0.010006185,0.010651621,0.004995806,0.009648466,0.000922239,0.01103606,0.000147722,0.000145435,0.053392004,0.04081742,0.013179344,0.011906123,5.683986e-05,0.018416569,0.28141838,0.006953252,0.014264109,0.009806223,0.027338982,0.010730086,0.012107748,0.016404152,0.012115488,0.010524351,,0.001803875,,0.007213259,0.002257016,0.039154977,,0.003525103,0.003521313,,0.001625961,0.009206726,0.001228019,,,,0.012678569,0.015415596,0.0109099215
corona,-0.16370457,-1.2136655,-0.07581711,1.1405908,-0.15881677,-1.6574649,1.5508143,-0.50110775,-0.092429265,-0.23912916,0.0,0.023578044,0.014811782,0.016568782,0.007365967,0.007292115,0.007932321,0.013944308,0.013921403,0.00537458,0.009348956,0.019449603,0.8822206,0.39331514,0.11566608,1.0,0.19590645,0.016291603,0.013661965,0.012760954,0.009570656,0.012653387,0.013807891,0.012623898,0.009671693,0.0113867335,0.003363303,0.01277002,0.00054958,0.00053009,0.0685292,0.059615027,0.017617783,0.011254378,0.000558663,0.053681802,0.4919452,0.014312078,0.01356773,0.011669047,0.062198043,0.012512207,0.012326491,1.0,0.012273468,0.012215487,,0.004612117,,0.00959131,0.015192556,0.02236412,,0.012776466,0.012535657,,0.014982298,0.01128584,0.006017407,,,,1.0,0.05793579,0.023289058
tioga,-0.695484,-1.1535794,0.57352644,0.013152019,-0.75750804,0.105012424,-0.30474126,-0.72226584,0.50269055,0.23606774,0.0,0.009804324,0.00727166,0.002320141,0.002414018,0.002043249,0.001971773,0.003865786,0.003811908,0.001854089,0.002278015,0.004432008,1.0,0.2751895,0.059964474,0.8707874,0.13813353,0.006315504,0.005218049,0.004275532,0.000336831,0.0041922,0.004127013,0.005257371,0.004369172,0.00628693,0.000961713,0.006267387,0.000276041,0.000278649,0.088870734,0.065908395,0.007071169,0.004206845,0.000290744,0.05435736,0.6573371,0.006132868,0.006456383,0.003810432,0.06832556,0.005507897,0.003997402,0.7506268,0.003951708,0.005419394,,0.001932622,,0.0041849,0.004869648,0.024536576,,0.004417904,0.004381822,,0.004330555,0.004109977,0.002140229,,,,0.7097163,0.020646714,0.006869577
ec2-p3,0.27978885,-0.623284,0.5329406,1.1941192,0.33477417,1.1445618,-1.2181203,0.33480287,0.10015246,0.04462756,0.0,0.020089414,0.010503906,0.005030643,0.001262082,0.004205716,0.005796645,0.008560307,0.008527867,0.000678061,0.005657408,0.011285535,0.00022828,0.000228995,0.04554174,0.10390635,9.030548e-05,0.020900702,0.00987855,0.012033204,0.004082628,0.011842305,0.009604882,0.010258717,0.004877486,0.009542082,0.000832527,0.010980138,3.4834367e-05,3.6058977e-05,0.04599732,0.026112908,0.0126265,0.011330414,3.743971e-05,0.015421922,0.25867817,0.006497654,0.01348306,0.009269331,0.026314262,0.010458585,0.011432447,0.011138083,0.011343201,0.010244563,,0.001744126,,0.007073392,0.002026152,0.011765781,,0.002203868,0.002186507,,0.001231808,0.008947336,0.001120667,,,,0.006746937,0.012938917,0.009996625
ec2-p4d,0.47688624,0.7417586,0.036125086,-0.20358154,-0.5138983,0.7744253,0.8771134,-1.0017986,0.4971295,0.8698548,0.0,0.004263196,0.0,0.0,0.0,0.0,0.001694569,0.0,0.0,0.0,0.001454108,0.0,0.000250403,0.000341248,0.04390764,0.26618883,0.0,0.021255326,0.003683765,0.002272152,0.000296179,0.002229331,0.0,0.00468381,0.000854639,0.003600485,0.0,0.005427063,0.0,0.0,0.043790568,0.011299132,0.004626704,0.002215275,0.0,0.003781119,0.3079502,0.0,0.0,0.0,0.011986806,0.005082755,0.00139996,0.008047943,0.00120109,0.004934291,,0.0,,0.002883078,0.0,0.019162962,,0.000770777,0.000764973,,0.0,0.003114136,0.0,,,,0.007432265,0.0,0.0
boraxo,-0.6779876,1.0128999,-0.571233,-0.77925813,-0.70499426,0.91023743,1.5765073,0.27008268,-0.77775997,2.0346832,0.0,0.8707563,0.37195975,0.48770714,1.0,0.4554161,0.72150713,0.6400716,0.6407747,0.68397546,0.7261834,0.6443284,5.0046896e-05,0.19227971,0.6208881,0.80974746,0.2445179,0.82410836,0.82392544,0.9520621,1.0,0.9379632,1.0,0.77630544,0.8611036,0.813768,0.13641877,0.7206213,0.19259603,0.17223406,0.9706575,0.2990371,0.9005255,0.86548835,0.13496162,0.32286718,0.9984217,0.7446113,0.89684665,0.8511942,0.29007983,0.7289118,0.92774445,0.49786735,0.8926467,0.7086513,0.75602573,0.8415997,0.88492143,0.8282143,0.7036283,0.10235925,0.023415372,1.0,1.0,0.6940825,0.34997833,0.8055599,0.9579918,1.0,1.0,1.0,0.2721934,0.96828926,1.0
catalyst,-0.09632603,0.83694017,-0.869592,0.000388615,0.94309896,0.6575468,-0.8506807,1.4973834,-1.2455659,-0.549023,0.0,1.0,0.44299242,1.0,0.7159322,0.983553,0.79611385,1.0,0.98715067,0.93333143,0.8288466,1.0,0.0005736,1.0,0.684476,0.7144635,1.0,0.8882997,0.9280847,1.0,0.6887272,1.0,0.86401486,1.0,1.0,0.96035355,1.0,1.0,1.0,1.0,1.0,1.0,1.0,1.0,1.0,1.0,0.9746169,1.0,1.0,1.0,1.0,1.0,1.0,0.47812364,1.0,1.0,1.0,1.0,1.0,0.9366971,1.0,0.065880924,0.01560059,0.84117305,0.8384113,1.0,0.33537865,1.0,1.0,0.61191314,0.1668967,0.26306266,0.18785079,0.9326436,0.9830643
quartz,0.68525517,-0.41597325,1.8687956,0.38512906,-0.87640655,-0.222126,-0.44132063,0.37635133,0.7167788,-0.14111647,0.0,0.7003168,0.30526078,0.8061136,0.72530985,0.91410404,1.0,0.88904464,1.0,0.5834261,1.0,0.9555116,0.000137299,0.32723877,0.5177975,0.4840434,0.45066723,1.0,1.0,0.7115101,0.678146,0.70317805,0.8399135,0.71139044,0.7947749,1.0,0.1836046,0.9060708,0.22844885,0.20854886,0.8099975,0.30463204,0.8277063,0.6566699,0.17494221,0.32885146,0.57838607,0.7274287,0.6941615,0.68421865,0.29590738,0.6718555,0.6815035,0.29549083,0.68039554,0.6566471,0.7440958,0.6750627,0.8415495,1.0,0.6680265,0.075423494,0.017496344,0.9646961,0.9783382,0.6570244,0.3419498,0.9608157,0.78660697,0.5488816,0.19391781,0.30349812,0.1515284,1.0,0.6689896
ruby,0.24022357,-1.0469878,0.24542987,0.11794878,-1.8802122,-0.25251585,-0.17556044,0.12499895,1.4234219,-0.5439178,0.0,0.6476134,0.2782701,0.35401398,0.57710785,0.88086396,0.59219325,0.47234255,0.47471794,0.457264,0.60331786,0.46297652,0.0,0.11936492,0.5173002,0.5686721,0.14327416,0.6717543,0.6960487,0.6693285,0.5666491,0.6575322,0.75035757,0.6020253,0.5961517,0.7421457,0.38364533,0.5911838,0.11033277,0.09818017,0.5820552,0.15732874,0.66186816,0.59044176,0.09208632,0.18226504,0.7166018,0.47279266,0.63300407,0.54321647,0.16551842,0.5592151,0.6410521,0.37223276,0.6339158,0.54279065,0.5518489,0.5012064,0.5889826,0.7376652,0.60825,0.073403314,0.01717469,0.5734476,0.5741522,0.46113235,0.18703936,0.679638,0.5501968,0.58217,0.0,0.0,0.1785516,0.701155,0.75599104
mammoth,-0.246062,1.3406625,-2.2199614,0.74572533,-1.147468,-0.0035775325,2.090731,1.2522557,-0.5780248,1.5210385,0.0,0.6950674,0.30320317,0.27004746,0.8267858,1.0,0.32747236,0.786951,0.93221587,0.6410862,0.3217105,0.79458034,0.000151008,0.35228905,0.262238,0.59163,0.4740654,0.4301826,0.45055577,0.7148594,0.50523543,0.71423674,0.38921836,0.4847316,0.45582536,0.382767,0.10335092,0.4098497,0.13604401,0.14147693,0.7489483,0.21351804,0.8074647,0.7867794,0.12632343,0.21804954,0.77043116,0.5347493,0.6528165,0.5507054,0.20875588,0.48817128,0.69317484,0.40728426,0.70673805,0.49760473,0.8695131,0.53744537,0.92879725,0.5324361,0.39426798,0.03334822,0.008777514,0.6130494,0.6151897,0.5451747,0.21192867,0.4662406,0.56653994,0.60860646,0.43045294,0.4072947,0.18768537,0.70404834,0.6760478
poodle,0.9295633,-1.2747363,-0.08536712,2.0496547,0.3068411,2.3356726,0.76243246,0.6473324,0.6130258,-0.5269645,0.0,0.6291451,0.2750343,0.36539438,0.78644663,0.22373912,0.6014677,0.43140274,0.42824024,0.25910702,0.6208084,0.5082482,1.9586389e-05,0.14604512,0.40554175,0.5202853,0.18676528,0.6589166,0.6276433,0.6880061,0.75828284,0.70929706,0.76762635,0.5951614,0.5119675,0.5925837,0.098624,0.5555766,0.093043074,0.085657105,0.6782304,0.106537275,0.5007688,0.64929545,0.10205312,0.14320861,0.60351706,0.4224122,0.73068666,0.5574432,0.099915594,0.59089714,0.6612428,0.31517974,0.6495844,0.57178044,0.64651936,0.38450643,0.66364104,0.5986419,0.41469872,0.053949337,0.012758447,0.5336715,0.53232807,0.48792055,0.19179675,0.6164044,0.44520235,0.4442153,0.31621465,0.32568517,0.13647482,0.644446,0.6835031
ec2-c5n,-0.26025987,1.7289411,-1.6239223,0.086431466,-1.7189105,-0.18488023,0.61143374,0.8909697,-1.3176796,0.4388048,0.0,0.8559019,0.36430278,0.4679326,0.65692186,0.9120608,0.611958,0.9068628,0.9124178,1.0,0.62823534,0.9857881,0.000118545,0.2916996,1.0,0.8007396,0.32243797,0.6851236,0.817239,0.8588387,0.6532263,0.844256,0.8714364,0.75272846,0.5900108,0.78705835,0.17912976,0.7051607,0.12700258,0.113201775,0.7071512,0.21912262,0.9239616,0.7918876,0.10202649,0.24985127,1.0,0.7368123,0.87026066,0.77908653,0.20839897,0.7148869,0.8417563,0.50813234,0.81348866,0.69846106,0.98403573,0.5804453,0.8114109,0.50895035,0.63554066,0.07903749,0.018297136,0.6831515,0.68292534,0.8960132,0.21034822,0.7800819,0.697512,0.7079832,0.07685426,0.25186637,0.35358202,0.7812189,0.83425653
ec2-c6a,-1.4874538,-2.610559,1.8836892,-1.8634235,1.0294054,0.57752365,0.7933332,0.7226943,-0.86129886,1.2232339,0.0,0.379595,0.18761562,0.42179328,0.65221316,0.71126103,0.22548518,0.827712,0.82538766,0.67231286,0.24361734,0.6314881,0.000107511,0.2753152,0.89378333,0.377666,0.41515237,0.36301434,0.42313465,0.3366666,0.30882788,0.37221238,0.3203212,0.3523231,0.34632948,0.31858495,0.12873134,0.2800002,0.07505546,0.073066235,0.6048693,0.1128992,0.51119286,0.32206488,0.07649086,0.13626143,0.59284264,0.49061945,0.37371615,0.38665265,0.11187065,0.34441876,0.2961084,0.294831,0.3341937,0.29762915,0.7340532,0.4637916,0.69470185,0.23121291,0.45024312,0.017667282,0.005529775,0.42697546,0.5249548,0.62693167,0.14373124,0.3299696,0.5359184,0.46036237,0.13477194,0.18180251,0.23531567,0.30504826,0.31739035
ec2-c6i,0.08079025,-0.9039875,0.4972727,0.28730267,0.25179672,-0.29045242,0.039817005,0.99136436,0.20236151,1.6766456,0.0,0.53676414,0.23091023,0.36489478,0.67815393,0.8327119,0.4540093,0.8783769,0.8761388,0.7965883,0.4686866,0.79307467,9.699407e-05,0.2620649,0.9986501,0.51187325,0.32120755,0.52887625,0.620242,0.5354675,0.6444281,0.52311635,0.58375597,0.5048861,0.47781086,0.61664575,0.13980809,0.52207994,0.080588065,0.07895676,0.6204462,0.13394849,0.52877176,0.46879503,0.08031297,0.14925335,0.64959514,0.4774025,0.5369731,0.4618083,0.12826616,0.47002804,0.5241768,0.3566002,0.5099811,0.46195537,0.78179955,0.5271684,0.71259135,0.3952629,0.53357923,0.04734737,0.011477774,0.57861865,0.57783407,0.71360755,0.17099252,0.5987162,0.64785105,0.6416222,0.107926466,0.15678439,0.33651972,0.62819713,0.51502967
