machine,0_app,1_app,2_app,3_app,4_app,5_app,6_app,7_app,8_app,9_app,10_app,11_app,12_app,13_app,14_app,15_app,16_app,17_app,18_app,19_app,20_app,21_app,22_app,23_app,24_app,25_app,26_app,27_app,28_app,29_app,30_app,0_emb,1_emb,2_emb,3_emb,4_emb,5_emb,6_emb,7_emb,8_emb,9_emb,10_emb,11_emb,12_emb,13_emb,14_emb,15_emb,16_emb,17_emb,18_emb,19_emb,20_emb,21_emb,22_emb,23_emb,24_emb,25_emb,26_emb,27_emb,28_emb,29_emb,30_emb,31,32,33,34,35,36,37,38,39,40,41,42,43,44,45,46,47,48,49,50,51,52,53,54,55,56,57,58,59,60,61,62,63,64,65,66,67,68,69,70,71,72,73,74,75,76,77,78
corona,0.05286272,-0.4249754,2.0863035,0.62215394,0.1510812,-1.015628,0.87343836,-0.9376745,0.03133435,-0.34890112,0.33391267,0.47773528,-0.6075711,0.36267108,-0.18031564,1,444000000,665884540,375056450,2046000000,63538760,-1,-1,-1,-1,-1,-1,538330,3059100,707388800,0.7507508,-1.2573086,0.16113806,1.4142821,2.0710564,0.964415,0.8234841,-0.8962326,-0.7110446,-1.0535107,-0.31601825,-0.63569605,0.76124257,0.10509434,0.45894417,0.37056145,0.016645,0.019877,0.024527,0.006581,0.007968,0.030293,0.033368,0.033437,0.014671,0.023515,0.017908,299.1543,0.088591,0.002123,0.058249,0.087846,0.04666,0.024956,0.043512,0.005047,0.043723,0.057832,0.034122,0.030034,0.049325,0.005318,0.045278,0.029901,0.041785,0.048773,0.059747,0.039036,0.253334,0.02844,0.013882,0.054099,0.028138,0.067885,0.102102,0.05945,0.03379,0.039229,3.23091,0.039371,0.03375,0.049101743,0.010384,0.153749286,0.043776,0.012722,0.012581,0.071338986,0.026978,0.026637,0.034930886,0.028184,0.049327,0.013608,0.026724371,1.716143444,1.944808222,0.085109,0.00295,0.003451
corona,0.05286272,-0.4249754,2.0863035,0.62215394,0.1510812,-1.015628,0.87343836,-0.9376745,0.03133435,-0.34890112,0.33391267,0.47773528,-0.6075711,0.36267108,-0.18031564,1,438000000,672294500,378443230,2014000000,64233892,-1,-1,-1,-1,-1,-1,541418,3059100,739324400,1.332,-1.2573086,0.16113806,1.4142821,2.0710564,0.964415,0.8234841,-0.8962326,-0.7110446,-1.0535107,-0.31601825,-0.63569605,0.76124257,0.10509434,0.45894417,0.37056145,0.016645,0.019877,0.024527,0.006581,0.007968,0.030293,0.033368,0.033437,0.014671,0.023515,0.017908,299.1543,0.088591,0.002123,0.058249,0.087846,0.04666,0.024956,0.043512,0.005047,0.043723,0.057832,0.034122,0.030034,0.049325,0.005318,0.045278,0.029901,0.041785,0.048773,0.059747,0.039036,0.253334,0.02844,0.013882,0.054099,0.028138,0.067885,0.102102,0.05945,0.03379,0.039229,3.23091,0.039371,0.03375,0.049101743,0.010384,0.153749286,0.043776,0.012722,0.012581,0.071338986,0.026978,0.026637,0.034930886,0.028184,0.049327,0.013608,0.026724371,1.716143444,1.944808222,0.085109,0.00295,0.003451
corona,0.05286272,-0.4249754,2.0863035,0.62215394,0.1510812,-1.015628,0.87343836,-0.9376745,0.03133435,-0.34890112,0.33391267,0.47773528,-0.6075711,0.36267108,-0.18031564,1,466000000,704273900,384205900,2116000000,63245600,-1,-1,-1,-1,-1,-1,547488,3059100,785951360,1.2507508,-1.2573086,0.16113806,1.4142821,2.0710564,0.964415,0.8234841,-0.8962326,-0.7110446,-1.0535107,-0.31601825,-0.63569605,0.76124257,0.10509434,0.45894417,0.37056145,0.016645,0.019877,0.024527,0.006581,0.007968,0.030293,0.033368,0.033437,0.014671,0.023515,0.017908,299.1543,0.088591,0.002123,0.058249,0.087846,0.04666,0.024956,0.043512,0.005047,0.043723,0.057832,0.034122,0.030034,0.049325,0.005318,0.045278,0.029901,0.041785,0.048773,0.059747,0.039036,0.253334,0.02844,0.013882,0.054099,0.028138,0.067885,0.102102,0.05945,0.03379,0.039229,3.23091,0.039371,0.03375,0.049101743,0.010384,0.153749286,0.043776,0.012722,0.012581,0.071338986,0.026978,0.026637,0.034930886,0.028184,0.049327,0.013608,0.026724371,1.716143444,1.944808222,0.085109,0.00295,0.003451
corona,0.05286272,-0.4249754,2.0863035,0.62215394,0.1510812,-1.015628,0.87343836,-0.9376745,0.03133435,-0.34890112,0.33391267,0.47773528,-0.6075711,0.36267108,-0.18031564,1,484000000,739254340,392609060,2180000000,64570240,-1,-1,-1,-1,-1,-1,541370,3059100,858222340,1.7507508,-1.2573086,0.16113806,1.4142821,2.0710564,0.964415,0.8234841,-0.8962326,-0.7110446,-1.0535107,-0.31601825,-0.63569605,0.76124257,0.10509434,0.45894417,0.37056145,0.016645,0.019877,0.024527,0.006581,0.007968,0.030293,0.033368,0.033437,0.014671,0.023515,0.017908,299.1543,0.088591,0.002123,0.058249,0.087846,0.04666,0.024956,0.043512,0.005047,0.043723,0.057832,0.034122,0.030034,0.049325,0.005318,0.045278,0.029901,0.041785,0.048773,0.059747,0.039036,0.253334,0.02844,0.013882,0.054099,0.028138,0.067885,0.102102,0.05945,0.03379,0.039229,3.23091,0.039371,0.03375,0.049101743,0.010384,0.153749286,0.043776,0.012722,0.012581,0.071338986,0.026978,0.026637,0.034930886,0.028184,0.049327,0.013608,0.026724371,1.716143444,1.944808222,0.085109,0.00295,0.003451
corona,0.05286272,-0.4249754,2.0863035,0.62215394,0.1510812,-1.015628,0.87343836,-0.9376745,0.03133435,-0.34890112,0.33391267,0.47773528,-0.6075711,0.36267108,-0.18031564,1,506000000,781914200,404183330,2260000000,65716948,-1,-1,-1,-1,-1,-1,539850,3059100,1002288600,2.0015016,-1.2573086,0.16113806,1.4142821,2.0710564,0.964415,0.8234841,-0.8962326,-0.7110446,-1.0535107,-0.31601825,-0.63569605,0.76124257,0.10509434,0.45894417,0.37056145,0.016645,0.019877,0.024527,0.006581,0.007968,0.030293,0.033368,0.033437,0.014671,0.023515,0.017908,299.1543,0.088591,0.002123,0.058249,0.087846,0.04666,0.024956,0.043512,0.005047,0.043723,0.057832,0.034122,0.030034,0.049325,0.005318,0.045278,0.029901,0.041785,0.048773,0.059747,0.039036,0.253334,0.02844,0.013882,0.054099,0.028138,0.067885,0.102102,0.05945,0.03379,0.039229,3.23091,0.039371,0.03375,0.049101743,0.010384,0.153749286,0.043776,0.012722,0.012581,0.071338986,0.026978,0.026637,0.034930886,0.028184,0.049327,0.013608,0.026724371,1.716143444,1.944808222,0.085109,0.00295,0.003451
corona,0.05286272,-0.4249754,2.0863035,0.62215394,0.1510812,-1.015628,0.87343836,-0.9376745,0.03133435,-0.34890112,0.33391267,0.47773528,-0.6075711,0.36267108,-0.18031564,1,554000000,938036100,548642050,2680000000,105503470,-1,-1,-1,-1,-1,-1,544448,3059100,1537226800,1.5015016,-1.2573086,0.16113806,1.4142821,2.0710564,0.964415,0.8234841,-0.8962326,-0.7110446,-1.0535107,-0.31601825,-0.63569605,0.76124257,0.10509434,0.45894417,0.37056145,0.016645,0.019877,0.024527,0.006581,0.007968,0.030293,0.033368,0.033437,0.014671,0.023515,0.017908,299.1543,0.088591,0.002123,0.058249,0.087846,0.04666,0.024956,0.043512,0.005047,0.043723,0.057832,0.034122,0.030034,0.049325,0.005318,0.045278,0.029901,0.041785,0.048773,0.059747,0.039036,0.253334,0.02844,0.013882,0.054099,0.028138,0.067885,0.102102,0.05945,0.03379,0.039229,3.23091,0.039371,0.03375,0.049101743,0.010384,0.153749286,0.043776,0.012722,0.012581,0.071338986,0.026978,0.026637,0.034930886,0.028184,0.049327,0.013608,0.026724371,1.716143444,1.944808222,0.085109,0.00295,0.003451
corona,0.05286272,-0.4249754,2.0863035,0.62215394,0.1510812,-1.015628,0.87343836,-0.9376745,0.03133435,-0.34890112,0.33391267,0.47773528,-0.6075711,0.36267108,-0.18031564,1,576000000,983959500,553777860,2746000000,103830220,-1,-1,-1,-1,-1,-1,545932,3059100,1620043400,1.7507508,-1.2573086,0.16113806,1.4142821,2.0710564,0.964415,0.8234841,-0.8962326,-0.7110446,-1.0535107,-0.31601825,-0.63569605,0.76124257,0.10509434,0.45894417,0.37056145,0.016645,0.019877,0.024527,0.006581,0.007968,0.030293,0.033368,0.033437,0.014671,0.023515,0.017908,299.1543,0.088591,0.002123,0.058249,0.087846,0.04666,0.024956,0.043512,0.005047,0.043723,0.057832,0.034122,0.030034,0.049325,0.005318,0.045278,0.029901,0.041785,0.048773,0.059747,0.039036,0.253334,0.02844,0.013882,0.054099,0.028138,0.067885,0.102102,0.05945,0.03379,0.039229,3.23091,0.039371,0.03375,0.049101743,0.010384,0.153749286,0.043776,0.012722,0.012581,0.071338986,0.026978,0.026637,0.034930886,0.028184,0.049327,0.013608,0.026724371,1.716143444,1.944808222,0.085109,0.00295,0.003451
corona,0.05286272,-0.4249754,2.0863035,0.62215394,0.1510812,-1.015628,0.87343836,-0.9376745,0.03133435,-0.34890112,0.33391267,0.47773528,-0.6075711,0.36267108,-0.18031564,1,604000000,1027157000,566777660,2844000000,106456550,-1,-1,-1,-1,-1,-1,547486,3059100,1703781800,2.7522523,-1.2573086,0.16113806,1.4142821,2.0710564,0.964415,0.8234841,-0.8962326,-0.7110446,-1.0535107,-0.31601825,-0.63569605,0.76124257,0.10509434,0.45894417,0.37056145,0.016645,0.019877,0.024527,0.006581,0.007968,0.030293,0.033368,0.033437,0.014671,0.023515,0.017908,299.1543,0.088591,0.002123,0.058249,0.087846,0.04666,0.024956,0.043512,0.005047,0.043723,0.057832,0.034122,0.030034,0.049325,0.005318,0.045278,0.029901,0.041785,0.048773,0.059747,0.039036,0.253334,0.02844,0.013882,0.054099,0.028138,0.067885,0.102102,0.05945,0.03379,0.039229,3.23091,0.039371,0.03375,0.049101743,0.010384,0.153749286,0.043776,0.012722,0.012581,0.071338986,0.026978,0.026637,0.034930886,0.028184,0.049327,0.013608,0.026724371,1.716143444,1.944808222,0.085109,0.00295,0.003451
corona,0.05286272,-0.4249754,2.0863035,0.62215394,0.1510812,-1.015628,0.87343836,-0.9376745,0.03133435,-0.34890112,0.33391267,0.47773528,-0.6075711,0.36267108,-0.18031564,1,664000000,1139542300,590994600,3054000000,107565860,-1,-1,-1,-1,-1,-1,542902,3059100,1968858000,3.0030031,-1.2573086,0.16113806,1.4142821,2.0710564,0.964415,0.8234841,-0.8962326,-0.7110446,-1.0535107,-0.31601825,-0.63569605,0.76124257,0.10509434,0.45894417,0.37056145,0.016645,0.019877,0.024527,0.006581,0.007968,0.030293,0.033368,0.033437,0.014671,0.023515,0.017908,299.1543,0.088591,0.002123,0.058249,0.087846,0.04666,0.024956,0.043512,0.005047,0.043723,0.057832,0.034122,0.030034,0.049325,0.005318,0.045278,0.029901,0.041785,0.048773,0.059747,0.039036,0.253334,0.02844,0.013882,0.054099,0.028138,0.067885,0.102102,0.05945,0.03379,0.039229,3.23091,0.039371,0.03375,0.049101743,0.010384,0.153749286,0.043776,0.012722,0.012581,0.071338986,0.026978,0.026637,0.034930886,0.028184,0.049327,0.013608,0.026724371,1.716143444,1.944808222,0.085109,0.00295,0.003451
corona,0.05286272,-0.4249754,2.0863035,0.62215394,0.1510812,-1.015628,0.87343836,-0.9376745,0.03133435,-0.34890112,0.33391267,0.47773528,-0.6075711,0.36267108,-0.18031564,1,726000000,1278044300,616531900,3258000000,111589560,-1,-1,-1,-1,-1,-1,541382,3059100,2223578600,4.2537537,-1.2573086,0.16113806,1.4142821,2.0710564,0.964415,0.8234841,-0.8962326,-0.7110446,-1.0535107,-0.31601825,-0.63569605,0.76124257,0.10509434,0.45894417,0.37056145,0.016645,0.019877,0.024527,0.006581,0.007968,0.030293,0.033368,0.033437,0.014671,0.023515,0.017908,299.1543,0.088591,0.002123,0.058249,0.087846,0.04666,0.024956,0.043512,0.005047,0.043723,0.057832,0.034122,0.030034,0.049325,0.005318,0.045278,0.029901,0.041785,0.048773,0.059747,0.039036,0.253334,0.02844,0.013882,0.054099,0.028138,0.067885,0.102102,0.05945,0.03379,0.039229,3.23091,0.039371,0.03375,0.049101743,0.010384,0.153749286,0.043776,0.012722,0.012581,0.071338986,0.026978,0.026637,0.034930886,0.028184,0.049327,0.013608,0.026724371,1.716143444,1.944808222,0.085109,0.00295,0.003451
corona,0.05286272,-0.4249754,2.0863035,0.62215394,0.1510812,-1.015628,0.87343836,-0.9376745,0.03133435,-0.34890112,0.33391267,0.47773528,-0.6075711,0.36267108,-0.18031564,1,386000000,557190140,295929820,1692000000,41545976,-1,-1,-1,-1,-1,-1,547500,3059100,470860030,0.7507508,-1.2573086,0.16113806,1.4142821,2.0710564,0.964415,0.8234841,-0.8962326,-0.7110446,-1.0535107,-0.31601825,-0.63569605,0.76124257,0.10509434,0.45894417,0.37056145,0.016645,0.019877,0.024527,0.006581,0.007968,0.030293,0.033368,0.033437,0.014671,0.023515,0.017908,299.1543,0.088591,0.002123,0.058249,0.087846,0.04666,0.024956,0.043512,0.005047,0.043723,0.057832,0.034122,0.030034,0.049325,0.005318,0.045278,0.029901,0.041785,0.048773,0.059747,0.039036,0.253334,0.02844,0.013882,0.054099,0.028138,0.067885,0.102102,0.05945,0.03379,0.039229,3.23091,0.039371,0.03375,0.049101743,0.010384,0.153749286,0.043776,0.012722,0.012581,0.071338986,0.026978,0.026637,0.034930886,0.028184,0.049327,0.013608,0.026724371,1.716143444,1.944808222,0.085109,0.00295,0.003451
corona,0.05286272,-0.4249754,2.0863035,0.62215394,0.1510812,-1.015628,0.87343836,-0.9376745,0.03133435,-0.34890112,0.33391267,0.47773528,-0.6075711,0.36267108,-0.18031564,1,388000000,563992640,1,1700000000,42840736,-1,-1,-1,-1,-1,-1,545583,3059100,476832030,0.5,-1.2573086,0.16113806,1.4142821,2.0710564,0.964415,0.8234841,-0.8962326,-0.7110446,-1.0535107,-0.31601825,-0.63569605,0.76124257,0.10509434,0.45894417,0.37056145,0.016645,0.019877,0.024527,0.006581,0.007968,0.030293,0.033368,0.033437,0.014671,0.023515,0.017908,299.1543,0.088591,0.002123,0.058249,0.087846,0.04666,0.024956,0.043512,0.005047,0.043723,0.057832,0.034122,0.030034,0.049325,0.005318,0.045278,0.029901,0.041785,0.048773,0.059747,0.039036,0.253334,0.02844,0.013882,0.054099,0.028138,0.067885,0.102102,0.05945,0.03379,0.039229,3.23091,0.039371,0.03375,0.049101743,0.010384,0.153749286,0.043776,0.012722,0.012581,0.071338986,0.026978,0.026637,0.034930886,0.028184,0.049327,0.013608,0.026724371,1.716143444,1.944808222,0.085109,0.00295,0.003451
corona,0.05286272,-0.4249754,2.0863035,0.62215394,0.1510812,-1.015628,0.87343836,-0.9376745,0.03133435,-0.34890112,0.33391267,0.47773528,-0.6075711,0.36267108,-0.18031564,1,390000000,570824640,299990660,1710000000,41545148,-1,-1,-1,-1,-1,-1,547522,3059100,478080830,1,-1.2573086,0.16113806,1.4142821,2.0710564,0.964415,0.8234841,-0.8962326,-0.7110446,-1.0535107,-0.31601825,-0.63569605,0.76124257,0.10509434,0.45894417,0.37056145,0.016645,0.019877,0.024527,0.006581,0.007968,0.030293,0.033368,0.033437,0.014671,0.023515,0.017908,299.1543,0.088591,0.002123,0.058249,0.087846,0.04666,0.024956,0.043512,0.005047,0.043723,0.057832,0.034122,0.030034,0.049325,0.005318,0.045278,0.029901,0.041785,0.048773,0.059747,0.039036,0.253334,0.02844,0.013882,0.054099,0.028138,0.067885,0.102102,0.05945,0.03379,0.039229,3.23091,0.039371,0.03375,0.049101743,0.010384,0.153749286,0.043776,0.012722,0.012581,0.071338986,0.026978,0.026637,0.034930886,0.028184,0.049327,0.013608,0.026724371,1.716143444,1.944808222,0.085109,0.00295,0.003451
corona,0.05286272,-0.4249754,2.0863035,0.62215394,0.1510812,-1.015628,0.87343836,-0.9376745,0.03133435,-0.34890112,0.33391267,0.47773528,-0.6075711,0.36267108,-0.18031564,1,404000000,592116500,304283200,1754000000,41212376,-1,-1,-1,-1,-1,-1,544434,3059100,544645760,1.332,-1.2573086,0.16113806,1.4142821,2.0710564,0.964415,0.8234841,-0.8962326,-0.7110446,-1.0535107,-0.31601825,-0.63569605,0.76124257,0.10509434,0.45894417,0.37056145,0.016645,0.019877,0.024527,0.006581,0.007968,0.030293,0.033368,0.033437,0.014671,0.023515,0.017908,299.1543,0.088591,0.002123,0.058249,0.087846,0.04666,0.024956,0.043512,0.005047,0.043723,0.057832,0.034122,0.030034,0.049325,0.005318,0.045278,0.029901,0.041785,0.048773,0.059747,0.039036,0.253334,0.02844,0.013882,0.054099,0.028138,0.067885,0.102102,0.05945,0.03379,0.039229,3.23091,0.039371,0.03375,0.049101743,0.010384,0.153749286,0.043776,0.012722,0.012581,0.071338986,0.026978,0.026637,0.034930886,0.028184,0.049327,0.013608,0.026724371,1.716143444,1.944808222,0.085109,0.00295,0.003451
corona,0.05286272,-0.4249754,2.0863035,0.62215394,0.1510812,-1.015628,0.87343836,-0.9376745,0.03133435,-0.34890112,0.33391267,0.47773528,-0.6075711,0.36267108,-0.18031564,1,412000000,606995840,309486100,1782000000,43379360,-1,-1,-1,-1,-1,-1,541370,3059100,560660900,1.2507508,-1.2573086,0.16113806,1.4142821,2.0710564,0.964415,0.8234841,-0.8962326,-0.7110446,-1.0535107,-0.31601825,-0.63569605,0.76124257,0.10509434,0.45894417,0.37056145,0.016645,0.019877,0.024527,0.006581,0.007968,0.030293,0.033368,0.033437,0.014671,0.023515,0.017908,299.1543,0.088591,0.002123,0.058249,0.087846,0.04666,0.024956,0.043512,0.005047,0.043723,0.057832,0.034122,0.030034,0.049325,0.005318,0.045278,0.029901,0.041785,0.048773,0.059747,0.039036,0.253334,0.02844,0.013882,0.054099,0.028138,0.067885,0.102102,0.05945,0.03379,0.039229,3.23091,0.039371,0.03375,0.049101743,0.010384,0.153749286,0.043776,0.012722,0.012581,0.071338986,0.026978,0.026637,0.034930886,0.028184,0.049327,0.013608,0.026724371,1.716143444,1.944808222,0.085109,0.00295,0.003451
corona,0.05286272,-0.4249754,2.0863035,0.62215394,0.1510812,-1.015628,0.87343836,-0.9376745,0.03133435,-0.34890112,0.33391267,0.47773528,-0.6075711,0.36267108,-0.18031564,1,414000000,557038140,281476300,1714000000,36352044,-1,-1,-1,-1,-1,-1,539850,3059100,576783700,1,-1.2573086,0.16113806,1.4142821,2.0710564,0.964415,0.8234841,-0.8962326,-0.7110446,-1.0535107,-0.31601825,-0.63569605,0.76124257,0.10509434,0.45894417,0.37056145,0.016645,0.019877,0.024527,0.006581,0.007968,0.030293,0.033368,0.033437,0.014671,0.023515,0.017908,299.1543,0.088591,0.002123,0.058249,0.087846,0.04666,0.024956,0.043512,0.005047,0.043723,0.057832,0.034122,0.030034,0.049325,0.005318,0.045278,0.029901,0.041785,0.048773,0.059747,0.039036,0.253334,0.02844,0.013882,0.054099,0.028138,0.067885,0.102102,0.05945,0.03379,0.039229,3.23091,0.039371,0.03375,0.049101743,0.010384,0.153749286,0.043776,0.012722,0.012581,0.071338986,0.026978,0.026637,0.034930886,0.028184,0.049327,0.013608,0.026724371,1.716143444,1.944808222,0.085109,0.00295,0.003451
corona,0.05286272,-0.4249754,2.0863035,0.62215394,0.1510812,-1.015628,0.87343836,-0.9376745,0.03133435,-0.34890112,0.33391267,0.47773528,-0.6075711,0.36267108,-0.18031564,1,420000000,571774460,287103300,1736000000,38568900,-1,-1,-1,-1,-1,-1,539850,3059100,601541600,1,-1.2573086,0.16113806,1.4142821,2.0710564,0.964415,0.8234841,-0.8962326,-0.7110446,-1.0535107,-0.31601825,-0.63569605,0.76124257,0.10509434,0.45894417,0.37056145,0.016645,0.019877,0.024527,0.006581,0.007968,0.030293,0.033368,0.033437,0.014671,0.023515,0.017908,299.1543,0.088591,0.002123,0.058249,0.087846,0.04666,0.024956,0.043512,0.005047,0.043723,0.057832,0.034122,0.030034,0.049325,0.005318,0.045278,0.029901,0.041785,0.048773,0.059747,0.039036,0.253334,0.02844,0.013882,0.054099,0.028138,0.067885,0.102102,0.05945,0.03379,0.039229,3.23091,0.039371,0.03375,0.049101743,0.010384,0.153749286,0.043776,0.012722,0.012581,0.071338986,0.026978,0.026637,0.034930886,0.028184,0.049327,0.013608,0.026724371,1.716143444,1.944808222,0.085109,0.00295,0.003451
corona,0.05286272,-0.4249754,2.0863035,0.62215394,0.1510812,-1.015628,0.87343836,-0.9376745,0.03133435,-0.34890112,0.33391267,0.47773528,-0.6075711,0.36267108,-0.18031564,1,436000000,599402400,290985000,1786000000,37166196,-1,-1,-1,-1,-1,-1,547474,3059100,659452740,1.332,-1.2573086,0.16113806,1.4142821,2.0710564,0.964415,0.8234841,-0.8962326,-0.7110446,-1.0535107,-0.31601825,-0.63569605,0.76124257,0.10509434,0.45894417,0.37056145,0.016645,0.019877,0.024527,0.006581,0.007968,0.030293,0.033368,0.033437,0.014671,0.023515,0.017908,299.1543,0.088591,0.002123,0.058249,0.087846,0.04666,0.024956,0.043512,0.005047,0.043723,0.057832,0.034122,0.030034,0.049325,0.005318,0.045278,0.029901,0.041785,0.048773,0.059747,0.039036,0.253334,0.02844,0.013882,0.054099,0.028138,0.067885,0.102102,0.05945,0.03379,0.039229,3.23091,0.039371,0.03375,0.049101743,0.010384,0.153749286,0.043776,0.012722,0.012581,0.071338986,0.026978,0.026637,0.034930886,0.028184,0.049327,0.013608,0.026724371,1.716143444,1.944808222,0.085109,0.00295,0.003451
corona,0.05286272,-0.4249754,2.0863035,0.62215394,0.1510812,-1.015628,0.87343836,-0.9376745,0.03133435,-0.34890112,0.33391267,0.47773528,-0.6075711,0.36267108,-0.18031564,1,456000000,636088800,300273600,1856000000,37778250,-1,-1,-1,-1,-1,-1,538318,3059100,741106050,2,-1.2573086,0.16113806,1.4142821,2.0710564,0.964415,0.8234841,-0.8962326,-0.7110446,-1.0535107,-0.31601825,-0.63569605,0.76124257,0.10509434,0.45894417,0.37056145,0.016645,0.019877,0.024527,0.006581,0.007968,0.030293,0.033368,0.033437,0.014671,0.023515,0.017908,299.1543,0.088591,0.002123,0.058249,0.087846,0.04666,0.024956,0.043512,0.005047,0.043723,0.057832,0.034122,0.030034,0.049325,0.005318,0.045278,0.029901,0.041785,0.048773,0.059747,0.039036,0.253334,0.02844,0.013882,0.054099,0.028138,0.067885,0.102102,0.05945,0.03379,0.039229,3.23091,0.039371,0.03375,0.049101743,0.010384,0.153749286,0.043776,0.012722,0.012581,0.071338986,0.026978,0.026637,0.034930886,0.028184,0.049327,0.013608,0.026724371,1.716143444,1.944808222,0.085109,0.00295,0.003451
corona,0.05286272,-0.4249754,2.0863035,0.62215394,0.1510812,-1.015628,0.87343836,-0.9376745,0.03133435,-0.34890112,0.33391267,0.47773528,-0.6075711,0.36267108,-0.18031564,1,468000000,677946000,311327680,1878000000,39376176,-1,-1,-1,-1,-1,-1,542902,3059100,816656500,1.7507508,-1.2573086,0.16113806,1.4142821,2.0710564,0.964415,0.8234841,-0.8962326,-0.7110446,-1.0535107,-0.31601825,-0.63569605,0.76124257,0.10509434,0.45894417,0.37056145,0.016645,0.019877,0.024527,0.006581,0.007968,0.030293,0.033368,0.033437,0.014671,0.023515,0.017908,299.1543,0.088591,0.002123,0.058249,0.087846,0.04666,0.024956,0.043512,0.005047,0.043723,0.057832,0.034122,0.030034,0.049325,0.005318,0.045278,0.029901,0.041785,0.048773,0.059747,0.039036,0.253334,0.02844,0.013882,0.054099,0.028138,0.067885,0.102102,0.05945,0.03379,0.039229,3.23091,0.039371,0.03375,0.049101743,0.010384,0.153749286,0.043776,0.012722,0.012581,0.071338986,0.026978,0.026637,0.034930886,0.028184,0.049327,0.013608,0.026724371,1.716143444,1.944808222,0.085109,0.00295,0.003451
corona,0.05286272,-0.4249754,2.0863035,0.62215394,0.1510812,-1.015628,0.87343836,-0.9376745,0.03133435,-0.34890112,0.33391267,0.47773528,-0.6075711,0.36267108,-0.18031564,1,500000000,729114200,354174850,2040000000,54254516,-1,-1,-1,-1,-1,-1,547498,3059100,1032705340,1.2507508,-1.2573086,0.16113806,1.4142821,2.0710564,0.964415,0.8234841,-0.8962326,-0.7110446,-1.0535107,-0.31601825,-0.63569605,0.76124257,0.10509434,0.45894417,0.37056145,0.016645,0.019877,0.024527,0.006581,0.007968,0.030293,0.033368,0.033437,0.014671,0.023515,0.017908,299.1543,0.088591,0.002123,0.058249,0.087846,0.04666,0.024956,0.043512,0.005047,0.043723,0.057832,0.034122,0.030034,0.049325,0.005318,0.045278,0.029901,0.041785,0.048773,0.059747,0.039036,0.253334,0.02844,0.013882,0.054099,0.028138,0.067885,0.102102,0.05945,0.03379,0.039229,3.23091,0.039371,0.03375,0.049101743,0.010384,0.153749286,0.043776,0.012722,0.012581,0.071338986,0.026978,0.026637,0.034930886,0.028184,0.049327,0.013608,0.026724371,1.716143444,1.944808222,0.085109,0.00295,0.003451
corona,0.05286272,-0.4249754,2.0863035,0.62215394,0.1510812,-1.015628,0.87343836,-0.9376745,0.03133435,-0.34890112,0.33391267,0.47773528,-0.6075711,0.36267108,-0.18031564,1,524000000,774740030,363569630,2126000000,53802916,-1,-1,-1,-1,-1,-1,539503,3059100,1120937900,2,-1.2573086,0.16113806,1.4142821,2.0710564,0.964415,0.8234841,-0.8962326,-0.7110446,-1.0535107,-0.31601825,-0.63569605,0.76124257,0.10509434,0.45894417,0.37056145,0.016645,0.019877,0.024527,0.006581,0.007968,0.030293,0.033368,0.033437,0.014671,0.023515,0.017908,299.1543,0.088591,0.002123,0.058249,0.087846,0.04666,0.024956,0.043512,0.005047,0.043723,0.057832,0.034122,0.030034,0.049325,0.005318,0.045278,0.029901,0.041785,0.048773,0.059747,0.039036,0.253334,0.02844,0.013882,0.054099,0.028138,0.067885,0.102102,0.05945,0.03379,0.039229,3.23091,0.039371,0.03375,0.049101743,0.010384,0.153749286,0.043776,0.012722,0.012581,0.071338986,0.026978,0.026637,0.034930886,0.028184,0.049327,0.013608,0.026724371,1.716143444,1.944808222,0.085109,0.00295,0.003451
corona,0.05286272,-0.4249754,2.0863035,0.62215394,0.1510812,-1.015628,0.87343836,-0.9376745,0.03133435,-0.34890112,0.33391267,0.47773528,-0.6075711,0.36267108,-0.18031564,1,548000000,823770300,375438100,2210000000,56023430,-1,-1,-1,-1,-1,-1,547498,3059100,1236805800,2.2522523,-1.2573086,0.16113806,1.4142821,2.0710564,0.964415,0.8234841,-0.8962326,-0.7110446,-1.0535107,-0.31601825,-0.63569605,0.76124257,0.10509434,0.45894417,0.37056145,0.016645,0.019877,0.024527,0.006581,0.007968,0.030293,0.033368,0.033437,0.014671,0.023515,0.017908,299.1543,0.088591,0.002123,0.058249,0.087846,0.04666,0.024956,0.043512,0.005047,0.043723,0.057832,0.034122,0.030034,0.049325,0.005318,0.045278,0.029901,0.041785,0.048773,0.059747,0.039036,0.253334,0.02844,0.013882,0.054099,0.028138,0.067885,0.102102,0.05945,0.03379,0.039229,3.23091,0.039371,0.03375,0.049101743,0.010384,0.153749286,0.043776,0.012722,0.012581,0.071338986,0.026978,0.026637,0.034930886,0.028184,0.049327,0.013608,0.026724371,1.716143444,1.944808222,0.085109,0.00295,0.003451
corona,0.05286272,-0.4249754,2.0863035,0.62215394,0.1510812,-1.015628,0.87343836,-0.9376745,0.03133435,-0.34890112,0.33391267,0.47773528,-0.6075711,0.36267108,-0.18031564,1,616000000,939295400,398475970,2426000000,57964330,-1,-1,-1,-1,-1,-1,545932,3059100,1451786800,3.0030031,-1.2573086,0.16113806,1.4142821,2.0710564,0.964415,0.8234841,-0.8962326,-0.7110446,-1.0535107,-0.31601825,-0.63569605,0.76124257,0.10509434,0.45894417,0.37056145,0.016645,0.019877,0.024527,0.006581,0.007968,0.030293,0.033368,0.033437,0.014671,0.023515,0.017908,299.1543,0.088591,0.002123,0.058249,0.087846,0.04666,0.024956,0.043512,0.005047,0.043723,0.057832,0.034122,0.030034,0.049325,0.005318,0.045278,0.029901,0.041785,0.048773,0.059747,0.039036,0.253334,0.02844,0.013882,0.054099,0.028138,0.067885,0.102102,0.05945,0.03379,0.039229,3.23091,0.039371,0.03375,0.049101743,0.010384,0.153749286,0.043776,0.012722,0.012581,0.071338986,0.026978,0.026637,0.034930886,0.028184,0.049327,0.013608,0.026724371,1.716143444,1.944808222,0.085109,0.00295,0.003451
corona,0.05286272,-0.4249754,2.0863035,0.62215394,0.1510812,-1.015628,0.87343836,-0.9376745,0.03133435,-0.34890112,0.33391267,0.47773528,-0.6075711,0.36267108,-0.18031564,1,672000000,1062228000,423920320,2624000000,60683360,-1,-1,-1,-1,-1,-1,539838,3059100,1726191600,4.2537537,-1.2573086,0.16113806,1.4142821,2.0710564,0.964415,0.8234841,-0.8962326,-0.7110446,-1.0535107,-0.31601825,-0.63569605,0.76124257,0.10509434,0.45894417,0.37056145,0.016645,0.019877,0.024527,0.006581,0.007968,0.030293,0.033368,0.033437,0.014671,0.023515,0.017908,299.1543,0.088591,0.002123,0.058249,0.087846,0.04666,0.024956,0.043512,0.005047,0.043723,0.057832,0.034122,0.030034,0.049325,0.005318,0.045278,0.029901,0.041785,0.048773,0.059747,0.039036,0.253334,0.02844,0.013882,0.054099,0.028138,0.067885,0.102102,0.05945,0.03379,0.039229,3.23091,0.039371,0.03375,0.049101743,0.010384,0.153749286,0.043776,0.012722,0.012581,0.071338986,0.026978,0.026637,0.034930886,0.028184,0.049327,0.013608,0.026724371,1.716143444,1.944808222,0.085109,0.00295,0.003451
corona,0.05286272,-0.4249754,2.0863035,0.62215394,0.1510812,-1.015628,0.87343836,-0.9376745,0.03133435,-0.34890112,0.33391267,0.47773528,-0.6075711,0.36267108,-0.18031564,1,366000000,496234600,246801010,1506000000,27363132,-1,-1,-1,-1,-1,-1,544458,3059100,406094530,1,-1.2573086,0.16113806,1.4142821,2.0710564,0.964415,0.8234841,-0.8962326,-0.7110446,-1.0535107,-0.31601825,-0.63569605,0.76124257,0.10509434,0.45894417,0.37056145,0.016645,0.019877,0.024527,0.006581,0.007968,0.030293,0.033368,0.033437,0.014671,0.023515,0.017908,299.1543,0.088591,0.002123,0.058249,0.087846,0.04666,0.024956,0.043512,0.005047,0.043723,0.057832,0.034122,0.030034,0.049325,0.005318,0.045278,0.029901,0.041785,0.048773,0.059747,0.039036,0.253334,0.02844,0.013882,0.054099,0.028138,0.067885,0.102102,0.05945,0.03379,0.039229,3.23091,0.039371,0.03375,0.049101743,0.010384,0.153749286,0.043776,0.012722,0.012581,0.071338986,0.026978,0.026637,0.034930886,0.028184,0.049327,0.013608,0.026724371,1.716143444,1.944808222,0.085109,0.00295,0.003451
corona,0.05286272,-0.4249754,2.0863035,0.62215394,0.1510812,-1.015628,0.87343836,-0.9376745,0.03133435,-0.34890112,0.33391267,0.47773528,-0.6075711,0.36267108,-0.18031564,1,368000000,505673060,249521700,1522000000,27606868,-1,-1,-1,-1,-1,-1,546002,3059100,413824600,1,-1.2573086,0.16113806,1.4142821,2.0710564,0.964415,0.8234841,-0.8962326,-0.7110446,-1.0535107,-0.31601825,-0.63569605,0.76124257,0.10509434,0.45894417,0.37056145,0.016645,0.019877,0.024527,0.006581,0.007968,0.030293,0.033368,0.033437,0.014671,0.023515,0.017908,299.1543,0.088591,0.002123,0.058249,0.087846,0.04666,0.024956,0.043512,0.005047,0.043723,0.057832,0.034122,0.030034,0.049325,0.005318,0.045278,0.029901,0.041785,0.048773,0.059747,0.039036,0.253334,0.02844,0.013882,0.054099,0.028138,0.067885,0.102102,0.05945,0.03379,0.039229,3.23091,0.039371,0.03375,0.049101743,0.010384,0.153749286,0.043776,0.012722,0.012581,0.071338986,0.026978,0.026637,0.034930886,0.028184,0.049327,0.013608,0.026724371,1.716143444,1.944808222,0.085109,0.00295,0.003451
corona,0.05286272,-0.4249754,2.0863035,0.62215394,0.1510812,-1.015628,0.87343836,-0.9376745,0.03133435,-0.34890112,0.33391267,0.47773528,-0.6075711,0.36267108,-0.18031564,1,372000000,1,250963820,1532000000,27521480,-1,-1,-1,-1,-1,-1,541418,3059100,430347970,0.7507508,-1.2573086,0.16113806,1.4142821,2.0710564,0.964415,0.8234841,-0.8962326,-0.7110446,-1.0535107,-0.31601825,-0.63569605,0.76124257,0.10509434,0.45894417,0.37056145,0.016645,0.019877,0.024527,0.006581,0.007968,0.030293,0.033368,0.033437,0.014671,0.023515,0.017908,299.1543,0.088591,0.002123,0.058249,0.087846,0.04666,0.024956,0.043512,0.005047,0.043723,0.057832,0.034122,0.030034,0.049325,0.005318,0.045278,0.029901,0.041785,0.048773,0.059747,0.039036,0.253334,0.02844,0.013882,0.054099,0.028138,0.067885,0.102102,0.05945,0.03379,0.039229,3.23091,0.039371,0.03375,0.049101743,0.010384,0.153749286,0.043776,0.012722,0.012581,0.071338986,0.026978,0.026637,0.034930886,0.028184,0.049327,0.013608,0.026724371,1.716143444,1.944808222,0.085109,0.00295,0.003451
corona,0.05286272,-0.4249754,2.0863035,0.62215394,0.1510812,-1.015628,0.87343836,-0.9376745,0.03133435,-0.34890112,0.33391267,0.47773528,-0.6075711,0.36267108,-0.18031564,1,386000000,531127970,256204180,1576000000,27285378,-1,-1,-1,-1,-1,-1,539838,3059100,481370940,1.332,-1.2573086,0.16113806,1.4142821,2.0710564,0.964415,0.8234841,-0.8962326,-0.7110446,-1.0535107,-0.31601825,-0.63569605,0.76124257,0.10509434,0.45894417,0.37056145,0.016645,0.019877,0.024527,0.006581,0.007968,0.030293,0.033368,0.033437,0.014671,0.023515,0.017908,299.1543,0.088591,0.002123,0.058249,0.087846,0.04666,0.024956,0.043512,0.005047,0.043723,0.057832,0.034122,0.030034,0.049325,0.005318,0.045278,0.029901,0.041785,0.048773,0.059747,0.039036,0.253334,0.02844,0.013882,0.054099,0.028138,0.067885,0.102102,0.05945,0.03379,0.039229,3.23091,0.039371,0.03375,0.049101743,0.010384,0.153749286,0.043776,0.012722,0.012581,0.071338986,0.026978,0.026637,0.034930886,0.028184,0.049327,0.013608,0.026724371,1.716143444,1.944808222,0.085109,0.00295,0.003451
corona,0.05286272,-0.4249754,2.0863035,0.62215394,0.1510812,-1.015628,0.87343836,-0.9376745,0.03133435,-0.34890112,0.33391267,0.47773528,-0.6075711,0.36267108,-0.18031564,1,392000000,549287550,261080030,1604000000,28728780,-1,-1,-1,-1,-1,-1,544470,3059100,508902370,1.332,-1.2573086,0.16113806,1.4142821,2.0710564,0.964415,0.8234841,-0.8962326,-0.7110446,-1.0535107,-0.31601825,-0.63569605,0.76124257,0.10509434,0.45894417,0.37056145,0.016645,0.019877,0.024527,0.006581,0.007968,0.030293,0.033368,0.033437,0.014671,0.023515,0.017908,299.1543,0.088591,0.002123,0.058249,0.087846,0.04666,0.024956,0.043512,0.005047,0.043723,0.057832,0.034122,0.030034,0.049325,0.005318,0.045278,0.029901,0.041785,0.048773,0.059747,0.039036,0.253334,0.02844,0.013882,0.054099,0.028138,0.067885,0.102102,0.05945,0.03379,0.039229,3.23091,0.039371,0.03375,0.049101743,0.010384,0.153749286,0.043776,0.012722,0.012581,0.071338986,0.026978,0.026637,0.034930886,0.028184,0.049327,0.013608,0.026724371,1.716143444,1.944808222,0.085109,0.00295,0.003451
corona,0.05286272,-0.4249754,2.0863035,0.62215394,0.1510812,-1.015628,0.87343836,-0.9376745,0.03133435,-0.34890112,0.33391267,0.47773528,-0.6075711,0.36267108,-0.18031564,1,512000000,843438340,469433900,2410000000,85210700,-1,-1,-1,-1,-1,-1,547498,3059100,1002611140,1.2507508,-1.2573086,0.16113806,1.4142821,2.0710564,0.964415,0.8234841,-0.8962326,-0.7110446,-1.0535107,-0.31601825,-0.63569605,0.76124257,0.10509434,0.45894417,0.37056145,0.016645,0.019877,0.024527,0.006581,0.007968,0.030293,0.033368,0.033437,0.014671,0.023515,0.017908,299.1543,0.088591,0.002123,0.058249,0.087846,0.04666,0.024956,0.043512,0.005047,0.043723,0.057832,0.034122,0.030034,0.049325,0.005318,0.045278,0.029901,0.041785,0.048773,0.059747,0.039036,0.253334,0.02844,0.013882,0.054099,0.028138,0.067885,0.102102,0.05945,0.03379,0.039229,3.23091,0.039371,0.03375,0.049101743,0.010384,0.153749286,0.043776,0.012722,0.012581,0.071338986,0.026978,0.026637,0.034930886,0.028184,0.049327,0.013608,0.026724371,1.716143444,1.944808222,0.085109,0.00295,0.003451
corona,0.05286272,-0.4249754,2.0863035,0.62215394,0.1510812,-1.015628,0.87343836,-0.9376745,0.03133435,-0.34890112,0.33391267,0.47773528,-0.6075711,0.36267108,-0.18031564,1,534000000,851256450,475876640,2500000000,88704344,-1,-1,-1,-1,-1,-1,542519,3059100,1064698000,1.666,-1.2573086,0.16113806,1.4142821,2.0710564,0.964415,0.8234841,-0.8962326,-0.7110446,-1.0535107,-0.31601825,-0.63569605,0.76124257,0.10509434,0.45894417,0.37056145,0.016645,0.019877,0.024527,0.006581,0.007968,0.030293,0.033368,0.033437,0.014671,0.023515,0.017908,299.1543,0.088591,0.002123,0.058249,0.087846,0.04666,0.024956,0.043512,0.005047,0.043723,0.057832,0.034122,0.030034,0.049325,0.005318,0.045278,0.029901,0.041785,0.048773,0.059747,0.039036,0.253334,0.02844,0.013882,0.054099,0.028138,0.067885,0.102102,0.05945,0.03379,0.039229,3.23091,0.039371,0.03375,0.049101743,0.010384,0.153749286,0.043776,0.012722,0.012581,0.071338986,0.026978,0.026637,0.034930886,0.028184,0.049327,0.013608,0.026724371,1.716143444,1.944808222,0.085109,0.00295,0.003451
corona,0.05286272,-0.4249754,2.0863035,0.62215394,0.1510812,-1.015628,0.87343836,-0.9376745,0.03133435,-0.34890112,0.33391267,0.47773528,-0.6075711,0.36267108,-0.18031564,1,554000000,895770700,482940100,2568000000,86335210,-1,-1,-1,-1,-1,-1,539862,3059100,1127874800,2,-1.2573086,0.16113806,1.4142821,2.0710564,0.964415,0.8234841,-0.8962326,-0.7110446,-1.0535107,-0.31601825,-0.63569605,0.76124257,0.10509434,0.45894417,0.37056145,0.016645,0.019877,0.024527,0.006581,0.007968,0.030293,0.033368,0.033437,0.014671,0.023515,0.017908,299.1543,0.088591,0.002123,0.058249,0.087846,0.04666,0.024956,0.043512,0.005047,0.043723,0.057832,0.034122,0.030034,0.049325,0.005318,0.045278,0.029901,0.041785,0.048773,0.059747,0.039036,0.253334,0.02844,0.013882,0.054099,0.028138,0.067885,0.102102,0.05945,0.03379,0.039229,3.23091,0.039371,0.03375,0.049101743,0.010384,0.153749286,0.043776,0.012722,0.012581,0.071338986,0.026978,0.026637,0.034930886,0.028184,0.049327,0.013608,0.026724371,1.716143444,1.944808222,0.085109,0.00295,0.003451
corona,0.05286272,-0.4249754,2.0863035,0.62215394,0.1510812,-1.015628,0.87343836,-0.9376745,0.03133435,-0.34890112,0.33391267,0.47773528,-0.6075711,0.36267108,-0.18031564,1,584000000,943323400,495079330,2660000000,87340390,-1,-1,-1,-1,-1,-1,544458,3059100,1247387400,2.2522523,-1.2573086,0.16113806,1.4142821,2.0710564,0.964415,0.8234841,-0.8962326,-0.7110446,-1.0535107,-0.31601825,-0.63569605,0.76124257,0.10509434,0.45894417,0.37056145,0.016645,0.019877,0.024527,0.006581,0.007968,0.030293,0.033368,0.033437,0.014671,0.023515,0.017908,299.1543,0.088591,0.002123,0.058249,0.087846,0.04666,0.024956,0.043512,0.005047,0.043723,0.057832,0.034122,0.030034,0.049325,0.005318,0.045278,0.029901,0.041785,0.048773,0.059747,0.039036,0.253334,0.02844,0.013882,0.054099,0.028138,0.067885,0.102102,0.05945,0.03379,0.039229,3.23091,0.039371,0.03375,0.049101743,0.010384,0.153749286,0.043776,0.012722,0.012581,0.071338986,0.026978,0.026637,0.034930886,0.028184,0.049327,0.013608,0.026724371,1.716143444,1.944808222,0.085109,0.00295,0.003451
corona,0.05286272,-0.4249754,2.0863035,0.62215394,0.1510812,-1.015628,0.87343836,-0.9376745,0.03133435,-0.34890112,0.33391267,0.47773528,-0.6075711,0.36267108,-0.18031564,1,616000000,1016199500,512324930,2786000000,90666560,-1,-1,-1,-1,-1,-1,544448,3059100,1376313600,2.7522523,-1.2573086,0.16113806,1.4142821,2.0710564,0.964415,0.8234841,-0.8962326,-0.7110446,-1.0535107,-0.31601825,-0.63569605,0.76124257,0.10509434,0.45894417,0.37056145,0.016645,0.019877,0.024527,0.006581,0.007968,0.030293,0.033368,0.033437,0.014671,0.023515,0.017908,299.1543,0.088591,0.002123,0.058249,0.087846,0.04666,0.024956,0.043512,0.005047,0.043723,0.057832,0.034122,0.030034,0.049325,0.005318,0.045278,0.029901,0.041785,0.048773,0.059747,0.039036,0.253334,0.02844,0.013882,0.054099,0.028138,0.067885,0.102102,0.05945,0.03379,0.039229,3.23091,0.039371,0.03375,0.049101743,0.010384,0.153749286,0.043776,0.012722,0.012581,0.071338986,0.026978,0.026637,0.034930886,0.028184,0.049327,0.013608,0.026724371,1.716143444,1.944808222,0.085109,0.00295,0.003451
corona,0.05286272,-0.4249754,2.0863035,0.62215394,0.1510812,-1.015628,0.87343836,-0.9376745,0.03133435,-0.34890112,0.33391267,0.47773528,-0.6075711,0.36267108,-0.18031564,1,700000000,1233887200,721355300,3452000000,148503460,-1,-1,-1,-1,-1,-1,547498,3059100,2245814300,2.0015016,-1.2573086,0.16113806,1.4142821,2.0710564,0.964415,0.8234841,-0.8962326,-0.7110446,-1.0535107,-0.31601825,-0.63569605,0.76124257,0.10509434,0.45894417,0.37056145,0.016645,0.019877,0.024527,0.006581,0.007968,0.030293,0.033368,0.033437,0.014671,0.023515,0.017908,299.1543,0.088591,0.002123,0.058249,0.087846,0.04666,0.024956,0.043512,0.005047,0.043723,0.057832,0.034122,0.030034,0.049325,0.005318,0.045278,0.029901,0.041785,0.048773,0.059747,0.039036,0.253334,0.02844,0.013882,0.054099,0.028138,0.067885,0.102102,0.05945,0.03379,0.039229,3.23091,0.039371,0.03375,0.049101743,0.010384,0.153749286,0.043776,0.012722,0.012581,0.071338986,0.026978,0.026637,0.034930886,0.028184,0.049327,0.013608,0.026724371,1.716143444,1.944808222,0.085109,0.00295,0.003451
corona,0.05286272,-0.4249754,2.0863035,0.62215394,0.1510812,-1.015628,0.87343836,-0.9376745,0.03133435,-0.34890112,0.33391267,0.47773528,-0.6075711,0.36267108,-0.18031564,1,728000000,1288810000,731895600,3546000000,144879200,-1,-1,-1,-1,-1,-1,545932,3059100,2400241400,2.7522523,-1.2573086,0.16113806,1.4142821,2.0710564,0.964415,0.8234841,-0.8962326,-0.7110446,-1.0535107,-0.31601825,-0.63569605,0.76124257,0.10509434,0.45894417,0.37056145,0.016645,0.019877,0.024527,0.006581,0.007968,0.030293,0.033368,0.033437,0.014671,0.023515,0.017908,299.1543,0.088591,0.002123,0.058249,0.087846,0.04666,0.024956,0.043512,0.005047,0.043723,0.057832,0.034122,0.030034,0.049325,0.005318,0.045278,0.029901,0.041785,0.048773,0.059747,0.039036,0.253334,0.02844,0.013882,0.054099,0.028138,0.067885,0.102102,0.05945,0.03379,0.039229,3.23091,0.039371,0.03375,0.049101743,0.010384,0.153749286,0.043776,0.012722,0.012581,0.071338986,0.026978,0.026637,0.034930886,0.028184,0.049327,0.013608,0.026724371,1.716143444,1.944808222,0.085109,0.00295,0.003451
corona,0.05286272,-0.4249754,2.0863035,0.62215394,0.1510812,-1.015628,0.87343836,-0.9376745,0.03133435,-0.34890112,0.33391267,0.47773528,-0.6075711,0.36267108,-0.18031564,1,764000000,1373772300,754788300,3674000000,150516160,-1,-1,-1,-1,-1,-1,546002,3059100,2557869000,2.60024,-1.2573086,0.16113806,1.4142821,2.0710564,0.964415,0.8234841,-0.8962326,-0.7110446,-1.0535107,-0.31601825,-0.63569605,0.76124257,0.10509434,0.45894417,0.37056145,0.016645,0.019877,0.024527,0.006581,0.007968,0.030293,0.033368,0.033437,0.014671,0.023515,0.017908,299.1543,0.088591,0.002123,0.058249,0.087846,0.04666,0.024956,0.043512,0.005047,0.043723,0.057832,0.034122,0.030034,0.049325,0.005318,0.045278,0.029901,0.041785,0.048773,0.059747,0.039036,0.253334,0.02844,0.013882,0.054099,0.028138,0.067885,0.102102,0.05945,0.03379,0.039229,3.23091,0.039371,0.03375,0.049101743,0.010384,0.153749286,0.043776,0.012722,0.012581,0.071338986,0.026978,0.026637,0.034930886,0.028184,0.049327,0.013608,0.026724371,1.716143444,1.944808222,0.085109,0.00295,0.003451
corona,0.05286272,-0.4249754,2.0863035,0.62215394,0.1510812,-1.015628,0.87343836,-0.9376745,0.03133435,-0.34890112,0.33391267,0.47773528,-0.6075711,0.36267108,-0.18031564,1,862000000,1549097200,788341400,4006000000,154495540,-1,-1,-1,-1,-1,-1,538318,3059100,2911811300,4.5045047,-1.2573086,0.16113806,1.4142821,2.0710564,0.964415,0.8234841,-0.8962326,-0.7110446,-1.0535107,-0.31601825,-0.63569605,0.76124257,0.10509434,0.45894417,0.37056145,0.016645,0.019877,0.024527,0.006581,0.007968,0.030293,0.033368,0.033437,0.014671,0.023515,0.017908,299.1543,0.088591,0.002123,0.058249,0.087846,0.04666,0.024956,0.043512,0.005047,0.043723,0.057832,0.034122,0.030034,0.049325,0.005318,0.045278,0.029901,0.041785,0.048773,0.059747,0.039036,0.253334,0.02844,0.013882,0.054099,0.028138,0.067885,0.102102,0.05945,0.03379,0.039229,3.23091,0.039371,0.03375,0.049101743,0.010384,0.153749286,0.043776,0.012722,0.012581,0.071338986,0.026978,0.026637,0.034930886,0.028184,0.049327,0.013608,0.026724371,1.716143444,1.944808222,0.085109,0.00295,0.003451
corona,0.05286272,-0.4249754,2.0863035,0.62215394,0.1510812,-1.015628,0.87343836,-0.9376745,0.03133435,-0.34890112,0.33391267,0.47773528,-0.6075711,0.36267108,-0.18031564,1,958000000,1725042800,825320300,4332000000,158260370,-1,-1,-1,-1,-1,-1,547486,3059100,3204344800,4.801921,-1.2573086,0.16113806,1.4142821,2.0710564,0.964415,0.8234841,-0.8962326,-0.7110446,-1.0535107,-0.31601825,-0.63569605,0.76124257,0.10509434,0.45894417,0.37056145,0.016645,0.019877,0.024527,0.006581,0.007968,0.030293,0.033368,0.033437,0.014671,0.023515,0.017908,299.1543,0.088591,0.002123,0.058249,0.087846,0.04666,0.024956,0.043512,0.005047,0.043723,0.057832,0.034122,0.030034,0.049325,0.005318,0.045278,0.029901,0.041785,0.048773,0.059747,0.039036,0.253334,0.02844,0.013882,0.054099,0.028138,0.067885,0.102102,0.05945,0.03379,0.039229,3.23091,0.039371,0.03375,0.049101743,0.010384,0.153749286,0.043776,0.012722,0.012581,0.071338986,0.026978,0.026637,0.034930886,0.028184,0.049327,0.013608,0.026724371,1.716143444,1.944808222,0.085109,0.00295,0.003451
corona,0.05286272,-0.4249754,2.0863035,0.62215394,0.1510812,-1.015628,0.87343836,-0.9376745,0.03133435,-0.34890112,0.33391267,0.47773528,-0.6075711,0.36267108,-0.18031564,1,438000000,670477600,349583600,1942000000,53849240,-1,-1,-1,-1,-1,-1,539838,3059100,641183700,1,-1.2573086,0.16113806,1.4142821,2.0710564,0.964415,0.8234841,-0.8962326,-0.7110446,-1.0535107,-0.31601825,-0.63569605,0.76124257,0.10509434,0.45894417,0.37056145,0.016645,0.019877,0.024527,0.006581,0.007968,0.030293,0.033368,0.033437,0.014671,0.023515,0.017908,299.1543,0.088591,0.002123,0.058249,0.087846,0.04666,0.024956,0.043512,0.005047,0.043723,0.057832,0.034122,0.030034,0.049325,0.005318,0.045278,0.029901,0.041785,0.048773,0.059747,0.039036,0.253334,0.02844,0.013882,0.054099,0.028138,0.067885,0.102102,0.05945,0.03379,0.039229,3.23091,0.039371,0.03375,0.049101743,0.010384,0.153749286,0.043776,0.012722,0.012581,0.071338986,0.026978,0.026637,0.034930886,0.028184,0.049327,0.013608,0.026724371,1.716143444,1.944808222,0.085109,0.00295,0.003451
corona,0.05286272,-0.4249754,2.0863035,0.62215394,0.1510812,-1.015628,0.87343836,-0.9376745,0.03133435,-0.34890112,0.33391267,0.47773528,-0.6075711,0.36267108,-0.18031564,1,444000000,676638500,352878850,1972000000,55608636,-1,-1,-1,-1,-1,-1,547486,3059100,677629000,1,-1.2573086,0.16113806,1.4142821,2.0710564,0.964415,0.8234841,-0.8962326,-0.7110446,-1.0535107,-0.31601825,-0.63569605,0.76124257,0.10509434,0.45894417,0.37056145,0.016645,0.019877,0.024527,0.006581,0.007968,0.030293,0.033368,0.033437,0.014671,0.023515,0.017908,299.1543,0.088591,0.002123,0.058249,0.087846,0.04666,0.024956,0.043512,0.005047,0.043723,0.057832,0.034122,0.030034,0.049325,0.005318,0.045278,0.029901,0.041785,0.048773,0.059747,0.039036,0.253334,0.02844,0.013882,0.054099,0.028138,0.067885,0.102102,0.05945,0.03379,0.039229,3.23091,0.039371,0.03375,0.049101743,0.010384,0.153749286,0.043776,0.012722,0.012581,0.071338986,0.026978,0.026637,0.034930886,0.028184,0.049327,0.013608,0.026724371,1.716143444,1.944808222,0.085109,0.00295,0.003451
corona,0.05286272,-0.4249754,2.0863035,0.62215394,0.1510812,-1.015628,0.87343836,-0.9376745,0.03133435,-0.34890112,0.33391267,0.47773528,-0.6075711,0.36267108,-0.18031564,1,450000000,677477000,352761900,1988000000,53785640,-1,-1,-1,-1,-1,-1,538330,3059100,696944060,1,-1.2573086,0.16113806,1.4142821,2.0710564,0.964415,0.8234841,-0.8962326,-0.7110446,-1.0535107,-0.31601825,-0.63569605,0.76124257,0.10509434,0.45894417,0.37056145,0.016645,0.019877,0.024527,0.006581,0.007968,0.030293,0.033368,0.033437,0.014671,0.023515,0.017908,299.1543,0.088591,0.002123,0.058249,0.087846,0.04666,0.024956,0.043512,0.005047,0.043723,0.057832,0.034122,0.030034,0.049325,0.005318,0.045278,0.029901,0.041785,0.048773,0.059747,0.039036,0.253334,0.02844,0.013882,0.054099,0.028138,0.067885,0.102102,0.05945,0.03379,0.039229,3.23091,0.039371,0.03375,0.049101743,0.010384,0.153749286,0.043776,0.012722,0.012581,0.071338986,0.026978,0.026637,0.034930886,0.028184,0.049327,0.013608,0.026724371,1.716143444,1.944808222,0.085109,0.00295,0.003451
corona,0.05286272,-0.4249754,2.0863035,0.62215394,0.1510812,-1.015628,0.87343836,-0.9376745,0.03133435,-0.34890112,0.33391267,0.47773528,-0.6075711,0.36267108,-0.18031564,1,470000000,720414460,362144200,2058000000,55170816,-1,-1,-1,-1,-1,-1,547115,3059100,780769150,1.2507508,-1.2573086,0.16113806,1.4142821,2.0710564,0.964415,0.8234841,-0.8962326,-0.7110446,-1.0535107,-0.31601825,-0.63569605,0.76124257,0.10509434,0.45894417,0.37056145,0.016645,0.019877,0.024527,0.006581,0.007968,0.030293,0.033368,0.033437,0.014671,0.023515,0.017908,299.1543,0.088591,0.002123,0.058249,0.087846,0.04666,0.024956,0.043512,0.005047,0.043723,0.057832,0.034122,0.030034,0.049325,0.005318,0.045278,0.029901,0.041785,0.048773,0.059747,0.039036,0.253334,0.02844,0.013882,0.054099,0.028138,0.067885,0.102102,0.05945,0.03379,0.039229,3.23091,0.039371,0.03375,0.049101743,0.010384,0.153749286,0.043776,0.012722,0.012581,0.071338986,0.026978,0.026637,0.034930886,0.028184,0.049327,0.013608,0.026724371,1.716143444,1.944808222,0.085109,0.00295,0.003451
corona,0.05286272,-0.4249754,2.0863035,0.62215394,0.1510812,-1.015628,0.87343836,-0.9376745,0.03133435,-0.34890112,0.33391267,0.47773528,-0.6075711,0.36267108,-0.18031564,1,482000000,743898300,369818240,2100000000,55172230,-1,-1,-1,-1,-1,-1,539850,3059100,818230340,1.7507508,-1.2573086,0.16113806,1.4142821,2.0710564,0.964415,0.8234841,-0.8962326,-0.7110446,-1.0535107,-0.31601825,-0.63569605,0.76124257,0.10509434,0.45894417,0.37056145,0.016645,0.019877,0.024527,0.006581,0.007968,0.030293,0.033368,0.033437,0.014671,0.023515,0.017908,299.1543,0.088591,0.002123,0.058249,0.087846,0.04666,0.024956,0.043512,0.005047,0.043723,0.057832,0.034122,0.030034,0.049325,0.005318,0.045278,0.029901,0.041785,0.048773,0.059747,0.039036,0.253334,0.02844,0.013882,0.054099,0.028138,0.067885,0.102102,0.05945,0.03379,0.039229,3.23091,0.039371,0.03375,0.049101743,0.010384,0.153749286,0.043776,0.012722,0.012581,0.071338986,0.026978,0.026637,0.034930886,0.028184,0.049327,0.013608,0.026724371,1.716143444,1.944808222,0.085109,0.00295,0.003451
corona,0.05286272,-0.4249754,2.0863035,0.62215394,0.1510812,-1.015628,0.87343836,-0.9376745,0.03133435,-0.34890112,0.33391267,0.47773528,-0.6075711,0.36267108,-0.18031564,1,478000000,671270300,323867700,1964000000,45816012,-1,-1,-1,-1,-1,-1,547488,3059100,823267900,1,-1.2573086,0.16113806,1.4142821,2.0710564,0.964415,0.8234841,-0.8962326,-0.7110446,-1.0535107,-0.31601825,-0.63569605,0.76124257,0.10509434,0.45894417,0.37056145,0.016645,0.019877,0.024527,0.006581,0.007968,0.030293,0.033368,0.033437,0.014671,0.023515,0.017908,299.1543,0.088591,0.002123,0.058249,0.087846,0.04666,0.024956,0.043512,0.005047,0.043723,0.057832,0.034122,0.030034,0.049325,0.005318,0.045278,0.029901,0.041785,0.048773,0.059747,0.039036,0.253334,0.02844,0.013882,0.054099,0.028138,0.067885,0.102102,0.05945,0.03379,0.039229,3.23091,0.039371,0.03375,0.049101743,0.010384,0.153749286,0.043776,0.012722,0.012581,0.071338986,0.026978,0.026637,0.034930886,0.028184,0.049327,0.013608,0.026724371,1.716143444,1.944808222,0.085109,0.00295,0.003451
corona,0.05286272,-0.4249754,2.0863035,0.62215394,0.1510812,-1.015628,0.87343836,-0.9376745,0.03133435,-0.34890112,0.33391267,0.47773528,-0.6075711,0.36267108,-0.18031564,1,486000000,684853900,330700130,2000000000,49767150,-1,-1,-1,-1,-1,-1,545932,3059100,870109440,1.666,-1.2573086,0.16113806,1.4142821,2.0710564,0.964415,0.8234841,-0.8962326,-0.7110446,-1.0535107,-0.31601825,-0.63569605,0.76124257,0.10509434,0.45894417,0.37056145,0.016645,0.019877,0.024527,0.006581,0.007968,0.030293,0.033368,0.033437,0.014671,0.023515,0.017908,299.1543,0.088591,0.002123,0.058249,0.087846,0.04666,0.024956,0.043512,0.005047,0.043723,0.057832,0.034122,0.030034,0.049325,0.005318,0.045278,0.029901,0.041785,0.048773,0.059747,0.039036,0.253334,0.02844,0.013882,0.054099,0.028138,0.067885,0.102102,0.05945,0.03379,0.039229,3.23091,0.039371,0.03375,0.049101743,0.010384,0.153749286,0.043776,0.012722,0.012581,0.071338986,0.026978,0.026637,0.034930886,0.028184,0.049327,0.013608,0.026724371,1.716143444,1.944808222,0.085109,0.00295,0.003451
corona,0.05286272,-0.4249754,2.0863035,0.62215394,0.1510812,-1.015628,0.87343836,-0.9376745,0.03133435,-0.34890112,0.33391267,0.47773528,-0.6075711,0.36267108,-0.18031564,1,508000000,726176100,338210180,2068000000,47206816,-1,-1,-1,-1,-1,-1,541382,3059100,947133700,2.332,-1.2573086,0.16113806,1.4142821,2.0710564,0.964415,0.8234841,-0.8962326,-0.7110446,-1.0535107,-0.31601825,-0.63569605,0.76124257,0.10509434,0.45894417,0.37056145,0.016645,0.019877,0.024527,0.006581,0.007968,0.030293,0.033368,0.033437,0.014671,0.023515,0.017908,299.1543,0.088591,0.002123,0.058249,0.087846,0.04666,0.024956,0.043512,0.005047,0.043723,0.057832,0.034122,0.030034,0.049325,0.005318,0.045278,0.029901,0.041785,0.048773,0.059747,0.039036,0.253334,0.02844,0.013882,0.054099,0.028138,0.067885,0.102102,0.05945,0.03379,0.039229,3.23091,0.039371,0.03375,0.049101743,0.010384,0.153749286,0.043776,0.012722,0.012581,0.071338986,0.026978,0.026637,0.034930886,0.028184,0.049327,0.013608,0.026724371,1.716143444,1.944808222,0.085109,0.00295,0.003451
corona,0.05286272,-0.4249754,2.0863035,0.62215394,0.1510812,-1.015628,0.87343836,-0.9376745,0.03133435,-0.34890112,0.33391267,0.47773528,-0.6075711,0.36267108,-0.18031564,1,536000000,784392960,351720700,2166000000,51836890,-1,-1,-1,-1,-1,-1,541370,3059100,1023059700,2.2522523,-1.2573086,0.16113806,1.4142821,2.0710564,0.964415,0.8234841,-0.8962326,-0.7110446,-1.0535107,-0.31601825,-0.63569605,0.76124257,0.10509434,0.45894417,0.37056145,0.016645,0.019877,0.024527,0.006581,0.007968,0.030293,0.033368,0.033437,0.014671,0.023515,0.017908,299.1543,0.088591,0.002123,0.058249,0.087846,0.04666,0.024956,0.043512,0.005047,0.043723,0.057832,0.034122,0.030034,0.049325,0.005318,0.045278,0.029901,0.041785,0.048773,0.059747,0.039036,0.253334,0.02844,0.013882,0.054099,0.028138,0.067885,0.102102,0.05945,0.03379,0.039229,3.23091,0.039371,0.03375,0.049101743,0.010384,0.153749286,0.043776,0.012722,0.012581,0.071338986,0.026978,0.026637,0.034930886,0.028184,0.049327,0.013608,0.026724371,1.716143444,1.944808222,0.085109,0.00295,0.003451
corona,0.05286272,-0.4249754,2.0863035,0.62215394,0.1510812,-1.015628,0.87343836,-0.9376745,0.03133435,-0.34890112,0.33391267,0.47773528,-0.6075711,0.36267108,-0.18031564,1,556000000,847073600,367694430,2222000000,51663264,-1,-1,-1,-1,-1,-1,539850,3059100,1207978800,3.0030031,-1.2573086,0.16113806,1.4142821,2.0710564,0.964415,0.8234841,-0.8962326,-0.7110446,-1.0535107,-0.31601825,-0.63569605,0.76124257,0.10509434,0.45894417,0.37056145,0.016645,0.019877,0.024527,0.006581,0.007968,0.030293,0.033368,0.033437,0.014671,0.023515,0.017908,299.1543,0.088591,0.002123,0.058249,0.087846,0.04666,0.024956,0.043512,0.005047,0.043723,0.057832,0.034122,0.030034,0.049325,0.005318,0.045278,0.029901,0.041785,0.048773,0.059747,0.039036,0.253334,0.02844,0.013882,0.054099,0.028138,0.067885,0.102102,0.05945,0.03379,0.039229,3.23091,0.039371,0.03375,0.049101743,0.010384,0.153749286,0.043776,0.012722,0.012581,0.071338986,0.026978,0.026637,0.034930886,0.028184,0.049327,0.013608,0.026724371,1.716143444,1.944808222,0.085109,0.00295,0.003451
corona,0.05286272,-0.4249754,2.0863035,0.62215394,0.1510812,-1.015628,0.87343836,-0.9376745,0.03133435,-0.34890112,0.33391267,0.47773528,-0.6075711,0.36267108,-0.18031564,1,612000000,929183000,432996100,2480000000,73021600,-1,-1,-1,-1,-1,-1,547500,3059100,1525569700,1.7507508,-1.2573086,0.16113806,1.4142821,2.0710564,0.964415,0.8234841,-0.8962326,-0.7110446,-1.0535107,-0.31601825,-0.63569605,0.76124257,0.10509434,0.45894417,0.37056145,0.016645,0.019877,0.024527,0.006581,0.007968,0.030293,0.033368,0.033437,0.014671,0.023515,0.017908,299.1543,0.088591,0.002123,0.058249,0.087846,0.04666,0.024956,0.043512,0.005047,0.043723,0.057832,0.034122,0.030034,0.049325,0.005318,0.045278,0.029901,0.041785,0.048773,0.059747,0.039036,0.253334,0.02844,0.013882,0.054099,0.028138,0.067885,0.102102,0.05945,0.03379,0.039229,3.23091,0.039371,0.03375,0.049101743,0.010384,0.153749286,0.043776,0.012722,0.012581,0.071338986,0.026978,0.026637,0.034930886,0.028184,0.049327,0.013608,0.026724371,1.716143444,1.944808222,0.085109,0.00295,0.003451
corona,0.05286272,-0.4249754,2.0863035,0.62215394,0.1510812,-1.015628,0.87343836,-0.9376745,0.03133435,-0.34890112,0.33391267,0.47773528,-0.6075711,0.36267108,-0.18031564,1,644000000,996607040,445458720,2578000000,73795010,-1,-1,-1,-1,-1,-1,539850,3059100,1631137900,2.0015016,-1.2573086,0.16113806,1.4142821,2.0710564,0.964415,0.8234841,-0.8962326,-0.7110446,-1.0535107,-0.31601825,-0.63569605,0.76124257,0.10509434,0.45894417,0.37056145,0.016645,0.019877,0.024527,0.006581,0.007968,0.030293,0.033368,0.033437,0.014671,0.023515,0.017908,299.1543,0.088591,0.002123,0.058249,0.087846,0.04666,0.024956,0.043512,0.005047,0.043723,0.057832,0.034122,0.030034,0.049325,0.005318,0.045278,0.029901,0.041785,0.048773,0.059747,0.039036,0.253334,0.02844,0.013882,0.054099,0.028138,0.067885,0.102102,0.05945,0.03379,0.039229,3.23091,0.039371,0.03375,0.049101743,0.010384,0.153749286,0.043776,0.012722,0.012581,0.071338986,0.026978,0.026637,0.034930886,0.028184,0.049327,0.013608,0.026724371,1.716143444,1.944808222,0.085109,0.00295,0.003451
corona,0.05286272,-0.4249754,2.0863035,0.62215394,0.1510812,-1.015628,0.87343836,-0.9376745,0.03133435,-0.34890112,0.33391267,0.47773528,-0.6075711,0.36267108,-0.18031564,1,686000000,1079811500,464608130,2734000000,75424020,-1,-1,-1,-1,-1,-1,541382,3059100,1821254800,2.8007202,-1.2573086,0.16113806,1.4142821,2.0710564,0.964415,0.8234841,-0.8962326,-0.7110446,-1.0535107,-0.31601825,-0.63569605,0.76124257,0.10509434,0.45894417,0.37056145,0.016645,0.019877,0.024527,0.006581,0.007968,0.030293,0.033368,0.033437,0.014671,0.023515,0.017908,299.1543,0.088591,0.002123,0.058249,0.087846,0.04666,0.024956,0.043512,0.005047,0.043723,0.057832,0.034122,0.030034,0.049325,0.005318,0.045278,0.029901,0.041785,0.048773,0.059747,0.039036,0.253334,0.02844,0.013882,0.054099,0.028138,0.067885,0.102102,0.05945,0.03379,0.039229,3.23091,0.039371,0.03375,0.049101743,0.010384,0.153749286,0.043776,0.012722,0.012581,0.071338986,0.026978,0.026637,0.034930886,0.028184,0.049327,0.013608,0.026724371,1.716143444,1.944808222,0.085109,0.00295,0.003451
corona,0.05286272,-0.4249754,2.0863035,0.62215394,0.1510812,-1.015628,0.87343836,-0.9376745,0.03133435,-0.34890112,0.33391267,0.47773528,-0.6075711,0.36267108,-0.18031564,1,780000000,1257500300,497700670,3042000000,78550330,-1,-1,-1,-1,-1,-1,539862,3059100,2178134000,3.4009604,-1.2573086,0.16113806,1.4142821,2.0710564,0.964415,0.8234841,-0.8962326,-0.7110446,-1.0535107,-0.31601825,-0.63569605,0.76124257,0.10509434,0.45894417,0.37056145,0.016645,0.019877,0.024527,0.006581,0.007968,0.030293,0.033368,0.033437,0.014671,0.023515,0.017908,299.1543,0.088591,0.002123,0.058249,0.087846,0.04666,0.024956,0.043512,0.005047,0.043723,0.057832,0.034122,0.030034,0.049325,0.005318,0.045278,0.029901,0.041785,0.048773,0.059747,0.039036,0.253334,0.02844,0.013882,0.054099,0.028138,0.067885,0.102102,0.05945,0.03379,0.039229,3.23091,0.039371,0.03375,0.049101743,0.010384,0.153749286,0.043776,0.012722,0.012581,0.071338986,0.026978,0.026637,0.034930886,0.028184,0.049327,0.013608,0.026724371,1.716143444,1.944808222,0.085109,0.00295,0.003451
corona,0.05286272,-0.4249754,2.0863035,0.62215394,0.1510812,-1.015628,0.87343836,-0.9376745,0.03133435,-0.34890112,0.33391267,0.47773528,-0.6075711,0.36267108,-0.18031564,1,872000000,1428164200,535363400,3362000000,82826390,-1,-1,-1,-1,-1,-1,541418,3059100,2535405000,6.255255,-1.2573086,0.16113806,1.4142821,2.0710564,0.964415,0.8234841,-0.8962326,-0.7110446,-1.0535107,-0.31601825,-0.63569605,0.76124257,0.10509434,0.45894417,0.37056145,0.016645,0.019877,0.024527,0.006581,0.007968,0.030293,0.033368,0.033437,0.014671,0.023515,0.017908,299.1543,0.088591,0.002123,0.058249,0.087846,0.04666,0.024956,0.043512,0.005047,0.043723,0.057832,0.034122,0.030034,0.049325,0.005318,0.045278,0.029901,0.041785,0.048773,0.059747,0.039036,0.253334,0.02844,0.013882,0.054099,0.028138,0.067885,0.102102,0.05945,0.03379,0.039229,3.23091,0.039371,0.03375,0.049101743,0.010384,0.153749286,0.043776,0.012722,0.012581,0.071338986,0.026978,0.026637,0.034930886,0.028184,0.049327,0.013608,0.026724371,1.716143444,1.944808222,0.085109,0.00295,0.003451
corona,0.05286272,-0.4249754,2.0863035,0.62215394,0.1510812,-1.015628,0.87343836,-0.9376745,0.03133435,-0.34890112,0.33391267,0.47773528,-0.6075711,0.36267108,-0.18031564,1,414000000,576068900,274314240,1684000000,32434016,-1,-1,-1,-1,-1,-1,544458,3059100,571871400,1,-1.2573086,0.16113806,1.4142821,2.0710564,0.964415,0.8234841,-0.8962326,-0.7110446,-1.0535107,-0.31601825,-0.63569605,0.76124257,0.10509434,0.45894417,0.37056145,0.016645,0.019877,0.024527,0.006581,0.007968,0.030293,0.033368,0.033437,0.014671,0.023515,0.017908,299.1543,0.088591,0.002123,0.058249,0.087846,0.04666,0.024956,0.043512,0.005047,0.043723,0.057832,0.034122,0.030034,0.049325,0.005318,0.045278,0.029901,0.041785,0.048773,0.059747,0.039036,0.253334,0.02844,0.013882,0.054099,0.028138,0.067885,0.102102,0.05945,0.03379,0.039229,3.23091,0.039371,0.03375,0.049101743,0.010384,0.153749286,0.043776,0.012722,0.012581,0.071338986,0.026978,0.026637,0.034930886,0.028184,0.049327,0.013608,0.026724371,1.716143444,1.944808222,0.085109,0.00295,0.003451
corona,0.05286272,-0.4249754,2.0863035,0.62215394,0.1510812,-1.015628,0.87343836,-0.9376745,0.03133435,-0.34890112,0.33391267,0.47773528,-0.6075711,0.36267108,-0.18031564,1,418000000,587215170,277344320,1704000000,34404556,-1,-1,-1,-1,-1,-1,547498,3059100,580668400,1,-1.2573086,0.16113806,1.4142821,2.0710564,0.964415,0.8234841,-0.8962326,-0.7110446,-1.0535107,-0.31601825,-0.63569605,0.76124257,0.10509434,0.45894417,0.37056145,0.016645,0.019877,0.024527,0.006581,0.007968,0.030293,0.033368,0.033437,0.014671,0.023515,0.017908,299.1543,0.088591,0.002123,0.058249,0.087846,0.04666,0.024956,0.043512,0.005047,0.043723,0.057832,0.034122,0.030034,0.049325,0.005318,0.045278,0.029901,0.041785,0.048773,0.059747,0.039036,0.253334,0.02844,0.013882,0.054099,0.028138,0.067885,0.102102,0.05945,0.03379,0.039229,3.23091,0.039371,0.03375,0.049101743,0.010384,0.153749286,0.043776,0.012722,0.012581,0.071338986,0.026978,0.026637,0.034930886,0.028184,0.049327,0.013608,0.026724371,1.716143444,1.944808222,0.085109,0.00295,0.003451
corona,0.05286272,-0.4249754,2.0863035,0.62215394,0.1510812,-1.015628,0.87343836,-0.9376745,0.03133435,-0.34890112,0.33391267,0.47773528,-0.6075711,0.36267108,-0.18031564,1,426000000,599676500,279845630,1720000000,33473748,-1,-1,-1,-1,-1,-1,546002,3059100,615495600,1,-1.2573086,0.16113806,1.4142821,2.0710564,0.964415,0.8234841,-0.8962326,-0.7110446,-1.0535107,-0.31601825,-0.63569605,0.76124257,0.10509434,0.45894417,0.37056145,0.016645,0.019877,0.024527,0.006581,0.007968,0.030293,0.033368,0.033437,0.014671,0.023515,0.017908,299.1543,0.088591,0.002123,0.058249,0.087846,0.04666,0.024956,0.043512,0.005047,0.043723,0.057832,0.034122,0.030034,0.049325,0.005318,0.045278,0.029901,0.041785,0.048773,0.059747,0.039036,0.253334,0.02844,0.013882,0.054099,0.028138,0.067885,0.102102,0.05945,0.03379,0.039229,3.23091,0.039371,0.03375,0.049101743,0.010384,0.153749286,0.043776,0.012722,0.012581,0.071338986,0.026978,0.026637,0.034930886,0.028184,0.049327,0.013608,0.026724371,1.716143444,1.944808222,0.085109,0.00295,0.003451
corona,0.05286272,-0.4249754,2.0863035,0.62215394,0.1510812,-1.015628,0.87343836,-0.9376745,0.03133435,-0.34890112,0.33391267,0.47773528,-0.6075711,0.36267108,-0.18031564,1,440000000,632623600,287669500,1780000000,33886096,-1,-1,-1,-1,-1,-1,538318,3059100,683831500,1.666,-1.2573086,0.16113806,1.4142821,2.0710564,0.964415,0.8234841,-0.8962326,-0.7110446,-1.0535107,-0.31601825,-0.63569605,0.76124257,0.10509434,0.45894417,0.37056145,0.016645,0.019877,0.024527,0.006581,0.007968,0.030293,0.033368,0.033437,0.014671,0.023515,0.017908,299.1543,0.088591,0.002123,0.058249,0.087846,0.04666,0.024956,0.043512,0.005047,0.043723,0.057832,0.034122,0.030034,0.049325,0.005318,0.045278,0.029901,0.041785,0.048773,0.059747,0.039036,0.253334,0.02844,0.013882,0.054099,0.028138,0.067885,0.102102,0.05945,0.03379,0.039229,3.23091,0.039371,0.03375,0.049101743,0.010384,0.153749286,0.043776,0.012722,0.012581,0.071338986,0.026978,0.026637,0.034930886,0.028184,0.049327,0.013608,0.026724371,1.716143444,1.944808222,0.085109,0.00295,0.003451
corona,0.05286272,-0.4249754,2.0863035,0.62215394,0.1510812,-1.015628,0.87343836,-0.9376745,0.03133435,-0.34890112,0.33391267,0.47773528,-0.6075711,0.36267108,-0.18031564,1,448000000,655485200,295074900,1824000000,35553596,-1,-1,-1,-1,-1,-1,544470,3059100,710116600,2.332,-1.2573086,0.16113806,1.4142821,2.0710564,0.964415,0.8234841,-0.8962326,-0.7110446,-1.0535107,-0.31601825,-0.63569605,0.76124257,0.10509434,0.45894417,0.37056145,0.016645,0.019877,0.024527,0.006581,0.007968,0.030293,0.033368,0.033437,0.014671,0.023515,0.017908,299.1543,0.088591,0.002123,0.058249,0.087846,0.04666,0.024956,0.043512,0.005047,0.043723,0.057832,0.034122,0.030034,0.049325,0.005318,0.045278,0.029901,0.041785,0.048773,0.059747,0.039036,0.253334,0.02844,0.013882,0.054099,0.028138,0.067885,0.102102,0.05945,0.03379,0.039229,3.23091,0.039371,0.03375,0.049101743,0.010384,0.153749286,0.043776,0.012722,0.012581,0.071338986,0.026978,0.026637,0.034930886,0.028184,0.049327,0.013608,0.026724371,1.716143444,1.944808222,0.085109,0.00295,0.003451
corona,0.05286272,-0.4249754,2.0863035,0.62215394,0.1510812,-1.015628,0.87343836,-0.9376745,0.03133435,-0.34890112,0.33391267,0.47773528,-0.6075711,0.36267108,-0.18031564,1,792000000,1222144800,538836740,3194000000,97177064,-1,-1,-1,-1,-1,-1,539503,3059100,2053690200,2,-1.2573086,0.16113806,1.4142821,2.0710564,0.964415,0.8234841,-0.8962326,-0.7110446,-1.0535107,-0.31601825,-0.63569605,0.76124257,0.10509434,0.45894417,0.37056145,0.016645,0.019877,0.024527,0.006581,0.007968,0.030293,0.033368,0.033437,0.014671,0.023515,0.017908,299.1543,0.088591,0.002123,0.058249,0.087846,0.04666,0.024956,0.043512,0.005047,0.043723,0.057832,0.034122,0.030034,0.049325,0.005318,0.045278,0.029901,0.041785,0.048773,0.059747,0.039036,0.253334,0.02844,0.013882,0.054099,0.028138,0.067885,0.102102,0.05945,0.03379,0.039229,3.23091,0.039371,0.03375,0.049101743,0.010384,0.153749286,0.043776,0.012722,0.012581,0.071338986,0.026978,0.026637,0.034930886,0.028184,0.049327,0.013608,0.026724371,1.716143444,1.944808222,0.085109,0.00295,0.003451
corona,0.05286272,-0.4249754,2.0863035,0.62215394,0.1510812,-1.015628,0.87343836,-0.9376745,0.03133435,-0.34890112,0.33391267,0.47773528,-0.6075711,0.36267108,-0.18031564,1,814000000,1275019000,559641500,3294000000,109529000,-1,-1,-1,-1,-1,-1,547500,3059100,2195577000,2.7522523,-1.2573086,0.16113806,1.4142821,2.0710564,0.964415,0.8234841,-0.8962326,-0.7110446,-1.0535107,-0.31601825,-0.63569605,0.76124257,0.10509434,0.45894417,0.37056145,0.016645,0.019877,0.024527,0.006581,0.007968,0.030293,0.033368,0.033437,0.014671,0.023515,0.017908,299.1543,0.088591,0.002123,0.058249,0.087846,0.04666,0.024956,0.043512,0.005047,0.043723,0.057832,0.034122,0.030034,0.049325,0.005318,0.045278,0.029901,0.041785,0.048773,0.059747,0.039036,0.253334,0.02844,0.013882,0.054099,0.028138,0.067885,0.102102,0.05945,0.03379,0.039229,3.23091,0.039371,0.03375,0.049101743,0.010384,0.153749286,0.043776,0.012722,0.012581,0.071338986,0.026978,0.026637,0.034930886,0.028184,0.049327,0.013608,0.026724371,1.716143444,1.944808222,0.085109,0.00295,0.003451
corona,0.05286272,-0.4249754,2.0863035,0.62215394,0.1510812,-1.015628,0.87343836,-0.9376745,0.03133435,-0.34890112,0.33391267,0.47773528,-0.6075711,0.36267108,-0.18031564,1,862000000,1382127400,576568800,3420000000,99427544,-1,-1,-1,-1,-1,-1,541418,3059100,2402576000,3.2004802,-1.2573086,0.16113806,1.4142821,2.0710564,0.964415,0.8234841,-0.8962326,-0.7110446,-1.0535107,-0.31601825,-0.63569605,0.76124257,0.10509434,0.45894417,0.37056145,0.016645,0.019877,0.024527,0.006581,0.007968,0.030293,0.033368,0.033437,0.014671,0.023515,0.017908,299.1543,0.088591,0.002123,0.058249,0.087846,0.04666,0.024956,0.043512,0.005047,0.043723,0.057832,0.034122,0.030034,0.049325,0.005318,0.045278,0.029901,0.041785,0.048773,0.059747,0.039036,0.253334,0.02844,0.013882,0.054099,0.028138,0.067885,0.102102,0.05945,0.03379,0.039229,3.23091,0.039371,0.03375,0.049101743,0.010384,0.153749286,0.043776,0.012722,0.012581,0.071338986,0.026978,0.026637,0.034930886,0.028184,0.049327,0.013608,0.026724371,1.716143444,1.944808222,0.085109,0.00295,0.003451
corona,0.05286272,-0.4249754,2.0863035,0.62215394,0.1510812,-1.015628,0.87343836,-0.9376745,0.03133435,-0.34890112,0.33391267,0.47773528,-0.6075711,0.36267108,-0.18031564,1,946000000,1534210400,610951700,3732000000,103425410,-1,-1,-1,-1,-1,-1,547476,3059100,2714013400,3.8007202,-1.2573086,0.16113806,1.4142821,2.0710564,0.964415,0.8234841,-0.8962326,-0.7110446,-1.0535107,-0.31601825,-0.63569605,0.76124257,0.10509434,0.45894417,0.37056145,0.016645,0.019877,0.024527,0.006581,0.007968,0.030293,0.033368,0.033437,0.014671,0.023515,0.017908,299.1543,0.088591,0.002123,0.058249,0.087846,0.04666,0.024956,0.043512,0.005047,0.043723,0.057832,0.034122,0.030034,0.049325,0.005318,0.045278,0.029901,0.041785,0.048773,0.059747,0.039036,0.253334,0.02844,0.013882,0.054099,0.028138,0.067885,0.102102,0.05945,0.03379,0.039229,3.23091,0.039371,0.03375,0.049101743,0.010384,0.153749286,0.043776,0.012722,0.012581,0.071338986,0.026978,0.026637,0.034930886,0.028184,0.049327,0.013608,0.026724371,1.716143444,1.944808222,0.085109,0.00295,0.003451
corona,0.05286272,-0.4249754,2.0863035,0.62215394,0.1510812,-1.015628,0.87343836,-0.9376745,0.03133435,-0.34890112,0.33391267,0.47773528,-0.6075711,0.36267108,-0.18031564,1,1042000000,1696212400,653240800,4062000000,111006664,-1,-1,-1,-1,-1,-1,545932,3059100,3118026000,5.2016807,-1.2573086,0.16113806,1.4142821,2.0710564,0.964415,0.8234841,-0.8962326,-0.7110446,-1.0535107,-0.31601825,-0.63569605,0.76124257,0.10509434,0.45894417,0.37056145,0.016645,0.019877,0.024527,0.006581,0.007968,0.030293,0.033368,0.033437,0.014671,0.023515,0.017908,299.1543,0.088591,0.002123,0.058249,0.087846,0.04666,0.024956,0.043512,0.005047,0.043723,0.057832,0.034122,0.030034,0.049325,0.005318,0.045278,0.029901,0.041785,0.048773,0.059747,0.039036,0.253334,0.02844,0.013882,0.054099,0.028138,0.067885,0.102102,0.05945,0.03379,0.039229,3.23091,0.039371,0.03375,0.049101743,0.010384,0.153749286,0.043776,0.012722,0.012581,0.071338986,0.026978,0.026637,0.034930886,0.028184,0.049327,0.013608,0.026724371,1.716143444,1.944808222,0.085109,0.00295,0.003451
corona,0.05286272,-0.4249754,2.0863035,0.62215394,0.1510812,-1.015628,0.87343836,-0.9376745,0.03133435,-0.34890112,0.33391267,0.47773528,-0.6075711,0.36267108,-0.18031564,1,1166000000,1915629700,820052000,4654000000,6448774,-1,-1,-1,-1,-1,-1,546002,3059100,3901037300,3.0012004,-1.2573086,0.16113806,1.4142821,2.0710564,0.964415,0.8234841,-0.8962326,-0.7110446,-1.0535107,-0.31601825,-0.63569605,0.76124257,0.10509434,0.45894417,0.37056145,0.016645,0.019877,0.024527,0.006581,0.007968,0.030293,0.033368,0.033437,0.014671,0.023515,0.017908,299.1543,0.088591,0.002123,0.058249,0.087846,0.04666,0.024956,0.043512,0.005047,0.043723,0.057832,0.034122,0.030034,0.049325,0.005318,0.045278,0.029901,0.041785,0.048773,0.059747,0.039036,0.253334,0.02844,0.013882,0.054099,0.028138,0.067885,0.102102,0.05945,0.03379,0.039229,3.23091,0.039371,0.03375,0.049101743,0.010384,0.153749286,0.043776,0.012722,0.012581,0.071338986,0.026978,0.026637,0.034930886,0.028184,0.049327,0.013608,0.026724371,1.716143444,1.944808222,0.085109,0.00295,0.003451
corona,0.05286272,-0.4249754,2.0863035,0.62215394,0.1510812,-1.015628,0.87343836,-0.9376745,0.03133435,-0.34890112,0.33391267,0.47773528,-0.6075711,0.36267108,-0.18031564,1,1270000000,2098973300,851745540,4984000000,166613820,-1,-1,-1,-1,-1,-1,547474,3059100,4205516800,3.5,-1.2573086,0.16113806,1.4142821,2.0710564,0.964415,0.8234841,-0.8962326,-0.7110446,-1.0535107,-0.31601825,-0.63569605,0.76124257,0.10509434,0.45894417,0.37056145,0.016645,0.019877,0.024527,0.006581,0.007968,0.030293,0.033368,0.033437,0.014671,0.023515,0.017908,299.1543,0.088591,0.002123,0.058249,0.087846,0.04666,0.024956,0.043512,0.005047,0.043723,0.057832,0.034122,0.030034,0.049325,0.005318,0.045278,0.029901,0.041785,0.048773,0.059747,0.039036,0.253334,0.02844,0.013882,0.054099,0.028138,0.067885,0.102102,0.05945,0.03379,0.039229,3.23091,0.039371,0.03375,0.049101743,0.010384,0.153749286,0.043776,0.012722,0.012581,0.071338986,0.026978,0.026637,0.034930886,0.028184,0.049327,0.013608,0.026724371,1.716143444,1.944808222,0.085109,0.00295,0.003451
corona,0.05286272,-0.4249754,2.0863035,0.62215394,0.1510812,-1.015628,0.87343836,-0.9376745,0.03133435,-0.34890112,0.33391267,0.47773528,-0.6075711,0.36267108,-0.18031564,1,1382000000,2294008000,900311500,5376000000,172976600,-1,-1,-1,-1,-1,-1,538314,3059100,4681673700,5,-1.2573086,0.16113806,1.4142821,2.0710564,0.964415,0.8234841,-0.8962326,-0.7110446,-1.0535107,-0.31601825,-0.63569605,0.76124257,0.10509434,0.45894417,0.37056145,0.016645,0.019877,0.024527,0.006581,0.007968,0.030293,0.033368,0.033437,0.014671,0.023515,0.017908,299.1543,0.088591,0.002123,0.058249,0.087846,0.04666,0.024956,0.043512,0.005047,0.043723,0.057832,0.034122,0.030034,0.049325,0.005318,0.045278,0.029901,0.041785,0.048773,0.059747,0.039036,0.253334,0.02844,0.013882,0.054099,0.028138,0.067885,0.102102,0.05945,0.03379,0.039229,3.23091,0.039371,0.03375,0.049101743,0.010384,0.153749286,0.043776,0.012722,0.012581,0.071338986,0.026978,0.026637,0.034930886,0.028184,0.049327,0.013608,0.026724371,1.716143444,1.944808222,0.085109,0.00295,0.003451
corona,0.05286272,-0.4249754,2.0863035,0.62215394,0.1510812,-1.015628,0.87343836,-0.9376745,0.03133435,-0.34890112,0.33391267,0.47773528,-0.6075711,0.36267108,-0.18031564,1,1622000000,2780555800,992901100,6182000000,175076370,-1,-1,-1,-1,-1,-1,539838,3059100,5625177600,7.333,-1.2573086,0.16113806,1.4142821,2.0710564,0.964415,0.8234841,-0.8962326,-0.7110446,-1.0535107,-0.31601825,-0.63569605,0.76124257,0.10509434,0.45894417,0.37056145,0.016645,0.019877,0.024527,0.006581,0.007968,0.030293,0.033368,0.033437,0.014671,0.023515,0.017908,299.1543,0.088591,0.002123,0.058249,0.087846,0.04666,0.024956,0.043512,0.005047,0.043723,0.057832,0.034122,0.030034,0.049325,0.005318,0.045278,0.029901,0.041785,0.048773,0.059747,0.039036,0.253334,0.02844,0.013882,0.054099,0.028138,0.067885,0.102102,0.05945,0.03379,0.039229,3.23091,0.039371,0.03375,0.049101743,0.010384,0.153749286,0.043776,0.012722,0.012581,0.071338986,0.026978,0.026637,0.034930886,0.028184,0.049327,0.013608,0.026724371,1.716143444,1.944808222,0.085109,0.00295,0.003451
corona,0.05286272,-0.4249754,2.0863035,0.62215394,0.1510812,-1.015628,0.87343836,-0.9376745,0.03133435,-0.34890112,0.33391267,0.47773528,-0.6075711,0.36267108,-0.18031564,1,1880000000,3241205500,1090854300,7058000000,193253600,-1,-1,-1,-1,-1,-1,539850,3059100,6628128000,7.751688,-1.2573086,0.16113806,1.4142821,2.0710564,0.964415,0.8234841,-0.8962326,-0.7110446,-1.0535107,-0.31601825,-0.63569605,0.76124257,0.10509434,0.45894417,0.37056145,0.016645,0.019877,0.024527,0.006581,0.007968,0.030293,0.033368,0.033437,0.014671,0.023515,0.017908,299.1543,0.088591,0.002123,0.058249,0.087846,0.04666,0.024956,0.043512,0.005047,0.043723,0.057832,0.034122,0.030034,0.049325,0.005318,0.045278,0.029901,0.041785,0.048773,0.059747,0.039036,0.253334,0.02844,0.013882,0.054099,0.028138,0.067885,0.102102,0.05945,0.03379,0.039229,3.23091,0.039371,0.03375,0.049101743,0.010384,0.153749286,0.043776,0.012722,0.012581,0.071338986,0.026978,0.026637,0.034930886,0.028184,0.049327,0.013608,0.026724371,1.716143444,1.944808222,0.085109,0.00295,0.003451
corona,0.05286272,-0.4249754,2.0863035,0.62215394,0.1510812,-1.015628,0.87343836,-0.9376745,0.03133435,-0.34890112,0.33391267,0.47773528,-0.6075711,0.36267108,-0.18031564,1,644000000,983952500,408773800,2566000000,60473850,-1,-1,-1,-1,-1,-1,547522,3059100,1366218100,1,-1.2573086,0.16113806,1.4142821,2.0710564,0.964415,0.8234841,-0.8962326,-0.7110446,-1.0535107,-0.31601825,-0.63569605,0.76124257,0.10509434,0.45894417,0.37056145,0.016645,0.019877,0.024527,0.006581,0.007968,0.030293,0.033368,0.033437,0.014671,0.023515,0.017908,299.1543,0.088591,0.002123,0.058249,0.087846,0.04666,0.024956,0.043512,0.005047,0.043723,0.057832,0.034122,0.030034,0.049325,0.005318,0.045278,0.029901,0.041785,0.048773,0.059747,0.039036,0.253334,0.02844,0.013882,0.054099,0.028138,0.067885,0.102102,0.05945,0.03379,0.039229,3.23091,0.039371,0.03375,0.049101743,0.010384,0.153749286,0.043776,0.012722,0.012581,0.071338986,0.026978,0.026637,0.034930886,0.028184,0.049327,0.013608,0.026724371,1.716143444,1.944808222,0.085109,0.00295,0.003451
corona,0.05286272,-0.4249754,2.0863035,0.62215394,0.1510812,-1.015628,0.87343836,-0.9376745,0.03133435,-0.34890112,0.33391267,0.47773528,-0.6075711,0.36267108,-0.18031564,1,654000000,1009500350,418594370,2616000000,65530184,-1,-1,-1,-1,-1,-1,547488,3059100,1422250500,1.5015016,-1.2573086,0.16113806,1.4142821,2.0710564,0.964415,0.8234841,-0.8962326,-0.7110446,-1.0535107,-0.31601825,-0.63569605,0.76124257,0.10509434,0.45894417,0.37056145,0.016645,0.019877,0.024527,0.006581,0.007968,0.030293,0.033368,0.033437,0.014671,0.023515,0.017908,299.1543,0.088591,0.002123,0.058249,0.087846,0.04666,0.024956,0.043512,0.005047,0.043723,0.057832,0.034122,0.030034,0.049325,0.005318,0.045278,0.029901,0.041785,0.048773,0.059747,0.039036,0.253334,0.02844,0.013882,0.054099,0.028138,0.067885,0.102102,0.05945,0.03379,0.039229,3.23091,0.039371,0.03375,0.049101743,0.010384,0.153749286,0.043776,0.012722,0.012581,0.071338986,0.026978,0.026637,0.034930886,0.028184,0.049327,0.013608,0.026724371,1.716143444,1.944808222,0.085109,0.00295,0.003451
corona,0.05286272,-0.4249754,2.0863035,0.62215394,0.1510812,-1.015628,0.87343836,-0.9376745,0.03133435,-0.34890112,0.33391267,0.47773528,-0.6075711,0.36267108,-0.18031564,1,670000000,1030813800,423892160,2664000000,62147932,-1,-1,-1,-1,-1,-1,539850,3059100,1489514000,1.7507508,-1.2573086,0.16113806,1.4142821,2.0710564,0.964415,0.8234841,-0.8962326,-0.7110446,-1.0535107,-0.31601825,-0.63569605,0.76124257,0.10509434,0.45894417,0.37056145,0.016645,0.019877,0.024527,0.006581,0.007968,0.030293,0.033368,0.033437,0.014671,0.023515,0.017908,299.1543,0.088591,0.002123,0.058249,0.087846,0.04666,0.024956,0.043512,0.005047,0.043723,0.057832,0.034122,0.030034,0.049325,0.005318,0.045278,0.029901,0.041785,0.048773,0.059747,0.039036,0.253334,0.02844,0.013882,0.054099,0.028138,0.067885,0.102102,0.05945,0.03379,0.039229,3.23091,0.039371,0.03375,0.049101743,0.010384,0.153749286,0.043776,0.012722,0.012581,0.071338986,0.026978,0.026637,0.034930886,0.028184,0.049327,0.013608,0.026724371,1.716143444,1.944808222,0.085109,0.00295,0.003451
corona,0.05286272,-0.4249754,2.0863035,0.62215394,0.1510812,-1.015628,0.87343836,-0.9376745,0.03133435,-0.34890112,0.33391267,0.47773528,-0.6075711,0.36267108,-0.18031564,1,714000000,1126157800,443708200,2808000000,64389240,-1,-1,-1,-1,-1,-1,541382,3059100,1662189800,2.5015016,-1.2573086,0.16113806,1.4142821,2.0710564,0.964415,0.8234841,-0.8962326,-0.7110446,-1.0535107,-0.31601825,-0.63569605,0.76124257,0.10509434,0.45894417,0.37056145,0.016645,0.019877,0.024527,0.006581,0.007968,0.030293,0.033368,0.033437,0.014671,0.023515,0.017908,299.1543,0.088591,0.002123,0.058249,0.087846,0.04666,0.024956,0.043512,0.005047,0.043723,0.057832,0.034122,0.030034,0.049325,0.005318,0.045278,0.029901,0.041785,0.048773,0.059747,0.039036,0.253334,0.02844,0.013882,0.054099,0.028138,0.067885,0.102102,0.05945,0.03379,0.039229,3.23091,0.039371,0.03375,0.049101743,0.010384,0.153749286,0.043776,0.012722,0.012581,0.071338986,0.026978,0.026637,0.034930886,0.028184,0.049327,0.013608,0.026724371,1.716143444,1.944808222,0.085109,0.00295,0.003451
corona,0.05286272,-0.4249754,2.0863035,0.62215394,0.1510812,-1.015628,0.87343836,-0.9376745,0.03133435,-0.34890112,0.33391267,0.47773528,-0.6075711,0.36267108,-0.18031564,1,748000000,1192966400,465555900,2938000000,67332980,-1,-1,-1,-1,-1,-1,542519,3059100,1792636000,3.0030031,-1.2573086,0.16113806,1.4142821,2.0710564,0.964415,0.8234841,-0.8962326,-0.7110446,-1.0535107,-0.31601825,-0.63569605,0.76124257,0.10509434,0.45894417,0.37056145,0.016645,0.019877,0.024527,0.006581,0.007968,0.030293,0.033368,0.033437,0.014671,0.023515,0.017908,299.1543,0.088591,0.002123,0.058249,0.087846,0.04666,0.024956,0.043512,0.005047,0.043723,0.057832,0.034122,0.030034,0.049325,0.005318,0.045278,0.029901,0.041785,0.048773,0.059747,0.039036,0.253334,0.02844,0.013882,0.054099,0.028138,0.067885,0.102102,0.05945,0.03379,0.039229,3.23091,0.039371,0.03375,0.049101743,0.010384,0.153749286,0.043776,0.012722,0.012581,0.071338986,0.026978,0.026637,0.034930886,0.028184,0.049327,0.013608,0.026724371,1.716143444,1.944808222,0.085109,0.00295,0.003451
corona,0.05286272,-0.4249754,2.0863035,0.62215394,0.1510812,-1.015628,0.87343836,-0.9376745,0.03133435,-0.34890112,0.33391267,0.47773528,-0.6075711,0.36267108,-0.18031564,1,354000000,493846720,279894720,1574000000,39605520,-1,-1,-1,-1,-1,-1,538314,3059100,399880060,0.666,-1.2573086,0.16113806,1.4142821,2.0710564,0.964415,0.8234841,-0.8962326,-0.7110446,-1.0535107,-0.31601825,-0.63569605,0.76124257,0.10509434,0.45894417,0.37056145,0.016645,0.019877,0.024527,0.006581,0.007968,0.030293,0.033368,0.033437,0.014671,0.023515,0.017908,299.1543,0.088591,0.002123,0.058249,0.087846,0.04666,0.024956,0.043512,0.005047,0.043723,0.057832,0.034122,0.030034,0.049325,0.005318,0.045278,0.029901,0.041785,0.048773,0.059747,0.039036,0.253334,0.02844,0.013882,0.054099,0.028138,0.067885,0.102102,0.05945,0.03379,0.039229,3.23091,0.039371,0.03375,0.049101743,0.010384,0.153749286,0.043776,0.012722,0.012581,0.071338986,0.026978,0.026637,0.034930886,0.028184,0.049327,0.013608,0.026724371,1.716143444,1.944808222,0.085109,0.00295,0.003451
corona,0.05286272,-0.4249754,2.0863035,0.62215394,0.1510812,-1.015628,0.87343836,-0.9376745,0.03133435,-0.34890112,0.33391267,0.47773528,-0.6075711,0.36267108,-0.18031564,1,356000000,499089570,282694050,1584000000,41836132,-1,-1,-1,-1,-1,-1,547476,3059100,412190700,1,-1.2573086,0.16113806,1.4142821,2.0710564,0.964415,0.8234841,-0.8962326,-0.7110446,-1.0535107,-0.31601825,-0.63569605,0.76124257,0.10509434,0.45894417,0.37056145,0.016645,0.019877,0.024527,0.006581,0.007968,0.030293,0.033368,0.033437,0.014671,0.023515,0.017908,299.1543,0.088591,0.002123,0.058249,0.087846,0.04666,0.024956,0.043512,0.005047,0.043723,0.057832,0.034122,0.030034,0.049325,0.005318,0.045278,0.029901,0.041785,0.048773,0.059747,0.039036,0.253334,0.02844,0.013882,0.054099,0.028138,0.067885,0.102102,0.05945,0.03379,0.039229,3.23091,0.039371,0.03375,0.049101743,0.010384,0.153749286,0.043776,0.012722,0.012581,0.071338986,0.026978,0.026637,0.034930886,0.028184,0.049327,0.013608,0.026724371,1.716143444,1.944808222,0.085109,0.00295,0.003451
corona,0.05286272,-0.4249754,2.0863035,0.62215394,0.1510812,-1.015628,0.87343836,-0.9376745,0.03133435,-0.34890112,0.33391267,0.47773528,-0.6075711,0.36267108,-0.18031564,1,374000000,516175680,285882900,1666000000,40470504,-1,-1,-1,-1,-1,-1,539850,3059100,444753900,1.332,-1.2573086,0.16113806,1.4142821,2.0710564,0.964415,0.8234841,-0.8962326,-0.7110446,-1.0535107,-0.31601825,-0.63569605,0.76124257,0.10509434,0.45894417,0.37056145,0.016645,0.019877,0.024527,0.006581,0.007968,0.030293,0.033368,0.033437,0.014671,0.023515,0.017908,299.1543,0.088591,0.002123,0.058249,0.087846,0.04666,0.024956,0.043512,0.005047,0.043723,0.057832,0.034122,0.030034,0.049325,0.005318,0.045278,0.029901,0.041785,0.048773,0.059747,0.039036,0.253334,0.02844,0.013882,0.054099,0.028138,0.067885,0.102102,0.05945,0.03379,0.039229,3.23091,0.039371,0.03375,0.049101743,0.010384,0.153749286,0.043776,0.012722,0.012581,0.071338986,0.026978,0.026637,0.034930886,0.028184,0.049327,0.013608,0.026724371,1.716143444,1.944808222,0.085109,0.00295,0.003451
corona,0.05286272,-0.4249754,2.0863035,0.62215394,0.1510812,-1.015628,0.87343836,-0.9376745,0.03133435,-0.34890112,0.33391267,0.47773528,-0.6075711,0.36267108,-0.18031564,1,382000000,1,289134140,1696000000,41058084,-1,-1,-1,-1,-1,-1,541382,3059100,481578400,1.666,-1.2573086,0.16113806,1.4142821,2.0710564,0.964415,0.8234841,-0.8962326,-0.7110446,-1.0535107,-0.31601825,-0.63569605,0.76124257,0.10509434,0.45894417,0.37056145,0.016645,0.019877,0.024527,0.006581,0.007968,0.030293,0.033368,0.033437,0.014671,0.023515,0.017908,299.1543,0.088591,0.002123,0.058249,0.087846,0.04666,0.024956,0.043512,0.005047,0.043723,0.057832,0.034122,0.030034,0.049325,0.005318,0.045278,0.029901,0.041785,0.048773,0.059747,0.039036,0.253334,0.02844,0.013882,0.054099,0.028138,0.067885,0.102102,0.05945,0.03379,0.039229,3.23091,0.039371,0.03375,0.049101743,0.010384,0.153749286,0.043776,0.012722,0.012581,0.071338986,0.026978,0.026637,0.034930886,0.028184,0.049327,0.013608,0.026724371,1.716143444,1.944808222,0.085109,0.00295,0.003451
corona,0.05286272,-0.4249754,2.0863035,0.62215394,0.1510812,-1.015628,0.87343836,-0.9376745,0.03133435,-0.34890112,0.33391267,0.47773528,-0.6075711,0.36267108,-0.18031564,1,396000000,549908740,295014100,1736000000,42129216,-1,-1,-1,-1,-1,-1,547522,3059100,532821380,1.666,-1.2573086,0.16113806,1.4142821,2.0710564,0.964415,0.8234841,-0.8962326,-0.7110446,-1.0535107,-0.31601825,-0.63569605,0.76124257,0.10509434,0.45894417,0.37056145,0.016645,0.019877,0.024527,0.006581,0.007968,0.030293,0.033368,0.033437,0.014671,0.023515,0.017908,299.1543,0.088591,0.002123,0.058249,0.087846,0.04666,0.024956,0.043512,0.005047,0.043723,0.057832,0.034122,0.030034,0.049325,0.005318,0.045278,0.029901,0.041785,0.048773,0.059747,0.039036,0.253334,0.02844,0.013882,0.054099,0.028138,0.067885,0.102102,0.05945,0.03379,0.039229,3.23091,0.039371,0.03375,0.049101743,0.010384,0.153749286,0.043776,0.012722,0.012581,0.071338986,0.026978,0.026637,0.034930886,0.028184,0.049327,0.013608,0.026724371,1.716143444,1.944808222,0.085109,0.00295,0.003451
corona,0.05286272,-0.4249754,2.0863035,0.62215394,0.1510812,-1.015628,0.87343836,-0.9376745,0.03133435,-0.34890112,0.33391267,0.47773528,-0.6075711,0.36267108,-0.18031564,1,414000000,629778750,368388450,1922000000,60454344,-1,-1,-1,-1,-1,-1,542519,3059100,807397600,1.332,-1.2573086,0.16113806,1.4142821,2.0710564,0.964415,0.8234841,-0.8962326,-0.7110446,-1.0535107,-0.31601825,-0.63569605,0.76124257,0.10509434,0.45894417,0.37056145,0.016645,0.019877,0.024527,0.006581,0.007968,0.030293,0.033368,0.033437,0.014671,0.023515,0.017908,299.1543,0.088591,0.002123,0.058249,0.087846,0.04666,0.024956,0.043512,0.005047,0.043723,0.057832,0.034122,0.030034,0.049325,0.005318,0.045278,0.029901,0.041785,0.048773,0.059747,0.039036,0.253334,0.02844,0.013882,0.054099,0.028138,0.067885,0.102102,0.05945,0.03379,0.039229,3.23091,0.039371,0.03375,0.049101743,0.010384,0.153749286,0.043776,0.012722,0.012581,0.071338986,0.026978,0.026637,0.034930886,0.028184,0.049327,0.013608,0.026724371,1.716143444,1.944808222,0.085109,0.00295,0.003451
corona,0.05286272,-0.4249754,2.0863035,0.62215394,0.1510812,-1.015628,0.87343836,-0.9376745,0.03133435,-0.34890112,0.33391267,0.47773528,-0.6075711,0.36267108,-0.18031564,1,426000000,646638400,373582600,1956000000,61694036,-1,-1,-1,-1,-1,-1,539850,3059100,855340300,1,-1.2573086,0.16113806,1.4142821,2.0710564,0.964415,0.8234841,-0.8962326,-0.7110446,-1.0535107,-0.31601825,-0.63569605,0.76124257,0.10509434,0.45894417,0.37056145,0.016645,0.019877,0.024527,0.006581,0.007968,0.030293,0.033368,0.033437,0.014671,0.023515,0.017908,299.1543,0.088591,0.002123,0.058249,0.087846,0.04666,0.024956,0.043512,0.005047,0.043723,0.057832,0.034122,0.030034,0.049325,0.005318,0.045278,0.029901,0.041785,0.048773,0.059747,0.039036,0.253334,0.02844,0.013882,0.054099,0.028138,0.067885,0.102102,0.05945,0.03379,0.039229,3.23091,0.039371,0.03375,0.049101743,0.010384,0.153749286,0.043776,0.012722,0.012581,0.071338986,0.026978,0.026637,0.034930886,0.028184,0.049327,0.013608,0.026724371,1.716143444,1.944808222,0.085109,0.00295,0.003451
corona,0.05286272,-0.4249754,2.0863035,0.62215394,0.1510812,-1.015628,0.87343836,-0.9376745,0.03133435,-0.34890112,0.33391267,0.47773528,-0.6075711,0.36267108,-0.18031564,1,440000000,680455200,379862430,2004000000,60034468,-1,-1,-1,-1,-1,-1,547486,3059100,904646100,1.5015016,-1.2573086,0.16113806,1.4142821,2.0710564,0.964415,0.8234841,-0.8962326,-0.7110446,-1.0535107,-0.31601825,-0.63569605,0.76124257,0.10509434,0.45894417,0.37056145,0.016645,0.019877,0.024527,0.006581,0.007968,0.030293,0.033368,0.033437,0.014671,0.023515,0.017908,299.1543,0.088591,0.002123,0.058249,0.087846,0.04666,0.024956,0.043512,0.005047,0.043723,0.057832,0.034122,0.030034,0.049325,0.005318,0.045278,0.029901,0.041785,0.048773,0.059747,0.039036,0.253334,0.02844,0.013882,0.054099,0.028138,0.067885,0.102102,0.05945,0.03379,0.039229,3.23091,0.039371,0.03375,0.049101743,0.010384,0.153749286,0.043776,0.012722,0.012581,0.071338986,0.026978,0.026637,0.034930886,0.028184,0.049327,0.013608,0.026724371,1.716143444,1.944808222,0.085109,0.00295,0.003451
corona,0.05286272,-0.4249754,2.0863035,0.62215394,0.1510812,-1.015628,0.87343836,-0.9376745,0.03133435,-0.34890112,0.33391267,0.47773528,-0.6075711,0.36267108,-0.18031564,1,466000000,726535000,389061470,2094000000,63707080,-1,-1,-1,-1,-1,-1,547500,3059100,1012230660,2.332,-1.2573086,0.16113806,1.4142821,2.0710564,0.964415,0.8234841,-0.8962326,-0.7110446,-1.0535107,-0.31601825,-0.63569605,0.76124257,0.10509434,0.45894417,0.37056145,0.016645,0.019877,0.024527,0.006581,0.007968,0.030293,0.033368,0.033437,0.014671,0.023515,0.017908,299.1543,0.088591,0.002123,0.058249,0.087846,0.04666,0.024956,0.043512,0.005047,0.043723,0.057832,0.034122,0.030034,0.049325,0.005318,0.045278,0.029901,0.041785,0.048773,0.059747,0.039036,0.253334,0.02844,0.013882,0.054099,0.028138,0.067885,0.102102,0.05945,0.03379,0.039229,3.23091,0.039371,0.03375,0.049101743,0.010384,0.153749286,0.043776,0.012722,0.012581,0.071338986,0.026978,0.026637,0.034930886,0.028184,0.049327,0.013608,0.026724371,1.716143444,1.944808222,0.085109,0.00295,0.003451
corona,0.05286272,-0.4249754,2.0863035,0.62215394,0.1510812,-1.015628,0.87343836,-0.9376745,0.03133435,-0.34890112,0.33391267,0.47773528,-0.6075711,0.36267108,-0.18031564,1,502000000,788183550,402032740,2218000000,63144172,-1,-1,-1,-1,-1,-1,547488,3059100,1149759500,2.5015016,-1.2573086,0.16113806,1.4142821,2.0710564,0.964415,0.8234841,-0.8962326,-0.7110446,-1.0535107,-0.31601825,-0.63569605,0.76124257,0.10509434,0.45894417,0.37056145,0.016645,0.019877,0.024527,0.006581,0.007968,0.030293,0.033368,0.033437,0.014671,0.023515,0.017908,299.1543,0.088591,0.002123,0.058249,0.087846,0.04666,0.024956,0.043512,0.005047,0.043723,0.057832,0.034122,0.030034,0.049325,0.005318,0.045278,0.029901,0.041785,0.048773,0.059747,0.039036,0.253334,0.02844,0.013882,0.054099,0.028138,0.067885,0.102102,0.05945,0.03379,0.039229,3.23091,0.039371,0.03375,0.049101743,0.010384,0.153749286,0.043776,0.012722,0.012581,0.071338986,0.026978,0.026637,0.034930886,0.028184,0.049327,0.013608,0.026724371,1.716143444,1.944808222,0.085109,0.00295,0.003451
corona,0.05286272,-0.4249754,2.0863035,0.62215394,0.1510812,-1.015628,0.87343836,-0.9376745,0.03133435,-0.34890112,0.33391267,0.47773528,-0.6075711,0.36267108,-0.18031564,1,332000000,445901100,242795340,1424000000,29930676,-1,-1,-1,-1,-1,-1,547115,3059100,274677920,1,-1.2573086,0.16113806,1.4142821,2.0710564,0.964415,0.8234841,-0.8962326,-0.7110446,-1.0535107,-0.31601825,-0.63569605,0.76124257,0.10509434,0.45894417,0.37056145,0.016645,0.019877,0.024527,0.006581,0.007968,0.030293,0.033368,0.033437,0.014671,0.023515,0.017908,299.1543,0.088591,0.002123,0.058249,0.087846,0.04666,0.024956,0.043512,0.005047,0.043723,0.057832,0.034122,0.030034,0.049325,0.005318,0.045278,0.029901,0.041785,0.048773,0.059747,0.039036,0.253334,0.02844,0.013882,0.054099,0.028138,0.067885,0.102102,0.05945,0.03379,0.039229,3.23091,0.039371,0.03375,0.049101743,0.010384,0.153749286,0.043776,0.012722,0.012581,0.071338986,0.026978,0.026637,0.034930886,0.028184,0.049327,0.013608,0.026724371,1.716143444,1.944808222,0.085109,0.00295,0.003451
corona,0.05286272,-0.4249754,2.0863035,0.62215394,0.1510812,-1.015628,0.87343836,-0.9376745,0.03133435,-0.34890112,0.33391267,0.47773528,-0.6075711,0.36267108,-0.18031564,1,330000000,446517440,243857540,1432000000,30562266,-1,-1,-1,-1,-1,-1,547498,3059100,277673570,0.666,-1.2573086,0.16113806,1.4142821,2.0710564,0.964415,0.8234841,-0.8962326,-0.7110446,-1.0535107,-0.31601825,-0.63569605,0.76124257,0.10509434,0.45894417,0.37056145,0.016645,0.019877,0.024527,0.006581,0.007968,0.030293,0.033368,0.033437,0.014671,0.023515,0.017908,299.1543,0.088591,0.002123,0.058249,0.087846,0.04666,0.024956,0.043512,0.005047,0.043723,0.057832,0.034122,0.030034,0.049325,0.005318,0.045278,0.029901,0.041785,0.048773,0.059747,0.039036,0.253334,0.02844,0.013882,0.054099,0.028138,0.067885,0.102102,0.05945,0.03379,0.039229,3.23091,0.039371,0.03375,0.049101743,0.010384,0.153749286,0.043776,0.012722,0.012581,0.071338986,0.026978,0.026637,0.034930886,0.028184,0.049327,0.013608,0.026724371,1.716143444,1.944808222,0.085109,0.00295,0.003451
corona,0.05286272,-0.4249754,2.0863035,0.62215394,0.1510812,-1.015628,0.87343836,-0.9376745,0.03133435,-0.34890112,0.33391267,0.47773528,-0.6075711,0.36267108,-0.18031564,1,334000000,450440930,243771900,1434000000,28813644,-1,-1,-1,-1,-1,-1,547498,3059100,284592320,0.7507508,-1.2573086,0.16113806,1.4142821,2.0710564,0.964415,0.8234841,-0.8962326,-0.7110446,-1.0535107,-0.31601825,-0.63569605,0.76124257,0.10509434,0.45894417,0.37056145,0.016645,0.019877,0.024527,0.006581,0.007968,0.030293,0.033368,0.033437,0.014671,0.023515,0.017908,299.1543,0.088591,0.002123,0.058249,0.087846,0.04666,0.024956,0.043512,0.005047,0.043723,0.057832,0.034122,0.030034,0.049325,0.005318,0.045278,0.029901,0.041785,0.048773,0.059747,0.039036,0.253334,0.02844,0.013882,0.054099,0.028138,0.067885,0.102102,0.05945,0.03379,0.039229,3.23091,0.039371,0.03375,0.049101743,0.010384,0.153749286,0.043776,0.012722,0.012581,0.071338986,0.026978,0.026637,0.034930886,0.028184,0.049327,0.013608,0.026724371,1.716143444,1.944808222,0.085109,0.00295,0.003451
corona,0.05286272,-0.4249754,2.0863035,0.62215394,0.1510812,-1.015628,0.87343836,-0.9376745,0.03133435,-0.34890112,0.33391267,0.47773528,-0.6075711,0.36267108,-0.18031564,1,340000000,464589920,246763940,1456000000,29359766,-1,-1,-1,-1,-1,-1,547486,3059100,310541280,1,-1.2573086,0.16113806,1.4142821,2.0710564,0.964415,0.8234841,-0.8962326,-0.7110446,-1.0535107,-0.31601825,-0.63569605,0.76124257,0.10509434,0.45894417,0.37056145,0.016645,0.019877,0.024527,0.006581,0.007968,0.030293,0.033368,0.033437,0.014671,0.023515,0.017908,299.1543,0.088591,0.002123,0.058249,0.087846,0.04666,0.024956,0.043512,0.005047,0.043723,0.057832,0.034122,0.030034,0.049325,0.005318,0.045278,0.029901,0.041785,0.048773,0.059747,0.039036,0.253334,0.02844,0.013882,0.054099,0.028138,0.067885,0.102102,0.05945,0.03379,0.039229,3.23091,0.039371,0.03375,0.049101743,0.010384,0.153749286,0.043776,0.012722,0.012581,0.071338986,0.026978,0.026637,0.034930886,0.028184,0.049327,0.013608,0.026724371,1.716143444,1.944808222,0.085109,0.00295,0.003451
corona,0.05286272,-0.4249754,2.0863035,0.62215394,0.1510812,-1.015628,0.87343836,-0.9376745,0.03133435,-0.34890112,0.33391267,0.47773528,-0.6075711,0.36267108,-0.18031564,1,340000000,467912200,249225400,1460000000,28944092,-1,-1,-1,-1,-1,-1,538330,3059100,321609540,1,-1.2573086,0.16113806,1.4142821,2.0710564,0.964415,0.8234841,-0.8962326,-0.7110446,-1.0535107,-0.31601825,-0.63569605,0.76124257,0.10509434,0.45894417,0.37056145,0.016645,0.019877,0.024527,0.006581,0.007968,0.030293,0.033368,0.033437,0.014671,0.023515,0.017908,299.1543,0.088591,0.002123,0.058249,0.087846,0.04666,0.024956,0.043512,0.005047,0.043723,0.057832,0.034122,0.030034,0.049325,0.005318,0.045278,0.029901,0.041785,0.048773,0.059747,0.039036,0.253334,0.02844,0.013882,0.054099,0.028138,0.067885,0.102102,0.05945,0.03379,0.039229,3.23091,0.039371,0.03375,0.049101743,0.010384,0.153749286,0.043776,0.012722,0.012581,0.071338986,0.026978,0.026637,0.034930886,0.028184,0.049327,0.013608,0.026724371,1.716143444,1.944808222,0.085109,0.00295,0.003451
corona,0.05286272,-0.4249754,2.0863035,0.62215394,0.1510812,-1.015628,0.87343836,-0.9376745,0.03133435,-0.34890112,0.33391267,0.47773528,-0.6075711,0.36267108,-0.18031564,1,350000000,447441660,238604510,1464000000,26016440,-1,-1,-1,-1,-1,-1,539850,3059100,331314660,0.666,-1.2573086,0.16113806,1.4142821,2.0710564,0.964415,0.8234841,-0.8962326,-0.7110446,-1.0535107,-0.31601825,-0.63569605,0.76124257,0.10509434,0.45894417,0.37056145,0.016645,0.019877,0.024527,0.006581,0.007968,0.030293,0.033368,0.033437,0.014671,0.023515,0.017908,299.1543,0.088591,0.002123,0.058249,0.087846,0.04666,0.024956,0.043512,0.005047,0.043723,0.057832,0.034122,0.030034,0.049325,0.005318,0.045278,0.029901,0.041785,0.048773,0.059747,0.039036,0.253334,0.02844,0.013882,0.054099,0.028138,0.067885,0.102102,0.05945,0.03379,0.039229,3.23091,0.039371,0.03375,0.049101743,0.010384,0.153749286,0.043776,0.012722,0.012581,0.071338986,0.026978,0.026637,0.034930886,0.028184,0.049327,0.013608,0.026724371,1.716143444,1.944808222,0.085109,0.00295,0.003451
corona,0.05286272,-0.4249754,2.0863035,0.62215394,0.1510812,-1.015628,0.87343836,-0.9376745,0.03133435,-0.34890112,0.33391267,0.47773528,-0.6075711,0.36267108,-0.18031564,1,354000000,453934820,239997570,1482000000,27261216,-1,-1,-1,-1,-1,-1,547115,3059100,347410430,1,-1.2573086,0.16113806,1.4142821,2.0710564,0.964415,0.8234841,-0.8962326,-0.7110446,-1.0535107,-0.31601825,-0.63569605,0.76124257,0.10509434,0.45894417,0.37056145,0.016645,0.019877,0.024527,0.006581,0.007968,0.030293,0.033368,0.033437,0.014671,0.023515,0.017908,299.1543,0.088591,0.002123,0.058249,0.087846,0.04666,0.024956,0.043512,0.005047,0.043723,0.057832,0.034122,0.030034,0.049325,0.005318,0.045278,0.029901,0.041785,0.048773,0.059747,0.039036,0.253334,0.02844,0.013882,0.054099,0.028138,0.067885,0.102102,0.05945,0.03379,0.039229,3.23091,0.039371,0.03375,0.049101743,0.010384,0.153749286,0.043776,0.012722,0.012581,0.071338986,0.026978,0.026637,0.034930886,0.028184,0.049327,0.013608,0.026724371,1.716143444,1.944808222,0.085109,0.00295,0.003451
corona,0.05286272,-0.4249754,2.0863035,0.62215394,0.1510812,-1.015628,0.87343836,-0.9376745,0.03133435,-0.34890112,0.33391267,0.47773528,-0.6075711,0.36267108,-0.18031564,1,348000000,465834530,244115120,1446000000,26843284,-1,-1,-1,-1,-1,-1,547488,3059100,372357570,1,-1.2573086,0.16113806,1.4142821,2.0710564,0.964415,0.8234841,-0.8962326,-0.7110446,-1.0535107,-0.31601825,-0.63569605,0.76124257,0.10509434,0.45894417,0.37056145,0.016645,0.019877,0.024527,0.006581,0.007968,0.030293,0.033368,0.033437,0.014671,0.023515,0.017908,299.1543,0.088591,0.002123,0.058249,0.087846,0.04666,0.024956,0.043512,0.005047,0.043723,0.057832,0.034122,0.030034,0.049325,0.005318,0.045278,0.029901,0.041785,0.048773,0.059747,0.039036,0.253334,0.02844,0.013882,0.054099,0.028138,0.067885,0.102102,0.05945,0.03379,0.039229,3.23091,0.039371,0.03375,0.049101743,0.010384,0.153749286,0.043776,0.012722,0.012581,0.071338986,0.026978,0.026637,0.034930886,0.028184,0.049327,0.013608,0.026724371,1.716143444,1.944808222,0.085109,0.00295,0.003451
corona,0.05286272,-0.4249754,2.0863035,0.62215394,0.1510812,-1.015628,0.87343836,-0.9376745,0.03133435,-0.34890112,0.33391267,0.47773528,-0.6075711,0.36267108,-0.18031564,1,368000000,485929250,248281980,1532000000,26966356,-1,-1,-1,-1,-1,-1,538330,3059100,408670370,1.332,-1.2573086,0.16113806,1.4142821,2.0710564,0.964415,0.8234841,-0.8962326,-0.7110446,-1.0535107,-0.31601825,-0.63569605,0.76124257,0.10509434,0.45894417,0.37056145,0.016645,0.019877,0.024527,0.006581,0.007968,0.030293,0.033368,0.033437,0.014671,0.023515,0.017908,299.1543,0.088591,0.002123,0.058249,0.087846,0.04666,0.024956,0.043512,0.005047,0.043723,0.057832,0.034122,0.030034,0.049325,0.005318,0.045278,0.029901,0.041785,0.048773,0.059747,0.039036,0.253334,0.02844,0.013882,0.054099,0.028138,0.067885,0.102102,0.05945,0.03379,0.039229,3.23091,0.039371,0.03375,0.049101743,0.010384,0.153749286,0.043776,0.012722,0.012581,0.071338986,0.026978,0.026637,0.034930886,0.028184,0.049327,0.013608,0.026724371,1.716143444,1.944808222,0.085109,0.00295,0.003451
corona,0.05286272,-0.4249754,2.0863035,0.62215394,0.1510812,-1.015628,0.87343836,-0.9376745,0.03133435,-0.34890112,0.33391267,0.47773528,-0.6075711,0.36267108,-0.18031564,1,382000000,506185860,253269470,1576000000,27559372,-1,-1,-1,-1,-1,-1,539850,3059100,455857760,1.332,-1.2573086,0.16113806,1.4142821,2.0710564,0.964415,0.8234841,-0.8962326,-0.7110446,-1.0535107,-0.31601825,-0.63569605,0.76124257,0.10509434,0.45894417,0.37056145,0.016645,0.019877,0.024527,0.006581,0.007968,0.030293,0.033368,0.033437,0.014671,0.023515,0.017908,299.1543,0.088591,0.002123,0.058249,0.087846,0.04666,0.024956,0.043512,0.005047,0.043723,0.057832,0.034122,0.030034,0.049325,0.005318,0.045278,0.029901,0.041785,0.048773,0.059747,0.039036,0.253334,0.02844,0.013882,0.054099,0.028138,0.067885,0.102102,0.05945,0.03379,0.039229,3.23091,0.039371,0.03375,0.049101743,0.010384,0.153749286,0.043776,0.012722,0.012581,0.071338986,0.026978,0.026637,0.034930886,0.028184,0.049327,0.013608,0.026724371,1.716143444,1.944808222,0.085109,0.00295,0.003451
corona,0.05286272,-0.4249754,2.0863035,0.62215394,0.1510812,-1.015628,0.87343836,-0.9376745,0.03133435,-0.34890112,0.33391267,0.47773528,-0.6075711,0.36267108,-0.18031564,1,386000000,533114660,276865820,1604000000,35569210,-1,-1,-1,-1,-1,-1,541382,3059100,551439040,0.7507508,-1.2573086,0.16113806,1.4142821,2.0710564,0.964415,0.8234841,-0.8962326,-0.7110446,-1.0535107,-0.31601825,-0.63569605,0.76124257,0.10509434,0.45894417,0.37056145,0.016645,0.019877,0.024527,0.006581,0.007968,0.030293,0.033368,0.033437,0.014671,0.023515,0.017908,299.1543,0.088591,0.002123,0.058249,0.087846,0.04666,0.024956,0.043512,0.005047,0.043723,0.057832,0.034122,0.030034,0.049325,0.005318,0.045278,0.029901,0.041785,0.048773,0.059747,0.039036,0.253334,0.02844,0.013882,0.054099,0.028138,0.067885,0.102102,0.05945,0.03379,0.039229,3.23091,0.039371,0.03375,0.049101743,0.010384,0.153749286,0.043776,0.012722,0.012581,0.071338986,0.026978,0.026637,0.034930886,0.028184,0.049327,0.013608,0.026724371,1.716143444,1.944808222,0.085109,0.00295,0.003451
