app,0,1,2,3,4,5,6,7,8,9,10,11,12,13,14,15,16,17,18,19,20,21,22,23,24,25,26,27,28,29,30,31,32,33,34,35,36,37,38,39,40,41,42,43,44,45,46,47,48,49,50,51,52,53,54,55,56,57,58,59,60,61,62,63,64,65,66,67,68,69
laghos,0.88929427,-0.5182339,-0.5869975,-0.589442,-1.2725917,0.08548911,-0.75516546,0.30359837,1.6834247,-0.34467933,-0.46534017,1.3830808,1.6031401,0.056520257,-1.0630301,-0.87785405,-0.3847221,-1.5369655,0.38475043,-0.546278,-0.63543504,-0.5528128,-0.45101488,0.69964397,-1.7143122,0.34076217,0.56163126,-0.45601144,0.27431947,-1.6238325,-0.78328234,-1.361828,-0.9945032,0.521746,0.866287,-0.34742653,0.34942904,0.93809146,0.20099588,-2.8789864,1.1502329,-2.0570774,1.026937,0.46194518,-0.54968834,0.73804986,-0.69576204,0.018364731,0.6836089,-0.5383473,0.05,2426000000.0,3356000000.0,968000000.0,11516000000.0,32000000.0,12000000.0,0.0,0.0,1556948.0,1461157400.0,1076277800.0,37771.0,2190229.0,116000000.0,1.765572,,,,1.234428
laghos,0.88929427,-0.5182339,-0.5869975,-0.589442,-1.2725917,0.08548911,-0.75516546,0.30359837,1.6834247,-0.34467933,-0.46534017,1.3830808,1.6031401,0.056520257,-1.0630301,-0.87785405,-0.3847221,-1.5369655,0.38475043,-0.546278,-0.63543504,-0.5528128,-0.45101488,0.69964397,-1.7143122,0.34076217,0.56163126,-0.45601144,0.27431947,-1.6238325,-0.78328234,-1.361828,-0.9945032,0.521746,0.866287,-0.34742653,0.34942904,0.93809146,0.20099588,-2.8789864,1.1502329,-2.0570774,1.026937,0.46194518,-0.54968834,0.73804986,-0.69576204,0.018364731,0.6836089,-0.5383473,0.05,2426000000.0,3356000000.0,968000000.0,11516000000.0,32000000.0,12000000.0,0.0,0.0,1556449.0,1460442900.0,1077872400.0,37771.0,2190229.0,116000000.0,1.771501,,,,1.228499
laghos,0.88929427,-0.5182339,-0.5869975,-0.589442,-1.2725917,0.08548911,-0.75516546,0.30359837,1.6834247,-0.34467933,-0.46534017,1.3830808,1.6031401,0.056520257,-1.0630301,-0.87785405,-0.3847221,-1.5369655,0.38475043,-0.546278,-0.63543504,-0.5528128,-0.45101488,0.69964397,-1.7143122,0.34076217,0.56163126,-0.45601144,0.27431947,-1.6238325,-0.78328234,-1.361828,-0.9945032,0.521746,0.866287,-0.34742653,0.34942904,0.93809146,0.20099588,-2.8789864,1.1502329,-2.0570774,1.026937,0.46194518,-0.54968834,0.73804986,-0.69576204,0.018364731,0.6836089,-0.5383473,0.0666,2792000000.0,3862000000.0,1114000000.0,13250000000.0,26000000.0,16000000.0,0.0,0.0,1789740.0,1680159200.0,1238203100.0,37771.0,2193037.0,140000000.0,2.025196,,,,1.970804
laghos,0.88929427,-0.5182339,-0.5869975,-0.589442,-1.2725917,0.08548911,-0.75516546,0.30359837,1.6834247,-0.34467933,-0.46534017,1.3830808,1.6031401,0.056520257,-1.0630301,-0.87785405,-0.3847221,-1.5369655,0.38475043,-0.546278,-0.63543504,-0.5528128,-0.45101488,0.69964397,-1.7143122,0.34076217,0.56163126,-0.45601144,0.27431947,-1.6238325,-0.78328234,-1.361828,-0.9945032,0.521746,0.866287,-0.34742653,0.34942904,0.93809146,0.20099588,-2.8789864,1.1502329,-2.0570774,1.026937,0.46194518,-0.54968834,0.73804986,-0.69576204,0.018364731,0.6836089,-0.5383473,0.0666,2792000000.0,3862000000.0,1108000000.0,13250000000.0,38000000.0,14000000.0,0.0,0.0,1790082.0,1681196800.0,1238368900.0,37771.0,2193037.0,136000000.0,2.0196,,,,1.9764
laghos,0.88929427,-0.5182339,-0.5869975,-0.589442,-1.2725917,0.08548911,-0.75516546,0.30359837,1.6834247,-0.34467933,-0.46534017,1.3830808,1.6031401,0.056520257,-1.0630301,-0.87785405,-0.3847221,-1.5369655,0.38475043,-0.546278,-0.63543504,-0.5528128,-0.45101488,0.69964397,-1.7143122,0.34076217,0.56163126,-0.45601144,0.27431947,-1.6238325,-0.78328234,-1.361828,-0.9945032,0.521746,0.866287,-0.34742653,0.34942904,0.93809146,0.20099588,-2.8789864,1.1502329,-2.0570774,1.026937,0.46194518,-0.54968834,0.73804986,-0.69576204,0.018364731,0.6836089,-0.5383473,0.0666,3154000000.0,4360000000.0,1258000000.0,14964000000.0,30000000.0,16000000.0,0.0,0.0,2021762.0,1896564600.0,1396403700.0,37771.0,2195719.0,150000000.0,2.276205,,,,1.719795
laghos,0.88929427,-0.5182339,-0.5869975,-0.589442,-1.2725917,0.08548911,-0.75516546,0.30359837,1.6834247,-0.34467933,-0.46534017,1.3830808,1.6031401,0.056520257,-1.0630301,-0.87785405,-0.3847221,-1.5369655,0.38475043,-0.546278,-0.63543504,-0.5528128,-0.45101488,0.69964397,-1.7143122,0.34076217,0.56163126,-0.45601144,0.27431947,-1.6238325,-0.78328234,-1.361828,-0.9945032,0.521746,0.866287,-0.34742653,0.34942904,0.93809146,0.20099588,-2.8789864,1.1502329,-2.0570774,1.026937,0.46194518,-0.54968834,0.73804986,-0.69576204,0.018364731,0.6836089,-0.5383473,0.0666,3152000000.0,4358000000.0,1258000000.0,14960000000.0,30000000.0,18000000.0,0.0,0.0,2022435.0,1897379700.0,1397572100.0,37771.0,2195719.0,142000000.0,2.260415,,,,1.735585
laghos,0.88929427,-0.5182339,-0.5869975,-0.589442,-1.2725917,0.08548911,-0.75516546,0.30359837,1.6834247,-0.34467933,-0.46534017,1.3830808,1.6031401,0.056520257,-1.0630301,-0.87785405,-0.3847221,-1.5369655,0.38475043,-0.546278,-0.63543504,-0.5528128,-0.45101488,0.69964397,-1.7143122,0.34076217,0.56163126,-0.45601144,0.27431947,-1.6238325,-0.78328234,-1.361828,-0.9945032,0.521746,0.866287,-0.34742653,0.34942904,0.93809146,0.20099588,-2.8789864,1.1502329,-2.0570774,1.026937,0.46194518,-0.54968834,0.73804986,-0.69576204,0.018364731,0.6836089,-0.5383473,0.0666,3434000000.0,4746000000.0,1368000000.0,16294000000.0,36000000.0,18000000.0,0.0,0.0,2202499.0,2065152500.0,1520600600.0,37771.0,2197853.0,170000000.0,2.663958,,,,1.332042
laghos,0.88929427,-0.5182339,-0.5869975,-0.589442,-1.2725917,0.08548911,-0.75516546,0.30359837,1.6834247,-0.34467933,-0.46534017,1.3830808,1.6031401,0.056520257,-1.0630301,-0.87785405,-0.3847221,-1.5369655,0.38475043,-0.546278,-0.63543504,-0.5528128,-0.45101488,0.69964397,-1.7143122,0.34076217,0.56163126,-0.45601144,0.27431947,-1.6238325,-0.78328234,-1.361828,-0.9945032,0.521746,0.866287,-0.34742653,0.34942904,0.93809146,0.20099588,-2.8789864,1.1502329,-2.0570774,1.026937,0.46194518,-0.54968834,0.73804986,-0.69576204,0.018364731,0.6836089,-0.5383473,0.0666,3434000000.0,4746000000.0,1368000000.0,16292000000.0,32000000.0,20000000.0,0.0,0.0,2202362.0,2065422000.0,1520506000.0,37771.0,2197855.0,172000000.0,2.466709,,,,1.529291
laghos,0.88929427,-0.5182339,-0.5869975,-0.589442,-1.2725917,0.08548911,-0.75516546,0.30359837,1.6834247,-0.34467933,-0.46534017,1.3830808,1.6031401,0.056520257,-1.0630301,-0.87785405,-0.3847221,-1.5369655,0.38475043,-0.546278,-0.63543504,-0.5528128,-0.45101488,0.69964397,-1.7143122,0.34076217,0.56163126,-0.45601144,0.27431947,-1.6238325,-0.78328234,-1.361828,-0.9945032,0.521746,0.866287,-0.34742653,0.34942904,0.93809146,0.20099588,-2.8789864,1.1502329,-2.0570774,1.026937,0.46194518,-0.54968834,0.73804986,-0.69576204,0.018364731,0.6836089,-0.5383473,0.0666,3640000000.0,5040000000.0,1452000000.0,17290000000.0,42000000.0,18000000.0,2000000.0,0.0,2337750.0,2193318000.0,1615712500.0,37771.0,2199440.0,180000000.0,2.644668,,,,1.351332
laghos,0.88929427,-0.5182339,-0.5869975,-0.589442,-1.2725917,0.08548911,-0.75516546,0.30359837,1.6834247,-0.34467933,-0.46534017,1.3830808,1.6031401,0.056520257,-1.0630301,-0.87785405,-0.3847221,-1.5369655,0.38475043,-0.546278,-0.63543504,-0.5528128,-0.45101488,0.69964397,-1.7143122,0.34076217,0.56163126,-0.45601144,0.27431947,-1.6238325,-0.78328234,-1.361828,-0.9945032,0.521746,0.866287,-0.34742653,0.34942904,0.93809146,0.20099588,-2.8789864,1.1502329,-2.0570774,1.026937,0.46194518,-0.54968834,0.73804986,-0.69576204,0.018364731,0.6836089,-0.5383473,0.0833,3644000000.0,5036000000.0,1450000000.0,17290000000.0,34000000.0,18000000.0,0.0,0.0,2338564.0,2191995100.0,1614181100.0,37771.0,2199439.0,178000000.0,2.629778,,,,2.368222
laghos,0.88929427,-0.5182339,-0.5869975,-0.589442,-1.2725917,0.08548911,-0.75516546,0.30359837,1.6834247,-0.34467933,-0.46534017,1.3830808,1.6031401,0.056520257,-1.0630301,-0.87785405,-0.3847221,-1.5369655,0.38475043,-0.546278,-0.63543504,-0.5528128,-0.45101488,0.69964397,-1.7143122,0.34076217,0.56163126,-0.45601144,0.27431947,-1.6238325,-0.78328234,-1.361828,-0.9945032,0.521746,0.866287,-0.34742653,0.34942904,0.93809146,0.20099588,-2.8789864,1.1502329,-2.0570774,1.026937,0.46194518,-0.54968834,0.73804986,-0.69576204,0.018364731,0.6836089,-0.5383473,0.0666,3788000000.0,5244000000.0,1512000000.0,17994000000.0,50000000.0,20000000.0,0.0,0.0,2430175.0,2282039300.0,1680659600.0,37771.0,2200601.0,186000000.0,2.711485,,,,1.284515
laghos,0.88929427,-0.5182339,-0.5869975,-0.589442,-1.2725917,0.08548911,-0.75516546,0.30359837,1.6834247,-0.34467933,-0.46534017,1.3830808,1.6031401,0.056520257,-1.0630301,-0.87785405,-0.3847221,-1.5369655,0.38475043,-0.546278,-0.63543504,-0.5528128,-0.45101488,0.69964397,-1.7143122,0.34076217,0.56163126,-0.45601144,0.27431947,-1.6238325,-0.78328234,-1.361828,-0.9945032,0.521746,0.866287,-0.34742653,0.34942904,0.93809146,0.20099588,-2.8789864,1.1502329,-2.0570774,1.026937,0.46194518,-0.54968834,0.73804986,-0.69576204,0.018364731,0.6836089,-0.5383473,0.0666,3792000000.0,5244000000.0,1514000000.0,17998000000.0,44000000.0,20000000.0,2000000.0,0.0,2431784.0,2282041900.0,1681138700.0,37771.0,2200600.0,186000000.0,2.703367,,,,1.292633
laghos,0.88929427,-0.5182339,-0.5869975,-0.589442,-1.2725917,0.08548911,-0.75516546,0.30359837,1.6834247,-0.34467933,-0.46534017,1.3830808,1.6031401,0.056520257,-1.0630301,-0.87785405,-0.3847221,-1.5369655,0.38475043,-0.546278,-0.63543504,-0.5528128,-0.45101488,0.69964397,-1.7143122,0.34076217,0.56163126,-0.45601144,0.27431947,-1.6238325,-0.78328234,-1.361828,-0.9945032,0.521746,0.866287,-0.34742653,0.34942904,0.93809146,0.20099588,-2.8789864,1.1502329,-2.0570774,1.026937,0.46194518,-0.54968834,0.73804986,-0.69576204,0.018364731,0.6836089,-0.5383473,0.1833,8200000000.0,19434000000.0,6256000000.0,59954000000.0,202000000.0,160000000.0,6000000.0,4000000.0,3259234.0,11407388000.0,8376314400.0,37771.0,2205834.0,912000000.0,8.763434,,,,2.234566
laghos,0.88929427,-0.5182339,-0.5869975,-0.589442,-1.2725917,0.08548911,-0.75516546,0.30359837,1.6834247,-0.34467933,-0.46534017,1.3830808,1.6031401,0.056520257,-1.0630301,-0.87785405,-0.3847221,-1.5369655,0.38475043,-0.546278,-0.63543504,-0.5528128,-0.45101488,0.69964397,-1.7143122,0.34076217,0.56163126,-0.45601144,0.27431947,-1.6238325,-0.78328234,-1.361828,-0.9945032,0.521746,0.866287,-0.34742653,0.34942904,0.93809146,0.20099588,-2.8789864,1.1502329,-2.0570774,1.026937,0.46194518,-0.54968834,0.73804986,-0.69576204,0.018364731,0.6836089,-0.5383473,0.4666,22753063000.0,35795186000.0,12467125000.0,96878060000.0,77000000.0,32125000.0,12562500.0,8687500.0,12734.5625,361169570.0,5501768700.0,69873.94,2107283.2,1029437500.0,7.0566287,,,,20.939371
laghos,0.88929427,-0.5182339,-0.5869975,-0.589442,-1.2725917,0.08548911,-0.75516546,0.30359837,1.6834247,-0.34467933,-0.46534017,1.3830808,1.6031401,0.056520257,-1.0630301,-0.87785405,-0.3847221,-1.5369655,0.38475043,-0.546278,-0.63543504,-0.5528128,-0.45101488,0.69964397,-1.7143122,0.34076217,0.56163126,-0.45601144,0.27431947,-1.6238325,-0.78328234,-1.361828,-0.9945032,0.521746,0.866287,-0.34742653,0.34942904,0.93809146,0.20099588,-2.8789864,1.1502329,-2.0570774,1.026937,0.46194518,-0.54968834,0.73804986,-0.69576204,0.018364731,0.6836089,-0.5383473,0.1833,8204000000.0,19430000000.0,6256000000.0,59958000000.0,202000000.0,164000000.0,6000000.0,4000000.0,3259806.0,11407505000.0,8373560000.0,37771.0,2205834.0,916000000.0,8.836722,,,,2.161278
laghos,0.88929427,-0.5182339,-0.5869975,-0.589442,-1.2725917,0.08548911,-0.75516546,0.30359837,1.6834247,-0.34467933,-0.46534017,1.3830808,1.6031401,0.056520257,-1.0630301,-0.87785405,-0.3847221,-1.5369655,0.38475043,-0.546278,-0.63543504,-0.5528128,-0.45101488,0.69964397,-1.7143122,0.34076217,0.56163126,-0.45601144,0.27431947,-1.6238325,-0.78328234,-1.361828,-0.9945032,0.521746,0.866287,-0.34742653,0.34942904,0.93809146,0.20099588,-2.8789864,1.1502329,-2.0570774,1.026937,0.46194518,-0.54968834,0.73804986,-0.69576204,0.018364731,0.6836089,-0.5383473,0.55,24537188000.0,38530437000.0,13353062000.0,104000000000.0,76500000.0,32812500.0,12500000.0,8625000.0,12854.594,361168480.0,5647633000.0,69874.91,2107283.2,1022625000.0,7.0627847,,,,25.937216
laghos,0.88929427,-0.5182339,-0.5869975,-0.589442,-1.2725917,0.08548911,-0.75516546,0.30359837,1.6834247,-0.34467933,-0.46534017,1.3830808,1.6031401,0.056520257,-1.0630301,-0.87785405,-0.3847221,-1.5369655,0.38475043,-0.546278,-0.63543504,-0.5528128,-0.45101488,0.69964397,-1.7143122,0.34076217,0.56163126,-0.45601144,0.27431947,-1.6238325,-0.78328234,-1.361828,-0.9945032,0.521746,0.866287,-0.34742653,0.34942904,0.93809146,0.20099588,-2.8789864,1.1502329,-2.0570774,1.026937,0.46194518,-0.54968834,0.73804986,-0.69576204,0.018364731,0.6836089,-0.5383473,0.1833,8434000000.0,19982000000.0,6430000000.0,61650000000.0,158000000.0,164000000.0,6000000.0,4000000.0,3351149.0,11738570000.0,8619168000.0,37771.0,2206811.0,906000000.0,9.042081,,,,1.955919
laghos,0.88929427,-0.5182339,-0.5869975,-0.589442,-1.2725917,0.08548911,-0.75516546,0.30359837,1.6834247,-0.34467933,-0.46534017,1.3830808,1.6031401,0.056520257,-1.0630301,-0.87785405,-0.3847221,-1.5369655,0.38475043,-0.546278,-0.63543504,-0.5528128,-0.45101488,0.69964397,-1.7143122,0.34076217,0.56163126,-0.45601144,0.27431947,-1.6238325,-0.78328234,-1.361828,-0.9945032,0.521746,0.866287,-0.34742653,0.34942904,0.93809146,0.20099588,-2.8789864,1.1502329,-2.0570774,1.026937,0.46194518,-0.54968834,0.73804986,-0.69576204,0.018364731,0.6836089,-0.5383473,0.2,8436000000.0,19982000000.0,6428000000.0,61650000000.0,156000000.0,164000000.0,6000000.0,4000000.0,3352208.0,11739221000.0,8612430000.0,37771.0,2206811.0,920000000.0,8.973249,,,,3.026751
laghos,0.88929427,-0.5182339,-0.5869975,-0.589442,-1.2725917,0.08548911,-0.75516546,0.30359837,1.6834247,-0.34467933,-0.46534017,1.3830808,1.6031401,0.056520257,-1.0630301,-0.87785405,-0.3847221,-1.5369655,0.38475043,-0.546278,-0.63543504,-0.5528128,-0.45101488,0.69964397,-1.7143122,0.34076217,0.56163126,-0.45601144,0.27431947,-1.6238325,-0.78328234,-1.361828,-0.9945032,0.521746,0.866287,-0.34742653,0.34942904,0.93809146,0.20099588,-2.8789864,1.1502329,-2.0570774,1.026937,0.46194518,-0.54968834,0.73804986,-0.69576204,0.018364731,0.6836089,-0.5383473,0.2,8656000000.0,20510000000.0,6600000000.0,63296000000.0,174000000.0,168000000.0,8000000.0,4000000.0,3441544.0,12054555000.0,8845605000.0,37771.0,2207787.0,926000000.0,9.568805,,,,2.431195
laghos,0.88929427,-0.5182339,-0.5869975,-0.589442,-1.2725917,0.08548911,-0.75516546,0.30359837,1.6834247,-0.34467933,-0.46534017,1.3830808,1.6031401,0.056520257,-1.0630301,-0.87785405,-0.3847221,-1.5369655,0.38475043,-0.546278,-0.63543504,-0.5528128,-0.45101488,0.69964397,-1.7143122,0.34076217,0.56163126,-0.45601144,0.27431947,-1.6238325,-0.78328234,-1.361828,-0.9945032,0.521746,0.866287,-0.34742653,0.34942904,0.93809146,0.20099588,-2.8789864,1.1502329,-2.0570774,1.026937,0.46194518,-0.54968834,0.73804986,-0.69576204,0.018364731,0.6836089,-0.5383473,0.2,8656000000.0,20514000000.0,6602000000.0,63300000000.0,160000000.0,168000000.0,6000000.0,4000000.0,3441253.0,12055276000.0,8843460000.0,37771.0,2207787.0,930000000.0,9.947772,,,,2.052228
laghos,0.88929427,-0.5182339,-0.5869975,-0.589442,-1.2725917,0.08548911,-0.75516546,0.30359837,1.6834247,-0.34467933,-0.46534017,1.3830808,1.6031401,0.056520257,-1.0630301,-0.87785405,-0.3847221,-1.5369655,0.38475043,-0.546278,-0.63543504,-0.5528128,-0.45101488,0.69964397,-1.7143122,0.34076217,0.56163126,-0.45601144,0.27431947,-1.6238325,-0.78328234,-1.361828,-0.9945032,0.521746,0.866287,-0.34742653,0.34942904,0.93809146,0.20099588,-2.8789864,1.1502329,-2.0570774,1.026937,0.46194518,-0.54968834,0.73804986,-0.69576204,0.018364731,0.6836089,-0.5383473,0.2,8884000000.0,21048000000.0,6776000000.0,64954000000.0,194000000.0,172000000.0,8000000.0,6000000.0,3530031.0,12369803000.0,9079542000.0,37771.0,2208763.0,998000000.0,9.526539,,,,2.473461
laghos,0.88929427,-0.5182339,-0.5869975,-0.589442,-1.2725917,0.08548911,-0.75516546,0.30359837,1.6834247,-0.34467933,-0.46534017,1.3830808,1.6031401,0.056520257,-1.0630301,-0.87785405,-0.3847221,-1.5369655,0.38475043,-0.546278,-0.63543504,-0.5528128,-0.45101488,0.69964397,-1.7143122,0.34076217,0.56163126,-0.45601144,0.27431947,-1.6238325,-0.78328234,-1.361828,-0.9945032,0.521746,0.866287,-0.34742653,0.34942904,0.93809146,0.20099588,-2.8789864,1.1502329,-2.0570774,1.026937,0.46194518,-0.54968834,0.73804986,-0.69576204,0.018364731,0.6836089,-0.5383473,0.1833,8882000000.0,21050000000.0,6776000000.0,64954000000.0,220000000.0,172000000.0,8000000.0,4000000.0,3530903.0,12370920000.0,9081306000.0,37771.0,2208763.0,992000000.0,10.018331,,,,0.979669
laghos,0.88929427,-0.5182339,-0.5869975,-0.589442,-1.2725917,0.08548911,-0.75516546,0.30359837,1.6834247,-0.34467933,-0.46534017,1.3830808,1.6031401,0.056520257,-1.0630301,-0.87785405,-0.3847221,-1.5369655,0.38475043,-0.546278,-0.63543504,-0.5528128,-0.45101488,0.69964397,-1.7143122,0.34076217,0.56163126,-0.45601144,0.27431947,-1.6238325,-0.78328234,-1.361828,-0.9945032,0.521746,0.866287,-0.34742653,0.34942904,0.93809146,0.20099588,-2.8789864,1.1502329,-2.0570774,1.026937,0.46194518,-0.54968834,0.73804986,-0.69576204,0.018364731,0.6836089,-0.5383473,0.2333,9120000000.0,21602000000.0,6956000000.0,66652000000.0,174000000.0,176000000.0,8000000.0,6000000.0,3621742.0,12694755000.0,9315031000.0,37771.0,2209678.0,986000000.0,9.750921,,,,4.247079
laghos,0.88929427,-0.5182339,-0.5869975,-0.589442,-1.2725917,0.08548911,-0.75516546,0.30359837,1.6834247,-0.34467933,-0.46534017,1.3830808,1.6031401,0.056520257,-1.0630301,-0.87785405,-0.3847221,-1.5369655,0.38475043,-0.546278,-0.63543504,-0.5528128,-0.45101488,0.69964397,-1.7143122,0.34076217,0.56163126,-0.45601144,0.27431947,-1.6238325,-0.78328234,-1.361828,-0.9945032,0.521746,0.866287,-0.34742653,0.34942904,0.93809146,0.20099588,-2.8789864,1.1502329,-2.0570774,1.026937,0.46194518,-0.54968834,0.73804986,-0.69576204,0.018364731,0.6836089,-0.5383473,0.2166,9114000000.0,21602000000.0,6950000000.0,66644000000.0,180000000.0,176000000.0,8000000.0,6000000.0,3622301.0,12692280000.0,9315450000.0,37771.0,2209678.0,1006000000.0,9.985573,,,,3.010427
laghos,0.88929427,-0.5182339,-0.5869975,-0.589442,-1.2725917,0.08548911,-0.75516546,0.30359837,1.6834247,-0.34467933,-0.46534017,1.3830808,1.6031401,0.056520257,-1.0630301,-0.87785405,-0.3847221,-1.5369655,0.38475043,-0.546278,-0.63543504,-0.5528128,-0.45101488,0.69964397,-1.7143122,0.34076217,0.56163126,-0.45601144,0.27431947,-1.6238325,-0.78328234,-1.361828,-0.9945032,0.521746,0.866287,-0.34742653,0.34942904,0.93809146,0.20099588,-2.8789864,1.1502329,-2.0570774,1.026937,0.46194518,-0.54968834,0.73804986,-0.69576204,0.018364731,0.6836089,-0.5383473,0.2333,9346000000.0,22146000000.0,7130000000.0,68328000000.0,176000000.0,186000000.0,8000000.0,6000000.0,3713148.0,13003335000.0,9548959000.0,37771.0,2210655.0,1052000000.0,9.9214,,,,4.0766
laghos,0.88929427,-0.5182339,-0.5869975,-0.589442,-1.2725917,0.08548911,-0.75516546,0.30359837,1.6834247,-0.34467933,-0.46534017,1.3830808,1.6031401,0.056520257,-1.0630301,-0.87785405,-0.3847221,-1.5369655,0.38475043,-0.546278,-0.63543504,-0.5528128,-0.45101488,0.69964397,-1.7143122,0.34076217,0.56163126,-0.45601144,0.27431947,-1.6238325,-0.78328234,-1.361828,-0.9945032,0.521746,0.866287,-0.34742653,0.34942904,0.93809146,0.20099588,-2.8789864,1.1502329,-2.0570774,1.026937,0.46194518,-0.54968834,0.73804986,-0.69576204,0.018364731,0.6836089,-0.5383473,0.5666,26936687000.0,42333688000.0,14706500000.0,115000000000.0,88875000.0,37750000.0,14687500.0,10000000.0,12281.0625,411652380.0,6290330000.0,69867.91,2107433.8,1161312500.0,8.146281,,,,25.849718
laghos,0.88929427,-0.5182339,-0.5869975,-0.589442,-1.2725917,0.08548911,-0.75516546,0.30359837,1.6834247,-0.34467933,-0.46534017,1.3830808,1.6031401,0.056520257,-1.0630301,-0.87785405,-0.3847221,-1.5369655,0.38475043,-0.546278,-0.63543504,-0.5528128,-0.45101488,0.69964397,-1.7143122,0.34076217,0.56163126,-0.45601144,0.27431947,-1.6238325,-0.78328234,-1.361828,-0.9945032,0.521746,0.866287,-0.34742653,0.34942904,0.93809146,0.20099588,-2.8789864,1.1502329,-2.0570774,1.026937,0.46194518,-0.54968834,0.73804986,-0.69576204,0.018364731,0.6836089,-0.5383473,0.2166,9346000000.0,22142000000.0,7130000000.0,68326000000.0,232000000.0,186000000.0,8000000.0,6000000.0,3713446.0,13005317000.0,9545360000.0,37771.0,2210655.0,1064000000.0,10.460112,,,,2.535888
laghos,0.88929427,-0.5182339,-0.5869975,-0.589442,-1.2725917,0.08548911,-0.75516546,0.30359837,1.6834247,-0.34467933,-0.46534017,1.3830808,1.6031401,0.056520257,-1.0630301,-0.87785405,-0.3847221,-1.5369655,0.38475043,-0.546278,-0.63543504,-0.5528128,-0.45101488,0.69964397,-1.7143122,0.34076217,0.56163126,-0.45601144,0.27431947,-1.6238325,-0.78328234,-1.361828,-0.9945032,0.521746,0.866287,-0.34742653,0.34942904,0.93809146,0.20099588,-2.8789864,1.1502329,-2.0570774,1.026937,0.46194518,-0.54968834,0.73804986,-0.69576204,0.018364731,0.6836089,-0.5383473,0.5666,27875437000.0,43774500000.0,15174375000.0,118000000000.0,89937500.0,39125000.0,14437500.0,10000000.0,12395.375,411638700.0,6379871000.0,69874.91,2107434.0,1161187500.0,8.280307,,,,25.715693
laghos,0.88929427,-0.5182339,-0.5869975,-0.589442,-1.2725917,0.08548911,-0.75516546,0.30359837,1.6834247,-0.34467933,-0.46534017,1.3830808,1.6031401,0.056520257,-1.0630301,-0.87785405,-0.3847221,-1.5369655,0.38475043,-0.546278,-0.63543504,-0.5528128,-0.45101488,0.69964397,-1.7143122,0.34076217,0.56163126,-0.45601144,0.27431947,-1.6238325,-0.78328234,-1.361828,-0.9945032,0.521746,0.866287,-0.34742653,0.34942904,0.93809146,0.20099588,-2.8789864,1.1502329,-2.0570774,1.026937,0.46194518,-0.54968834,0.73804986,-0.69576204,0.018364731,0.6836089,-0.5383473,0.2166,9580000000.0,22698000000.0,7304000000.0,70038000000.0,258000000.0,186000000.0,8000000.0,6000000.0,3806382.0,13338036000.0,9789338000.0,37771.0,2211630.0,1042000000.0,10.180706,,,,2.815294
laghos,0.88929427,-0.5182339,-0.5869975,-0.589442,-1.2725917,0.08548911,-0.75516546,0.30359837,1.6834247,-0.34467933,-0.46534017,1.3830808,1.6031401,0.056520257,-1.0630301,-0.87785405,-0.3847221,-1.5369655,0.38475043,-0.546278,-0.63543504,-0.5528128,-0.45101488,0.69964397,-1.7143122,0.34076217,0.56163126,-0.45601144,0.27431947,-1.6238325,-0.78328234,-1.361828,-0.9945032,0.521746,0.866287,-0.34742653,0.34942904,0.93809146,0.20099588,-2.8789864,1.1502329,-2.0570774,1.026937,0.46194518,-0.54968834,0.73804986,-0.69576204,0.018364731,0.6836089,-0.5383473,0.2166,9576000000.0,22698000000.0,7304000000.0,70032000000.0,190000000.0,186000000.0,8000000.0,6000000.0,3805973.0,13337946000.0,9786834000.0,37771.0,2211630.0,1056000000.0,10.395079,,,,2.600921
laghos,0.88929427,-0.5182339,-0.5869975,-0.589442,-1.2725917,0.08548911,-0.75516546,0.30359837,1.6834247,-0.34467933,-0.46534017,1.3830808,1.6031401,0.056520257,-1.0630301,-0.87785405,-0.3847221,-1.5369655,0.38475043,-0.546278,-0.63543504,-0.5528128,-0.45101488,0.69964397,-1.7143122,0.34076217,0.56163126,-0.45601144,0.27431947,-1.6238325,-0.78328234,-1.361828,-0.9945032,0.521746,0.866287,-0.34742653,0.34942904,0.93809146,0.20099588,-2.8789864,1.1502329,-2.0570774,1.026937,0.46194518,-0.54968834,0.73804986,-0.69576204,0.018364731,0.6836089,-0.5383473,0.2166,9800000000.0,23220000000.0,7474000000.0,71634000000.0,194000000.0,192000000.0,8000000.0,6000000.0,3893262.0,13642293000.0,10008098000.0,37771.0,2212545.0,1066000000.0,10.451857,,,,2.544143
laghos,0.88929427,-0.5182339,-0.5869975,-0.589442,-1.2725917,0.08548911,-0.75516546,0.30359837,1.6834247,-0.34467933,-0.46534017,1.3830808,1.6031401,0.056520257,-1.0630301,-0.87785405,-0.3847221,-1.5369655,0.38475043,-0.546278,-0.63543504,-0.5528128,-0.45101488,0.69964397,-1.7143122,0.34076217,0.56163126,-0.45601144,0.27431947,-1.6238325,-0.78328234,-1.361828,-0.9945032,0.521746,0.866287,-0.34742653,0.34942904,0.93809146,0.20099588,-2.8789864,1.1502329,-2.0570774,1.026937,0.46194518,-0.54968834,0.73804986,-0.69576204,0.018364731,0.6836089,-0.5383473,0.2166,9798000000.0,23212000000.0,7470000000.0,71630000000.0,206000000.0,190000000.0,8000000.0,6000000.0,3893742.0,13640150000.0,10013663000.0,37771.0,2212545.0,1054000000.0,10.663852,,,,2.332148
laghos,0.88929427,-0.5182339,-0.5869975,-0.589442,-1.2725917,0.08548911,-0.75516546,0.30359837,1.6834247,-0.34467933,-0.46534017,1.3830808,1.6031401,0.056520257,-1.0630301,-0.87785405,-0.3847221,-1.5369655,0.38475043,-0.546278,-0.63543504,-0.5528128,-0.45101488,0.69964397,-1.7143122,0.34076217,0.56163126,-0.45601144,0.27431947,-1.6238325,-0.78328234,-1.361828,-0.9945032,0.521746,0.866287,-0.34742653,0.34942904,0.93809146,0.20099588,-2.8789864,1.1502329,-2.0570774,1.026937,0.46194518,-0.54968834,0.73804986,-0.69576204,0.018364731,0.6836089,-0.5383473,0.2333,10016000000.0,23732000000.0,7638000000.0,73218000000.0,192000000.0,192000000.0,8000000.0,6000000.0,3979723.0,13944095000.0,10234398000.0,37771.0,2213400.0,1084000000.0,11.176431,,,,2.821569
laghos,0.88929427,-0.5182339,-0.5869975,-0.589442,-1.2725917,0.08548911,-0.75516546,0.30359837,1.6834247,-0.34467933,-0.46534017,1.3830808,1.6031401,0.056520257,-1.0630301,-0.87785405,-0.3847221,-1.5369655,0.38475043,-0.546278,-0.63543504,-0.5528128,-0.45101488,0.69964397,-1.7143122,0.34076217,0.56163126,-0.45601144,0.27431947,-1.6238325,-0.78328234,-1.361828,-0.9945032,0.521746,0.866287,-0.34742653,0.34942904,0.93809146,0.20099588,-2.8789864,1.1502329,-2.0570774,1.026937,0.46194518,-0.54968834,0.73804986,-0.69576204,0.018364731,0.6836089,-0.5383473,0.2166,10018000000.0,23732000000.0,7640000000.0,73214000000.0,184000000.0,194000000.0,8000000.0,6000000.0,3979767.0,13947369000.0,10233864000.0,37771.0,2213400.0,1094000000.0,11.28784,,,,1.70816
laghos,0.88929427,-0.5182339,-0.5869975,-0.589442,-1.2725917,0.08548911,-0.75516546,0.30359837,1.6834247,-0.34467933,-0.46534017,1.3830808,1.6031401,0.056520257,-1.0630301,-0.87785405,-0.3847221,-1.5369655,0.38475043,-0.546278,-0.63543504,-0.5528128,-0.45101488,0.69964397,-1.7143122,0.34076217,0.56163126,-0.45601144,0.27431947,-1.6238325,-0.78328234,-1.361828,-0.9945032,0.521746,0.866287,-0.34742653,0.34942904,0.93809146,0.20099588,-2.8789864,1.1502329,-2.0570774,1.026937,0.46194518,-0.54968834,0.73804986,-0.69576204,0.018364731,0.6836089,-0.5383473,0.2166,10232000000.0,24240000000.0,7802000000.0,74788000000.0,190000000.0,200000000.0,10000000.0,6000000.0,4065174.0,14242924000.0,10454137000.0,37771.0,2214315.0,1104000000.0,11.450939,,,,1.545061
laghos,0.88929427,-0.5182339,-0.5869975,-0.589442,-1.2725917,0.08548911,-0.75516546,0.30359837,1.6834247,-0.34467933,-0.46534017,1.3830808,1.6031401,0.056520257,-1.0630301,-0.87785405,-0.3847221,-1.5369655,0.38475043,-0.546278,-0.63543504,-0.5528128,-0.45101488,0.69964397,-1.7143122,0.34076217,0.56163126,-0.45601144,0.27431947,-1.6238325,-0.78328234,-1.361828,-0.9945032,0.521746,0.866287,-0.34742653,0.34942904,0.93809146,0.20099588,-2.8789864,1.1502329,-2.0570774,1.026937,0.46194518,-0.54968834,0.73804986,-0.69576204,0.018364731,0.6836089,-0.5383473,0.2166,10228000000.0,24242000000.0,7802000000.0,74788000000.0,250000000.0,198000000.0,10000000.0,6000000.0,4065042.0,14245590000.0,10451213000.0,37771.0,2214315.0,1086000000.0,10.896725,,,,2.099275
laghos,0.88929427,-0.5182339,-0.5869975,-0.589442,-1.2725917,0.08548911,-0.75516546,0.30359837,1.6834247,-0.34467933,-0.46534017,1.3830808,1.6031401,0.056520257,-1.0630301,-0.87785405,-0.3847221,-1.5369655,0.38475043,-0.546278,-0.63543504,-0.5528128,-0.45101488,0.69964397,-1.7143122,0.34076217,0.56163126,-0.45601144,0.27431947,-1.6238325,-0.78328234,-1.361828,-0.9945032,0.521746,0.866287,-0.34742653,0.34942904,0.93809146,0.20099588,-2.8789864,1.1502329,-2.0570774,1.026937,0.46194518,-0.54968834,0.73804986,-0.69576204,0.018364731,0.6836089,-0.5383473,0.2333,10432000000.0,24720000000.0,7958000000.0,76272000000.0,208000000.0,204000000.0,10000000.0,6000000.0,4145484.0,14515350000.0,10651865000.0,37771.0,2215167.0,1178000000.0,11.168598,,,,2.829402
laghos,0.88929427,-0.5182339,-0.5869975,-0.589442,-1.2725917,0.08548911,-0.75516546,0.30359837,1.6834247,-0.34467933,-0.46534017,1.3830808,1.6031401,0.056520257,-1.0630301,-0.87785405,-0.3847221,-1.5369655,0.38475043,-0.546278,-0.63543504,-0.5528128,-0.45101488,0.69964397,-1.7143122,0.34076217,0.56163126,-0.45601144,0.27431947,-1.6238325,-0.78328234,-1.361828,-0.9945032,0.521746,0.866287,-0.34742653,0.34942904,0.93809146,0.20099588,-2.8789864,1.1502329,-2.0570774,1.026937,0.46194518,-0.54968834,0.73804986,-0.69576204,0.018364731,0.6836089,-0.5383473,0.6,30166874000.0,47394062000.0,16465750000.0,128000000000.0,99000000.0,42500000.0,15937500.0,11125000.0,13018.0,459483360.0,7289946600.0,69875.875,2107575.0,1299562500.0,8.956694,,,,27.043306
laghos,0.88929427,-0.5182339,-0.5869975,-0.589442,-1.2725917,0.08548911,-0.75516546,0.30359837,1.6834247,-0.34467933,-0.46534017,1.3830808,1.6031401,0.056520257,-1.0630301,-0.87785405,-0.3847221,-1.5369655,0.38475043,-0.546278,-0.63543504,-0.5528128,-0.45101488,0.69964397,-1.7143122,0.34076217,0.56163126,-0.45601144,0.27431947,-1.6238325,-0.78328234,-1.361828,-0.9945032,0.521746,0.866287,-0.34742653,0.34942904,0.93809146,0.20099588,-2.8789864,1.1502329,-2.0570774,1.026937,0.46194518,-0.54968834,0.73804986,-0.69576204,0.018364731,0.6836089,-0.5383473,0.2333,10434000000.0,24722000000.0,7956000000.0,76272000000.0,194000000.0,208000000.0,8000000.0,6000000.0,4145256.0,14515483000.0,10663130000.0,37771.0,2215168.0,1158000000.0,11.133866,,,,2.864134
laghos,0.88929427,-0.5182339,-0.5869975,-0.589442,-1.2725917,0.08548911,-0.75516546,0.30359837,1.6834247,-0.34467933,-0.46534017,1.3830808,1.6031401,0.056520257,-1.0630301,-0.87785405,-0.3847221,-1.5369655,0.38475043,-0.546278,-0.63543504,-0.5528128,-0.45101488,0.69964397,-1.7143122,0.34076217,0.56163126,-0.45601144,0.27431947,-1.6238325,-0.78328234,-1.361828,-0.9945032,0.521746,0.866287,-0.34742653,0.34942904,0.93809146,0.20099588,-2.8789864,1.1502329,-2.0570774,1.026937,0.46194518,-0.54968834,0.73804986,-0.69576204,0.018364731,0.6836089,-0.5383473,0.6333,30823563000.0,48416813000.0,16791625000.0,131000000000.0,99062500.0,42750000.0,16250000.0,11250000.0,13602.031,459474050.0,7108840000.0,69843.875,2107574.0,1310000000.0,9.036614,,,,28.961386
laghos,0.88929427,-0.5182339,-0.5869975,-0.589442,-1.2725917,0.08548911,-0.75516546,0.30359837,1.6834247,-0.34467933,-0.46534017,1.3830808,1.6031401,0.056520257,-1.0630301,-0.87785405,-0.3847221,-1.5369655,0.38475043,-0.546278,-0.63543504,-0.5528128,-0.45101488,0.69964397,-1.7143122,0.34076217,0.56163126,-0.45601144,0.27431947,-1.6238325,-0.78328234,-1.361828,-0.9945032,0.521746,0.866287,-0.34742653,0.34942904,0.93809146,0.20099588,-2.8789864,1.1502329,-2.0570774,1.026937,0.46194518,-0.54968834,0.73804986,-0.69576204,0.018364731,0.6836089,-0.5383473,0.25,10720000000.0,25408000000.0,8178000000.0,78382000000.0,214000000.0,208000000.0,10000000.0,6000000.0,4260727.0,14930403000.0,10957596000.0,37771.0,2216404.0,1162000000.0,11.397581,,,,3.602419
laghos,0.88929427,-0.5182339,-0.5869975,-0.589442,-1.2725917,0.08548911,-0.75516546,0.30359837,1.6834247,-0.34467933,-0.46534017,1.3830808,1.6031401,0.056520257,-1.0630301,-0.87785405,-0.3847221,-1.5369655,0.38475043,-0.546278,-0.63543504,-0.5528128,-0.45101488,0.69964397,-1.7143122,0.34076217,0.56163126,-0.45601144,0.27431947,-1.6238325,-0.78328234,-1.361828,-0.9945032,0.521746,0.866287,-0.34742653,0.34942904,0.93809146,0.20099588,-2.8789864,1.1502329,-2.0570774,1.026937,0.46194518,-0.54968834,0.73804986,-0.69576204,0.018364731,0.6836089,-0.5383473,0.2333,10724000000.0,25408000000.0,8180000000.0,78396000000.0,214000000.0,208000000.0,8000000.0,6000000.0,4260179.0,14928736000.0,10956163000.0,37771.0,2216404.0,1174000000.0,11.841604,,,,2.156396
laghos,0.88929427,-0.5182339,-0.5869975,-0.589442,-1.2725917,0.08548911,-0.75516546,0.30359837,1.6834247,-0.34467933,-0.46534017,1.3830808,1.6031401,0.056520257,-1.0630301,-0.87785405,-0.3847221,-1.5369655,0.38475043,-0.546278,-0.63543504,-0.5528128,-0.45101488,0.69964397,-1.7143122,0.34076217,0.56163126,-0.45601144,0.27431947,-1.6238325,-0.78328234,-1.361828,-0.9945032,0.521746,0.866287,-0.34742653,0.34942904,0.93809146,0.20099588,-2.8789864,1.1502329,-2.0570774,1.026937,0.46194518,-0.54968834,0.73804986,-0.69576204,0.018364731,0.6836089,-0.5383473,0.2333,11098000000.0,26292000000.0,8462000000.0,81124000000.0,272000000.0,216000000.0,10000000.0,6000000.0,4409289.0,15445552000.0,11342594000.0,37771.0,2217929.0,1226000000.0,11.844478,,,,2.153522
laghos,0.88929427,-0.5182339,-0.5869975,-0.589442,-1.2725917,0.08548911,-0.75516546,0.30359837,1.6834247,-0.34467933,-0.46534017,1.3830808,1.6031401,0.056520257,-1.0630301,-0.87785405,-0.3847221,-1.5369655,0.38475043,-0.546278,-0.63543504,-0.5528128,-0.45101488,0.69964397,-1.7143122,0.34076217,0.56163126,-0.45601144,0.27431947,-1.6238325,-0.78328234,-1.361828,-0.9945032,0.521746,0.866287,-0.34742653,0.34942904,0.93809146,0.20099588,-2.8789864,1.1502329,-2.0570774,1.026937,0.46194518,-0.54968834,0.73804986,-0.69576204,0.018364731,0.6836089,-0.5383473,0.2833,11096000000.0,26292000000.0,8464000000.0,81128000000.0,230000000.0,216000000.0,10000000.0,6000000.0,4409381.0,15449003000.0,11342077000.0,37771.0,2217929.0,1220000000.0,12.217343,,,,4.780657
laghos,0.88929427,-0.5182339,-0.5869975,-0.589442,-1.2725917,0.08548911,-0.75516546,0.30359837,1.6834247,-0.34467933,-0.46534017,1.3830808,1.6031401,0.056520257,-1.0630301,-0.87785405,-0.3847221,-1.5369655,0.38475043,-0.546278,-0.63543504,-0.5528128,-0.45101488,0.69964397,-1.7143122,0.34076217,0.56163126,-0.45601144,0.27431947,-1.6238325,-0.78328234,-1.361828,-0.9945032,0.521746,0.866287,-0.34742653,0.34942904,0.93809146,0.20099588,-2.8789864,1.1502329,-2.0570774,1.026937,0.46194518,-0.54968834,0.73804986,-0.69576204,0.018364731,0.6836089,-0.5383473,0.2333,11470000000.0,27174000000.0,8748000000.0,83856000000.0,242000000.0,224000000.0,10000000.0,6000000.0,4557599.0,15970033000.0,11721168000.0,37771.0,2219454.0,1276000000.0,12.205594,,,,1.792406
laghos,0.88929427,-0.5182339,-0.5869975,-0.589442,-1.2725917,0.08548911,-0.75516546,0.30359837,1.6834247,-0.34467933,-0.46534017,1.3830808,1.6031401,0.056520257,-1.0630301,-0.87785405,-0.3847221,-1.5369655,0.38475043,-0.546278,-0.63543504,-0.5528128,-0.45101488,0.69964397,-1.7143122,0.34076217,0.56163126,-0.45601144,0.27431947,-1.6238325,-0.78328234,-1.361828,-0.9945032,0.521746,0.866287,-0.34742653,0.34942904,0.93809146,0.20099588,-2.8789864,1.1502329,-2.0570774,1.026937,0.46194518,-0.54968834,0.73804986,-0.69576204,0.018364731,0.6836089,-0.5383473,0.2666,11470000000.0,27178000000.0,8748000000.0,83852000000.0,212000000.0,224000000.0,10000000.0,6000000.0,4557602.0,15969248000.0,11725590000.0,37771.0,2219454.0,1256000000.0,12.228888,,,,3.767112
laghos,0.88929427,-0.5182339,-0.5869975,-0.589442,-1.2725917,0.08548911,-0.75516546,0.30359837,1.6834247,-0.34467933,-0.46534017,1.3830808,1.6031401,0.056520257,-1.0630301,-0.87785405,-0.3847221,-1.5369655,0.38475043,-0.546278,-0.63543504,-0.5528128,-0.45101488,0.69964397,-1.7143122,0.34076217,0.56163126,-0.45601144,0.27431947,-1.6238325,-0.78328234,-1.361828,-0.9945032,0.521746,0.866287,-0.34742653,0.34942904,0.93809146,0.20099588,-2.8789864,1.1502329,-2.0570774,1.026937,0.46194518,-0.54968834,0.73804986,-0.69576204,0.018364731,0.6836089,-0.5383473,0.2666,11838000000.0,28054000000.0,9026000000.0,86572000000.0,236000000.0,230000000.0,10000000.0,8000000.0,4705391.0,16487499000.0,12099299000.0,37771.0,2220979.0,1306000000.0,12.603779,,,,3.392221
laghos,0.88929427,-0.5182339,-0.5869975,-0.589442,-1.2725917,0.08548911,-0.75516546,0.30359837,1.6834247,-0.34467933,-0.46534017,1.3830808,1.6031401,0.056520257,-1.0630301,-0.87785405,-0.3847221,-1.5369655,0.38475043,-0.546278,-0.63543504,-0.5528128,-0.45101488,0.69964397,-1.7143122,0.34076217,0.56163126,-0.45601144,0.27431947,-1.6238325,-0.78328234,-1.361828,-0.9945032,0.521746,0.866287,-0.34742653,0.34942904,0.93809146,0.20099588,-2.8789864,1.1502329,-2.0570774,1.026937,0.46194518,-0.54968834,0.73804986,-0.69576204,0.018364731,0.6836089,-0.5383473,0.2666,11844000000.0,28058000000.0,9032000000.0,86568000000.0,290000000.0,230000000.0,10000000.0,6000000.0,4705783.0,16485404000.0,12145569000.0,37771.0,2220979.0,1308000000.0,12.972289,,,,3.023711
laghos,0.88929427,-0.5182339,-0.5869975,-0.589442,-1.2725917,0.08548911,-0.75516546,0.30359837,1.6834247,-0.34467933,-0.46534017,1.3830808,1.6031401,0.056520257,-1.0630301,-0.87785405,-0.3847221,-1.5369655,0.38475043,-0.546278,-0.63543504,-0.5528128,-0.45101488,0.69964397,-1.7143122,0.34076217,0.56163126,-0.45601144,0.27431947,-1.6238325,-0.78328234,-1.361828,-0.9945032,0.521746,0.866287,-0.34742653,0.34942904,0.93809146,0.20099588,-2.8789864,1.1502329,-2.0570774,1.026937,0.46194518,-0.54968834,0.73804986,-0.69576204,0.018364731,0.6836089,-0.5383473,0.2666,12200000000.0,28910000000.0,9304000000.0,89206000000.0,228000000.0,238000000.0,12000000.0,8000000.0,4848386.0,16975164000.0,12467357000.0,37771.0,2222505.0,1360000000.0,12.998832,,,,2.997168
laghos,0.88929427,-0.5182339,-0.5869975,-0.589442,-1.2725917,0.08548911,-0.75516546,0.30359837,1.6834247,-0.34467933,-0.46534017,1.3830808,1.6031401,0.056520257,-1.0630301,-0.87785405,-0.3847221,-1.5369655,0.38475043,-0.546278,-0.63543504,-0.5528128,-0.45101488,0.69964397,-1.7143122,0.34076217,0.56163126,-0.45601144,0.27431947,-1.6238325,-0.78328234,-1.361828,-0.9945032,0.521746,0.866287,-0.34742653,0.34942904,0.93809146,0.20099588,-2.8789864,1.1502329,-2.0570774,1.026937,0.46194518,-0.54968834,0.73804986,-0.69576204,0.018364731,0.6836089,-0.5383473,0.6833,34831810000.0,54758564000.0,19035500000.0,148000000000.0,117312500.0,50375000.0,19500000.0,13312500.0,12507.0,537350850.0,8274867700.0,69874.91,2107804.2,1537687600.0,10.679586,,,,30.318413
laghos,0.88929427,-0.5182339,-0.5869975,-0.589442,-1.2725917,0.08548911,-0.75516546,0.30359837,1.6834247,-0.34467933,-0.46534017,1.3830808,1.6031401,0.056520257,-1.0630301,-0.87785405,-0.3847221,-1.5369655,0.38475043,-0.546278,-0.63543504,-0.5528128,-0.45101488,0.69964397,-1.7143122,0.34076217,0.56163126,-0.45601144,0.27431947,-1.6238325,-0.78328234,-1.361828,-0.9945032,0.521746,0.866287,-0.34742653,0.34942904,0.93809146,0.20099588,-2.8789864,1.1502329,-2.0570774,1.026937,0.46194518,-0.54968834,0.73804986,-0.69576204,0.018364731,0.6836089,-0.5383473,0.2666,12208000000.0,28916000000.0,9308000000.0,89202000000.0,224000000.0,244000000.0,10000000.0,8000000.0,4849573.0,16976721000.0,12466432000.0,37771.0,2222504.0,1358000000.0,12.953582,,,,3.042418
laghos,0.88929427,-0.5182339,-0.5869975,-0.589442,-1.2725917,0.08548911,-0.75516546,0.30359837,1.6834247,-0.34467933,-0.46534017,1.3830808,1.6031401,0.056520257,-1.0630301,-0.87785405,-0.3847221,-1.5369655,0.38475043,-0.546278,-0.63543504,-0.5528128,-0.45101488,0.69964397,-1.7143122,0.34076217,0.56163126,-0.45601144,0.27431947,-1.6238325,-0.78328234,-1.361828,-0.9945032,0.521746,0.866287,-0.34742653,0.34942904,0.93809146,0.20099588,-2.8789864,1.1502329,-2.0570774,1.026937,0.46194518,-0.54968834,0.73804986,-0.69576204,0.018364731,0.6836089,-0.5383473,0.6666,33639438000.0,52929250000.0,18442500000.0,143000000000.0,116750000.0,50437500.0,19312500.0,13187500.0,11606.156,537309630.0,8382172700.0,69874.91,2107804.2,1523375000.0,10.503509,,,,29.49249
laghos,0.88929427,-0.5182339,-0.5869975,-0.589442,-1.2725917,0.08548911,-0.75516546,0.30359837,1.6834247,-0.34467933,-0.46534017,1.3830808,1.6031401,0.056520257,-1.0630301,-0.87785405,-0.3847221,-1.5369655,0.38475043,-0.546278,-0.63543504,-0.5528128,-0.45101488,0.69964397,-1.7143122,0.34076217,0.56163126,-0.45601144,0.27431947,-1.6238325,-0.78328234,-1.361828,-0.9945032,0.521746,0.866287,-0.34742653,0.34942904,0.93809146,0.20099588,-2.8789864,1.1502329,-2.0570774,1.026937,0.46194518,-0.54968834,0.73804986,-0.69576204,0.018364731,0.6836089,-0.5383473,0.2666,12512000000.0,29642000000.0,9544000000.0,91464000000.0,240000000.0,244000000.0,10000000.0,8000000.0,4971605.0,17419708000.0,12783647000.0,37771.0,2223785.0,1398000000.0,13.538991,,,,2.457009
laghos,0.88929427,-0.5182339,-0.5869975,-0.589442,-1.2725917,0.08548911,-0.75516546,0.30359837,1.6834247,-0.34467933,-0.46534017,1.3830808,1.6031401,0.056520257,-1.0630301,-0.87785405,-0.3847221,-1.5369655,0.38475043,-0.546278,-0.63543504,-0.5528128,-0.45101488,0.69964397,-1.7143122,0.34076217,0.56163126,-0.45601144,0.27431947,-1.6238325,-0.78328234,-1.361828,-0.9945032,0.521746,0.866287,-0.34742653,0.34942904,0.93809146,0.20099588,-2.8789864,1.1502329,-2.0570774,1.026937,0.46194518,-0.54968834,0.73804986,-0.69576204,0.018364731,0.6836089,-0.5383473,0.2666,12514000000.0,29644000000.0,9544000000.0,91470000000.0,256000000.0,244000000.0,10000000.0,6000000.0,4970990.0,17419426000.0,12781494000.0,37771.0,2223785.0,1370000000.0,13.325094,,,,2.670906
laghos,0.88929427,-0.5182339,-0.5869975,-0.589442,-1.2725917,0.08548911,-0.75516546,0.30359837,1.6834247,-0.34467933,-0.46534017,1.3830808,1.6031401,0.056520257,-1.0630301,-0.87785405,-0.3847221,-1.5369655,0.38475043,-0.546278,-0.63543504,-0.5528128,-0.45101488,0.69964397,-1.7143122,0.34076217,0.56163126,-0.45601144,0.27431947,-1.6238325,-0.78328234,-1.361828,-0.9945032,0.521746,0.866287,-0.34742653,0.34942904,0.93809146,0.20099588,-2.8789864,1.1502329,-2.0570774,1.026937,0.46194518,-0.54968834,0.73804986,-0.69576204,0.018364731,0.6836089,-0.5383473,0.2833,12772000000.0,30264000000.0,9738000000.0,93364000000.0,308000000.0,248000000.0,12000000.0,8000000.0,5073133.0,17780120000.0,13047089000.0,37771.0,2224883.0,1372000000.0,14.255513,,,,2.742487
laghos,0.88929427,-0.5182339,-0.5869975,-0.589442,-1.2725917,0.08548911,-0.75516546,0.30359837,1.6834247,-0.34467933,-0.46534017,1.3830808,1.6031401,0.056520257,-1.0630301,-0.87785405,-0.3847221,-1.5369655,0.38475043,-0.546278,-0.63543504,-0.5528128,-0.45101488,0.69964397,-1.7143122,0.34076217,0.56163126,-0.45601144,0.27431947,-1.6238325,-0.78328234,-1.361828,-0.9945032,0.521746,0.866287,-0.34742653,0.34942904,0.93809146,0.20099588,-2.8789864,1.1502329,-2.0570774,1.026937,0.46194518,-0.54968834,0.73804986,-0.69576204,0.018364731,0.6836089,-0.5383473,0.2833,12752000000.0,30256000000.0,9736000000.0,93348000000.0,274000000.0,248000000.0,10000000.0,8000000.0,5073415.0,17780826000.0,13052837000.0,37771.0,2224883.0,1414000000.0,13.57799,,,,3.42001
laghos,0.88929427,-0.5182339,-0.5869975,-0.589442,-1.2725917,0.08548911,-0.75516546,0.30359837,1.6834247,-0.34467933,-0.46534017,1.3830808,1.6031401,0.056520257,-1.0630301,-0.87785405,-0.3847221,-1.5369655,0.38475043,-0.546278,-0.63543504,-0.5528128,-0.45101488,0.69964397,-1.7143122,0.34076217,0.56163126,-0.45601144,0.27431947,-1.6238325,-0.78328234,-1.361828,-0.9945032,0.521746,0.866287,-0.34742653,0.34942904,0.93809146,0.20099588,-2.8789864,1.1502329,-2.0570774,1.026937,0.46194518,-0.54968834,0.73804986,-0.69576204,0.018364731,0.6836089,-0.5383473,0.3,12980000000.0,30766000000.0,9904000000.0,94926000000.0,308000000.0,252000000.0,12000000.0,8000000.0,5158167.0,18081092000.0,13307563000.0,37771.0,2225798.0,1410000000.0,13.860394,,,,4.139606
laghos,0.88929427,-0.5182339,-0.5869975,-0.589442,-1.2725917,0.08548911,-0.75516546,0.30359837,1.6834247,-0.34467933,-0.46534017,1.3830808,1.6031401,0.056520257,-1.0630301,-0.87785405,-0.3847221,-1.5369655,0.38475043,-0.546278,-0.63543504,-0.5528128,-0.45101488,0.69964397,-1.7143122,0.34076217,0.56163126,-0.45601144,0.27431947,-1.6238325,-0.78328234,-1.361828,-0.9945032,0.521746,0.866287,-0.34742653,0.34942904,0.93809146,0.20099588,-2.8789864,1.1502329,-2.0570774,1.026937,0.46194518,-0.54968834,0.73804986,-0.69576204,0.018364731,0.6836089,-0.5383473,0.2833,12984000000.0,30770000000.0,9904000000.0,94928000000.0,270000000.0,252000000.0,10000000.0,8000000.0,5157172.0,18081243000.0,13271856000.0,37771.0,2225798.0,1374000000.0,13.800371,,,,3.197629
laghos,0.88929427,-0.5182339,-0.5869975,-0.589442,-1.2725917,0.08548911,-0.75516546,0.30359837,1.6834247,-0.34467933,-0.46534017,1.3830808,1.6031401,0.056520257,-1.0630301,-0.87785405,-0.3847221,-1.5369655,0.38475043,-0.546278,-0.63543504,-0.5528128,-0.45101488,0.69964397,-1.7143122,0.34076217,0.56163126,-0.45601144,0.27431947,-1.6238325,-0.78328234,-1.361828,-0.9945032,0.521746,0.866287,-0.34742653,0.34942904,0.93809146,0.20099588,-2.8789864,1.1502329,-2.0570774,1.026937,0.46194518,-0.54968834,0.73804986,-0.69576204,0.018364731,0.6836089,-0.5383473,0.2833,13190000000.0,31274000000.0,10066000000.0,96488000000.0,240000000.0,258000000.0,10000000.0,8000000.0,5242257.0,18373667000.0,13487821000.0,37771.0,2226712.0,1468000000.0,14.596218,,,,2.401782
laghos,0.88929427,-0.5182339,-0.5869975,-0.589442,-1.2725917,0.08548911,-0.75516546,0.30359837,1.6834247,-0.34467933,-0.46534017,1.3830808,1.6031401,0.056520257,-1.0630301,-0.87785405,-0.3847221,-1.5369655,0.38475043,-0.546278,-0.63543504,-0.5528128,-0.45101488,0.69964397,-1.7143122,0.34076217,0.56163126,-0.45601144,0.27431947,-1.6238325,-0.78328234,-1.361828,-0.9945032,0.521746,0.866287,-0.34742653,0.34942904,0.93809146,0.20099588,-2.8789864,1.1502329,-2.0570774,1.026937,0.46194518,-0.54968834,0.73804986,-0.69576204,0.018364731,0.6836089,-0.5383473,0.2833,13196000000.0,31272000000.0,10068000000.0,96484000000.0,318000000.0,256000000.0,12000000.0,8000000.0,5242825.0,18378500000.0,13492135000.0,37771.0,2226713.0,1466000000.0,14.146435,,,,2.851565
laghos,0.88929427,-0.5182339,-0.5869975,-0.589442,-1.2725917,0.08548911,-0.75516546,0.30359837,1.6834247,-0.34467933,-0.46534017,1.3830808,1.6031401,0.056520257,-1.0630301,-0.87785405,-0.3847221,-1.5369655,0.38475043,-0.546278,-0.63543504,-0.5528128,-0.45101488,0.69964397,-1.7143122,0.34076217,0.56163126,-0.45601144,0.27431947,-1.6238325,-0.78328234,-1.361828,-0.9945032,0.521746,0.866287,-0.34742653,0.34942904,0.93809146,0.20099588,-2.8789864,1.1502329,-2.0570774,1.026937,0.46194518,-0.54968834,0.73804986,-0.69576204,0.018364731,0.6836089,-0.5383473,0.2833,13414000000.0,31788000000.0,10234000000.0,98084000000.0,260000000.0,268000000.0,12000000.0,8000000.0,5327972.0,18669206000.0,13707820000.0,37771.0,2227626.0,1476000000.0,14.237395,,,,2.760605
laghos,0.88929427,-0.5182339,-0.5869975,-0.589442,-1.2725917,0.08548911,-0.75516546,0.30359837,1.6834247,-0.34467933,-0.46534017,1.3830808,1.6031401,0.056520257,-1.0630301,-0.87785405,-0.3847221,-1.5369655,0.38475043,-0.546278,-0.63543504,-0.5528128,-0.45101488,0.69964397,-1.7143122,0.34076217,0.56163126,-0.45601144,0.27431947,-1.6238325,-0.78328234,-1.361828,-0.9945032,0.521746,0.866287,-0.34742653,0.34942904,0.93809146,0.20099588,-2.8789864,1.1502329,-2.0570774,1.026937,0.46194518,-0.54968834,0.73804986,-0.69576204,0.018364731,0.6836089,-0.5383473,0.75,38249810000.0,60141500000.0,20903563000.0,163000000000.0,127062500.0,54687500.0,21687500.0,14750000.0,12479.094,590905200.0,9194638000.0,69875.875,2107964.2,1647375000.0,11.378157,,,,33.621845
laghos,0.88929427,-0.5182339,-0.5869975,-0.589442,-1.2725917,0.08548911,-0.75516546,0.30359837,1.6834247,-0.34467933,-0.46534017,1.3830808,1.6031401,0.056520257,-1.0630301,-0.87785405,-0.3847221,-1.5369655,0.38475043,-0.546278,-0.63543504,-0.5528128,-0.45101488,0.69964397,-1.7143122,0.34076217,0.56163126,-0.45601144,0.27431947,-1.6238325,-0.78328234,-1.361828,-0.9945032,0.521746,0.866287,-0.34742653,0.34942904,0.93809146,0.20099588,-2.8789864,1.1502329,-2.0570774,1.026937,0.46194518,-0.54968834,0.73804986,-0.69576204,0.018364731,0.6836089,-0.5383473,0.2833,13414000000.0,31786000000.0,10232000000.0,98078000000.0,274000000.0,268000000.0,12000000.0,8000000.0,5328433.0,18667070000.0,13705154000.0,37771.0,2227626.0,1534000000.0,14.364918,,,,2.633082
laghos,0.88929427,-0.5182339,-0.5869975,-0.589442,-1.2725917,0.08548911,-0.75516546,0.30359837,1.6834247,-0.34467933,-0.46534017,1.3830808,1.6031401,0.056520257,-1.0630301,-0.87785405,-0.3847221,-1.5369655,0.38475043,-0.546278,-0.63543504,-0.5528128,-0.45101488,0.69964397,-1.7143122,0.34076217,0.56163126,-0.45601144,0.27431947,-1.6238325,-0.78328234,-1.361828,-0.9945032,0.521746,0.866287,-0.34742653,0.34942904,0.93809146,0.20099588,-2.8789864,1.1502329,-2.0570774,1.026937,0.46194518,-0.54968834,0.73804986,-0.69576204,0.018364731,0.6836089,-0.5383473,0.8,41112564000.0,64511310000.0,22323812000.0,175000000000.0,126625000.0,54125000.0,21500000.0,14562500.0,13397.0625,590922050.0,8964936000.0,69875.875,2107964.2,1683875000.0,11.672238,,,,36.327763
laghos,0.88929427,-0.5182339,-0.5869975,-0.589442,-1.2725917,0.08548911,-0.75516546,0.30359837,1.6834247,-0.34467933,-0.46534017,1.3830808,1.6031401,0.056520257,-1.0630301,-0.87785405,-0.3847221,-1.5369655,0.38475043,-0.546278,-0.63543504,-0.5528128,-0.45101488,0.69964397,-1.7143122,0.34076217,0.56163126,-0.45601144,0.27431947,-1.6238325,-0.78328234,-1.361828,-0.9945032,0.521746,0.866287,-0.34742653,0.34942904,0.93809146,0.20099588,-2.8789864,1.1502329,-2.0570774,1.026937,0.46194518,-0.54968834,0.73804986,-0.69576204,0.018364731,0.6836089,-0.5383473,0.3166,14330000000.0,33958000000.0,10930000000.0,105000000000.0,274000000.0,280000000.0,12000000.0,8000000.0,5693421.0,19940213000.0,14646269000.0,37771.0,2231350.0,1578000000.0,15.260753,,,,3.735247
laghos,0.88929427,-0.5182339,-0.5869975,-0.589442,-1.2725917,0.08548911,-0.75516546,0.30359837,1.6834247,-0.34467933,-0.46534017,1.3830808,1.6031401,0.056520257,-1.0630301,-0.87785405,-0.3847221,-1.5369655,0.38475043,-0.546278,-0.63543504,-0.5528128,-0.45101488,0.69964397,-1.7143122,0.34076217,0.56163126,-0.45601144,0.27431947,-1.6238325,-0.78328234,-1.361828,-0.9945032,0.521746,0.866287,-0.34742653,0.34942904,0.93809146,0.20099588,-2.8789864,1.1502329,-2.0570774,1.026937,0.46194518,-0.54968834,0.73804986,-0.69576204,0.018364731,0.6836089,-0.5383473,0.8,40889810000.0,64285500000.0,22345562000.0,174000000000.0,135312500.0,57500000.0,22937500.0,15687500.0,12573.844,631197200.0,9609875000.0,69875.875,2108080.8,1775250000.0,12.729841,,,,35.27016
laghos,0.88929427,-0.5182339,-0.5869975,-0.589442,-1.2725917,0.08548911,-0.75516546,0.30359837,1.6834247,-0.34467933,-0.46534017,1.3830808,1.6031401,0.056520257,-1.0630301,-0.87785405,-0.3847221,-1.5369655,0.38475043,-0.546278,-0.63543504,-0.5528128,-0.45101488,0.69964397,-1.7143122,0.34076217,0.56163126,-0.45601144,0.27431947,-1.6238325,-0.78328234,-1.361828,-0.9945032,0.521746,0.866287,-0.34742653,0.34942904,0.93809146,0.20099588,-2.8789864,1.1502329,-2.0570774,1.026937,0.46194518,-0.54968834,0.73804986,-0.69576204,0.018364731,0.6836089,-0.5383473,0.3,14334000000.0,33956000000.0,10930000000.0,105000000000.0,290000000.0,282000000.0,10000000.0,8000000.0,5693653.0,19940866000.0,14700632000.0,37771.0,2231350.0,1586000000.0,15.324183,,,,2.675817
laghos,0.88929427,-0.5182339,-0.5869975,-0.589442,-1.2725917,0.08548911,-0.75516546,0.30359837,1.6834247,-0.34467933,-0.46534017,1.3830808,1.6031401,0.056520257,-1.0630301,-0.87785405,-0.3847221,-1.5369655,0.38475043,-0.546278,-0.63543504,-0.5528128,-0.45101488,0.69964397,-1.7143122,0.34076217,0.56163126,-0.45601144,0.27431947,-1.6238325,-0.78328234,-1.361828,-0.9945032,0.521746,0.866287,-0.34742653,0.34942904,0.93809146,0.20099588,-2.8789864,1.1502329,-2.0570774,1.026937,0.46194518,-0.54968834,0.73804986,-0.69576204,0.018364731,0.6836089,-0.5383473,0.8166,40480000000.0,63665440000.0,22144625000.0,172000000000.0,135000000.0,57625000.0,22750000.0,15687500.0,12809.906,631220540.0,9641429000.0,69843.875,2108079.8,1786875000.0,12.203638,,,,36.792362
laghos,0.88929427,-0.5182339,-0.5869975,-0.589442,-1.2725917,0.08548911,-0.75516546,0.30359837,1.6834247,-0.34467933,-0.46534017,1.3830808,1.6031401,0.056520257,-1.0630301,-0.87785405,-0.3847221,-1.5369655,0.38475043,-0.546278,-0.63543504,-0.5528128,-0.45101488,0.69964397,-1.7143122,0.34076217,0.56163126,-0.45601144,0.27431947,-1.6238325,-0.78328234,-1.361828,-0.9945032,0.521746,0.866287,-0.34742653,0.34942904,0.93809146,0.20099588,-2.8789864,1.1502329,-2.0570774,1.026937,0.46194518,-0.54968834,0.73804986,-0.69576204,0.018364731,0.6836089,-0.5383473,1.2333,43954000000.0,146000000000.0,48920000000.0,431000000000.0,1448000000.0,1734000000.0,102000000.0,74000000.0,6987658.0,95304030000.0,69996410000.0,37771.0,2240844.0,7392000000.0,63.670265,,,,10.327733
laghos,0.88929427,-0.5182339,-0.5869975,-0.589442,-1.2725917,0.08548911,-0.75516546,0.30359837,1.6834247,-0.34467933,-0.46534017,1.3830808,1.6031401,0.056520257,-1.0630301,-0.87785405,-0.3847221,-1.5369655,0.38475043,-0.546278,-0.63543504,-0.5528128,-0.45101488,0.69964397,-1.7143122,0.34076217,0.56163126,-0.45601144,0.27431947,-1.6238325,-0.78328234,-1.361828,-0.9945032,0.521746,0.866287,-0.34742653,0.34942904,0.93809146,0.20099588,-2.8789864,1.1502329,-2.0570774,1.026937,0.46194518,-0.54968834,0.73804986,-0.69576204,0.018364731,0.6836089,-0.5383473,1.0333,52785373000.0,84759370000.0,29436625000.0,230000000000.0,221062500.0,118437500.0,38562500.0,27000000.0,11360.375,2996194000.0,14937098000.0,69842.91,2108376.2,2610500000.0,18.205502,,,,43.7925
laghos,0.88929427,-0.5182339,-0.5869975,-0.589442,-1.2725917,0.08548911,-0.75516546,0.30359837,1.6834247,-0.34467933,-0.46534017,1.3830808,1.6031401,0.056520257,-1.0630301,-0.87785405,-0.3847221,-1.5369655,0.38475043,-0.546278,-0.63543504,-0.5528128,-0.45101488,0.69964397,-1.7143122,0.34076217,0.56163126,-0.45601144,0.27431947,-1.6238325,-0.78328234,-1.361828,-0.9945032,0.521746,0.866287,-0.34742653,0.34942904,0.93809146,0.20099588,-2.8789864,1.1502329,-2.0570774,1.026937,0.46194518,-0.54968834,0.73804986,-0.69576204,0.018364731,0.6836089,-0.5383473,1.2,43964000000.0,146000000000.0,48924000000.0,431000000000.0,1494000000.0,1732000000.0,80000000.0,72000000.0,6993352.0,95305060000.0,69973656000.0,37771.0,2240843.0,7534000000.0,62.53292,,,,9.46708
laghos,0.88929427,-0.5182339,-0.5869975,-0.589442,-1.2725917,0.08548911,-0.75516546,0.30359837,1.6834247,-0.34467933,-0.46534017,1.3830808,1.6031401,0.056520257,-1.0630301,-0.87785405,-0.3847221,-1.5369655,0.38475043,-0.546278,-0.63543504,-0.5528128,-0.45101488,0.69964397,-1.7143122,0.34076217,0.56163126,-0.45601144,0.27431947,-1.6238325,-0.78328234,-1.361828,-0.9945032,0.521746,0.866287,-0.34742653,0.34942904,0.93809146,0.20099588,-2.8789864,1.1502329,-2.0570774,1.026937,0.46194518,-0.54968834,0.73804986,-0.69576204,0.018364731,0.6836089,-0.5383473,1.0333,53084373000.0,85247120000.0,29588687000.0,232000000000.0,221375000.0,119187500.0,38812500.0,26937500.0,11563.875,2995708400.0,14524503000.0,69873.94,2108375.2,2600562400.0,18.09002,,,,43.90798
laghos,0.88929427,-0.5182339,-0.5869975,-0.589442,-1.2725917,0.08548911,-0.75516546,0.30359837,1.6834247,-0.34467933,-0.46534017,1.3830808,1.6031401,0.056520257,-1.0630301,-0.87785405,-0.3847221,-1.5369655,0.38475043,-0.546278,-0.63543504,-0.5528128,-0.45101488,0.69964397,-1.7143122,0.34076217,0.56163126,-0.45601144,0.27431947,-1.6238325,-0.78328234,-1.361828,-0.9945032,0.521746,0.866287,-0.34742653,0.34942904,0.93809146,0.20099588,-2.8789864,1.1502329,-2.0570774,1.026937,0.46194518,-0.54968834,0.73804986,-0.69576204,0.018364731,0.6836089,-0.5383473,1.2166,45242000000.0,151000000000.0,50340000000.0,444000000000.0,1370000000.0,1782000000.0,60000000.0,62000000.0,7177326.0,97871870000.0,71885070000.0,37771.0,2242736.0,7556000000.0,64.38596,,,,8.610039
laghos,0.88929427,-0.5182339,-0.5869975,-0.589442,-1.2725917,0.08548911,-0.75516546,0.30359837,1.6834247,-0.34467933,-0.46534017,1.3830808,1.6031401,0.056520257,-1.0630301,-0.87785405,-0.3847221,-1.5369655,0.38475043,-0.546278,-0.63543504,-0.5528128,-0.45101488,0.69964397,-1.7143122,0.34076217,0.56163126,-0.45601144,0.27431947,-1.6238325,-0.78328234,-1.361828,-0.9945032,0.521746,0.866287,-0.34742653,0.34942904,0.93809146,0.20099588,-2.8789864,1.1502329,-2.0570774,1.026937,0.46194518,-0.54968834,0.73804986,-0.69576204,0.018364731,0.6836089,-0.5383473,1.2833,45234000000.0,151000000000.0,50338000000.0,444000000000.0,1444000000.0,1778000000.0,84000000.0,68000000.0,7180161.0,97869480000.0,71898140000.0,37771.0,2242736.0,7670000000.0,64.769455,,,,12.228545
laghos,0.88929427,-0.5182339,-0.5869975,-0.589442,-1.2725917,0.08548911,-0.75516546,0.30359837,1.6834247,-0.34467933,-0.46534017,1.3830808,1.6031401,0.056520257,-1.0630301,-0.87785405,-0.3847221,-1.5369655,0.38475043,-0.546278,-0.63543504,-0.5528128,-0.45101488,0.69964397,-1.7143122,0.34076217,0.56163126,-0.45601144,0.27431947,-1.6238325,-0.78328234,-1.361828,-0.9945032,0.521746,0.866287,-0.34742653,0.34942904,0.93809146,0.20099588,-2.8789864,1.1502329,-2.0570774,1.026937,0.46194518,-0.54968834,0.73804986,-0.69576204,0.018364731,0.6836089,-0.5383473,1.2833,46370000000.0,154000000000.0,51606000000.0,455000000000.0,1470000000.0,1826000000.0,78000000.0,80000000.0,7361241.0,100000000000.0,73733456000.0,37771.0,2244566.0,8020000000.0,66.284096,,,,10.713902
laghos,0.88929427,-0.5182339,-0.5869975,-0.589442,-1.2725917,0.08548911,-0.75516546,0.30359837,1.6834247,-0.34467933,-0.46534017,1.3830808,1.6031401,0.056520257,-1.0630301,-0.87785405,-0.3847221,-1.5369655,0.38475043,-0.546278,-0.63543504,-0.5528128,-0.45101488,0.69964397,-1.7143122,0.34076217,0.56163126,-0.45601144,0.27431947,-1.6238325,-0.78328234,-1.361828,-0.9945032,0.521746,0.866287,-0.34742653,0.34942904,0.93809146,0.20099588,-2.8789864,1.1502329,-2.0570774,1.026937,0.46194518,-0.54968834,0.73804986,-0.69576204,0.018364731,0.6836089,-0.5383473,1.2666,46380000000.0,154000000000.0,51610000000.0,455000000000.0,1476000000.0,1826000000.0,90000000.0,74000000.0,7361172.0,100000000000.0,73597730000.0,37771.0,2244566.0,7920000000.0,66.48702,,,,9.508976
laghos,0.88929427,-0.5182339,-0.5869975,-0.589442,-1.2725917,0.08548911,-0.75516546,0.30359837,1.6834247,-0.34467933,-0.46534017,1.3830808,1.6031401,0.056520257,-1.0630301,-0.87785405,-0.3847221,-1.5369655,0.38475043,-0.546278,-0.63543504,-0.5528128,-0.45101488,0.69964397,-1.7143122,0.34076217,0.56163126,-0.45601144,0.27431947,-1.6238325,-0.78328234,-1.361828,-0.9945032,0.521746,0.866287,-0.34742653,0.34942904,0.93809146,0.20099588,-2.8789864,1.1502329,-2.0570774,1.026937,0.46194518,-0.54968834,0.73804986,-0.69576204,0.018364731,0.6836089,-0.5383473,1.3166,47448000000.0,158000000000.0,52792000000.0,465000000000.0,1434000000.0,1868000000.0,66000000.0,68000000.0,7526744.0,103000000000.0,75511460000.0,37771.0,2246212.0,8284000000.0,68.80397,,,,10.192027
laghos,0.88929427,-0.5182339,-0.5869975,-0.589442,-1.2725917,0.08548911,-0.75516546,0.30359837,1.6834247,-0.34467933,-0.46534017,1.3830808,1.6031401,0.056520257,-1.0630301,-0.87785405,-0.3847221,-1.5369655,0.38475043,-0.546278,-0.63543504,-0.5528128,-0.45101488,0.69964397,-1.7143122,0.34076217,0.56163126,-0.45601144,0.27431947,-1.6238325,-0.78328234,-1.361828,-0.9945032,0.521746,0.866287,-0.34742653,0.34942904,0.93809146,0.20099588,-2.8789864,1.1502329,-2.0570774,1.026937,0.46194518,-0.54968834,0.73804986,-0.69576204,0.018364731,0.6836089,-0.5383473,1.3166,47442000000.0,158000000000.0,52792000000.0,465000000000.0,1484000000.0,1866000000.0,90000000.0,70000000.0,7532261.0,103000000000.0,75398455000.0,37771.0,2246212.0,7996000000.0,68.88793,,,,10.108066
laghos,0.88929427,-0.5182339,-0.5869975,-0.589442,-1.2725917,0.08548911,-0.75516546,0.30359837,1.6834247,-0.34467933,-0.46534017,1.3830808,1.6031401,0.056520257,-1.0630301,-0.87785405,-0.3847221,-1.5369655,0.38475043,-0.546278,-0.63543504,-0.5528128,-0.45101488,0.69964397,-1.7143122,0.34076217,0.56163126,-0.45601144,0.27431947,-1.6238325,-0.78328234,-1.361828,-0.9945032,0.521746,0.866287,-0.34742653,0.34942904,0.93809146,0.20099588,-2.8789864,1.1502329,-2.0570774,1.026937,0.46194518,-0.54968834,0.73804986,-0.69576204,0.018364731,0.6836089,-0.5383473,1.3333,48428000000.0,161000000000.0,53878000000.0,475000000000.0,1468000000.0,1906000000.0,74000000.0,68000000.0,7683092.0,105000000000.0,76842670000.0,37771.0,2247738.0,8350000000.0,73.635605,,,,6.362398
laghos,0.88929427,-0.5182339,-0.5869975,-0.589442,-1.2725917,0.08548911,-0.75516546,0.30359837,1.6834247,-0.34467933,-0.46534017,1.3830808,1.6031401,0.056520257,-1.0630301,-0.87785405,-0.3847221,-1.5369655,0.38475043,-0.546278,-0.63543504,-0.5528128,-0.45101488,0.69964397,-1.7143122,0.34076217,0.56163126,-0.45601144,0.27431947,-1.6238325,-0.78328234,-1.361828,-0.9945032,0.521746,0.866287,-0.34742653,0.34942904,0.93809146,0.20099588,-2.8789864,1.1502329,-2.0570774,1.026937,0.46194518,-0.54968834,0.73804986,-0.69576204,0.018364731,0.6836089,-0.5383473,1.3333,48416000000.0,161000000000.0,53876000000.0,475000000000.0,1478000000.0,1904000000.0,98000000.0,78000000.0,7686980.0,105000000000.0,76954770000.0,37771.0,2247738.0,8200000000.0,70.66231,,,,9.335689
laghos,0.88929427,-0.5182339,-0.5869975,-0.589442,-1.2725917,0.08548911,-0.75516546,0.30359837,1.6834247,-0.34467933,-0.46534017,1.3830808,1.6031401,0.056520257,-1.0630301,-0.87785405,-0.3847221,-1.5369655,0.38475043,-0.546278,-0.63543504,-0.5528128,-0.45101488,0.69964397,-1.7143122,0.34076217,0.56163126,-0.45601144,0.27431947,-1.6238325,-0.78328234,-1.361828,-0.9945032,0.521746,0.866287,-0.34742653,0.34942904,0.93809146,0.20099588,-2.8789864,1.1502329,-2.0570774,1.026937,0.46194518,-0.54968834,0.73804986,-0.69576204,0.018364731,0.6836089,-0.5383473,1.3833,49292000000.0,164000000000.0,54858000000.0,484000000000.0,1666000000.0,1944000000.0,80000000.0,88000000.0,7837567.0,107000000000.0,78551810000.0,37771.0,2249202.0,9088000000.0,72.588196,,,,10.409803
laghos,0.88929427,-0.5182339,-0.5869975,-0.589442,-1.2725917,0.08548911,-0.75516546,0.30359837,1.6834247,-0.34467933,-0.46534017,1.3830808,1.6031401,0.056520257,-1.0630301,-0.87785405,-0.3847221,-1.5369655,0.38475043,-0.546278,-0.63543504,-0.5528128,-0.45101488,0.69964397,-1.7143122,0.34076217,0.56163126,-0.45601144,0.27431947,-1.6238325,-0.78328234,-1.361828,-0.9945032,0.521746,0.866287,-0.34742653,0.34942904,0.93809146,0.20099588,-2.8789864,1.1502329,-2.0570774,1.026937,0.46194518,-0.54968834,0.73804986,-0.69576204,0.018364731,0.6836089,-0.5383473,1.15,58548064000.0,94070310000.0,32692687000.0,256000000000.0,247937500.0,131250000.0,43250000.0,30250000.0,11717.75,3359517200.0,16187868000.0,69843.875,2108635.5,3008937500.0,20.99445,,,,48.00555
laghos,0.88929427,-0.5182339,-0.5869975,-0.589442,-1.2725917,0.08548911,-0.75516546,0.30359837,1.6834247,-0.34467933,-0.46534017,1.3830808,1.6031401,0.056520257,-1.0630301,-0.87785405,-0.3847221,-1.5369655,0.38475043,-0.546278,-0.63543504,-0.5528128,-0.45101488,0.69964397,-1.7143122,0.34076217,0.56163126,-0.45601144,0.27431947,-1.6238325,-0.78328234,-1.361828,-0.9945032,0.521746,0.866287,-0.34742653,0.34942904,0.93809146,0.20099588,-2.8789864,1.1502329,-2.0570774,1.026937,0.46194518,-0.54968834,0.73804986,-0.69576204,0.018364731,0.6836089,-0.5383473,1.35,49312000000.0,164000000000.0,54870000000.0,484000000000.0,1664000000.0,1944000000.0,78000000.0,72000000.0,7837189.0,107000000000.0,78542750000.0,37771.0,2249202.0,8332000000.0,71.75157,,,,9.248428
laghos,0.88929427,-0.5182339,-0.5869975,-0.589442,-1.2725917,0.08548911,-0.75516546,0.30359837,1.6834247,-0.34467933,-0.46534017,1.3830808,1.6031401,0.056520257,-1.0630301,-0.87785405,-0.3847221,-1.5369655,0.38475043,-0.546278,-0.63543504,-0.5528128,-0.45101488,0.69964397,-1.7143122,0.34076217,0.56163126,-0.45601144,0.27431947,-1.6238325,-0.78328234,-1.361828,-0.9945032,0.521746,0.866287,-0.34742653,0.34942904,0.93809146,0.20099588,-2.8789864,1.1502329,-2.0570774,1.026937,0.46194518,-0.54968834,0.73804986,-0.69576204,0.018364731,0.6836089,-0.5383473,1.15,58193375000.0,93528690000.0,32519438000.0,254000000000.0,247937500.0,136687500.0,43000000.0,30437500.0,11544.0,3359651800.0,16713931000.0,69843.875,2108635.5,2950562600.0,20.463287,,,,48.536713
laghos,0.88929427,-0.5182339,-0.5869975,-0.589442,-1.2725917,0.08548911,-0.75516546,0.30359837,1.6834247,-0.34467933,-0.46534017,1.3830808,1.6031401,0.056520257,-1.0630301,-0.87785405,-0.3847221,-1.5369655,0.38475043,-0.546278,-0.63543504,-0.5528128,-0.45101488,0.69964397,-1.7143122,0.34076217,0.56163126,-0.45601144,0.27431947,-1.6238325,-0.78328234,-1.361828,-0.9945032,0.521746,0.866287,-0.34742653,0.34942904,0.93809146,0.20099588,-2.8789864,1.1502329,-2.0570774,1.026937,0.46194518,-0.54968834,0.73804986,-0.69576204,0.018364731,0.6836089,-0.5383473,1.35,50278000000.0,167000000000.0,55940000000.0,493000000000.0,1546000000.0,1980000000.0,94000000.0,86000000.0,7978507.0,109000000000.0,79871435000.0,37771.0,2250605.0,8512000000.0,74.27004,,,,6.729959
laghos,0.88929427,-0.5182339,-0.5869975,-0.589442,-1.2725917,0.08548911,-0.75516546,0.30359837,1.6834247,-0.34467933,-0.46534017,1.3830808,1.6031401,0.056520257,-1.0630301,-0.87785405,-0.3847221,-1.5369655,0.38475043,-0.546278,-0.63543504,-0.5528128,-0.45101488,0.69964397,-1.7143122,0.34076217,0.56163126,-0.45601144,0.27431947,-1.6238325,-0.78328234,-1.361828,-0.9945032,0.521746,0.866287,-0.34742653,0.34942904,0.93809146,0.20099588,-2.8789864,1.1502329,-2.0570774,1.026937,0.46194518,-0.54968834,0.73804986,-0.69576204,0.018364731,0.6836089,-0.5383473,1.4,50262000000.0,167000000000.0,55930000000.0,493000000000.0,1544000000.0,1978000000.0,70000000.0,72000000.0,7978797.0,109000000000.0,79934860000.0,37771.0,2250605.0,8546000000.0,73.08142,,,,10.918577
laghos,0.88929427,-0.5182339,-0.5869975,-0.589442,-1.2725917,0.08548911,-0.75516546,0.30359837,1.6834247,-0.34467933,-0.46534017,1.3830808,1.6031401,0.056520257,-1.0630301,-0.87785405,-0.3847221,-1.5369655,0.38475043,-0.546278,-0.63543504,-0.5528128,-0.45101488,0.69964397,-1.7143122,0.34076217,0.56163126,-0.45601144,0.27431947,-1.6238325,-0.78328234,-1.361828,-0.9945032,0.521746,0.866287,-0.34742653,0.34942904,0.93809146,0.20099588,-2.8789864,1.1502329,-2.0570774,1.026937,0.46194518,-0.54968834,0.73804986,-0.69576204,0.018364731,0.6836089,-0.5383473,1.4333,51202000000.0,170000000000.0,56972000000.0,502000000000.0,1674000000.0,2016000000.0,78000000.0,70000000.0,8127369.0,111000000000.0,81251080000.0,37771.0,2252069.0,8560000000.0,73.85835,,,,12.139648
laghos,0.88929427,-0.5182339,-0.5869975,-0.589442,-1.2725917,0.08548911,-0.75516546,0.30359837,1.6834247,-0.34467933,-0.46534017,1.3830808,1.6031401,0.056520257,-1.0630301,-0.87785405,-0.3847221,-1.5369655,0.38475043,-0.546278,-0.63543504,-0.5528128,-0.45101488,0.69964397,-1.7143122,0.34076217,0.56163126,-0.45601144,0.27431947,-1.6238325,-0.78328234,-1.361828,-0.9945032,0.521746,0.866287,-0.34742653,0.34942904,0.93809146,0.20099588,-2.8789864,1.1502329,-2.0570774,1.026937,0.46194518,-0.54968834,0.73804986,-0.69576204,0.018364731,0.6836089,-0.5383473,1.4166,51224000000.0,170000000000.0,56982000000.0,502000000000.0,1564000000.0,2014000000.0,88000000.0,84000000.0,8127582.0,111000000000.0,81425990000.0,37771.0,2252069.0,8560000000.0,73.53922,,,,11.456776
laghos,0.88929427,-0.5182339,-0.5869975,-0.589442,-1.2725917,0.08548911,-0.75516546,0.30359837,1.6834247,-0.34467933,-0.46534017,1.3830808,1.6031401,0.056520257,-1.0630301,-0.87785405,-0.3847221,-1.5369655,0.38475043,-0.546278,-0.63543504,-0.5528128,-0.45101488,0.69964397,-1.7143122,0.34076217,0.56163126,-0.45601144,0.27431947,-1.6238325,-0.78328234,-1.361828,-0.9945032,0.521746,0.866287,-0.34742653,0.34942904,0.93809146,0.20099588,-2.8789864,1.1502329,-2.0570774,1.026937,0.46194518,-0.54968834,0.73804986,-0.69576204,0.018364731,0.6836089,-0.5383473,1.4333,52096000000.0,173000000000.0,57988000000.0,511000000000.0,1592000000.0,2050000000.0,92000000.0,80000000.0,8273518.0,113000000000.0,83076460000.0,37771.0,2253533.0,8740000000.0,75.22446,,,,10.77354
laghos,0.88929427,-0.5182339,-0.5869975,-0.589442,-1.2725917,0.08548911,-0.75516546,0.30359837,1.6834247,-0.34467933,-0.46534017,1.3830808,1.6031401,0.056520257,-1.0630301,-0.87785405,-0.3847221,-1.5369655,0.38475043,-0.546278,-0.63543504,-0.5528128,-0.45101488,0.69964397,-1.7143122,0.34076217,0.56163126,-0.45601144,0.27431947,-1.6238325,-0.78328234,-1.361828,-0.9945032,0.521746,0.866287,-0.34742653,0.34942904,0.93809146,0.20099588,-2.8789864,1.1502329,-2.0570774,1.026937,0.46194518,-0.54968834,0.73804986,-0.69576204,0.018364731,0.6836089,-0.5383473,1.4,52132000000.0,173000000000.0,58006000000.0,511000000000.0,1600000000.0,2052000000.0,86000000.0,74000000.0,8273505.0,113000000000.0,82874160000.0,37771.0,2253533.0,8730000000.0,77.83641,,,,6.163591
laghos,0.88929427,-0.5182339,-0.5869975,-0.589442,-1.2725917,0.08548911,-0.75516546,0.30359837,1.6834247,-0.34467933,-0.46534017,1.3830808,1.6031401,0.056520257,-1.0630301,-0.87785405,-0.3847221,-1.5369655,0.38475043,-0.546278,-0.63543504,-0.5528128,-0.45101488,0.69964397,-1.7143122,0.34076217,0.56163126,-0.45601144,0.27431947,-1.6238325,-0.78328234,-1.361828,-0.9945032,0.521746,0.866287,-0.34742653,0.34942904,0.93809146,0.20099588,-2.8789864,1.1502329,-2.0570774,1.026937,0.46194518,-0.54968834,0.73804986,-0.69576204,0.018364731,0.6836089,-0.5383473,1.4666,53006000000.0,176000000000.0,58996000000.0,520000000000.0,1686000000.0,2088000000.0,76000000.0,74000000.0,8417230.0,115000000000.0,84297744000.0,37771.0,2254955.0,8860000000.0,76.67786,,,,11.318147
laghos,0.88929427,-0.5182339,-0.5869975,-0.589442,-1.2725917,0.08548911,-0.75516546,0.30359837,1.6834247,-0.34467933,-0.46534017,1.3830808,1.6031401,0.056520257,-1.0630301,-0.87785405,-0.3847221,-1.5369655,0.38475043,-0.546278,-0.63543504,-0.5528128,-0.45101488,0.69964397,-1.7143122,0.34076217,0.56163126,-0.45601144,0.27431947,-1.6238325,-0.78328234,-1.361828,-0.9945032,0.521746,0.866287,-0.34742653,0.34942904,0.93809146,0.20099588,-2.8789864,1.1502329,-2.0570774,1.026937,0.46194518,-0.54968834,0.73804986,-0.69576204,0.018364731,0.6836089,-0.5383473,1.4333,53024000000.0,176000000000.0,59006000000.0,520000000000.0,1612000000.0,2088000000.0,72000000.0,74000000.0,8415471.0,115000000000.0,84334170000.0,37771.0,2254954.0,8850000000.0,77.16168,,,,8.836319
laghos,0.88929427,-0.5182339,-0.5869975,-0.589442,-1.2725917,0.08548911,-0.75516546,0.30359837,1.6834247,-0.34467933,-0.46534017,1.3830808,1.6031401,0.056520257,-1.0630301,-0.87785405,-0.3847221,-1.5369655,0.38475043,-0.546278,-0.63543504,-0.5528128,-0.45101488,0.69964397,-1.7143122,0.34076217,0.56163126,-0.45601144,0.27431947,-1.6238325,-0.78328234,-1.361828,-0.9945032,0.521746,0.866287,-0.34742653,0.34942904,0.93809146,0.20099588,-2.8789864,1.1502329,-2.0570774,1.026937,0.46194518,-0.54968834,0.73804986,-0.69576204,0.018364731,0.6836089,-0.5383473,1.5,55010000000.0,183000000000.0,61218000000.0,539000000000.0,1722000000.0,2170000000.0,90000000.0,82000000.0,8728818.0,119000000000.0,87395860000.0,37771.0,2258117.0,9440000000.0,79.49544,,,,10.504564
laghos,0.88929427,-0.5182339,-0.5869975,-0.589442,-1.2725917,0.08548911,-0.75516546,0.30359837,1.6834247,-0.34467933,-0.46534017,1.3830808,1.6031401,0.056520257,-1.0630301,-0.87785405,-0.3847221,-1.5369655,0.38475043,-0.546278,-0.63543504,-0.5528128,-0.45101488,0.69964397,-1.7143122,0.34076217,0.56163126,-0.45601144,0.27431947,-1.6238325,-0.78328234,-1.361828,-0.9945032,0.521746,0.866287,-0.34742653,0.34942904,0.93809146,0.20099588,-2.8789864,1.1502329,-2.0570774,1.026937,0.46194518,-0.54968834,0.73804986,-0.69576204,0.018364731,0.6836089,-0.5383473,1.2833,65882500000.0,106000000000.0,36747563000.0,288000000000.0,277250000.0,150750000.0,48937500.0,34062500.0,11845.719,3746126000.0,17944072000.0,69842.91,2108918.0,3283750000.0,23.196653,,,,53.801346
laghos,0.88929427,-0.5182339,-0.5869975,-0.589442,-1.2725917,0.08548911,-0.75516546,0.30359837,1.6834247,-0.34467933,-0.46534017,1.3830808,1.6031401,0.056520257,-1.0630301,-0.87785405,-0.3847221,-1.5369655,0.38475043,-0.546278,-0.63543504,-0.5528128,-0.45101488,0.69964397,-1.7143122,0.34076217,0.56163126,-0.45601144,0.27431947,-1.6238325,-0.78328234,-1.361828,-0.9945032,0.521746,0.866287,-0.34742653,0.34942904,0.93809146,0.20099588,-2.8789864,1.1502329,-2.0570774,1.026937,0.46194518,-0.54968834,0.73804986,-0.69576204,0.018364731,0.6836089,-0.5383473,1.5,54990000000.0,183000000000.0,61214000000.0,539000000000.0,1754000000.0,2168000000.0,128000000.0,96000000.0,8727180.0,119000000000.0,87556120000.0,37771.0,2258118.0,9302000000.0,79.38219,,,,10.617814
laghos,0.88929427,-0.5182339,-0.5869975,-0.589442,-1.2725917,0.08548911,-0.75516546,0.30359837,1.6834247,-0.34467933,-0.46534017,1.3830808,1.6031401,0.056520257,-1.0630301,-0.87785405,-0.3847221,-1.5369655,0.38475043,-0.546278,-0.63543504,-0.5528128,-0.45101488,0.69964397,-1.7143122,0.34076217,0.56163126,-0.45601144,0.27431947,-1.6238325,-0.78328234,-1.361828,-0.9945032,0.521746,0.866287,-0.34742653,0.34942904,0.93809146,0.20099588,-2.8789864,1.1502329,-2.0570774,1.026937,0.46194518,-0.54968834,0.73804986,-0.69576204,0.018364731,0.6836089,-0.5383473,1.2666,66125062000.0,106000000000.0,36863250000.0,289000000000.0,274625000.0,148937500.0,48312500.0,33625000.0,11488.719,3745715200.0,18541998000.0,69874.91,2108919.0,3303875000.0,23.360928,,,,52.635075
laghos,0.88929427,-0.5182339,-0.5869975,-0.589442,-1.2725917,0.08548911,-0.75516546,0.30359837,1.6834247,-0.34467933,-0.46534017,1.3830808,1.6031401,0.056520257,-1.0630301,-0.87785405,-0.3847221,-1.5369655,0.38475043,-0.546278,-0.63543504,-0.5528128,-0.45101488,0.69964397,-1.7143122,0.34076217,0.56163126,-0.45601144,0.27431947,-1.6238325,-0.78328234,-1.361828,-0.9945032,0.521746,0.866287,-0.34742653,0.34942904,0.93809146,0.20099588,-2.8789864,1.1502329,-2.0570774,1.026937,0.46194518,-0.54968834,0.73804986,-0.69576204,0.018364731,0.6836089,-0.5383473,1.6666,57982000000.0,193000000000.0,64542000000.0,569000000000.0,1750000000.0,2282000000.0,98000000.0,78000000.0,9209490.0,126000000000.0,92248690000.0,37771.0,2262896.0,9800000000.0,84.48716,,,,15.508839
laghos,0.88929427,-0.5182339,-0.5869975,-0.589442,-1.2725917,0.08548911,-0.75516546,0.30359837,1.6834247,-0.34467933,-0.46534017,1.3830808,1.6031401,0.056520257,-1.0630301,-0.87785405,-0.3847221,-1.5369655,0.38475043,-0.546278,-0.63543504,-0.5528128,-0.45101488,0.69964397,-1.7143122,0.34076217,0.56163126,-0.45601144,0.27431947,-1.6238325,-0.78328234,-1.361828,-0.9945032,0.521746,0.866287,-0.34742653,0.34942904,0.93809146,0.20099588,-2.8789864,1.1502329,-2.0570774,1.026937,0.46194518,-0.54968834,0.73804986,-0.69576204,0.018364731,0.6836089,-0.5383473,1.6333,57992000000.0,193000000000.0,64548000000.0,569000000000.0,1814000000.0,2282000000.0,106000000.0,84000000.0,9207800.0,126000000000.0,92285020000.0,37771.0,2262895.0,9826000000.0,85.717445,,,,12.280555
laghos,0.88929427,-0.5182339,-0.5869975,-0.589442,-1.2725917,0.08548911,-0.75516546,0.30359837,1.6834247,-0.34467933,-0.46534017,1.3830808,1.6031401,0.056520257,-1.0630301,-0.87785405,-0.3847221,-1.5369655,0.38475043,-0.546278,-0.63543504,-0.5528128,-0.45101488,0.69964397,-1.7143122,0.34076217,0.56163126,-0.45601144,0.27431947,-1.6238325,-0.78328234,-1.361828,-0.9945032,0.521746,0.866287,-0.34742653,0.34942904,0.93809146,0.20099588,-2.8789864,1.1502329,-2.0570774,1.026937,0.46194518,-0.54968834,0.73804986,-0.69576204,0.018364731,0.6836089,-0.5383473,1.6666,61444000000.0,205000000000.0,68406000000.0,603000000000.0,1966000000.0,2420000000.0,112000000.0,100000000.0,9757093.0,133000000000.0,97997130000.0,37771.0,2268343.0,10650000000.0,91.37897,,,,8.617034
laghos,0.88929427,-0.5182339,-0.5869975,-0.589442,-1.2725917,0.08548911,-0.75516546,0.30359837,1.6834247,-0.34467933,-0.46534017,1.3830808,1.6031401,0.056520257,-1.0630301,-0.87785405,-0.3847221,-1.5369655,0.38475043,-0.546278,-0.63543504,-0.5528128,-0.45101488,0.69964397,-1.7143122,0.34076217,0.56163126,-0.45601144,0.27431947,-1.6238325,-0.78328234,-1.361828,-0.9945032,0.521746,0.866287,-0.34742653,0.34942904,0.93809146,0.20099588,-2.8789864,1.1502329,-2.0570774,1.026937,0.46194518,-0.54968834,0.73804986,-0.69576204,0.018364731,0.6836089,-0.5383473,1.6833,61466000000.0,205000000000.0,68414000000.0,603000000000.0,1936000000.0,2422000000.0,100000000.0,94000000.0,9758276.0,133000000000.0,97801710000.0,37771.0,2268343.0,10318000000.0,87.77006,,,,13.227945
laghos,0.88929427,-0.5182339,-0.5869975,-0.589442,-1.2725917,0.08548911,-0.75516546,0.30359837,1.6834247,-0.34467933,-0.46534017,1.3830808,1.6031401,0.056520257,-1.0630301,-0.87785405,-0.3847221,-1.5369655,0.38475043,-0.546278,-0.63543504,-0.5528128,-0.45101488,0.69964397,-1.7143122,0.34076217,0.56163126,-0.45601144,0.27431947,-1.6238325,-0.78328234,-1.361828,-0.9945032,0.521746,0.866287,-0.34742653,0.34942904,0.93809146,0.20099588,-2.8789864,1.1502329,-2.0570774,1.026937,0.46194518,-0.54968834,0.73804986,-0.69576204,0.018364731,0.6836089,-0.5383473,1.8,65418000000.0,218000000000.0,72840000000.0,642000000000.0,1984000000.0,2578000000.0,130000000.0,104000000.0,10389404.0,142000000000.0,104000000000.0,37771.0,2274566.0,11082000000.0,94.72576,,,,13.274235
laghos,0.88929427,-0.5182339,-0.5869975,-0.589442,-1.2725917,0.08548911,-0.75516546,0.30359837,1.6834247,-0.34467933,-0.46534017,1.3830808,1.6031401,0.056520257,-1.0630301,-0.87785405,-0.3847221,-1.5369655,0.38475043,-0.546278,-0.63543504,-0.5528128,-0.45101488,0.69964397,-1.7143122,0.34076217,0.56163126,-0.45601144,0.27431947,-1.6238325,-0.78328234,-1.361828,-0.9945032,0.521746,0.866287,-0.34742653,0.34942904,0.93809146,0.20099588,-2.8789864,1.1502329,-2.0570774,1.026937,0.46194518,-0.54968834,0.73804986,-0.69576204,0.018364731,0.6836089,-0.5383473,1.8,65480000000.0,218000000000.0,72868000000.0,642000000000.0,1988000000.0,2576000000.0,92000000.0,90000000.0,10392343.0,142000000000.0,104000000000.0,37771.0,2274566.0,11194000000.0,94.63971,,,,13.360292
laghos,0.88929427,-0.5182339,-0.5869975,-0.589442,-1.2725917,0.08548911,-0.75516546,0.30359837,1.6834247,-0.34467933,-0.46534017,1.3830808,1.6031401,0.056520257,-1.0630301,-0.87785405,-0.3847221,-1.5369655,0.38475043,-0.546278,-0.63543504,-0.5528128,-0.45101488,0.69964397,-1.7143122,0.34076217,0.56163126,-0.45601144,0.27431947,-1.6238325,-0.78328234,-1.361828,-0.9945032,0.521746,0.866287,-0.34742653,0.34942904,0.93809146,0.20099588,-2.8789864,1.1502329,-2.0570774,1.026937,0.46194518,-0.54968834,0.73804986,-0.69576204,0.018364731,0.6836089,-0.5383473,1.8833,69288000000.0,231000000000.0,77106000000.0,680000000000.0,2140000000.0,2728000000.0,98000000.0,100000000.0,10996139.0,150000000000.0,110000000000.0,37771.0,2280544.0,11704000000.0,98.5862,,,,14.411802
laghos,0.88929427,-0.5182339,-0.5869975,-0.589442,-1.2725917,0.08548911,-0.75516546,0.30359837,1.6834247,-0.34467933,-0.46534017,1.3830808,1.6031401,0.056520257,-1.0630301,-0.87785405,-0.3847221,-1.5369655,0.38475043,-0.546278,-0.63543504,-0.5528128,-0.45101488,0.69964397,-1.7143122,0.34076217,0.56163126,-0.45601144,0.27431947,-1.6238325,-0.78328234,-1.361828,-0.9945032,0.521746,0.866287,-0.34742653,0.34942904,0.93809146,0.20099588,-2.8789864,1.1502329,-2.0570774,1.026937,0.46194518,-0.54968834,0.73804986,-0.69576204,0.018364731,0.6836089,-0.5383473,1.9,69266000000.0,231000000000.0,77106000000.0,680000000000.0,2226000000.0,2728000000.0,130000000.0,108000000.0,10996962.0,150000000000.0,110000000000.0,37771.0,2280544.0,11726000000.0,100.16104,,,,13.838955
laghos,0.88929427,-0.5182339,-0.5869975,-0.589442,-1.2725917,0.08548911,-0.75516546,0.30359837,1.6834247,-0.34467933,-0.46534017,1.3830808,1.6031401,0.056520257,-1.0630301,-0.87785405,-0.3847221,-1.5369655,0.38475043,-0.546278,-0.63543504,-0.5528128,-0.45101488,0.69964397,-1.7143122,0.34076217,0.56163126,-0.45601144,0.27431947,-1.6238325,-0.78328234,-1.361828,-0.9945032,0.521746,0.866287,-0.34742653,0.34942904,0.93809146,0.20099588,-2.8789864,1.1502329,-2.0570774,1.026937,0.46194518,-0.54968834,0.73804986,-0.69576204,0.018364731,0.6836089,-0.5383473,1.9666,72274000000.0,241000000000.0,80442000000.0,709000000000.0,2392000000.0,2850000000.0,116000000.0,102000000.0,11482814.0,157000000000.0,115000000000.0,37771.0,2285302.0,12154000000.0,103.37875,,,,14.617244
laghos,0.88929427,-0.5182339,-0.5869975,-0.589442,-1.2725917,0.08548911,-0.75516546,0.30359837,1.6834247,-0.34467933,-0.46534017,1.3830808,1.6031401,0.056520257,-1.0630301,-0.87785405,-0.3847221,-1.5369655,0.38475043,-0.546278,-0.63543504,-0.5528128,-0.45101488,0.69964397,-1.7143122,0.34076217,0.56163126,-0.45601144,0.27431947,-1.6238325,-0.78328234,-1.361828,-0.9945032,0.521746,0.866287,-0.34742653,0.34942904,0.93809146,0.20099588,-2.8789864,1.1502329,-2.0570774,1.026937,0.46194518,-0.54968834,0.73804986,-0.69576204,0.018364731,0.6836089,-0.5383473,1.65,84884685000.0,136000000000.0,47357500000.0,371000000000.0,354625000.0,190812500.0,62625000.0,44562500.0,11193.125,4928549000.0,24488284000.0,69874.91,2109753.2,4275187500.0,29.647745,,,,69.35226
laghos,0.88929427,-0.5182339,-0.5869975,-0.589442,-1.2725917,0.08548911,-0.75516546,0.30359837,1.6834247,-0.34467933,-0.46534017,1.3830808,1.6031401,0.056520257,-1.0630301,-0.87785405,-0.3847221,-1.5369655,0.38475043,-0.546278,-0.63543504,-0.5528128,-0.45101488,0.69964397,-1.7143122,0.34076217,0.56163126,-0.45601144,0.27431947,-1.6238325,-0.78328234,-1.361828,-0.9945032,0.521746,0.866287,-0.34742653,0.34942904,0.93809146,0.20099588,-2.8789864,1.1502329,-2.0570774,1.026937,0.46194518,-0.54968834,0.73804986,-0.69576204,0.018364731,0.6836089,-0.5383473,2.0,72260000000.0,241000000000.0,80436000000.0,709000000000.0,2384000000.0,2848000000.0,132000000.0,130000000.0,11483660.0,157000000000.0,115000000000.0,37771.0,2285304.0,12330000000.0,106.40996,,,,13.590044
laghos,0.88929427,-0.5182339,-0.5869975,-0.589442,-1.2725917,0.08548911,-0.75516546,0.30359837,1.6834247,-0.34467933,-0.46534017,1.3830808,1.6031401,0.056520257,-1.0630301,-0.87785405,-0.3847221,-1.5369655,0.38475043,-0.546278,-0.63543504,-0.5528128,-0.45101488,0.69964397,-1.7143122,0.34076217,0.56163126,-0.45601144,0.27431947,-1.6238325,-0.78328234,-1.361828,-0.9945032,0.521746,0.866287,-0.34742653,0.34942904,0.93809146,0.20099588,-2.8789864,1.1502329,-2.0570774,1.026937,0.46194518,-0.54968834,0.73804986,-0.69576204,0.018364731,0.6836089,-0.5383473,1.6166,85841750000.0,138000000000.0,47841313000.0,375000000000.0,364125000.0,196187500.0,63812500.0,44750000.0,11400.0,4838677500.0,23702948000.0,69875.875,2109753.2,4288687600.0,29.670645,,,,67.325356
laghos,0.88929427,-0.5182339,-0.5869975,-0.589442,-1.2725917,0.08548911,-0.75516546,0.30359837,1.6834247,-0.34467933,-0.46534017,1.3830808,1.6031401,0.056520257,-1.0630301,-0.87785405,-0.3847221,-1.5369655,0.38475043,-0.546278,-0.63543504,-0.5528128,-0.45101488,0.69964397,-1.7143122,0.34076217,0.56163126,-0.45601144,0.27431947,-1.6238325,-0.78328234,-1.361828,-0.9945032,0.521746,0.866287,-0.34742653,0.34942904,0.93809146,0.20099588,-2.8789864,1.1502329,-2.0570774,1.026937,0.46194518,-0.54968834,0.73804986,-0.69576204,0.018364731,0.6836089,-0.5383473,2.0,74378000000.0,248000000000.0,82800000000.0,730000000000.0,2340000000.0,2932000000.0,138000000.0,126000000.0,11810668.0,161000000000.0,118000000000.0,37771.0,2288535.0,12528000000.0,106.586494,,,,13.413505
laghos,0.88929427,-0.5182339,-0.5869975,-0.589442,-1.2725917,0.08548911,-0.75516546,0.30359837,1.6834247,-0.34467933,-0.46534017,1.3830808,1.6031401,0.056520257,-1.0630301,-0.87785405,-0.3847221,-1.5369655,0.38475043,-0.546278,-0.63543504,-0.5528128,-0.45101488,0.69964397,-1.7143122,0.34076217,0.56163126,-0.45601144,0.27431947,-1.6238325,-0.78328234,-1.361828,-0.9945032,0.521746,0.866287,-0.34742653,0.34942904,0.93809146,0.20099588,-2.8789864,1.1502329,-2.0570774,1.026937,0.46194518,-0.54968834,0.73804986,-0.69576204,0.018364731,0.6836089,-0.5383473,2.0166,74396000000.0,248000000000.0,82810000000.0,730000000000.0,2310000000.0,2930000000.0,128000000.0,128000000.0,11808640.0,161000000000.0,118000000000.0,37771.0,2288536.0,12634000000.0,107.45976,,,,13.536239
laghos,0.88929427,-0.5182339,-0.5869975,-0.589442,-1.2725917,0.08548911,-0.75516546,0.30359837,1.6834247,-0.34467933,-0.46534017,1.3830808,1.6031401,0.056520257,-1.0630301,-0.87785405,-0.3847221,-1.5369655,0.38475043,-0.546278,-0.63543504,-0.5528128,-0.45101488,0.69964397,-1.7143122,0.34076217,0.56163126,-0.45601144,0.27431947,-1.6238325,-0.78328234,-1.361828,-0.9945032,0.521746,0.866287,-0.34742653,0.34942904,0.93809146,0.20099588,-2.8789864,1.1502329,-2.0570774,1.026937,0.46194518,-0.54968834,0.73804986,-0.69576204,0.018364731,0.6836089,-0.5383473,2.0666,75910000000.0,253000000000.0,84498000000.0,745000000000.0,2312000000.0,2990000000.0,110000000.0,108000000.0,12051124.0,164000000000.0,121000000000.0,37771.0,2290929.0,12916000000.0,110.403725,,,,13.592274
laghos,0.88929427,-0.5182339,-0.5869975,-0.589442,-1.2725917,0.08548911,-0.75516546,0.30359837,1.6834247,-0.34467933,-0.46534017,1.3830808,1.6031401,0.056520257,-1.0630301,-0.87785405,-0.3847221,-1.5369655,0.38475043,-0.546278,-0.63543504,-0.5528128,-0.45101488,0.69964397,-1.7143122,0.34076217,0.56163126,-0.45601144,0.27431947,-1.6238325,-0.78328234,-1.361828,-0.9945032,0.521746,0.866287,-0.34742653,0.34942904,0.93809146,0.20099588,-2.8789864,1.1502329,-2.0570774,1.026937,0.46194518,-0.54968834,0.73804986,-0.69576204,0.018364731,0.6836089,-0.5383473,2.1,75934000000.0,253000000000.0,84506000000.0,745000000000.0,2318000000.0,2992000000.0,106000000.0,104000000.0,12046964.0,164000000000.0,121000000000.0,37771.0,2290930.0,12702000000.0,109.74005,,,,16.25995
laghos,0.88929427,-0.5182339,-0.5869975,-0.589442,-1.2725917,0.08548911,-0.75516546,0.30359837,1.6834247,-0.34467933,-0.46534017,1.3830808,1.6031401,0.056520257,-1.0630301,-0.87785405,-0.3847221,-1.5369655,0.38475043,-0.546278,-0.63543504,-0.5528128,-0.45101488,0.69964397,-1.7143122,0.34076217,0.56163126,-0.45601144,0.27431947,-1.6238325,-0.78328234,-1.361828,-0.9945032,0.521746,0.866287,-0.34742653,0.34942904,0.93809146,0.20099588,-2.8789864,1.1502329,-2.0570774,1.026937,0.46194518,-0.54968834,0.73804986,-0.69576204,0.018364731,0.6836089,-0.5383473,2.15,78116000000.0,260000000000.0,86980000000.0,767000000000.0,2478000000.0,3080000000.0,130000000.0,138000000.0,12407731.0,169000000000.0,124000000000.0,37771.0,2294486.0,13190000000.0,113.314156,,,,15.685847
laghos,0.88929427,-0.5182339,-0.5869975,-0.589442,-1.2725917,0.08548911,-0.75516546,0.30359837,1.6834247,-0.34467933,-0.46534017,1.3830808,1.6031401,0.056520257,-1.0630301,-0.87785405,-0.3847221,-1.5369655,0.38475043,-0.546278,-0.63543504,-0.5528128,-0.45101488,0.69964397,-1.7143122,0.34076217,0.56163126,-0.45601144,0.27431947,-1.6238325,-0.78328234,-1.361828,-0.9945032,0.521746,0.866287,-0.34742653,0.34942904,0.93809146,0.20099588,-2.8789864,1.1502329,-2.0570774,1.026937,0.46194518,-0.54968834,0.73804986,-0.69576204,0.018364731,0.6836089,-0.5383473,2.1,78146000000.0,260000000000.0,86986000000.0,767000000000.0,2374000000.0,3076000000.0,138000000.0,120000000.0,12403484.0,169000000000.0,124000000000.0,37771.0,2294486.0,13694000000.0,112.08167,,,,13.918327
laghos,0.88929427,-0.5182339,-0.5869975,-0.589442,-1.2725917,0.08548911,-0.75516546,0.30359837,1.6834247,-0.34467933,-0.46534017,1.3830808,1.6031401,0.056520257,-1.0630301,-0.87785405,-0.3847221,-1.5369655,0.38475043,-0.546278,-0.63543504,-0.5528128,-0.45101488,0.69964397,-1.7143122,0.34076217,0.56163126,-0.45601144,0.27431947,-1.6238325,-0.78328234,-1.361828,-0.9945032,0.521746,0.866287,-0.34742653,0.34942904,0.93809146,0.20099588,-2.8789864,1.1502329,-2.0570774,1.026937,0.46194518,-0.54968834,0.73804986,-0.69576204,0.018364731,0.6836089,-0.5383473,2.2333,80780000000.0,269000000000.0,89914000000.0,792000000000.0,2442000000.0,3182000000.0,114000000.0,110000000.0,12819555.0,175000000000.0,129000000000.0,37771.0,2298512.0,13744000000.0,116.71844,,,,17.27956
laghos,0.88929427,-0.5182339,-0.5869975,-0.589442,-1.2725917,0.08548911,-0.75516546,0.30359837,1.6834247,-0.34467933,-0.46534017,1.3830808,1.6031401,0.056520257,-1.0630301,-0.87785405,-0.3847221,-1.5369655,0.38475043,-0.546278,-0.63543504,-0.5528128,-0.45101488,0.69964397,-1.7143122,0.34076217,0.56163126,-0.45601144,0.27431947,-1.6238325,-0.78328234,-1.361828,-0.9945032,0.521746,0.866287,-0.34742653,0.34942904,0.93809146,0.20099588,-2.8789864,1.1502329,-2.0570774,1.026937,0.46194518,-0.54968834,0.73804986,-0.69576204,0.018364731,0.6836089,-0.5383473,2.2,80764000000.0,269000000000.0,89906000000.0,792000000000.0,2524000000.0,3182000000.0,130000000.0,144000000.0,12821560.0,175000000000.0,129000000000.0,37771.0,2298513.0,13460000000.0,120.28254,,,,11.717463
laghos,0.88929427,-0.5182339,-0.5869975,-0.589442,-1.2725917,0.08548911,-0.75516546,0.30359837,1.6834247,-0.34467933,-0.46534017,1.3830808,1.6031401,0.056520257,-1.0630301,-0.87785405,-0.3847221,-1.5369655,0.38475043,-0.546278,-0.63543504,-0.5528128,-0.45101488,0.69964397,-1.7143122,0.34076217,0.56163126,-0.45601144,0.27431947,-1.6238325,-0.78328234,-1.361828,-0.9945032,0.521746,0.866287,-0.34742653,0.34942904,0.93809146,0.20099588,-2.8789864,1.1502329,-2.0570774,1.026937,0.46194518,-0.54968834,0.73804986,-0.69576204,0.018364731,0.6836089,-0.5383473,2.3166,83436000000.0,278000000000.0,92846000000.0,818000000000.0,2710000000.0,3292000000.0,182000000.0,146000000.0,13257360.0,181000000000.0,133000000000.0,37771.0,2302598.0,14140000000.0,121.17791,,,,17.818089
laghos,0.88929427,-0.5182339,-0.5869975,-0.589442,-1.2725917,0.08548911,-0.75516546,0.30359837,1.6834247,-0.34467933,-0.46534017,1.3830808,1.6031401,0.056520257,-1.0630301,-0.87785405,-0.3847221,-1.5369655,0.38475043,-0.546278,-0.63543504,-0.5528128,-0.45101488,0.69964397,-1.7143122,0.34076217,0.56163126,-0.45601144,0.27431947,-1.6238325,-0.78328234,-1.361828,-0.9945032,0.521746,0.866287,-0.34742653,0.34942904,0.93809146,0.20099588,-2.8789864,1.1502329,-2.0570774,1.026937,0.46194518,-0.54968834,0.73804986,-0.69576204,0.018364731,0.6836089,-0.5383473,1.85,99429250000.0,160000000000.0,55486624000.0,434000000000.0,413687500.0,224000000.0,73437500.0,51375000.0,11470.156,5691268600.0,27783428000.0,69875.875,2110247.5,4918625000.0,33.962204,,,,77.037796
laghos,0.88929427,-0.5182339,-0.5869975,-0.589442,-1.2725917,0.08548911,-0.75516546,0.30359837,1.6834247,-0.34467933,-0.46534017,1.3830808,1.6031401,0.056520257,-1.0630301,-0.87785405,-0.3847221,-1.5369655,0.38475043,-0.546278,-0.63543504,-0.5528128,-0.45101488,0.69964397,-1.7143122,0.34076217,0.56163126,-0.45601144,0.27431947,-1.6238325,-0.78328234,-1.361828,-0.9945032,0.521746,0.866287,-0.34742653,0.34942904,0.93809146,0.20099588,-2.8789864,1.1502329,-2.0570774,1.026937,0.46194518,-0.54968834,0.73804986,-0.69576204,0.018364731,0.6836089,-0.5383473,2.3666,83376000000.0,278000000000.0,92822000000.0,818000000000.0,2714000000.0,3290000000.0,128000000.0,116000000.0,13252974.0,181000000000.0,133000000000.0,37771.0,2302599.0,14426000000.0,119.087944,,,,22.908058
laghos,0.88929427,-0.5182339,-0.5869975,-0.589442,-1.2725917,0.08548911,-0.75516546,0.30359837,1.6834247,-0.34467933,-0.46534017,1.3830808,1.6031401,0.056520257,-1.0630301,-0.87785405,-0.3847221,-1.5369655,0.38475043,-0.546278,-0.63543504,-0.5528128,-0.45101488,0.69964397,-1.7143122,0.34076217,0.56163126,-0.45601144,0.27431947,-1.6238325,-0.78328234,-1.361828,-0.9945032,0.521746,0.866287,-0.34742653,0.34942904,0.93809146,0.20099588,-2.8789864,1.1502329,-2.0570774,1.026937,0.46194518,-0.54968834,0.73804986,-0.69576204,0.018364731,0.6836089,-0.5383473,1.9,99693810000.0,160000000000.0,55626064000.0,435000000000.0,421562500.0,228187500.0,73250000.0,52062500.0,11338.625,5691152000.0,28195246000.0,69875.875,2110247.5,4972000000.0,34.743095,,,,79.256905
laghos,0.88929427,-0.5182339,-0.5869975,-0.589442,-1.2725917,0.08548911,-0.75516546,0.30359837,1.6834247,-0.34467933,-0.46534017,1.3830808,1.6031401,0.056520257,-1.0630301,-0.87785405,-0.3847221,-1.5369655,0.38475043,-0.546278,-0.63543504,-0.5528128,-0.45101488,0.69964397,-1.7143122,0.34076217,0.56163126,-0.45601144,0.27431947,-1.6238325,-0.78328234,-1.361828,-0.9945032,0.521746,0.866287,-0.34742653,0.34942904,0.93809146,0.20099588,-2.8789864,1.1502329,-2.0570774,1.026937,0.46194518,-0.54968834,0.73804986,-0.69576204,0.018364731,0.6836089,-0.5383473,2.5833,93430000000.0,311000000000.0,104000000000.0,917000000000.0,3024000000.0,3688000000.0,134000000.0,138000000.0,14852424.0,203000000000.0,149000000000.0,37771.0,2318277.0,15916000000.0,134.10262,,,,20.89539
laghos,0.88929427,-0.5182339,-0.5869975,-0.589442,-1.2725917,0.08548911,-0.75516546,0.30359837,1.6834247,-0.34467933,-0.46534017,1.3830808,1.6031401,0.056520257,-1.0630301,-0.87785405,-0.3847221,-1.5369655,0.38475043,-0.546278,-0.63543504,-0.5528128,-0.45101488,0.69964397,-1.7143122,0.34076217,0.56163126,-0.45601144,0.27431947,-1.6238325,-0.78328234,-1.361828,-0.9945032,0.521746,0.866287,-0.34742653,0.34942904,0.93809146,0.20099588,-2.8789864,1.1502329,-2.0570774,1.026937,0.46194518,-0.54968834,0.73804986,-0.69576204,0.018364731,0.6836089,-0.5383473,1.9833,107000000000.0,172000000000.0,59961560000.0,469000000000.0,464062500.0,252562500.0,81437500.0,57750000.0,11344.281,6283262000.0,30743431000.0,69843.875,2110786.5,5667937300.0,39.18779,,,,79.81021
laghos,0.88929427,-0.5182339,-0.5869975,-0.589442,-1.2725917,0.08548911,-0.75516546,0.30359837,1.6834247,-0.34467933,-0.46534017,1.3830808,1.6031401,0.056520257,-1.0630301,-0.87785405,-0.3847221,-1.5369655,0.38475043,-0.546278,-0.63543504,-0.5528128,-0.45101488,0.69964397,-1.7143122,0.34076217,0.56163126,-0.45601144,0.27431947,-1.6238325,-0.78328234,-1.361828,-0.9945032,0.521746,0.866287,-0.34742653,0.34942904,0.93809146,0.20099588,-2.8789864,1.1502329,-2.0570774,1.026937,0.46194518,-0.54968834,0.73804986,-0.69576204,0.018364731,0.6836089,-0.5383473,2.55,93462000000.0,311000000000.0,104000000000.0,917000000000.0,3026000000.0,3686000000.0,140000000.0,134000000.0,14852316.0,203000000000.0,149000000000.0,37771.0,2318278.0,16520000000.0,137.1667,,,,15.833297
laghos,0.88929427,-0.5182339,-0.5869975,-0.589442,-1.2725917,0.08548911,-0.75516546,0.30359837,1.6834247,-0.34467933,-0.46534017,1.3830808,1.6031401,0.056520257,-1.0630301,-0.87785405,-0.3847221,-1.5369655,0.38475043,-0.546278,-0.63543504,-0.5528128,-0.45101488,0.69964397,-1.7143122,0.34076217,0.56163126,-0.45601144,0.27431947,-1.6238325,-0.78328234,-1.361828,-0.9945032,0.521746,0.866287,-0.34742653,0.34942904,0.93809146,0.20099588,-2.8789864,1.1502329,-2.0570774,1.026937,0.46194518,-0.54968834,0.73804986,-0.69576204,0.018364731,0.6836089,-0.5383473,2.0833,112000000000.0,180000000000.0,62300500000.0,488000000000.0,468062500.0,253187500.0,84187500.0,58812500.0,11317.0,6378038300.0,30799225000.0,69843.875,2110736.5,5644937700.0,39.13899,,,,85.85901
laghos,0.88929427,-0.5182339,-0.5869975,-0.589442,-1.2725917,0.08548911,-0.75516546,0.30359837,1.6834247,-0.34467933,-0.46534017,1.3830808,1.6031401,0.056520257,-1.0630301,-0.87785405,-0.3847221,-1.5369655,0.38475043,-0.546278,-0.63543504,-0.5528128,-0.45101488,0.69964397,-1.7143122,0.34076217,0.56163126,-0.45601144,0.27431947,-1.6238325,-0.78328234,-1.361828,-0.9945032,0.521746,0.866287,-0.34742653,0.34942904,0.93809146,0.20099588,-2.8789864,1.1502329,-2.0570774,1.026937,0.46194518,-0.54968834,0.73804986,-0.69576204,0.018364731,0.6836089,-0.5383473,0.7333,18722000000.0,77512000000.0,27208000000.0,221000000000.0,688000000.0,712000000.0,50000000.0,30000000.0,30887940.0,77792290000.0,37168080000.0,37771.0,2189549.0,5748000000.0,38.54633,,,,5.451672
laghos,0.88929427,-0.5182339,-0.5869975,-0.589442,-1.2725917,0.08548911,-0.75516546,0.30359837,1.6834247,-0.34467933,-0.46534017,1.3830808,1.6031401,0.056520257,-1.0630301,-0.87785405,-0.3847221,-1.5369655,0.38475043,-0.546278,-0.63543504,-0.5528128,-0.45101488,0.69964397,-1.7143122,0.34076217,0.56163126,-0.45601144,0.27431947,-1.6238325,-0.78328234,-1.361828,-0.9945032,0.521746,0.866287,-0.34742653,0.34942904,0.93809146,0.20099588,-2.8789864,1.1502329,-2.0570774,1.026937,0.46194518,-0.54968834,0.73804986,-0.69576204,0.018364731,0.6836089,-0.5383473,0.6,29098437000.0,45337750000.0,16517188000.0,126000000000.0,150875000.0,98937500.0,27437500.0,18250000.0,877977.6,2441696800.0,8667591000.0,69875.875,2106774.5,1816687500.0,13.436914,,,,22.563086
laghos,0.88929427,-0.5182339,-0.5869975,-0.589442,-1.2725917,0.08548911,-0.75516546,0.30359837,1.6834247,-0.34467933,-0.46534017,1.3830808,1.6031401,0.056520257,-1.0630301,-0.87785405,-0.3847221,-1.5369655,0.38475043,-0.546278,-0.63543504,-0.5528128,-0.45101488,0.69964397,-1.7143122,0.34076217,0.56163126,-0.45601144,0.27431947,-1.6238325,-0.78328234,-1.361828,-0.9945032,0.521746,0.866287,-0.34742653,0.34942904,0.93809146,0.20099588,-2.8789864,1.1502329,-2.0570774,1.026937,0.46194518,-0.54968834,0.73804986,-0.69576204,0.018364731,0.6836089,-0.5383473,0.75,18722000000.0,77512000000.0,27208000000.0,221000000000.0,712000000.0,712000000.0,40000000.0,24000000.0,30885180.0,77796750000.0,37167428000.0,37771.0,2189547.0,5680000000.0,38.542706,,,,6.457294
laghos,0.88929427,-0.5182339,-0.5869975,-0.589442,-1.2725917,0.08548911,-0.75516546,0.30359837,1.6834247,-0.34467933,-0.46534017,1.3830808,1.6031401,0.056520257,-1.0630301,-0.87785405,-0.3847221,-1.5369655,0.38475043,-0.546278,-0.63543504,-0.5528128,-0.45101488,0.69964397,-1.7143122,0.34076217,0.56163126,-0.45601144,0.27431947,-1.6238325,-0.78328234,-1.361828,-0.9945032,0.521746,0.866287,-0.34742653,0.34942904,0.93809146,0.20099588,-2.8789864,1.1502329,-2.0570774,1.026937,0.46194518,-0.54968834,0.73804986,-0.69576204,0.018364731,0.6836089,-0.5383473,0.6,28018250000.0,43730375000.0,15984312000.0,122000000000.0,151000000.0,98750000.0,27187500.0,18000000.0,877844.1,2441625300.0,8599875000.0,69875.875,2106774.5,1812000000.0,13.475415,,,,22.524584
laghos,0.88929427,-0.5182339,-0.5869975,-0.589442,-1.2725917,0.08548911,-0.75516546,0.30359837,1.6834247,-0.34467933,-0.46534017,1.3830808,1.6031401,0.056520257,-1.0630301,-0.87785405,-0.3847221,-1.5369655,0.38475043,-0.546278,-0.63543504,-0.5528128,-0.45101488,0.69964397,-1.7143122,0.34076217,0.56163126,-0.45601144,0.27431947,-1.6238325,-0.78328234,-1.361828,-0.9945032,0.521746,0.866287,-0.34742653,0.34942904,0.93809146,0.20099588,-2.8789864,1.1502329,-2.0570774,1.026937,0.46194518,-0.54968834,0.73804986,-0.69576204,0.018364731,0.6836089,-0.5383473,0.9,23430000000.0,96882000000.0,34004000000.0,276000000000.0,842000000.0,894000000.0,44000000.0,28000000.0,37530644.0,97270320000.0,46548090000.0,37771.0,2193877.0,7080000000.0,49.217785,,,,4.782215
laghos,0.88929427,-0.5182339,-0.5869975,-0.589442,-1.2725917,0.08548911,-0.75516546,0.30359837,1.6834247,-0.34467933,-0.46534017,1.3830808,1.6031401,0.056520257,-1.0630301,-0.87785405,-0.3847221,-1.5369655,0.38475043,-0.546278,-0.63543504,-0.5528128,-0.45101488,0.69964397,-1.7143122,0.34076217,0.56163126,-0.45601144,0.27431947,-1.6238325,-0.78328234,-1.361828,-0.9945032,0.521746,0.866287,-0.34742653,0.34942904,0.93809146,0.20099588,-2.8789864,1.1502329,-2.0570774,1.026937,0.46194518,-0.54968834,0.73804986,-0.69576204,0.018364731,0.6836089,-0.5383473,0.7333,35964686000.0,56082186000.0,20447562000.0,156000000000.0,188875000.0,123875000.0,34062500.0,22812500.0,1060727.8,3053258000.0,10897859000.0,69874.91,2106909.5,2246437400.0,16.801952,,,,27.196047
laghos,0.88929427,-0.5182339,-0.5869975,-0.589442,-1.2725917,0.08548911,-0.75516546,0.30359837,1.6834247,-0.34467933,-0.46534017,1.3830808,1.6031401,0.056520257,-1.0630301,-0.87785405,-0.3847221,-1.5369655,0.38475043,-0.546278,-0.63543504,-0.5528128,-0.45101488,0.69964397,-1.7143122,0.34076217,0.56163126,-0.45601144,0.27431947,-1.6238325,-0.78328234,-1.361828,-0.9945032,0.521746,0.866287,-0.34742653,0.34942904,0.93809146,0.20099588,-2.8789864,1.1502329,-2.0570774,1.026937,0.46194518,-0.54968834,0.73804986,-0.69576204,0.018364731,0.6836089,-0.5383473,0.9333,23410000000.0,96868000000.0,33998000000.0,276000000000.0,832000000.0,886000000.0,46000000.0,28000000.0,37528036.0,97269514000.0,46601605000.0,37771.0,2193877.0,7172000000.0,48.350727,,,,7.647273
laghos,0.88929427,-0.5182339,-0.5869975,-0.589442,-1.2725917,0.08548911,-0.75516546,0.30359837,1.6834247,-0.34467933,-0.46534017,1.3830808,1.6031401,0.056520257,-1.0630301,-0.87785405,-0.3847221,-1.5369655,0.38475043,-0.546278,-0.63543504,-0.5528128,-0.45101488,0.69964397,-1.7143122,0.34076217,0.56163126,-0.45601144,0.27431947,-1.6238325,-0.78328234,-1.361828,-0.9945032,0.521746,0.866287,-0.34742653,0.34942904,0.93809146,0.20099588,-2.8789864,1.1502329,-2.0570774,1.026937,0.46194518,-0.54968834,0.73804986,-0.69576204,0.018364731,0.6836089,-0.5383473,0.75,36527313000.0,56886750000.0,20722874000.0,159000000000.0,188875000.0,123437500.0,33562500.0,22687500.0,1060607.4,3053348900.0,10838375000.0,69843.875,2106908.8,2264437500.0,16.816292,,,,28.183708
